{"learner":{"attributes":{"scikit_learn":"{\"_estimator_type\": \"regressor\"}"},"feature_names":["Injection EC","Net Flow","TL Interval Flow","TL Bottom Flow","TL Collar Flow","TL Interval EC","TL Bottom EC","TL Interval Pressure","TL Bottom Pressure","TL Packer Pressure","TL-TEC-INT-U","TL-TEC-INT-L","TL-TEC-BOT-U","TL-TEC-BOT-L","TN Interval Flow","TN Bottom Flow","TN Collar Flow","TN Interval EC","TN Bottom EC","TN Interval Pressure","TN Bottom Pressure","TN Packer Pressure","TN-TEC-INT-U","TN-TEC-INT-L","TN-TEC-BOT-U","TN-TEC-BOT-L","TC Interval Flow","TC Bottom Flow","TC Collar Flow","TC Interval EC","TC Bottom EC","TC Interval Pressure","TC Bottom Pressure","Injection Pressure","TC Packer Pressure","TC-TEC-INT-U","TC-TEC-INT-L","TC-TEC-BOT-U","TC-TEC-BOT-L","PT 403","PT 503","PT 504","TL Packer Center Depth","TN Packer Center Depth","TC Packer Center Depth","Total_Production_Flow","Pressure_Differential","TC_Impedance_Proxy","TL Interval EC__MixFrac","TL Bottom EC__MixFrac","TN Interval EC__MixFrac","TN Bottom EC__MixFrac","Net Flow__lag_1h","Net Flow__lag_3h","Injection Pressure__lag_1h","Injection Pressure__lag_3h","Injection EC__lag_1h","Injection EC__lag_3h","TC Interval Pressure__lag_1h","TC Interval Pressure__lag_3h","Total_Production_Flow__lag_1h","Total_Production_Flow__lag_3h","Pressure_Differential__lag_1h","Pressure_Differential__lag_3h","TC_Impedance_Proxy__lag_1h","TC_Impedance_Proxy__lag_3h","TL-TEC-INT-U__lag_1h","TL-TEC-INT-U__lag_3h","TL-TEC-INT-L__lag_1h","TL-TEC-INT-L__lag_3h","TL-TEC-BOT-U__lag_1h","TL-TEC-BOT-U__lag_3h","TL-TEC-BOT-L__lag_1h","TL-TEC-BOT-L__lag_3h","TN-TEC-INT-U__lag_1h","TN-TEC-INT-U__lag_3h","TN-TEC-INT-L__lag_1h","TN-TEC-INT-L__lag_3h","TN-TEC-BOT-U__lag_1h","TN-TEC-BOT-U__lag_3h","TN-TEC-BOT-L__lag_1h","TN-TEC-BOT-L__lag_3h","TC-TEC-INT-U__lag_1h","TC-TEC-INT-U__lag_3h","TC-TEC-INT-L__lag_1h","TC-TEC-INT-L__lag_3h","TC-TEC-BOT-U__lag_1h","TC-TEC-BOT-U__lag_3h","TC-TEC-BOT-L__lag_1h","TC-TEC-BOT-L__lag_3h","TL Interval EC__lag_1h","TL Interval EC__lag_3h","TL Bottom EC__lag_1h","TL Bottom EC__lag_3h","TN Interval EC__lag_1h","TN Interval EC__lag_3h","TN Bottom EC__lag_1h","TN Bottom EC__lag_3h","TC Interval EC__lag_1h","TC Interval EC__lag_3h","TC Bottom EC__lag_1h","TC Bottom EC__lag_3h","Net Flow__roll_mean_3h","Net Flow__roll_std_3h","Injection Pressure__roll_mean_3h","Injection Pressure__roll_std_3h","Injection EC__roll_mean_3h","Injection EC__roll_std_3h","TC Interval Pressure__roll_mean_3h","TC Interval Pressure__roll_std_3h","Total_Production_Flow__roll_mean_3h","Total_Production_Flow__roll_std_3h","Pressure_Differential__roll_mean_3h","Pressure_Differential__roll_std_3h","TC_Impedance_Proxy__roll_mean_3h","TC_Impedance_Proxy__roll_std_3h","TL-TEC-INT-U__roll_mean_3h","TL-TEC-INT-U__roll_std_3h","TL-TEC-INT-L__roll_mean_3h","TL-TEC-INT-L__roll_std_3h","TL-TEC-BOT-U__roll_mean_3h","TL-TEC-BOT-U__roll_std_3h","TL-TEC-BOT-L__roll_mean_3h","TL-TEC-BOT-L__roll_std_3h","TN-TEC-INT-U__roll_mean_3h","TN-TEC-INT-U__roll_std_3h","TN-TEC-INT-L__roll_mean_3h","TN-TEC-INT-L__roll_std_3h","TN-TEC-BOT-U__roll_mean_3h","TN-TEC-BOT-U__roll_std_3h","TN-TEC-BOT-L__roll_mean_3h","TN-TEC-BOT-L__roll_std_3h","TC-TEC-INT-U__roll_mean_3h","TC-TEC-INT-U__roll_std_3h","TC-TEC-INT-L__roll_mean_3h","TC-TEC-INT-L__roll_std_3h","TC-TEC-BOT-U__roll_mean_3h","TC-TEC-BOT-U__roll_std_3h","TC-TEC-BOT-L__roll_mean_3h","TC-TEC-BOT-L__roll_std_3h","TL Interval EC__roll_mean_3h","TL Interval EC__roll_std_3h","TL Bottom EC__roll_mean_3h","TL Bottom EC__roll_std_3h","TN Interval EC__roll_mean_3h","TN Interval EC__roll_std_3h","TN Bottom EC__roll_mean_3h","TN Bottom EC__roll_std_3h","TC Interval EC__roll_mean_3h","TC Interval EC__roll_std_3h","TC Bottom EC__roll_mean_3h","TC Bottom EC__roll_std_3h","Net Flow__roc_1h","Injection Pressure__roc_1h","Injection EC__roc_1h","TC Interval Pressure__roc_1h","Total_Production_Flow__roc_1h","Pressure_Differential__roc_1h","TC_Impedance_Proxy__roc_1h","TL-TEC-INT-U__roc_1h","TL-TEC-INT-L__roc_1h","TL-TEC-BOT-U__roc_1h","TL-TEC-BOT-L__roc_1h","TN-TEC-INT-U__roc_1h","TN-TEC-INT-L__roc_1h","TN-TEC-BOT-U__roc_1h","TN-TEC-BOT-L__roc_1h","TC-TEC-INT-U__roc_1h","TC-TEC-INT-L__roc_1h","TC-TEC-BOT-U__roc_1h","TC-TEC-BOT-L__roc_1h","TL Interval EC__roc_1h","TL Bottom EC__roc_1h","TN Interval EC__roc_1h","TN Bottom EC__roc_1h","TC Interval EC__roc_1h","TC Bottom EC__roc_1h"],"feature_types":["float","float","float","float","float","float","float","float","float","float","float","float","float","float","float","float","float","float","float","float","float","float","float","float","float","float","float","float","float","float","float","float","float","float","float","float","float","float","float","float","float","float","float","float","float","float","float","float","float","float","float","float","float","float","float","float","float","float","float","float","float","float","float","float","float","float","float","float","float","float","float","float","float","float","float","float","float","float","float","float","float","float","float","float","float","float","float","float","float","float","float","float","float","float","float","float","float","float","float","float","float","float","float","float","float","float","float","float","float","float","float","float","float","float","float","float","float","float","float","float","float","float","float","float","float","float","float","float","float","float","float","float","float","float","float","float","float","float","float","float","float","float","float","float","float","float","float","float","float","float","float","float","float","float","float","float","float","float","float","float","float","float","float","float","float","float","float","float","float","float","float","float","float","float","float","float","float"],"gradient_booster":{"model":{"gbtree_model_param":{"num_parallel_tree":"1","num_trees":"738"},"iteration_indptr":[0,1,2,3,4,5,6,7,8,9,10,11,12,13,14,15,16,17,18,19,20,21,22,23,24,25,26,27,28,29,30,31,32,33,34,35,36,37,38,39,40,41,42,43,44,45,46,47,48,49,50,51,52,53,54,55,56,57,58,59,60,61,62,63,64,65,66,67,68,69,70,71,72,73,74,75,76,77,78,79,80,81,82,83,84,85,86,87,88,89,90,91,92,93,94,95,96,97,98,99,100,101,102,103,104,105,106,107,108,109,110,111,112,113,114,115,116,117,118,119,120,121,122,123,124,125,126,127,128,129,130,131,132,133,134,135,136,137,138,139,140,141,142,143,144,145,146,147,148,149,150,151,152,153,154,155,156,157,158,159,160,161,162,163,164,165,166,167,168,169,170,171,172,173,174,175,176,177,178,179,180,181,182,183,184,185,186,187,188,189,190,191,192,193,194,195,196,197,198,199,200,201,202,203,204,205,206,207,208,209,210,211,212,213,214,215,216,217,218,219,220,221,222,223,224,225,226,227,228,229,230,231,232,233,234,235,236,237,238,239,240,241,242,243,244,245,246,247,248,249,250,251,252,253,254,255,256,257,258,259,260,261,262,263,264,265,266,267,268,269,270,271,272,273,274,275,276,277,278,279,280,281,282,283,284,285,286,287,288,289,290,291,292,293,294,295,296,297,298,299,300,301,302,303,304,305,306,307,308,309,310,311,312,313,314,315,316,317,318,319,320,321,322,323,324,325,326,327,328,329,330,331,332,333,334,335,336,337,338,339,340,341,342,343,344,345,346,347,348,349,350,351,352,353,354,355,356,357,358,359,360,361,362,363,364,365,366,367,368,369,370,371,372,373,374,375,376,377,378,379,380,381,382,383,384,385,386,387,388,389,390,391,392,393,394,395,396,397,398,399,400,401,402,403,404,405,406,407,408,409,410,411,412,413,414,415,416,417,418,419,420,421,422,423,424,425,426,427,428,429,430,431,432,433,434,435,436,437,438,439,440,441,442,443,444,445,446,447,448,449,450,451,452,453,454,455,456,457,458,459,460,461,462,463,464,465,466,467,468,469,470,471,472,473,474,475,476,477,478,479,480,481,482,483,484,485,486,487,488,489,490,491,492,493,494,495,496,497,498,499,500,501,502,503,504,505,506,507,508,509,510,511,512,513,514,515,516,517,518,519,520,521,522,523,524,525,526,527,528,529,530,531,532,533,534,535,536,537,538,539,540,541,542,543,544,545,546,547,548,549,550,551,552,553,554,555,556,557,558,559,560,561,562,563,564,565,566,567,568,569,570,571,572,573,574,575,576,577,578,579,580,581,582,583,584,585,586,587,588,589,590,591,592,593,594,595,596,597,598,599,600,601,602,603,604,605,606,607,608,609,610,611,612,613,614,615,616,617,618,619,620,621,622,623,624,625,626,627,628,629,630,631,632,633,634,635,636,637,638,639,640,641,642,643,644,645,646,647,648,649,650,651,652,653,654,655,656,657,658,659,660,661,662,663,664,665,666,667,668,669,670,671,672,673,674,675,676,677,678,679,680,681,682,683,684,685,686,687,688,689,690,691,692,693,694,695,696,697,698,699,700,701,702,703,704,705,706,707,708,709,710,711,712,713,714,715,716,717,718,719,720,721,722,723,724,725,726,727,728,729,730,731,732,733,734,735,736,737,738],"tree_info":[0,0,0,0,0,0,0,0,0,0,0,0,0,0,0,0,0,0,0,0,0,0,0,0,0,0,0,0,0,0,0,0,0,0,0,0,0,0,0,0,0,0,0,0,0,0,0,0,0,0,0,0,0,0,0,0,0,0,0,0,0,0,0,0,0,0,0,0,0,0,0,0,0,0,0,0,0,0,0,0,0,0,0,0,0,0,0,0,0,0,0,0,0,0,0,0,0,0,0,0,0,0,0,0,0,0,0,0,0,0,0,0,0,0,0,0,0,0,0,0,0,0,0,0,0,0,0,0,0,0,0,0,0,0,0,0,0,0,0,0,0,0,0,0,0,0,0,0,0,0,0,0,0,0,0,0,0,0,0,0,0,0,0,0,0,0,0,0,0,0,0,0,0,0,0,0,0,0,0,0,0,0,0,0,0,0,0,0,0,0,0,0,0,0,0,0,0,0,0,0,0,0,0,0,0,0,0,0,0,0,0,0,0,0,0,0,0,0,0,0,0,0,0,0,0,0,0,0,0,0,0,0,0,0,0,0,0,0,0,0,0,0,0,0,0,0,0,0,0,0,0,0,0,0,0,0,0,0,0,0,0,0,0,0,0,0,0,0,0,0,0,0,0,0,0,0,0,0,0,0,0,0,0,0,0,0,0,0,0,0,0,0,0,0,0,0,0,0,0,0,0,0,0,0,0,0,0,0,0,0,0,0,0,0,0,0,0,0,0,0,0,0,0,0,0,0,0,0,0,0,0,0,0,0,0,0,0,0,0,0,0,0,0,0,0,0,0,0,0,0,0,0,0,0,0,0,0,0,0,0,0,0,0,0,0,0,0,0,0,0,0,0,0,0,0,0,0,0,0,0,0,0,0,0,0,0,0,0,0,0,0,0,0,0,0,0,0,0,0,0,0,0,0,0,0,0,0,0,0,0,0,0,0,0,0,0,0,0,0,0,0,0,0,0,0,0,0,0,0,0,0,0,0,0,0,0,0,0,0,0,0,0,0,0,0,0,0,0,0,0,0,0,0,0,0,0,0,0,0,0,0,0,0,0,0,0,0,0,0,0,0,0,0,0,0,0,0,0,0,0,0,0,0,0,0,0,0,0,0,0,0,0,0,0,0,0,0,0,0,0,0,0,0,0,0,0,0,0,0,0,0,0,0,0,0,0,0,0,0,0,0,0,0,0,0,0,0,0,0,0,0,0,0,0,0,0,0,0,0,0,0,0,0,0,0,0,0,0,0,0,0,0,0,0,0,0,0,0,0,0,0,0,0,0,0,0,0,0,0,0,0,0,0,0,0,0,0,0,0,0,0,0,0,0,0,0,0,0,0,0,0,0,0,0,0,0,0,0,0,0,0,0,0,0,0,0,0,0,0,0,0,0,0,0,0,0,0,0,0,0,0,0,0,0,0,0,0,0,0,0,0,0,0,0,0,0,0,0,0,0,0,0,0,0,0,0,0,0,0,0,0,0,0,0,0,0,0,0,0,0,0,0,0,0,0,0,0,0,0,0,0,0,0,0,0,0,0,0,0,0,0,0,0,0,0,0,0,0,0,0,0,0,0,0,0,0,0,0,0,0,0,0,0,0,0,0,0,0,0,0,0,0,0,0,0,0,0,0,0,0,0,0,0,0,0,0,0,0,0,0,0,0,0,0,0,0,0,0],"trees":[{"base_weights":[2.3430508E-7,-2.235239E-1,3.407193E-1,-2.9453146E-1,-7.6724984E-2,9.809196E-3,2.0524174E-1,-6.319915E-3,-4.5721955E-3,-1.2590721E-1,-4.617476E-3,1.2118511E-1,2.662742E-1,-2.9180646E-3,-1.4667459E-3,4.3831434E-4,-6.7633955E-4,1.5227555E-3,2.8850404E-3,5.4530487E-3,2.1386081E-3],"categories":[],"categories_nodes":[],"categories_segments":[],"categories_sizes":[],"default_left":[0,0,0,0,0,0,0,0,0,0,0,0,0,0,0,0,0,0,0,0,0],"id":0,"left_children":[1,3,5,7,9,-1,11,-1,-1,13,15,17,19,-1,-1,-1,-1,-1,-1,-1,-1],"loss_changes":[1.1073511E2,9.039135E0,1.1181694E1,4.736328E-1,1.0361906E0,0E0,1.434145E0,0E0,0E0,1.2940621E-1,9.977536E-2,9.0559244E-2,3.310013E-2,0E0,0E0,0E0,0E0,0E0,0E0,0E0,0E0],"parents":[2147483647,0,0,1,1,2,2,3,3,4,4,6,6,9,9,10,10,11,11,12,12],"right_children":[2,4,6,8,10,-1,12,-1,-1,14,16,18,20,-1,-1,-1,-1,-1,-1,-1,-1],"split_conditions":[2.621117E1,2.5964808E1,3.848946E1,2.9804976E1,2.6090067E1,9.809196E-3,2.6348694E1,-6.319915E-3,-4.5721955E-3,2.6024277E1,2.0710977E3,2.5359485E3,9.2478326E2,-2.9180646E-3,-1.4667459E-3,4.3831434E-4,-6.7633955E-4,1.5227555E-3,2.8850404E-3,5.4530487E-3,2.1386081E-3],"split_indices":[10,10,38,24,10,0,10,0,0,12,5,65,95,0,0,0,0,0,0,0,0],"split_type":[0,0,0,0,0,0,0,0,0,0,0,0,0,0,0,0,0,0,0,0,0],"sum_hessian":[1.444E3,8.73E2,5.71E2,5.85E2,2.88E2,2.65E2,3.06E2,4.27E2,1.58E2,1.69E2,1.19E2,1.35E2,1.71E2,1.16E2,5.3E1,6.3E1,5.6E1,5.3E1,8.2E1,1.61E2,1E1],"tree_param":{"num_deleted":"0","num_feature":"177","num_nodes":"21","size_leaf_vector":"1"}},{"base_weights":[2.1611353E-5,-2.2103857E-1,3.3123186E-1,-2.8873384E-1,-7.8023195E-2,2.0010282E-1,9.643748E-3,-6.1616586E-3,-4.386812E-3,-1.255728E-1,-1.0455039E-2,1.1578175E-1,5.2493946E-3,-2.8621117E-3,-1.4540218E-3,-7.4026367E-4,3.4669755E-4,1.3812081E-3,2.7638515E-3],"categories":[],"categories_nodes":[],"categories_segments":[],"categories_sizes":[],"default_left":[0,0,0,0,0,0,0,0,0,0,0,0,0,0,0,0,0,0,0],"id":1,"left_children":[1,3,5,7,9,11,-1,-1,-1,13,15,17,-1,-1,-1,-1,-1,-1,-1],"loss_changes":[1.0645808E2,8.329601E0,1.1038059E1,4.543152E-1,9.1552067E-1,1.5308838E0,0E0,0E0,0E0,1.0371399E-1,9.472614E-2,1.0410619E-1,0E0,0E0,0E0,0E0,0E0,0E0,0E0],"parents":[2147483647,0,0,1,1,2,2,3,3,4,4,5,5,9,9,10,10,11,11],"right_children":[2,4,6,8,10,12,-1,-1,-1,14,16,18,-1,-1,-1,-1,-1,-1,-1],"split_conditions":[2.6200958E1,2.5964808E1,2.653546E1,4.238043E1,2.608391E1,2.5543594E3,9.643748E-3,-6.1616586E-3,-4.386812E-3,2.6024277E1,4.975579E3,4.4389194E3,5.2493946E-3,-2.8621117E-3,-1.4540218E-3,-7.4026367E-4,3.4669755E-4,1.3812081E-3,2.7638515E-3],"split_indices":[10,10,10,82,10,114,0,0,0,12,31,112,0,0,0,0,0,0,0],"split_type":[0,0,0,0,0,0,0,0,0,0,0,0,0,0,0,0,0,0,0],"sum_hessian":[1.444E3,8.67E2,5.77E2,5.85E2,2.82E2,3.15E2,2.62E2,4.44E2,1.41E2,1.63E2,1.19E2,1.4E2,1.75E2,1.16E2,4.7E1,6E1,5.9E1,5.2E1,8.8E1],"tree_param":{"num_deleted":"0","num_feature":"177","num_nodes":"19","size_leaf_vector":"1"}},{"base_weights":[3.4063745E-5,-2.148484E-1,3.275803E-1,-2.8304923E-1,-7.384928E-2,9.43656E-3,1.9796322E-1,-6.085051E-3,-4.4245506E-3,-1.21188216E-1,-4.444276E-3,1.16690196E-1,5.133095E-3,-2.807219E-3,-1.4148535E-3,-5.7959853E-4,5.0084904E-4,1.4663631E-3,2.7779713E-3],"categories":[],"categories_nodes":[],"categories_segments":[],"categories_sizes":[],"default_left":[0,0,0,0,0,0,0,0,0,0,0,0,0,0,0,0,0,0,0],"id":2,"left_children":[1,3,5,7,9,-1,11,-1,-1,13,15,17,-1,-1,-1,-1,-1,-1,-1],"loss_changes":[1.0233823E2,8.338562E0,1.0302425E1,4.3684006E-1,9.5997596E-1,0E0,1.3385077E0,0E0,0E0,1.18641615E-1,9.333968E-2,8.393216E-2,0E0,0E0,0E0,0E0,0E0,0E0,0E0],"parents":[2147483647,0,0,1,1,2,2,3,3,4,4,6,6,9,9,10,10,11,11],"right_children":[2,4,6,8,10,-1,12,-1,-1,14,16,18,-1,-1,-1,-1,-1,-1,-1],"split_conditions":[2.621117E1,2.5964808E1,3.8503315E1,2.3242117E3,2.6090067E1,9.43656E-3,2.6348694E1,-6.085051E-3,-4.4245506E-3,2.6024277E1,2.383856E3,2.5359485E3,5.133095E-3,-2.807219E-3,-1.4148535E-3,-5.7959853E-4,5.0084904E-4,1.4663631E-3,2.7779713E-3],"split_indices":[10,10,88,39,10,0,10,0,0,12,39,65,0,0,0,0,0,0,0],"split_type":[0,0,0,0,0,0,0,0,0,0,0,0,0,0,0,0,0,0,0],"sum_hessian":[1.444E3,8.73E2,5.71E2,5.85E2,2.88E2,2.64E2,3.07E2,4.21E2,1.64E2,1.69E2,1.19E2,1.35E2,1.72E2,1.16E2,5.3E1,6.5E1,5.4E1,5.3E1,8.2E1],"tree_param":{"num_deleted":"0","num_feature":"177","num_nodes":"19","size_leaf_vector":"1"}},{"base_weights":[4.7354635E-5,-2.1121368E-1,3.2022804E-1,-2.7747762E-1,-7.3235035E-2,9.243735E-3,1.9265614E-1,-5.921198E-3,-4.2165606E-3,-1.1855257E-1,-4.666904E-3,1.1294338E-1,2.5071388E-1,-2.753387E-3,-1.386003E-3,-5.5949664E-4,4.7914672E-4,1.4198545E-3,2.712896E-3,5.13738E-3,1.9723102E-3],"categories":[],"categories_nodes":[],"categories_segments":[],"categories_sizes":[],"default_left":[0,0,0,0,0,0,0,0,0,0,0,0,0,0,0,0,0,0,0,0,0],"id":3,"left_children":[1,3,5,7,9,-1,11,-1,-1,13,15,17,19,-1,-1,-1,-1,-1,-1,-1,-1],"loss_changes":[9.835101E1,7.907673E0,1.0022327E1,4.1862488E-1,9.0146935E-1,0E0,1.306963E0,0E0,0E0,1.1706829E-1,8.4078796E-2,8.613098E-2,3.9048195E-2,0E0,0E0,0E0,0E0,0E0,0E0,0E0,0E0],"parents":[2147483647,0,0,1,1,2,2,3,3,4,4,6,6,9,9,10,10,11,11,12,12],"right_children":[2,4,6,8,10,-1,12,-1,-1,14,16,18,20,-1,-1,-1,-1,-1,-1,-1,-1],"split_conditions":[2.6129255E1,2.5981352E1,3.848946E1,3.7717693E1,2.879319E1,9.243735E-3,2.5543594E3,-5.921198E-3,-4.2165606E-3,2.6024277E1,2.383856E3,2.5359485E3,9.2532245E2,-2.753387E-3,-1.386003E-3,-5.5949664E-4,4.7914672E-4,1.4198545E-3,2.712896E-3,5.13738E-3,1.9723102E-3],"split_indices":[12,12,38,38,22,0,114,0,0,12,39,65,144,0,0,0,0,0,0,0,0],"split_type":[0,0,0,0,0,0,0,0,0,0,0,0,0,0,0,0,0,0,0,0,0],"sum_hessian":[1.444E3,8.71E2,5.73E2,5.85E2,2.86E2,2.65E2,3.08E2,4.44E2,1.41E2,1.7E2,1.16E2,1.36E2,1.72E2,1.16E2,5.4E1,6.4E1,5.2E1,5.5E1,8.1E1,1.62E2,1E1],"tree_param":{"num_deleted":"0","num_feature":"177","num_nodes":"21","size_leaf_vector":"1"}},{"base_weights":[6.774576E-5,-2.0829746E-1,3.1225696E-1,-2.7287427E-1,-7.535594E-2,9.062299E-3,1.8735808E-1,-5.8516758E-3,-4.2862548E-3,-1.2547155E-1,-1.6463593E-2,1.0943439E-1,2.4590127E-1,-2.7294555E-3,-1.3908121E-3,-9.0730964E-4,2.4758003E-4,1.2828923E-3,2.5979015E-3,5.037726E-3,1.9460145E-3],"categories":[],"categories_nodes":[],"categories_segments":[],"categories_sizes":[],"default_left":[0,0,0,0,0,0,0,0,0,0,0,0,0,0,0,0,0,0,0,0,0],"id":4,"left_children":[1,3,5,7,9,-1,11,-1,-1,13,15,17,19,-1,-1,-1,-1,-1,-1,-1,-1],"loss_changes":[9.458174E1,7.383251E0,9.814655E0,3.6170197E-1,8.514874E-1,0E0,1.3115721E0,0E0,0E0,4.915166E-2,1.1951266E-1,9.270525E-2,3.4876823E-2,0E0,0E0,0E0,0E0,0E0,0E0,0E0,0E0],"parents":[2147483647,0,0,1,1,2,2,3,3,4,4,6,6,9,9,10,10,11,11,12,12],"right_children":[2,4,6,8,10,-1,12,-1,-1,14,16,18,20,-1,-1,-1,-1,-1,-1,-1,-1],"split_conditions":[2.6200958E1,2.5961262E1,3.848946E1,4.7378667E3,2.6074463E1,9.062299E-3,2.5543594E3,-5.8516758E-3,-4.2862548E-3,2.6024277E1,4.968651E3,4.4383447E3,9.2532245E2,-2.7294555E-3,-1.3908121E-3,-9.0730964E-4,2.4758003E-4,1.2828923E-3,2.5979015E-3,5.037726E-3,1.9460145E-3],"split_indices":[10,10,38,31,10,0,114,0,0,12,31,46,144,0,0,0,0,0,0,0,0],"split_type":[0,0,0,0,0,0,0,0,0,0,0,0,0,0,0,0,0,0,0,0,0],"sum_hessian":[1.444E3,8.67E2,5.77E2,5.8E2,2.87E2,2.65E2,3.12E2,4.19E2,1.61E2,1.52E2,1.35E2,1.4E2,1.72E2,1.21E2,3.1E1,6.6E1,6.9E1,5E1,9E1,1.62E2,1E1],"tree_param":{"num_deleted":"0","num_feature":"177","num_nodes":"21","size_leaf_vector":"1"}},{"base_weights":[8.376275E-5,-2.0421709E-1,3.061833E-1,-2.68002E-1,-7.4915715E-2,8.884419E-3,1.8378243E-1,-5.7415706E-3,-4.2309766E-3,-1.2398778E-1,-1.6157791E-2,1.07379325E-1,2.4118094E-1,-2.7570252E-3,-1.5456025E-3,-8.9043035E-4,2.42956E-4,1.3738759E-3,2.6276691E-3,5.44552E-3,3.7710788E-3],"categories":[],"categories_nodes":[],"categories_segments":[],"categories_sizes":[],"default_left":[0,0,0,0,0,0,0,0,0,0,0,0,0,0,0,0,0,0,0,0,0],"id":5,"left_children":[1,3,5,7,9,-1,11,-1,-1,13,15,17,19,-1,-1,-1,-1,-1,-1,-1,-1],"loss_changes":[9.092788E1,7.091408E0,9.425228E0,3.2312012E-1,8.405781E-1,0E0,1.2606897E0,0E0,0E0,5.0338984E-2,1.151035E-1,8.952272E-2,3.2956123E-2,0E0,0E0,0E0,0E0,0E0,0E0,0E0,0E0],"parents":[2147483647,0,0,1,1,2,2,3,3,4,4,6,6,9,9,10,10,11,11,12,12],"right_children":[2,4,6,8,10,-1,12,-1,-1,14,16,18,20,-1,-1,-1,-1,-1,-1,-1,-1],"split_conditions":[2.6200958E1,2.5977596E1,3.848946E1,2.3180903E3,2.6074463E1,8.884419E-3,2.5543594E3,-5.7415706E-3,-4.2309766E-3,2.602968E1,4.968651E3,2.5376462E3,5.0304414E3,-2.7570252E-3,-1.5456025E-3,-8.9043035E-4,2.42956E-4,1.3738759E-3,2.6276691E-3,5.44552E-3,3.7710788E-3],"split_indices":[10,12,38,39,10,0,114,0,0,10,31,114,104,0,0,0,0,0,0,0,0],"split_type":[0,0,0,0,0,0,0,0,0,0,0,0,0,0,0,0,0,0,0,0,0],"sum_hessian":[1.444E3,8.67E2,5.77E2,5.77E2,2.9E2,2.65E2,3.12E2,4.16E2,1.61E2,1.55E2,1.35E2,1.4E2,1.72E2,1.12E2,4.3E1,6.6E1,6.9E1,6.1E1,7.9E1,9.5E1,7.7E1],"tree_param":{"num_deleted":"0","num_feature":"177","num_nodes":"21","size_leaf_vector":"1"}},{"base_weights":[1.0664172E-4,-1.9850212E-1,3.0284616E-1,-2.6142627E-1,-6.840736E-2,8.71002E-3,1.8281063E-1,-5.5589965E-3,-3.908825E-3,-1.1231251E-1,-4.040149E-3,1.0771765E-1,2.366178E-1,-1.3309711E-3,-2.6026687E-3,4.86226E-4,-5.240896E-4,1.4189339E-3,2.608041E-3,4.847785E-3,1.8697968E-3],"categories":[],"categories_nodes":[],"categories_segments":[],"categories_sizes":[],"default_left":[0,0,0,0,0,0,0,0,0,0,0,0,0,0,0,0,0,0,0,0,0],"id":6,"left_children":[1,3,5,7,9,-1,11,-1,-1,13,15,17,19,-1,-1,-1,-1,-1,-1,-1,-1],"loss_changes":[8.7424194E1,7.0979805E0,8.773754E0,3.7166977E-1,8.257644E-1,0E0,1.1291695E0,0E0,0E0,9.860563E-2,8.11058E-2,6.968582E-2,3.2906532E-2,0E0,0E0,0E0,0E0,0E0,0E0,0E0,0E0],"parents":[2147483647,0,0,1,1,2,2,3,3,4,4,6,6,9,9,10,10,11,11,12,12],"right_children":[2,4,6,8,10,-1,12,-1,-1,14,16,18,20,-1,-1,-1,-1,-1,-1,-1,-1],"split_conditions":[2.621117E1,2.5964808E1,3.848946E1,3.784402E1,2.6090067E1,8.71002E-3,2.5543594E3,-5.5589965E-3,-3.908825E-3,4.8060593E1,2.0704858E3,2.5378752E3,9.2532245E2,-1.3309711E-3,-2.6026687E-3,4.86226E-4,-5.240896E-4,1.4189339E-3,2.608041E-3,4.847785E-3,1.8697968E-3],"split_indices":[10,10,38,38,10,0,114,0,0,36,5,64,144,0,0,0,0,0,0,0,0],"split_type":[0,0,0,0,0,0,0,0,0,0,0,0,0,0,0,0,0,0,0,0,0],"sum_hessian":[1.444E3,8.73E2,5.71E2,5.85E2,2.88E2,2.65E2,3.06E2,4.55E2,1.3E2,1.69E2,1.19E2,1.34E2,1.72E2,5.4E1,1.15E2,5.2E1,6.7E1,5.9E1,7.5E1,1.62E2,1E1],"tree_param":{"num_deleted":"0","num_feature":"177","num_nodes":"21","size_leaf_vector":"1"}},{"base_weights":[1.2539534E-4,-1.962945E-1,2.9441667E-1,-2.588609E-1,-7.453021E-2,4.2695147E-1,1.7688835E-1,-5.5182343E-3,-4.104724E-3,-1.2145652E-1,-1.5556839E-2,6.6513773E-3,9.158794E-3,1.0342344E-1,2.320746E-1,-2.7234075E-3,-1.5557111E-3,-7.871359E-4,3.1560718E-4,1.199006E-3,2.4498089E-3,5.249935E-3,3.6164706E-3],"categories":[],"categories_nodes":[],"categories_segments":[],"categories_sizes":[],"default_left":[0,0,0,0,0,0,0,0,0,0,0,0,0,0,0,0,0,0,0,0,0,0,0],"id":7,"left_children":[1,3,5,7,9,11,13,-1,-1,15,17,-1,-1,19,21,-1,-1,-1,-1,-1,-1,-1,-1],"loss_changes":[8.404792E1,6.5467415E0,8.687962E0,2.4169922E-1,8.290757E-1,2.8198242E-2,1.1651888E0,0E0,0E0,5.4991007E-2,1.0752069E-1,0E0,0E0,8.347428E-2,3.864479E-2,0E0,0E0,0E0,0E0,0E0,0E0,0E0,0E0],"parents":[2147483647,0,0,1,1,2,2,3,3,4,4,5,5,6,6,9,9,10,10,13,13,14,14],"right_children":[2,4,6,8,10,12,14,-1,-1,16,18,-1,-1,20,22,-1,-1,-1,-1,-1,-1,-1,-1],"split_conditions":[2.6200958E1,2.5954403E1,3.848946E1,2.3180903E3,2.6074463E1,1.1308494E3,2.5543594E3,-5.5182343E-3,-4.104724E-3,2.6025965E1,4.975579E3,6.6513773E-3,9.158794E-3,4.4375806E3,5.0304414E3,-2.7234075E-3,-1.5557111E-3,-7.871359E-4,3.1560718E-4,1.199006E-3,2.4498089E-3,5.249935E-3,3.6164706E-3],"split_indices":[10,10,38,39,10,97,114,0,0,10,31,0,0,62,104,0,0,0,0,0,0,0,0],"split_type":[0,0,0,0,0,0,0,0,0,0,0,0,0,0,0,0,0,0,0,0,0,0,0],"sum_hessian":[1.444E3,8.67E2,5.77E2,5.69E2,2.98E2,2.65E2,3.12E2,4.16E2,1.53E2,1.63E2,1.35E2,8E1,1.85E2,1.4E2,1.72E2,1.14E2,4.9E1,7.6E1,5.9E1,4.9E1,9.1E1,9.5E1,7.7E1],"tree_param":{"num_deleted":"0","num_feature":"177","num_nodes":"23","size_leaf_vector":"1"}},{"base_weights":[1.7113221E-4,-1.9245099E-1,2.8877187E-1,-2.5376773E-1,-7.311746E-2,4.1870517E-1,1.735484E-1,-5.422548E-3,-4.058682E-3,-1.1915435E-1,-1.5261841E-2,8.9804325E-3,6.526184E-3,9.69342E-2,2.2421777E-1,-2.6712224E-3,-1.5274655E-3,-8.444734E-4,2.3276302E-4,1.1665337E-3,2.2976557E-3,5.1502036E-3,3.5168924E-3],"categories":[],"categories_nodes":[],"categories_segments":[],"categories_sizes":[],"default_left":[0,0,0,0,0,0,0,0,0,0,0,0,0,0,0,0,0,0,0,0,0,0,0],"id":8,"left_children":[1,3,5,7,9,11,13,-1,-1,15,17,-1,-1,19,21,-1,-1,-1,-1,-1,-1,-1,-1],"loss_changes":[8.082907E1,6.287773E0,8.350006E0,2.3142624E-1,7.9794574E-1,2.36969E-2,1.1219206E0,0E0,0E0,5.254197E-2,1.0399526E-1,0E0,0E0,6.0044527E-2,7.4747086E-2,0E0,0E0,0E0,0E0,0E0,0E0,0E0,0E0],"parents":[2147483647,0,0,1,1,2,2,3,3,4,4,5,5,6,6,9,9,10,10,13,13,14,14],"right_children":[2,4,6,8,10,12,14,-1,-1,16,18,-1,-1,20,22,-1,-1,-1,-1,-1,-1,-1,-1],"split_conditions":[2.6200958E1,2.5954403E1,3.848946E1,4.726102E3,2.6074463E1,9.1807886E2,2.6332323E1,-5.422548E-3,-4.058682E-3,2.6025965E1,4.968651E3,8.9804325E-3,6.526184E-3,5.065862E3,5.0304414E3,-2.6712224E-3,-1.5274655E-3,-8.444734E-4,2.3276302E-4,1.1665337E-3,2.2976557E-3,5.1502036E-3,3.5168924E-3],"split_indices":[10,10,38,31,10,94,116,0,0,10,31,0,0,59,104,0,0,0,0,0,0,0,0],"split_type":[0,0,0,0,0,0,0,0,0,0,0,0,0,0,0,0,0,0,0,0,0,0,0],"sum_hessian":[1.444E3,8.67E2,5.77E2,5.69E2,2.98E2,2.65E2,3.12E2,4.08E2,1.61E2,1.63E2,1.35E2,1.85E2,8E1,1.3E2,1.82E2,1.14E2,4.9E1,6.6E1,6.9E1,4.8E1,8.2E1,9.5E1,8.7E1],"tree_param":{"num_deleted":"0","num_feature":"177","num_nodes":"23","size_leaf_vector":"1"}},{"base_weights":[2.1373757E-4,-1.8706568E-1,2.8568295E-1,-2.4631865E-1,-6.455857E-2,4.1061842E-1,1.7262508E-1,-5.222662E-3,-3.6280279E-3,-1.0463534E-1,-1.5624872E-3,8.799274E-3,6.3890247E-3,1.1061347E-1,2.3146859E-1,-2.4515458E-3,-1.2374206E-3,4.6353324E-4,-4.4985244E-4,1.3963474E-3,2.7056285E-3,1.966385E-3,4.7452194E-3],"categories":[],"categories_nodes":[],"categories_segments":[],"categories_sizes":[],"default_left":[0,0,0,0,0,0,0,0,0,0,0,0,0,0,0,0,0,0,0,0,0,0,0],"id":9,"left_children":[1,3,5,7,9,11,13,-1,-1,15,17,-1,-1,19,21,-1,-1,-1,-1,-1,-1,-1,-1],"loss_changes":[7.7734375E1,6.2938156E0,7.781555E0,3.3055878E-1,7.3891366E-1,1.960373E-2,1.006815E0,0E0,0E0,9.942222E-2,6.4223975E-2,0E0,0E0,1.1479843E-1,2.907753E-3,0E0,0E0,0E0,0E0,0E0,0E0,0E0,0E0],"parents":[2147483647,0,0,1,1,2,2,3,3,4,4,5,5,6,6,9,9,10,10,13,13,14,14],"right_children":[2,4,6,8,10,12,14,-1,-1,16,18,-1,-1,20,22,-1,-1,-1,-1,-1,-1,-1,-1],"split_conditions":[2.621117E1,2.5964808E1,3.848946E1,3.792644E1,2.6095493E1,9.179819E2,5.0744595E2,-5.222662E-3,-3.6280279E-3,2.6024277E1,2.0704858E3,8.799274E-3,6.3890247E-3,3.041467E1,2.2098597E-2,-2.4515458E-3,-1.2374206E-3,4.6353324E-4,-4.4985244E-4,1.3963474E-3,2.7056285E-3,1.966385E-3,4.7452194E-3],"split_indices":[10,10,38,38,10,17,92,0,0,12,5,0,0,126,141,0,0,0,0,0,0,0,0],"split_type":[0,0,0,0,0,0,0,0,0,0,0,0,0,0,0,0,0,0,0,0,0,0,0],"sum_hessian":[1.444E3,8.73E2,5.71E2,5.85E2,2.88E2,2.65E2,3.06E2,4.64E2,1.21E2,1.74E2,1.14E2,1.86E2,7.9E1,1.56E2,1.5E2,1.16E2,5.8E1,5.2E1,6.2E1,6.6E1,9E1,1E1,1.4E2],"tree_param":{"num_deleted":"0","num_feature":"177","num_nodes":"23","size_leaf_vector":"1"}},{"base_weights":[2.5579665E-4,-1.8498576E-1,2.7779764E-1,-2.4388975E-1,-7.034609E-2,4.0312737E-1,1.6741183E-1,-5.212227E-3,-3.8988218E-3,-1.1463053E-1,-1.46924015E-2,6.275458E-3,8.628074E-3,9.591431E-2,2.1820356E-1,-2.5941741E-3,-1.5156394E-3,-8.2989124E-4,2.1215489E-4,1.1323646E-3,2.2753333E-3,4.962022E-3,3.4259625E-3],"categories":[],"categories_nodes":[],"categories_segments":[],"categories_sizes":[],"default_left":[0,0,0,0,0,0,0,0,0,0,0,0,0,0,0,0,0,0,0,0,0,0,0],"id":10,"left_children":[1,3,5,7,9,11,13,-1,-1,15,17,-1,-1,19,21,-1,-1,-1,-1,-1,-1,-1,-1],"loss_changes":[7.475334E1,5.802597E0,7.714306E0,2.1580124E-1,7.383505E-1,2.8495789E-3,1.0501671E0,0E0,0E0,4.9260616E-2,9.713463E-2,0E0,0E0,6.670892E-2,4.273224E-2,0E0,0E0,0E0,0E0,0E0,0E0,0E0,0E0],"parents":[2147483647,0,0,1,1,2,2,3,3,4,4,5,5,6,6,9,9,10,10,13,13,14,14],"right_children":[2,4,6,8,10,12,14,-1,-1,16,18,-1,-1,20,22,-1,-1,-1,-1,-1,-1,-1,-1],"split_conditions":[2.6200958E1,2.5954403E1,3.8503315E1,4.726102E3,2.6074463E1,2.6611235E1,2.6338741E1,-5.212227E-3,-3.8988218E-3,2.6022802E1,2.369269E3,6.275458E-3,8.628074E-3,4.4375806E3,5.0304414E3,-2.5941741E-3,-1.5156394E-3,-8.2989124E-4,2.1215489E-4,1.1323646E-3,2.2753333E-3,4.962022E-3,3.4259625E-3],"split_indices":[10,10,88,31,10,66,10,0,0,10,39,0,0,62,104,0,0,0,0,0,0,0,0],"split_type":[0,0,0,0,0,0,0,0,0,0,0,0,0,0,0,0,0,0,0,0,0,0,0],"sum_hessian":[1.444E3,8.67E2,5.77E2,5.69E2,2.98E2,2.64E2,3.13E2,4.08E2,1.61E2,1.63E2,1.35E2,7.8E1,1.86E2,1.36E2,1.77E2,1.09E2,5.4E1,6.4E1,7.1E1,4.9E1,8.7E1,9.5E1,8.2E1],"tree_param":{"num_deleted":"0","num_feature":"177","num_nodes":"23","size_leaf_vector":"1"}},{"base_weights":[2.9506776E-4,-1.798078E-1,2.748243E-1,-2.3672862E-1,-6.2120665E-2,3.9492264E-1,1.6614047E-1,-5.0405846E-3,-3.5603677E-3,-1.00715615E-1,-1.4559642E-3,6.1642323E-3,8.466435E-3,2.231665E-1,1.0680274E-1,-2.3589132E-3,-1.1925936E-3,-4.0230434E-4,4.903984E-4,1.8944906E-3,4.575941E-3,1.3759653E-3,2.6396029E-3],"categories":[],"categories_nodes":[],"categories_segments":[],"categories_sizes":[],"default_left":[0,0,0,0,0,0,0,0,0,0,0,0,0,0,0,0,0,0,0,0,0,0,0],"id":11,"left_children":[1,3,5,7,9,11,13,-1,-1,15,17,-1,-1,19,21,-1,-1,-1,-1,-1,-1,-1,-1],"loss_changes":[7.189071E1,5.8080616E0,7.190319E0,3.056717E-1,6.852826E-1,1.2516022E-2,9.3318653E-1,0E0,0E0,9.1551185E-2,6.0144294E-2,0E0,0E0,3.0088425E-3,1.0961044E-1,0E0,0E0,0E0,0E0,0E0,0E0,0E0,0E0],"parents":[2147483647,0,0,1,1,2,2,3,3,4,4,5,5,6,6,9,9,10,10,13,13,14,14],"right_children":[2,4,6,8,10,12,14,-1,-1,16,18,-1,-1,20,22,-1,-1,-1,-1,-1,-1,-1,-1],"split_conditions":[2.621117E1,2.5964808E1,3.848946E1,4.242952E1,2.6095493E1,1.1308494E3,3.0312466E1,-5.0405846E-3,-3.5603677E-3,2.6024277E1,2.6158562E1,6.1642323E-3,8.466435E-3,2.2098597E-2,2.6281956E1,-2.3589132E-3,-1.1925936E-3,-4.0230434E-4,4.903984E-4,1.8944906E-3,4.575941E-3,1.3759653E-3,2.6396029E-3],"split_indices":[10,10,38,132,10,97,128,0,0,12,67,0,0,141,10,0,0,0,0,0,0,0,0],"split_type":[0,0,0,0,0,0,0,0,0,0,0,0,0,0,0,0,0,0,0,0,0,0,0],"sum_hessian":[1.444E3,8.73E2,5.71E2,5.85E2,2.88E2,2.65E2,3.06E2,4.51E2,1.34E2,1.74E2,1.14E2,8E1,1.85E2,1.49E2,1.57E2,1.16E2,5.8E1,6.7E1,4.7E1,1E1,1.39E2,7E1,8.7E1],"tree_param":{"num_deleted":"0","num_feature":"177","num_nodes":"23","size_leaf_vector":"1"}},{"base_weights":[3.3446128E-4,-1.778096E-1,2.672416E-1,-2.3439804E-1,-6.76749E-2,1.4504692E-1,3.7138793E-1,-5.0191316E-3,-3.7680387E-3,-1.1027191E-1,-1.4141533E-2,7.994399E-2,3.7029143E-3,5.632088E-3,8.2063265E-3,-2.4960786E-3,-1.4569602E-3,-7.201597E-4,2.9276012E-4,8.455993E-4,1.7949712E-3],"categories":[],"categories_nodes":[],"categories_segments":[],"categories_sizes":[],"default_left":[0,0,0,0,0,0,0,0,0,0,0,0,0,0,0,0,0,0,0,0,0],"id":12,"left_children":[1,3,5,7,9,11,13,-1,-1,15,17,19,-1,-1,-1,-1,-1,-1,-1,-1,-1],"loss_changes":[6.913452E1,5.355295E0,7.1372643E0,2.0077133E-1,6.831523E-1,6.4650536E-1,5.0925064E-1,0E0,0E0,4.590726E-2,9.0738334E-2,2.3125052E-2,0E0,0E0,0E0,0E0,0E0,0E0,0E0,0E0,0E0],"parents":[2147483647,0,0,1,1,2,2,3,3,4,4,5,5,6,6,9,9,10,10,11,11],"right_children":[2,4,6,8,10,12,14,-1,-1,16,18,20,-1,-1,-1,-1,-1,-1,-1,-1,-1],"split_conditions":[2.6200958E1,2.5954403E1,2.647242E1,2.295413E3,2.6074463E1,2.6316692E1,1.0997444E3,-5.0191316E-3,-3.7680387E-3,2.6022802E1,4.975579E3,5.0518394E3,3.7029143E-3,5.632088E-3,8.2063265E-3,-2.4960786E-3,-1.4569602E-3,-7.201597E-4,2.9276012E-4,8.455993E-4,1.7949712E-3],"split_indices":[10,10,10,39,10,10,96,0,0,10,31,108,0,0,0,0,0,0,0,0,0],"split_type":[0,0,0,0,0,0,0,0,0,0,0,0,0,0,0,0,0,0,0,0,0],"sum_hessian":[1.444E3,8.67E2,5.77E2,5.69E2,2.98E2,2.71E2,3.06E2,4.02E2,1.67E2,1.63E2,1.35E2,1.09E2,1.62E2,1.05E2,2.01E2,1.09E2,5.4E1,7.6E1,5.9E1,2.8E1,8.1E1],"tree_param":{"num_deleted":"0","num_feature":"177","num_nodes":"21","size_leaf_vector":"1"}},{"base_weights":[3.521763E-4,-1.7432892E-1,2.6207066E-1,-2.2978699E-1,-6.6393025E-2,3.6636895E-1,1.446191E-1,-4.9216105E-3,-3.6981548E-3,-1.03873804E-1,-8.099249E-3,5.5512795E-3,8.046201E-3,7.846037E-2,1.840353E-1,-2.3996616E-3,-1.2859047E-3,-5.8535836E-4,2.94405E-4,9.3858625E-4,1.811286E-3,2.7859022E-3,4.090268E-3],"categories":[],"categories_nodes":[],"categories_segments":[],"categories_sizes":[],"default_left":[0,0,0,0,0,0,0,0,0,0,0,0,0,0,0,0,0,0,0,0,0,0,0],"id":13,"left_children":[1,3,5,7,9,11,13,-1,-1,15,17,-1,-1,19,21,-1,-1,-1,-1,-1,-1,-1,-1],"loss_changes":[6.6472755E1,5.1434364E0,6.8645782E0,1.922245E-1,6.57817E-1,4.151497E-1,6.6318035E-1,0E0,0E0,7.874358E-2,6.20534E-2,0E0,0E0,2.2257507E-2,1.606369E-2,0E0,0E0,0E0,0E0,0E0,0E0,0E0,0E0],"parents":[2147483647,0,0,1,1,2,2,3,3,4,4,5,5,6,6,9,9,10,10,13,13,14,14],"right_children":[2,4,6,8,10,12,14,-1,-1,16,18,-1,-1,20,22,-1,-1,-1,-1,-1,-1,-1,-1],"split_conditions":[2.6200958E1,2.5954403E1,3.8704533E1,4.228471E1,2.608391E1,1.0997444E3,2.6315804E1,-4.9216105E-3,-3.6981548E-3,2.602968E1,4.962707E3,5.5512795E-3,8.046201E-3,2.528654E3,6.3570197E2,-2.3996616E-3,-1.2859047E-3,-5.8535836E-4,2.94405E-4,9.3858625E-4,1.811286E-3,2.7859022E-3,4.090268E-3],"split_indices":[10,10,88,83,10,96,66,0,0,10,33,0,0,47,6,0,0,0,0,0,0,0,0],"split_type":[0,0,0,0,0,0,0,0,0,0,0,0,0,0,0,0,0,0,0,0,0,0,0],"sum_hessian":[1.444E3,8.67E2,5.77E2,5.69E2,2.98E2,3E2,2.77E2,4.01E2,1.68E2,1.79E2,1.19E2,9.9E1,2.01E2,1.09E2,1.68E2,1.2E2,5.9E1,6.1E1,5.8E1,3.7E1,7.2E1,6.5E1,1.03E2],"tree_param":{"num_deleted":"0","num_feature":"177","num_nodes":"23","size_leaf_vector":"1"}},{"base_weights":[3.8158687E-4,-1.721465E-1,2.552026E-1,-2.2666186E-1,-6.952507E-2,1.313129E-1,3.5170034E-1,-4.8773275E-3,-3.7795703E-3,-1.128676E-1,-2.0722976E-2,7.154905E-2,3.3659404E-3,5.304137E-3,7.859334E-3,-1.5652248E-3,-2.504851E-3,-9.335719E-4,9.178397E-5,8.2030846E-4,1.6394311E-3],"categories":[],"categories_nodes":[],"categories_segments":[],"categories_sizes":[],"default_left":[0,0,0,0,0,0,0,0,0,0,0,0,0,0,0,0,0,0,0,0,0],"id":14,"left_children":[1,3,5,7,9,11,13,-1,-1,15,17,19,-1,-1,-1,-1,-1,-1,-1,-1,-1],"loss_changes":[6.3923176E1,4.771591E0,6.7867165E0,1.352253E-1,6.39789E-1,5.2552557E-1,6.4606476E-1,0E0,0E0,2.0368576E-2,1.00277044E-1,1.819557E-2,0E0,0E0,0E0,0E0,0E0,0E0,0E0,0E0,0E0],"parents":[2147483647,0,0,1,1,2,2,3,3,4,4,5,5,6,6,9,9,10,10,11,11],"right_children":[2,4,6,8,10,12,14,-1,-1,16,18,20,-1,-1,-1,-1,-1,-1,-1,-1,-1],"split_conditions":[2.619836E1,2.5947227E1,2.6459492E1,4.2146805E1,2.6065405E1,2.6151564E1,1.0715856E3,-4.8773275E-3,-3.7795703E-3,4.8340042E1,2.612191E1,5.0518394E3,3.3659404E-3,5.304137E-3,7.859334E-3,-1.5652248E-3,-2.504851E-3,-9.335719E-4,9.178397E-5,8.2030846E-4,1.6394311E-3],"split_indices":[10,10,10,35,10,118,18,0,0,36,10,108,0,0,0,0,0,0,0,0,0],"split_type":[0,0,0,0,0,0,0,0,0,0,0,0,0,0,0,0,0,0,0,0,0],"sum_hessian":[1.444E3,8.62E2,5.82E2,5.59E2,3.03E2,2.6E2,3.22E2,3.65E2,1.94E2,1.57E2,1.46E2,1.05E2,1.55E2,1.16E2,2.06E2,5.1E1,1.06E2,7E1,7.6E1,3.3E1,7.2E1],"tree_param":{"num_deleted":"0","num_feature":"177","num_nodes":"21","size_leaf_vector":"1"}},{"base_weights":[3.924294E-4,-1.687818E-1,2.5025973E-1,-2.2220525E-1,-6.8214506E-2,1.3081095E-1,3.465326E-1,-4.766998E-3,-3.6773332E-3,-1.10735975E-1,-2.0336682E-2,7.152485E-2,3.3625488E-3,5.2935365E-3,7.7478676E-3,-1.5367024E-3,-2.4570199E-3,-9.0956537E-4,9.637737E-5,8.0606365E-4,1.6376968E-3],"categories":[],"categories_nodes":[],"categories_segments":[],"categories_sizes":[],"default_left":[0,0,0,0,0,0,0,0,0,0,0,0,0,0,0,0,0,0,0,0,0],"id":15,"left_children":[1,3,5,7,9,11,13,-1,-1,15,17,19,-1,-1,-1,-1,-1,-1,-1,-1,-1],"loss_changes":[6.1462032E1,4.582302E0,6.5236626E0,1.2997055E-1,6.157775E-1,5.372081E-1,5.643196E-1,0E0,0E0,1.9338489E-2,9.659578E-2,2.0049453E-2,0E0,0E0,0E0,0E0,0E0,0E0,0E0,0E0,0E0],"parents":[2147483647,0,0,1,1,2,2,3,3,4,4,5,5,6,6,9,9,10,10,11,11],"right_children":[2,4,6,8,10,12,14,-1,-1,16,18,20,-1,-1,-1,-1,-1,-1,-1,-1,-1],"split_conditions":[2.619836E1,2.5947227E1,2.646371E1,4.672833E3,2.6065405E1,2.630942E1,1.1144713E3,-4.766998E-3,-3.6773332E-3,4.8340042E1,2.612191E1,5.0518394E3,3.3625488E-3,5.2935365E-3,7.7478676E-3,-1.5367024E-3,-2.4570199E-3,-9.0956537E-4,9.637737E-5,8.0606365E-4,1.6376968E-3],"split_indices":[10,10,10,31,10,116,18,0,0,36,66,108,0,0,0,0,0,0,0,0,0],"split_type":[0,0,0,0,0,0,0,0,0,0,0,0,0,0,0,0,0,0,0,0,0],"sum_hessian":[1.444E3,8.62E2,5.82E2,5.59E2,3.03E2,2.65E2,3.17E2,3.75E2,1.84E2,1.57E2,1.46E2,1.08E2,1.57E2,1.18E2,1.99E2,5.1E1,1.06E2,7.1E1,7.5E1,3.3E1,7.5E1],"tree_param":{"num_deleted":"0","num_feature":"177","num_nodes":"21","size_leaf_vector":"1"}},{"base_weights":[4.037366E-4,-1.6548288E-1,2.454151E-1,-2.1505886E-1,-6.1547816E-2,1.2630309E-1,3.3819067E-1,-4.549359E-3,-3.172857E-3,-9.379227E-2,-6.978699E-3,6.891488E-2,3.2362102E-3,7.5562033E-3,5.1025455E-3,-2.165383E-3,-1.098541E-3,2.3691374E-4,-4.978523E-4,7.9205056E-4,1.5781145E-3],"categories":[],"categories_nodes":[],"categories_segments":[],"categories_sizes":[],"default_left":[0,0,0,0,0,0,0,0,0,0,0,0,0,0,0,0,0,0,0,0,0],"id":16,"left_children":[1,3,5,7,9,11,13,-1,-1,15,17,19,-1,-1,-1,-1,-1,-1,-1,-1,-1],"loss_changes":[5.9096375E1,4.4011936E0,6.273178E0,2.2911263E-1,5.017185E-1,4.8423672E-1,5.941849E-1,0E0,0E0,7.1542025E-2,3.924282E-2,1.658976E-2,0E0,0E0,0E0,0E0,0E0,0E0,0E0,0E0,0E0],"parents":[2147483647,0,0,1,1,2,2,3,3,4,4,5,5,6,6,9,9,10,10,11,11],"right_children":[2,4,6,8,10,12,14,-1,-1,16,18,20,-1,-1,-1,-1,-1,-1,-1,-1,-1],"split_conditions":[2.619836E1,2.5961262E1,2.6459492E1,5.2777236E3,2.879319E1,2.6151564E1,3.45733E-1,-4.549359E-3,-3.172857E-3,2.6024277E1,2.0711406E3,5.0518394E3,3.2362102E-3,7.5562033E-3,5.1025455E-3,-2.165383E-3,-1.098541E-3,2.3691374E-4,-4.978523E-4,7.9205056E-4,1.5781145E-3],"split_indices":[10,10,10,34,22,118,51,0,0,12,5,108,0,0,0,0,0,0,0,0,0],"split_type":[0,0,0,0,0,0,0,0,0,0,0,0,0,0,0,0,0,0,0,0,0],"sum_hessian":[1.444E3,8.62E2,5.82E2,5.8E2,2.82E2,2.6E2,3.22E2,4.63E2,1.17E2,1.75E2,1.07E2,1.05E2,1.55E2,2.06E2,1.16E2,1.21E2,5.4E1,5.3E1,5.4E1,3.3E1,7.2E1],"tree_param":{"num_deleted":"0","num_feature":"177","num_nodes":"21","size_leaf_vector":"1"}},{"base_weights":[4.1958643E-4,-1.6223843E-1,2.4066219E-1,-2.1356204E-1,-6.562249E-2,3.515042E-1,1.4398314E-1,-4.597312E-3,-3.5576608E-3,-1.0519303E-1,-1.8112954E-2,7.6762484E-3,5.705455E-3,1.9177093E-1,8.351581E-2,-2.3568356E-3,-1.4410556E-3,-8.4455335E-4,1.0022803E-4,4.357468E-3,2.9541585E-3,1.0459125E-3,2.0695378E-3],"categories":[],"categories_nodes":[],"categories_segments":[],"categories_sizes":[],"default_left":[0,0,0,0,0,0,0,0,0,0,0,0,0,0,0,0,0,0,0,0,0,0,0],"id":17,"left_children":[1,3,5,7,9,11,13,-1,-1,15,17,-1,-1,19,21,-1,-1,-1,-1,-1,-1,-1,-1],"loss_changes":[5.6818356E1,4.229103E0,6.0372925E0,1.2362862E-1,5.695065E-1,3.030014E-2,8.5037136E-1,0E0,0E0,2.7549386E-2,8.247313E-2,0E0,0E0,4.1519165E-2,6.70445E-2,0E0,0E0,0E0,0E0,0E0,0E0,0E0,0E0],"parents":[2147483647,0,0,1,1,2,2,3,3,4,4,5,5,6,6,9,9,10,10,13,13,14,14],"right_children":[2,4,6,8,10,12,14,-1,-1,16,18,-1,-1,20,22,-1,-1,-1,-1,-1,-1,-1,-1],"split_conditions":[2.619836E1,2.5947227E1,3.848946E1,4.2146805E1,2.6067083E1,9.090813E2,2.0660938E3,-4.597312E-3,-3.5576608E-3,2.6014532E1,4.9573574E3,7.6762484E-3,5.705455E-3,5.0304414E3,5.0745625E3,-2.3568356E-3,-1.4410556E-3,-8.4455335E-4,1.0022803E-4,4.357468E-3,2.9541585E-3,1.0459125E-3,2.0695378E-3],"split_indices":[10,10,38,35,10,95,140,0,0,10,31,0,0,104,59,0,0,0,0,0,0,0,0],"split_type":[0,0,0,0,0,0,0,0,0,0,0,0,0,0,0,0,0,0,0,0,0,0,0],"sum_hessian":[1.444E3,8.62E2,5.82E2,5.59E2,3.03E2,2.65E2,3.17E2,3.65E2,1.94E2,1.62E2,1.41E2,1.62E2,1.03E2,1.71E2,1.46E2,1.08E2,5.4E1,6.7E1,7.4E1,9.5E1,7.6E1,6.4E1,8.2E1],"tree_param":{"num_deleted":"0","num_feature":"177","num_nodes":"23","size_leaf_vector":"1"}},{"base_weights":[4.4929184E-4,-1.5793034E-1,2.3774275E-1,-2.0606026E-1,-5.6235887E-2,3.4510875E-1,1.4318249E-1,-4.3620258E-3,-2.9847634E-3,-8.812393E-2,-3.2346607E-3,7.5102514E-3,5.576367E-3,9.1580965E-2,1.9652426E-1,-2.0603298E-3,-1.0505355E-3,3.5975213E-4,-3.8295065E-4,1.1372826E-3,2.2791529E-3,1.7089128E-3,4.043199E-3],"categories":[],"categories_nodes":[],"categories_segments":[],"categories_sizes":[],"default_left":[0,0,0,0,0,0,0,0,0,0,0,0,0,0,0,0,0,0,0,0,0,0,0],"id":18,"left_children":[1,3,5,7,9,11,13,-1,-1,15,17,-1,-1,19,21,-1,-1,-1,-1,-1,-1,-1,-1],"loss_changes":[5.4644703E1,4.210104E0,5.6617203E0,2.4093056E-1,4.8363483E-1,1.8665314E-2,7.8531075E-1,0E0,0E0,6.783831E-2,3.9883006E-2,0E0,0E0,1.00440264E-1,8.785248E-3,0E0,0E0,0E0,0E0,0E0,0E0,0E0,0E0],"parents":[2147483647,0,0,1,1,2,2,3,3,4,4,5,5,6,6,9,9,10,10,13,13,14,14],"right_children":[2,4,6,8,10,12,14,-1,-1,16,18,-1,-1,20,22,-1,-1,-1,-1,-1,-1,-1,-1],"split_conditions":[2.6200958E1,2.5964808E1,3.8503315E1,3.7996788E1,2.6095493E1,9.087757E2,2.5639824E3,-4.3620258E-3,-2.9847634E-3,2.6024277E1,2.0704858E3,7.5102514E-3,5.576367E-3,3.041467E1,2.6004154E-2,-2.0603298E-3,-1.0505355E-3,3.5975213E-4,-3.8295065E-4,1.1372826E-3,2.2791529E-3,1.7089128E-3,4.043199E-3],"split_indices":[10,10,88,38,10,17,47,0,0,12,5,0,0,126,141,0,0,0,0,0,0,0,0],"split_type":[0,0,0,0,0,0,0,0,0,0,0,0,0,0,0,0,0,0,0,0,0,0,0],"sum_hessian":[1.444E3,8.67E2,5.77E2,5.85E2,2.82E2,2.64E2,3.13E2,4.71E2,1.14E2,1.74E2,1.08E2,1.65E2,9.9E1,1.66E2,1.47E2,1.16E2,5.8E1,4.6E1,6.2E1,7.2E1,9.4E1,1.1E1,1.36E2],"tree_param":{"num_deleted":"0","num_feature":"177","num_nodes":"23","size_leaf_vector":"1"}},{"base_weights":[4.8079007E-4,-1.5350276E-1,2.351946E-1,-2.0200121E-1,-5.3224266E-2,3.38449E-1,1.4240164E-1,-4.267182E-3,-2.8923221E-3,-8.526919E-2,8.317713E-4,7.381579E-3,5.4965597E-3,9.167484E-2,1.9278264E-1,-2.0208335E-3,-1.0186728E-3,-3.115862E-4,4.3793677E-4,1.1869742E-3,2.2702145E-3,1.6854142E-3,3.9651957E-3],"categories":[],"categories_nodes":[],"categories_segments":[],"categories_sizes":[],"default_left":[0,0,0,0,0,0,0,0,0,0,0,0,0,0,0,0,0,0,0,0,0,0,0],"id":19,"left_children":[1,3,5,7,9,11,13,-1,-1,15,17,-1,-1,19,21,-1,-1,-1,-1,-1,-1,-1,-1],"loss_changes":[5.255037E1,4.2162666E0,5.2778397E0,2.3027039E-1,5.0789565E-1,1.7036438E-2,7.0900154E-1,0E0,0E0,7.391453E-2,4.1115545E-2,0E0,0E0,8.278501E-2,6.8011284E-3,0E0,0E0,0E0,0E0,0E0,0E0,0E0,0E0],"parents":[2147483647,0,0,1,1,2,2,3,3,4,4,5,5,6,6,9,9,10,10,13,13,14,14],"right_children":[2,4,6,8,10,12,14,-1,-1,16,18,-1,-1,20,22,-1,-1,-1,-1,-1,-1,-1,-1],"split_conditions":[2.621117E1,2.5964808E1,3.8503315E1,3.8053547E1,2.6098503E1,9.090813E2,2.5639824E3,-4.267182E-3,-2.8923221E-3,2.6024277E1,2.6158562E1,7.381579E-3,5.4965597E-3,2.6281025E1,2.6004154E-2,-2.0208335E-3,-1.0186728E-3,-3.115862E-4,4.3793677E-4,1.1869742E-3,2.2702145E-3,1.6854142E-3,3.9651957E-3],"split_indices":[10,10,88,38,10,95,47,0,0,12,67,0,0,67,141,0,0,0,0,0,0,0,0],"split_type":[0,0,0,0,0,0,0,0,0,0,0,0,0,0,0,0,0,0,0,0,0,0,0],"sum_hessian":[1.444E3,8.73E2,5.71E2,5.85E2,2.88E2,2.64E2,3.07E2,4.77E2,1.08E2,1.79E2,1.09E2,1.62E2,1.02E2,1.6E2,1.47E2,1.16E2,6.3E1,6.2E1,4.7E1,7.2E1,8.8E1,1.1E1,1.36E2],"tree_param":{"num_deleted":"0","num_feature":"177","num_nodes":"23","size_leaf_vector":"1"}},{"base_weights":[5.119645E-4,-1.5289274E-1,2.2708662E-1,-2.019789E-1,-6.322858E-2,1.1525603E-1,3.118369E-1,-4.354417E-3,-3.3959118E-3,-1.01549536E-1,-1.8499678E-2,6.363618E-2,2.959211E-3,4.722146E-3,6.997E-3,-1.3841955E-3,-2.2537734E-3,-8.63677E-4,6.414166E-5,7.261707E-4,1.4598063E-3],"categories":[],"categories_nodes":[],"categories_segments":[],"categories_sizes":[],"default_left":[0,0,0,0,0,0,0,0,0,0,0,0,0,0,0,0,0,0,0,0,0],"id":20,"left_children":[1,3,5,7,9,11,13,-1,-1,15,17,19,-1,-1,-1,-1,-1,-1,-1,-1,-1],"loss_changes":[5.0537384E1,3.7520466E0,5.383688E0,9.785843E-2,5.288198E-1,3.9354277E-1,5.398445E-1,0E0,0E0,2.1524072E-2,8.160029E-2,1.4868051E-2,0E0,0E0,0E0,0E0,0E0,0E0,0E0,0E0,0E0],"parents":[2147483647,0,0,1,1,2,2,3,3,4,4,5,5,6,6,9,9,10,10,11,11],"right_children":[2,4,6,8,10,12,14,-1,-1,16,18,20,-1,-1,-1,-1,-1,-1,-1,-1,-1],"split_conditions":[2.619836E1,2.594275E1,2.6308609E1,4.2092808E1,2.6065405E1,2.6301058E1,1.0769307E3,-4.354417E-3,-3.3959118E-3,4.8340042E1,2.328009E3,5.0518394E3,2.959211E-3,4.722146E-3,6.997E-3,-1.3841955E-3,-2.2537734E-3,-8.63677E-4,6.414166E-5,7.261707E-4,1.4598063E-3],"split_indices":[10,10,12,132,10,67,18,0,0,36,39,108,0,0,0,0,0,0,0,0,0],"split_type":[0,0,0,0,0,0,0,0,0,0,0,0,0,0,0,0,0,0,0,0,0],"sum_hessian":[1.444E3,8.62E2,5.82E2,5.53E2,3.09E2,2.56E2,3.26E2,3.52E2,2.01E2,1.63E2,1.46E2,1.05E2,1.51E2,1.21E2,2.05E2,5.1E1,1.12E2,6.6E1,8E1,3.3E1,7.2E1],"tree_param":{"num_deleted":"0","num_feature":"177","num_nodes":"21","size_leaf_vector":"1"}},{"base_weights":[5.180117E-4,-1.4990525E-1,2.2268902E-1,-1.9800904E-1,-6.203443E-2,1.13050126E-1,3.0577755E-1,-4.2672856E-3,-3.3272807E-3,-9.9626176E-2,-1.815638E-2,6.24631E-2,2.901941E-3,6.9433874E-3,4.753808E-3,-1.3589737E-3,-2.2106105E-3,-8.412827E-4,6.83344E-5,7.1354915E-4,1.4325189E-3],"categories":[],"categories_nodes":[],"categories_segments":[],"categories_sizes":[],"default_left":[0,0,0,0,0,0,0,0,0,0,0,0,0,0,0,0,0,0,0,0,0],"id":21,"left_children":[1,3,5,7,9,11,13,-1,-1,15,17,19,-1,-1,-1,-1,-1,-1,-1,-1,-1],"loss_changes":[4.8592037E1,3.603325E0,5.174574E0,9.365845E-2,5.0888383E-1,3.7780666E-1,5.202465E-1,0E0,0E0,2.0478964E-2,7.8599036E-2,1.4220417E-2,0E0,0E0,0E0,0E0,0E0,0E0,0E0,0E0,0E0],"parents":[2147483647,0,0,1,1,2,2,3,3,4,4,5,5,6,6,9,9,10,10,11,11],"right_children":[2,4,6,8,10,12,14,-1,-1,16,18,20,-1,-1,-1,-1,-1,-1,-1,-1,-1],"split_conditions":[2.619836E1,2.594275E1,2.6308609E1,4.6485557E3,2.6065405E1,2.6301058E1,3.827509E1,-4.2672856E-3,-3.3272807E-3,4.8340042E1,2.6068945E1,5.0518394E3,2.901941E-3,6.9433874E-3,4.753808E-3,-1.3589737E-3,-2.2106105E-3,-8.412827E-4,6.83344E-5,7.1354915E-4,1.4325189E-3],"split_indices":[10,10,12,31,10,67,138,0,0,36,12,108,0,0,0,0,0,0,0,0,0],"split_type":[0,0,0,0,0,0,0,0,0,0,0,0,0,0,0,0,0,0,0,0,0],"sum_hessian":[1.444E3,8.62E2,5.82E2,5.53E2,3.09E2,2.56E2,3.26E2,3.53E2,2E2,1.63E2,1.46E2,1.05E2,1.51E2,1.9E2,1.36E2,5.1E1,1.12E2,6.7E1,7.9E1,3.3E1,7.2E1],"tree_param":{"num_deleted":"0","num_feature":"177","num_nodes":"21","size_leaf_vector":"1"}},{"base_weights":[5.241813E-4,-1.4803413E-1,2.168327E-1,-1.9543774E-1,-6.4690545E-2,1.09104626E-1,2.995549E-1,-4.1971053E-3,-3.3253331E-3,-1.03262365E-1,-2.3390977E-2,6.0170945E-2,2.8378149E-3,4.509804E-3,6.712812E-3,-2.2157957E-3,-1.4209306E-3,-9.134637E-4,6.006539E-6,7.0185546E-4,1.4053686E-3],"categories":[],"categories_nodes":[],"categories_segments":[],"categories_sizes":[],"default_left":[0,0,0,0,0,0,0,0,0,0,0,0,0,0,0,0,0,0,0,0,0],"id":22,"left_children":[1,3,5,7,9,11,13,-1,-1,15,17,19,-1,-1,-1,-1,-1,-1,-1,-1,-1],"loss_changes":[4.672328E1,3.3423634E0,5.112194E0,5.559349E-2,4.976828E-1,3.8246346E-1,5.0891113E-1,0E0,0E0,4.1425228E-4,8.5059606E-2,1.6791463E-2,0E0,0E0,0E0,0E0,0E0,0E0,0E0,0E0,0E0],"parents":[2147483647,0,0,1,1,2,2,3,3,4,4,5,5,6,6,9,9,10,10,11,11],"right_children":[2,4,6,8,10,12,14,-1,-1,16,18,20,-1,-1,-1,-1,-1,-1,-1,-1,-1],"split_conditions":[2.6192898E1,2.5936457E1,2.6453959E1,3.0012856E1,2.6024277E1,2.6193863E1,2.6585003E1,-4.1971053E-3,-3.3253331E-3,2.6006533E1,4.9476914E3,4.415952E3,2.8378149E-3,4.509804E-3,6.712812E-3,-2.2157957E-3,-1.4209306E-3,-9.134637E-4,6.006539E-6,7.0185546E-4,1.4053686E-3],"split_indices":[10,10,10,8,12,120,10,0,0,10,31,112,0,0,0,0,0,0,0,0,0],"split_type":[0,0,0,0,0,0,0,0,0,0,0,0,0,0,0,0,0,0,0,0,0],"sum_hessian":[1.444E3,8.57E2,5.87E2,5.42E2,3.15E2,2.6E2,3.27E2,3.42E2,2E2,1.59E2,1.56E2,1.1E2,1.5E2,1.19E2,2.08E2,1.19E2,4E1,7.8E1,7.8E1,3.8E1,7.2E1],"tree_param":{"num_deleted":"0","num_feature":"177","num_nodes":"21","size_leaf_vector":"1"}},{"base_weights":[5.277222E-4,-1.4514388E-1,2.1263294E-1,-1.9159864E-1,-6.346743E-2,3.0162838E-1,1.1603438E-1,-4.1022003E-3,-3.238992E-3,-1.0130759E-1,-2.2951126E-2,4.8159207E-3,6.7874985E-3,6.406711E-2,1.5301387E-1,-1.3583616E-3,-2.1609068E-3,-8.962921E-4,5.898992E-6,7.884022E-4,1.5594302E-3,2.245596E-3,3.3803578E-3],"categories":[],"categories_nodes":[],"categories_segments":[],"categories_sizes":[],"default_left":[0,0,0,0,0,0,0,0,0,0,0,0,0,0,0,0,0,0,0,0,0,0,0],"id":23,"left_children":[1,3,5,7,9,11,13,-1,-1,15,17,-1,-1,19,21,-1,-1,-1,-1,-1,-1,-1,-1],"loss_changes":[4.4925087E1,3.2098503E0,4.9143276E0,5.303955E-2,4.7898018E-1,2.9174614E-1,5.121274E-1,0E0,0E0,2.039671E-4,8.189274E-2,0E0,0E0,2.918291E-2,1.3982296E-2,0E0,0E0,0E0,0E0,0E0,0E0,0E0,0E0],"parents":[2147483647,0,0,1,1,2,2,3,3,4,4,5,5,6,6,9,9,10,10,13,13,14,14],"right_children":[2,4,6,8,10,12,14,-1,-1,16,18,-1,-1,20,22,-1,-1,-1,-1,-1,-1,-1,-1],"split_conditions":[2.6192898E1,2.5936457E1,3.8704533E1,4.2092808E1,2.6024277E1,1.1370265E3,2.6322916E1,-4.1022003E-3,-3.238992E-3,2.4824466E-1,4.9476914E3,4.8159207E-3,6.7874985E-3,5.0621597E3,2.5663372E3,-1.3583616E-3,-2.1609068E-3,-8.962921E-4,5.898992E-6,7.884022E-4,1.5594302E-3,2.245596E-3,3.3803578E-3],"split_indices":[10,10,88,132,12,18,66,0,0,4,31,0,0,59,47,0,0,0,0,0,0,0,0],"split_type":[0,0,0,0,0,0,0,0,0,0,0,0,0,0,0,0,0,0,0,0,0,0,0],"sum_hessian":[1.444E3,8.57E2,5.87E2,5.42E2,3.15E2,3E2,2.87E2,3.52E2,1.9E2,1.59E2,1.56E2,1.29E2,1.71E2,1.25E2,1.62E2,3.6E1,1.23E2,7.8E1,7.8E1,5.2E1,7.3E1,5.7E1,1.05E2],"tree_param":{"num_deleted":"0","num_feature":"177","num_nodes":"23","size_leaf_vector":"1"}},{"base_weights":[5.442236E-4,-1.4271647E-1,2.0795411E-1,-1.8679738E-1,-6.109001E-2,1.0476119E-1,2.8836477E-1,-4.0092426E-3,-3.1226538E-3,-1.9594005E-3,-2.3216728E-2,5.6437057E-2,1.361143E-1,6.6500055E-3,4.6032947E-3,-8.79443E-4,-1.0313811E-5,6.747504E-4,1.3285503E-3,2.1216779E-3,3.0648813E-3],"categories":[],"categories_nodes":[],"categories_segments":[],"categories_sizes":[],"default_left":[0,0,0,0,0,0,0,0,0,0,0,0,0,0,0,0,0,0,0,0,0],"id":24,"left_children":[1,3,5,7,9,11,13,-1,-1,-1,15,17,19,-1,-1,-1,-1,-1,-1,-1,-1],"loss_changes":[4.3203518E1,3.0373669E0,4.777851E0,7.648468E-2,4.2022848E-1,3.676405E-1,4.6758842E-1,0E0,0E0,0E0,7.480261E-2,1.4647305E-2,5.0807E-4,0E0,0E0,0E0,0E0,0E0,0E0,0E0,0E0],"parents":[2147483647,0,0,1,1,2,2,3,3,4,4,5,5,6,6,10,10,11,11,12,12],"right_children":[2,4,6,8,10,12,14,-1,-1,-1,16,18,20,-1,-1,-1,-1,-1,-1,-1,-1],"split_conditions":[2.6116997E1,2.5968298E1,2.6308609E1,2.9003353E1,2.6024277E1,2.6298574E1,2.8574207E-1,-4.0092426E-3,-3.1226538E-3,-1.9594005E-3,4.9476914E3,5.0518394E3,2.5639824E3,6.6500055E-3,4.6032947E-3,-8.79443E-4,-1.0313811E-5,6.747504E-4,1.3285503E-3,2.1216779E-3,3.0648813E-3],"split_indices":[12,12,12,23,12,116,51,0,0,0,31,108,47,0,0,0,0,0,0,0,0],"split_type":[0,0,0,0,0,0,0,0,0,0,0,0,0,0,0,0,0,0,0,0,0],"sum_hessian":[1.444E3,8.55E2,5.89E2,5.51E2,3.04E2,2.63E2,3.26E2,3.62E2,1.89E2,1.5E2,1.54E2,1.09E2,1.54E2,1.72E2,1.54E2,7.8E1,7.6E1,4E1,6.9E1,6.9E1,8.5E1],"tree_param":{"num_deleted":"0","num_feature":"177","num_nodes":"21","size_leaf_vector":"1"}},{"base_weights":[5.623401E-4,-1.39521E-1,2.0453028E-1,-1.8415281E-1,-6.104849E-2,3.0107477E-1,1.2168729E-1,-3.95449E-3,-3.133774E-3,-9.742574E-2,-2.2097487E-2,6.6602575E-3,4.9873544E-3,6.964894E-2,1.638201E-1,-2.092622E-3,-1.3349176E-3,-8.577651E-4,1.0955625E-5,8.0955506E-4,1.7093769E-3,3.3724431E-3,1.1150106E-3],"categories":[],"categories_nodes":[],"categories_segments":[],"categories_sizes":[],"default_left":[0,0,0,0,0,0,0,0,0,0,0,0,0,0,0,0,0,0,0,0,0,0,0],"id":25,"left_children":[1,3,5,7,9,11,13,-1,-1,15,17,-1,-1,19,21,-1,-1,-1,-1,-1,-1,-1,-1],"loss_changes":[4.154425E1,2.9628315E0,4.551651E0,4.8978806E-2,4.426533E-1,3.0672073E-2,6.5990543E-1,0E0,0E0,1.3352633E-3,7.591829E-2,0E0,0E0,5.423236E-2,4.4850826E-2,0E0,0E0,0E0,0E0,0E0,0E0,0E0,0E0],"parents":[2147483647,0,0,1,1,2,2,3,3,4,4,5,5,6,6,9,9,10,10,13,13,14,14],"right_children":[2,4,6,8,10,12,14,-1,-1,16,18,-1,-1,20,22,-1,-1,-1,-1,-1,-1,-1,-1],"split_conditions":[2.6192898E1,2.5936457E1,3.848946E1,3.0012856E1,2.6024277E1,4.3920784E1,2.5543594E3,-3.95449E-3,-3.133774E-3,2.6006533E1,4.9519214E3,6.6602575E-3,4.9873544E-3,4.4375806E3,9.2532245E2,-2.092622E-3,-1.3349176E-3,-8.577651E-4,1.0955625E-5,8.0955506E-4,1.7093769E-3,3.3724431E-3,1.1150106E-3],"split_indices":[10,10,38,8,12,87,114,0,0,10,31,0,0,62,144,0,0,0,0,0,0,0,0],"split_type":[0,0,0,0,0,0,0,0,0,0,0,0,0,0,0,0,0,0,0,0,0,0,0],"sum_hessian":[1.444E3,8.57E2,5.87E2,5.42E2,3.15E2,2.65E2,3.22E2,3.42E2,2E2,1.59E2,1.56E2,1.47E2,1.18E2,1.5E2,1.72E2,1.19E2,4E1,7.9E1,7.7E1,5.9E1,9.1E1,1.62E2,1E1],"tree_param":{"num_deleted":"0","num_feature":"177","num_nodes":"23","size_leaf_vector":"1"}},{"base_weights":[5.761417E-4,-1.3718978E-1,2.0003037E-1,-1.8075547E-1,-6.0848385E-2,1.00382164E-1,2.7715662E-1,-3.8765508E-3,-3.0791697E-3,-9.588121E-2,-2.2359764E-2,5.2902292E-2,1.2952337E-1,4.144165E-3,6.1985003E-3,-1.2751453E-3,-2.0464973E-3,-8.467846E-4,-1.013485E-5,6.4907834E-4,1.2453787E-3,2.0388118E-3,2.938518E-3],"categories":[],"categories_nodes":[],"categories_segments":[],"categories_sizes":[],"default_left":[0,0,0,0,0,0,0,0,0,0,0,0,0,0,0,0,0,0,0,0,0,0,0],"id":26,"left_children":[1,3,5,7,9,11,13,-1,-1,15,17,19,21,-1,-1,-1,-1,-1,-1,-1,-1,-1,-1],"loss_changes":[3.9952827E1,2.805252E0,4.426075E0,4.170227E-2,4.207574E-1,3.3516645E-1,4.3988228E-1,0E0,0E0,1.7415285E-3,6.9313996E-2,1.0964245E-2,2.8729439E-3,0E0,0E0,0E0,0E0,0E0,0E0,0E0,0E0,0E0,0E0],"parents":[2147483647,0,0,1,1,2,2,3,3,4,4,5,5,6,6,9,9,10,10,11,11,12,12],"right_children":[2,4,6,8,10,12,14,-1,-1,16,18,20,22,-1,-1,-1,-1,-1,-1,-1,-1,-1,-1],"split_conditions":[2.6116997E1,3.867951E1,2.6453959E1,3.0012856E1,2.6024277E1,2.6297863E1,1.02332904E3,-3.8765508E-3,-3.0791697E-3,4.8340042E1,4.9476914E3,5.0518394E3,2.6187313E1,4.144165E-3,6.1985003E-3,-1.2751453E-3,-2.0464973E-3,-8.467846E-4,-1.013485E-5,6.4907834E-4,1.2453787E-3,2.0388118E-3,2.938518E-3],"split_indices":[12,38,10,8,12,66,18,0,0,36,31,108,118,0,0,0,0,0,0,0,0,0,0],"split_type":[0,0,0,0,0,0,0,0,0,0,0,0,0,0,0,0,0,0,0,0,0,0,0],"sum_hessian":[1.444E3,8.55E2,5.89E2,5.4E2,3.15E2,2.62E2,3.27E2,3.42E2,1.98E2,1.61E2,1.54E2,1.05E2,1.57E2,1.16E2,2.11E2,3.6E1,1.25E2,7.8E1,7.6E1,4E1,6.5E1,7.4E1,8.3E1],"tree_param":{"num_deleted":"0","num_feature":"177","num_nodes":"23","size_leaf_vector":"1"}},{"base_weights":[5.8517826E-4,-1.3528247E-1,1.9506642E-1,-1.7699175E-1,-6.0469147E-2,9.6198685E-2,2.707282E-1,-3.8036131E-3,-3.0184942E-3,-9.376053E-2,-2.3294104E-2,5.1179986E-2,2.5127253E-3,6.275548E-3,4.3202527E-3,-1.3437703E-3,-2.0371957E-3,-8.3086774E-4,-4.220393E-5,6.353674E-4,1.2222481E-3],"categories":[],"categories_nodes":[],"categories_segments":[],"categories_sizes":[],"default_left":[0,0,0,0,0,0,0,0,0,0,0,0,0,0,0,0,0,0,0,0,0],"id":27,"left_children":[1,3,5,7,9,11,13,-1,-1,15,17,19,-1,-1,-1,-1,-1,-1,-1,-1,-1],"loss_changes":[3.8419903E1,2.6175585E0,4.3431244E0,4.4540405E-2,3.7768865E-1,3.216896E-1,4.5253563E-1,0E0,0E0,1.075983E-3,5.9483297E-2,1.2272477E-2,0E0,0E0,0E0,0E0,0E0,0E0,0E0,0E0,0E0],"parents":[2147483647,0,0,1,1,2,2,3,3,4,4,5,5,6,6,9,9,10,10,11,11],"right_children":[2,4,6,8,10,12,14,-1,-1,16,18,20,-1,-1,-1,-1,-1,-1,-1,-1,-1],"split_conditions":[2.6186558E1,2.5936457E1,2.6303942E1,3.653085E1,2.6024277E1,2.6297863E1,2.8574207E-1,-3.8036131E-3,-3.0184942E-3,2.5135392E-1,4.9476914E3,5.0518394E3,2.5127253E-3,6.275548E-3,4.3202527E-3,-1.3437703E-3,-2.0371957E-3,-8.3086774E-4,-4.220393E-5,6.353674E-4,1.2222481E-3],"split_indices":[10,10,12,38,12,66,51,0,0,4,31,108,0,0,0,0,0,0,0,0,0],"split_type":[0,0,0,0,0,0,0,0,0,0,0,0,0,0,0,0,0,0,0,0,0],"sum_hessian":[1.444E3,8.51E2,5.93E2,5.42E2,3.09E2,2.62E2,3.31E2,3.39E2,2.03E2,1.59E2,1.5E2,1.09E2,1.53E2,1.72E2,1.59E2,4.8E1,1.11E2,7.8E1,7.2E1,4.4E1,6.5E1],"tree_param":{"num_deleted":"0","num_feature":"177","num_nodes":"21","size_leaf_vector":"1"}},{"base_weights":[5.871027E-4,-1.3188535E-1,1.923773E-1,-1.6990349E-1,-5.136953E-2,2.8474995E-1,1.14680156E-1,-3.6156715E-3,-2.5745006E-3,-7.843552E-2,-1.2436726E-2,6.323264E-3,4.7485284E-3,6.436155E-2,1.5410689E-1,-1.1143545E-3,-1.834471E-3,-5.089966E-4,1.5056023E-4,7.580266E-4,1.5935893E-3,3.542841E-3,2.3618848E-3],"categories":[],"categories_nodes":[],"categories_segments":[],"categories_sizes":[],"default_left":[0,0,0,0,0,0,0,0,0,0,0,0,0,0,0,0,0,0,0,0,0,0,0],"id":28,"left_children":[1,3,5,7,9,11,13,-1,-1,15,17,-1,-1,19,21,-1,-1,-1,-1,-1,-1,-1,-1],"loss_changes":[3.6941486E1,2.588873E0,4.0999165E0,1.4439392E-1,2.933352E-1,2.3077011E-2,6.070776E-1,0E0,0E0,2.4558067E-2,3.2653928E-2,0E0,0E0,4.7318816E-2,4.638195E-2,0E0,0E0,0E0,0E0,0E0,0E0,0E0,0E0],"parents":[2147483647,0,0,1,1,2,2,3,3,4,4,5,5,6,6,9,9,10,10,13,13,14,14],"right_children":[2,4,6,8,10,12,14,-1,-1,16,18,-1,-1,20,22,-1,-1,-1,-1,-1,-1,-1,-1],"split_conditions":[2.6116997E1,2.5977596E1,3.8503883E1,4.238043E1,2.8682913E1,3.8066425E1,2.6221249E1,-3.6156715E-3,-2.5745006E-3,4.8328842E1,4.975579E3,6.323264E-3,4.7485284E-3,3.9151924E1,5.0304414E3,-1.1143545E-3,-1.834471E-3,-5.089966E-4,1.5056023E-4,7.580266E-4,1.5935893E-3,3.542841E-3,2.3618848E-3],"split_indices":[12,12,138,35,22,138,12,0,0,36,31,0,0,138,104,0,0,0,0,0,0,0,0],"split_type":[0,0,0,0,0,0,0,0,0,0,0,0,0,0,0,0,0,0,0,0,0,0,0],"sum_hessian":[1.444E3,8.55E2,5.89E2,5.77E2,2.78E2,2.63E2,3.26E2,4.43E2,1.34E2,1.61E2,1.17E2,1.41E2,1.22E2,1.49E2,1.77E2,6.9E1,9.2E1,7E1,4.7E1,6.1E1,8.8E1,9.6E1,8.1E1],"tree_param":{"num_deleted":"0","num_feature":"177","num_nodes":"23","size_leaf_vector":"1"}},{"base_weights":[6.0969475E-4,-1.2600432E-1,1.9360286E-1,-1.6576578E-1,-4.3788362E-2,2.7987665E-1,1.17676385E-1,-3.507867E-3,-2.3773087E-3,-7.131095E-2,-5.4899586E-4,6.201138E-3,4.668621E-3,7.652422E-2,1.6095583E-1,-1.6781245E-3,-8.9162885E-4,-2.9750558E-4,3.868037E-4,9.467289E-4,1.8699187E-3,1.28896E-3,3.3262684E-3],"categories":[],"categories_nodes":[],"categories_segments":[],"categories_sizes":[],"default_left":[0,0,0,0,0,0,0,0,0,0,0,0,0,0,0,0,0,0,0,0,0,0,0],"id":29,"left_children":[1,3,5,7,9,11,13,-1,-1,15,17,-1,-1,19,21,-1,-1,-1,-1,-1,-1,-1,-1],"loss_changes":[3.5529217E1,2.833912E0,3.6083946E0,1.6216469E-1,3.484916E-1,1.0976791E-2,4.9944353E-1,0E0,0E0,4.1559756E-2,3.5346083E-2,0E0,0E0,6.257892E-2,2.3447037E-2,0E0,0E0,0E0,0E0,0E0,0E0,0E0,0E0],"parents":[2147483647,0,0,1,1,2,2,3,3,4,4,5,5,6,6,9,9,10,10,13,13,14,14],"right_children":[2,4,6,8,10,12,14,-1,-1,16,18,-1,-1,20,22,-1,-1,-1,-1,-1,-1,-1,-1],"split_conditions":[2.621117E1,1.9870474E3,3.8479633E1,1.9326758E3,2.6095493E1,3.8066425E1,2.5663372E3,-3.507867E-3,-2.3773087E-3,2.6021963E1,2.6158562E1,6.201138E-3,4.668621E-3,5.0692827E3,2.6004154E-2,-1.6781245E-3,-8.9162885E-4,-2.9750558E-4,3.868037E-4,9.467289E-4,1.8699187E-3,1.28896E-3,3.3262684E-3],"split_indices":[10,47,88,47,10,138,47,0,0,12,67,0,0,54,141,0,0,0,0,0,0,0,0],"split_type":[0,0,0,0,0,0,0,0,0,0,0,0,0,0,0,0,0,0,0,0,0,0,0],"sum_hessian":[1.444E3,8.73E2,5.71E2,5.85E2,2.88E2,2.61E2,3.1E2,4.74E2,1.11E2,1.74E2,1.14E2,1.41E2,1.2E2,1.66E2,1.44E2,1.11E2,6.3E1,6.7E1,4.7E1,6.8E1,9.8E1,1.1E1,1.33E2],"tree_param":{"num_deleted":"0","num_feature":"177","num_nodes":"23","size_leaf_vector":"1"}},{"base_weights":[6.316733E-4,-1.2750004E-1,1.8403901E-1,-1.6678572E-1,-5.703261E-2,9.807179E-2,2.6179537E-1,-3.5884224E-3,-2.8375888E-3,-8.840147E-2,-2.200257E-2,5.3458877E-2,1.3079025E-1,5.9737973E-3,4.233175E-3,-1.2659685E-3,-1.9212111E-3,-7.863924E-4,-3.8147962E-5,6.492812E-4,1.3097865E-3,1.9576836E-3,2.907699E-3],"categories":[],"categories_nodes":[],"categories_segments":[],"categories_sizes":[],"default_left":[0,0,0,0,0,0,0,0,0,0,0,0,0,0,0,0,0,0,0,0,0,0,0],"id":30,"left_children":[1,3,5,7,9,11,13,-1,-1,15,17,19,21,-1,-1,-1,-1,-1,-1,-1,-1,-1,-1],"loss_changes":[3.416925E1,2.322155E0,3.8689556E0,4.486084E-2,3.3531427E-1,3.91263E-1,2.5917435E-1,0E0,0E0,1.1292696E-3,5.3563334E-2,2.2709906E-2,8.087397E-3,0E0,0E0,0E0,0E0,0E0,0E0,0E0,0E0,0E0,0E0],"parents":[2147483647,0,0,1,1,2,2,3,3,4,4,5,5,6,6,9,9,10,10,11,11,12,12],"right_children":[2,4,6,8,10,12,14,-1,-1,16,18,20,22,-1,-1,-1,-1,-1,-1,-1,-1,-1,-1],"split_conditions":[2.6186558E1,2.5936457E1,2.647242E1,4.2048065E1,2.6024277E1,2.6315804E1,3.8158375E1,-3.5884224E-3,-2.8375888E-3,2.5135392E-1,4.9476914E3,2.528654E3,2.5663372E3,5.9737973E-3,4.233175E-3,-1.2659685E-3,-1.9212111E-3,-7.863924E-4,-3.8147962E-5,6.492812E-4,1.3097865E-3,1.9576836E-3,2.907699E-3],"split_indices":[10,10,10,82,12,67,138,0,0,4,31,47,47,0,0,0,0,0,0,0,0,0,0],"split_type":[0,0,0,0,0,0,0,0,0,0,0,0,0,0,0,0,0,0,0,0,0,0,0],"sum_hessian":[1.444E3,8.51E2,5.93E2,5.42E2,3.09E2,2.87E2,3.06E2,3.39E2,2.03E2,1.59E2,1.5E2,1.27E2,1.6E2,1.62E2,1.44E2,4.8E1,1.11E2,7.8E1,7.2E1,5.3E1,7.4E1,6.1E1,9.9E1],"tree_param":{"num_deleted":"0","num_feature":"177","num_nodes":"23","size_leaf_vector":"1"}},{"base_weights":[6.418195E-4,-1.2501124E-1,1.8050103E-1,-1.637172E-1,-5.627768E-2,9.020583E-2,2.5148746E-1,-3.5177274E-3,-2.7884427E-3,-8.697222E-2,-2.1589402E-2,4.905944E-2,2.379314E-3,3.7530726E-3,5.628495E-3,-1.2430284E-3,-1.8887058E-3,-7.716227E-4,-3.743456E-5,6.152252E-4,1.1904294E-3],"categories":[],"categories_nodes":[],"categories_segments":[],"categories_sizes":[],"default_left":[0,0,0,0,0,0,0,0,0,0,0,0,0,0,0,0,0,0,0,0,0],"id":31,"left_children":[1,3,5,7,9,11,13,-1,-1,15,17,19,-1,-1,-1,-1,-1,-1,-1,-1,-1],"loss_changes":[3.2860023E1,2.2312326E0,3.719593E0,3.8517952E-2,3.2706976E-1,2.9150963E-1,3.704033E-1,0E0,0E0,1.4032125E-3,5.156973E-2,1.3817579E-2,0E0,0E0,0E0,0E0,0E0,0E0,0E0,0E0,0E0],"parents":[2147483647,0,0,1,1,2,2,3,3,4,4,5,5,6,6,9,9,10,10,11,11],"right_children":[2,4,6,8,10,12,14,-1,-1,16,18,20,-1,-1,-1,-1,-1,-1,-1,-1,-1],"split_conditions":[2.6186558E1,3.867951E1,2.6453959E1,3.653085E1,2.6024277E1,2.5483635E3,1.02332904E3,-3.5177274E-3,-2.7884427E-3,2.5135392E-1,4.9342197E3,2.6238016E1,2.379314E-3,3.7530726E-3,5.628495E-3,-1.2430284E-3,-1.8887058E-3,-7.716227E-4,-3.743456E-5,6.152252E-4,1.1904294E-3],"split_indices":[10,38,10,38,12,65,18,0,0,4,33,10,0,0,0,0,0,0,0,0,0],"split_type":[0,0,0,0,0,0,0,0,0,0,0,0,0,0,0,0,0,0,0,0,0],"sum_hessian":[1.444E3,8.51E2,5.93E2,5.4E2,3.11E2,2.66E2,3.27E2,3.39E2,2.01E2,1.61E2,1.5E2,1.15E2,1.51E2,1.16E2,2.11E2,4.8E1,1.13E2,7.8E1,7.2E1,4.9E1,6.6E1],"tree_param":{"num_deleted":"0","num_feature":"177","num_nodes":"21","size_leaf_vector":"1"}},{"base_weights":[6.4039393E-4,-1.2257096E-1,1.7700447E-1,-1.6078493E-1,-5.5721983E-2,2.6352766E-1,1.0514405E-1,-3.4651991E-3,-2.7685994E-3,-8.575121E-2,-2.1182952E-2,5.915815E-3,4.4483566E-3,5.836352E-2,1.4240539E-1,-1.220503E-3,-1.8607639E-3,-7.5710384E-4,-3.6721165E-5,6.514056E-4,1.436595E-3,2.1844525E-3,3.2897189E-3],"categories":[],"categories_nodes":[],"categories_segments":[],"categories_sizes":[],"default_left":[0,0,0,0,0,0,0,0,0,0,0,0,0,0,0,0,0,0,0,0,0,0,0],"id":32,"left_children":[1,3,5,7,9,11,13,-1,-1,15,17,-1,-1,19,21,-1,-1,-1,-1,-1,-1,-1,-1],"loss_changes":[3.159533E1,2.1419106E0,3.5795803E0,3.1230927E-2,3.217783E-1,2.6510239E-2,5.423839E-1,0E0,0E0,2.0617247E-3,4.964868E-2,0E0,0E0,4.283446E-2,4.4255257E-2,0E0,0E0,0E0,0E0,0E0,0E0,0E0,0E0],"parents":[2147483647,0,0,1,1,2,2,3,3,4,4,5,5,6,6,9,9,10,10,13,13,14,14],"right_children":[2,4,6,8,10,12,14,-1,-1,16,18,-1,-1,20,22,-1,-1,-1,-1,-1,-1,-1,-1],"split_conditions":[2.6186558E1,2.5929977E1,3.8503883E1,4.1986355E1,2.6024277E1,8.803623E2,2.6338741E1,-3.4651991E-3,-2.7685994E-3,2.5135392E-1,4.9476914E3,5.915815E-3,4.4483566E-3,5.0621597E3,4.610209E0,-1.220503E-3,-1.8607639E-3,-7.5710384E-4,-3.6721165E-5,6.514056E-4,1.436595E-3,2.1844525E-3,3.2897189E-3],"split_indices":[10,10,138,82,12,17,10,0,0,4,31,0,0,59,7,0,0,0,0,0,0,0,0],"split_type":[0,0,0,0,0,0,0,0,0,0,0,0,0,0,0,0,0,0,0,0,0,0,0],"sum_hessian":[1.444E3,8.51E2,5.93E2,5.37E2,3.14E2,2.63E2,3.3E2,3.23E2,2.14E2,1.64E2,1.5E2,1.3E2,1.33E2,1.52E2,1.78E2,4.8E1,1.16E2,7.8E1,7.2E1,5.8E1,9.4E1,8.3E1,9.5E1],"tree_param":{"num_deleted":"0","num_feature":"177","num_nodes":"23","size_leaf_vector":"1"}},{"base_weights":[6.548011E-4,-1.1644173E-1,1.7914E-1,-1.5316293E-1,-4.051096E-2,2.5903037E-1,1.0883354E-1,-3.2289245E-3,-2.133851E-3,-6.677921E-2,-1.4906472E-3,5.7816897E-3,4.351414E-3,7.0735455E-2,1.4890471E-1,-1.5730212E-3,-8.770128E-4,-2.9789572E-4,3.6486698E-4,8.671612E-4,1.7257658E-3,1.1651539E-3,3.0803883E-3],"categories":[],"categories_nodes":[],"categories_segments":[],"categories_sizes":[],"default_left":[0,0,0,0,0,0,0,0,0,0,0,0,0,0,0,0,0,0,0,0,0,0,0],"id":33,"left_children":[1,3,5,7,9,11,13,-1,-1,15,17,-1,-1,19,21,-1,-1,-1,-1,-1,-1,-1,-1],"loss_changes":[3.0388393E1,2.4170752E0,3.094324E0,1.4098263E-1,2.9982594E-1,1.6963959E-2,4.2822576E-1,0E0,0E0,3.0391335E-2,3.3894274E-2,0E0,0E0,5.4104626E-2,2.4217129E-2,0E0,0E0,0E0,0E0,0E0,0E0,0E0,0E0],"parents":[2147483647,0,0,1,1,2,2,3,3,4,4,5,5,6,6,9,9,10,10,13,13,14,14],"right_children":[2,4,6,8,10,12,14,-1,-1,16,18,-1,-1,20,22,-1,-1,-1,-1,-1,-1,-1,-1],"split_conditions":[2.621117E1,1.9870474E3,3.8479633E1,3.8124428E1,2.879319E1,3.802156E1,2.5663372E3,-3.2289245E-3,-2.133851E-3,2.602968E1,2.6093794E1,5.7816897E-3,4.351414E-3,5.5510957E3,2.6004154E-2,-1.5730212E-3,-8.770128E-4,-2.9789572E-4,3.6486698E-4,8.671612E-4,1.7257658E-3,1.1651539E-3,3.0803883E-3],"split_indices":[10,47,88,38,22,38,47,0,0,10,71,0,0,34,141,0,0,0,0,0,0,0,0],"split_type":[0,0,0,0,0,0,0,0,0,0,0,0,0,0,0,0,0,0,0,0,0,0,0],"sum_hessian":[1.444E3,8.73E2,5.71E2,5.85E2,2.88E2,2.61E2,3.1E2,4.86E2,9.9E1,1.7E2,1.18E2,1.34E2,1.27E2,1.66E2,1.44E2,1.04E2,6.6E1,7.1E1,4.7E1,6.7E1,9.9E1,1.1E1,1.33E2],"tree_param":{"num_deleted":"0","num_feature":"177","num_nodes":"23","size_leaf_vector":"1"}},{"base_weights":[6.737574E-4,-1.1782503E-1,1.7029181E-1,-1.5425935E-1,-5.312302E-2,2.4249595E-1,9.099233E-2,-3.3172693E-3,-2.6227494E-3,-1.8751793E-2,-8.063426E-2,5.532171E-3,1.958116E-1,5.0180875E-2,1.2200206E-1,-6.428249E-4,3.3034066E-5,-1.0789412E-3,-1.7518392E-3,4.018701E-3,1.668106E-3,6.2658766E-4,1.2469264E-3,2.7517723E-3,1.8908249E-3],"categories":[],"categories_nodes":[],"categories_segments":[],"categories_sizes":[],"default_left":[0,0,0,0,0,0,0,0,0,0,0,0,0,0,0,0,0,0,0,0,0,0,0,0,0],"id":34,"left_children":[1,3,5,7,9,11,13,-1,-1,15,17,-1,19,21,23,-1,-1,-1,-1,-1,-1,-1,-1,-1,-1],"loss_changes":[2.9224546E1,1.9769373E0,3.313673E0,3.7474632E-2,2.9124784E-1,2.2286797E-1,3.4019613E-1,0E0,0E0,4.0424615E-2,8.682013E-3,0E0,1.4395714E-3,2.11941E-2,4.728079E-3,0E0,0E0,0E0,0E0,0E0,0E0,0E0,0E0,0E0,0E0],"parents":[2147483647,0,0,1,1,2,2,3,3,4,4,5,5,6,6,9,9,10,10,12,12,13,13,14,14],"right_children":[2,4,6,8,10,12,14,-1,-1,16,18,-1,20,22,24,-1,-1,-1,-1,-1,-1,-1,-1,-1,-1],"split_conditions":[2.6186558E1,3.867951E1,1.5497935E0,4.2048065E1,1.5933404E1,3.8158375E1,2.6322916E1,-3.3172693E-3,-2.6227494E-3,4.9663945E3,4.8340042E1,5.532171E-3,3.03817E1,4.4318545E3,5.058755E3,-6.428249E-4,3.3034066E-5,-1.0789412E-3,-1.7518392E-3,4.018701E-3,1.668106E-3,6.2658766E-4,1.2469264E-3,2.7517723E-3,1.8908249E-3],"split_indices":[10,38,1,82,21,138,10,0,0,31,36,0,81,63,59,0,0,0,0,0,0,0,0,0,0],"split_type":[0,0,0,0,0,0,0,0,0,0,0,0,0,0,0,0,0,0,0,0,0,0,0,0,0],"sum_hessian":[1.444E3,8.51E2,5.93E2,5.4E2,3.11E2,3.05E2,2.88E2,3.39E2,2.01E2,1.42E2,1.69E2,1.62E2,1.43E2,1.3E2,1.58E2,8.4E1,5.8E1,4.4E1,1.25E2,1.33E2,1E1,5.8E1,7.2E1,8.8E1,7E1],"tree_param":{"num_deleted":"0","num_feature":"177","num_nodes":"25","size_leaf_vector":"1"}},{"base_weights":[6.889833E-4,-1.1371782E-1,1.6966215E-1,-1.472147E-1,-4.1619424E-2,1.0195348E-1,2.4890189E-1,-3.175836E-3,-2.2892717E-3,-6.4263396E-2,-4.380209E-3,1.4059971E-1,6.34891E-2,4.188791E-3,5.574082E-3,-1.4915501E-3,-8.1096945E-4,-3.1551748E-4,2.491466E-4,1.0168559E-3,2.898934E-3,7.741003E-4,1.5961888E-3],"categories":[],"categories_nodes":[],"categories_segments":[],"categories_sizes":[],"default_left":[0,0,0,0,0,0,0,0,0,0,0,0,0,0,0,0,0,0,0,0,0,0,0],"id":35,"left_children":[1,3,5,7,9,11,13,-1,-1,15,17,19,21,-1,-1,-1,-1,-1,-1,-1,-1,-1,-1],"loss_changes":[2.8108072E1,2.0632315E0,3.022499E0,1.328268E-1,2.3638731E-1,4.3848085E-1,2.2151947E-2,0E0,0E0,2.7684689E-2,2.2472622E-2,2.4799585E-2,5.4126203E-2,0E0,0E0,0E0,0E0,0E0,0E0,0E0,0E0,0E0,0E0],"parents":[2147483647,0,0,1,1,2,2,3,3,4,4,5,5,6,6,9,9,10,10,11,11,12,12],"right_children":[2,4,6,8,10,12,14,-1,-1,16,18,20,22,-1,-1,-1,-1,-1,-1,-1,-1,-1,-1],"split_conditions":[2.619836E1,1.9870474E3,2.653546E1,4.7378667E3,2.879319E1,3.0318497E1,3.011044E1,-3.175836E-3,-2.2892717E-3,2.6021963E1,2.383856E3,2.2098597E-2,3.0409805E1,4.188791E-3,5.574082E-3,-1.4915501E-3,-8.1096945E-4,-3.1551748E-4,2.491466E-4,1.0168559E-3,2.898934E-3,7.741003E-4,1.5961888E-3],"split_indices":[10,47,10,31,22,128,75,0,0,12,39,141,23,0,0,0,0,0,0,0,0,0,0],"split_type":[0,0,0,0,0,0,0,0,0,0,0,0,0,0,0,0,0,0,0,0,0,0,0],"sum_hessian":[1.444E3,8.62E2,5.82E2,5.85E2,2.77E2,3.2E2,2.62E2,4.18E2,1.67E2,1.7E2,1.07E2,1.53E2,1.67E2,1.3E2,1.32E2,1.11E2,5.9E1,6.4E1,4.3E1,1E1,1.43E2,7.3E1,9.4E1],"tree_param":{"num_deleted":"0","num_feature":"177","num_nodes":"23","size_leaf_vector":"1"}},{"base_weights":[7.0344174E-4,-1.06432624E-1,1.7423823E-1,-1.3998339E-1,-2.3522833E-2,4.913732E-3,1.08956575E-1,-3.0421098E-3,-1.9154135E-3,-4.8802488E-2,1.0037519E-2,7.126571E-2,1.4122237E-1,-6.7973096E-4,-1.2276494E-3,-1.1330096E-4,4.839143E-4,1.6712786E-3,9.608163E-4,1.0911737E-3,2.9057958E-3],"categories":[],"categories_nodes":[],"categories_segments":[],"categories_sizes":[],"default_left":[0,0,0,0,0,0,0,0,0,0,0,0,0,0,0,0,0,0,0,0,0],"id":36,"left_children":[1,3,5,7,9,-1,11,-1,-1,13,15,17,19,-1,-1,-1,-1,-1,-1,-1,-1],"loss_changes":[2.7032293E1,2.484272E0,2.4548225E0,2.696371E-1,2.2727373E-1,0E0,3.1330013E-1,0E0,0E0,1.7899483E-2,2.6919113E-2,2.2200108E-2,1.5355587E-2,0E0,0E0,0E0,0E0,0E0,0E0,0E0,0E0],"parents":[2147483647,0,0,1,1,2,2,3,3,4,4,6,6,9,9,10,10,11,11,12,12],"right_children":[2,4,6,8,10,-1,12,-1,-1,14,16,18,20,-1,-1,-1,-1,-1,-1,-1,-1],"split_conditions":[2.6230028E1,2.5987495E1,3.846814E1,4.8367397E3,2.6117588E1,4.913732E-3,5.870186E2,-3.0421098E-3,-1.9154135E-3,3.006837E1,3.0217842E1,2.066565E3,2.2098597E-2,-6.7973096E-4,-1.2276494E-3,-1.1330096E-4,4.839143E-4,1.6712786E-3,9.608163E-4,1.0911737E-3,2.9057958E-3],"split_indices":[10,10,138,33,10,0,6,0,0,81,130,91,141,0,0,0,0,0,0,0,0],"split_type":[0,0,0,0,0,0,0,0,0,0,0,0,0,0,0,0,0,0,0,0,0],"sum_hessian":[1.444E3,8.94E2,5.5E2,6.34E2,2.6E2,2.56E2,2.94E2,4.88E2,1.46E2,1.47E2,1.13E2,1.43E2,1.51E2,7.6E1,7.1E1,5.5E1,5.8E1,8.5E1,5.8E1,1E1,1.41E2],"tree_param":{"num_deleted":"0","num_feature":"177","num_nodes":"21","size_leaf_vector":"1"}},{"base_weights":[7.068984E-4,-1.1104091E-1,1.6066107E-1,-1.4563568E-1,-5.052189E-2,7.856148E-2,2.2265245E-1,-3.1663587E-3,-2.5249051E-3,-1.7735748E-2,-7.632389E-2,4.036451E-2,1.0160139E-1,3.4700274E-3,5.118777E-3,-6.506142E-4,-1.8853883E-5,-1.6675257E-3,-1.0391652E-3,4.992989E-4,9.5174846E-4,2.2358764E-3,1.4991619E-3],"categories":[],"categories_nodes":[],"categories_segments":[],"categories_sizes":[],"default_left":[0,0,0,0,0,0,0,0,0,0,0,0,0,0,0,0,0,0,0,0,0,0,0],"id":37,"left_children":[1,3,5,7,9,11,13,-1,-1,15,17,19,21,-1,-1,-1,-1,-1,-1,-1,-1,-1,-1],"loss_changes":[2.5989391E1,1.7553682E0,2.9560423E0,3.3350945E-2,2.6308912E-1,2.1270895E-1,3.3095932E-1,0E0,0E0,3.63692E-2,8.754492E-3,6.072715E-3,2.0935535E-3,0E0,0E0,0E0,0E0,0E0,0E0,0E0,0E0,0E0,0E0],"parents":[2147483647,0,0,1,1,2,2,3,3,4,4,5,5,6,6,9,9,10,10,11,11,12,12],"right_children":[2,4,6,8,10,12,14,-1,-1,16,18,20,22,-1,-1,-1,-1,-1,-1,-1,-1,-1,-1],"split_conditions":[2.6186558E1,2.5929977E1,2.6446001E1,4.1881332E1,1.5933404E1,2.6293318E1,2.6611235E1,-3.1663587E-3,-2.5249051E-3,4.9482964E3,2.6006533E1,5.516118E3,9.448965E2,3.4700274E-3,5.118777E-3,-6.506142E-4,-1.8853883E-5,-1.6675257E-3,-1.0391652E-3,4.992989E-4,9.5174846E-4,2.2358764E-3,1.4991619E-3],"split_indices":[10,10,10,83,21,10,66,0,0,59,10,34,146,0,0,0,0,0,0,0,0,0,0],"split_type":[0,0,0,0,0,0,0,0,0,0,0,0,0,0,0,0,0,0,0,0,0,0,0],"sum_hessian":[1.444E3,8.51E2,5.93E2,5.37E2,3.14E2,2.6E2,3.33E2,3.03E2,2.34E2,1.42E2,1.72E2,1.03E2,1.57E2,1.47E2,1.86E2,7.3E1,6.9E1,1.24E2,4.8E1,4E1,6.3E1,1.02E2,5.5E1],"tree_param":{"num_deleted":"0","num_feature":"177","num_nodes":"23","size_leaf_vector":"1"}},{"base_weights":[7.090137E-4,-1.08873054E-1,1.5756303E-1,-1.4252187E-1,-4.9116824E-2,7.708821E-2,2.1832639E-1,-3.0853078E-3,-2.4421199E-3,-7.3374905E-2,-1.600042E-2,4.2252943E-2,2.0319116E-3,3.1629337E-3,4.870358E-3,-9.849902E-4,-1.6189052E-3,-5.6098396E-4,4.8041027E-5,4.904149E-4,9.954907E-4],"categories":[],"categories_nodes":[],"categories_segments":[],"categories_sizes":[],"default_left":[0,0,0,0,0,0,0,0,0,0,0,0,0,0,0,0,0,0,0,0,0],"id":38,"left_children":[1,3,5,7,9,11,13,-1,-1,15,17,19,-1,-1,-1,-1,-1,-1,-1,-1,-1],"loss_changes":[2.4991745E1,1.6861811E0,2.840022E0,3.6481857E-2,2.4798542E-1,2.0477247E-1,3.1985664E-1,0E0,0E0,1.3124883E-2,3.137871E-2,9.635642E-3,0E0,0E0,0E0,0E0,0E0,0E0,0E0,0E0,0E0],"parents":[2147483647,0,0,1,1,2,2,3,3,4,4,5,5,6,6,9,9,10,10,11,11],"right_children":[2,4,6,8,10,12,14,-1,-1,16,18,20,-1,-1,-1,-1,-1,-1,-1,-1,-1],"split_conditions":[2.6186558E1,3.867951E1,2.6446001E1,3.6262867E1,2.6065405E1,2.6298574E1,2.6570929E1,-3.0853078E-3,-2.4421199E-3,2.4824466E-1,2.369269E3,5.516118E3,2.0319116E-3,3.1629337E-3,4.870358E-3,-9.849902E-4,-1.6189052E-3,-5.6098396E-4,4.8041027E-5,4.904149E-4,9.954907E-4],"split_indices":[10,38,10,38,10,116,116,0,0,4,39,34,0,0,0,0,0,0,0,0,0],"split_type":[0,0,0,0,0,0,0,0,0,0,0,0,0,0,0,0,0,0,0,0,0],"sum_hessian":[1.444E3,8.51E2,5.93E2,5.4E2,3.11E2,2.6E2,3.33E2,3.22E2,2.18E2,1.76E2,1.35E2,1.13E2,1.47E2,1.09E2,2.24E2,5.1E1,1.25E2,8E1,5.5E1,4E1,7.3E1],"tree_param":{"num_deleted":"0","num_feature":"177","num_nodes":"21","size_leaf_vector":"1"}},{"base_weights":[7.051793E-4,-1.0674596E-1,1.5450893E-1,-1.3972196E-1,-4.8183754E-2,2.200561E-1,8.252203E-2,-3.0354487E-3,-2.4092633E-3,-1.7066723E-2,-7.308769E-2,1.8069647E-1,5.110353E-3,4.597942E-2,1.1105449E-1,-6.392232E-4,-2.901845E-5,-1.0423004E-3,-1.6166512E-3,3.70396E-3,1.4849701E-3,5.677172E-4,1.1419929E-3,1.7578525E-3,2.531875E-3],"categories":[],"categories_nodes":[],"categories_segments":[],"categories_sizes":[],"default_left":[0,0,0,0,0,0,0,0,0,0,0,0,0,0,0,0,0,0,0,0,0,0,0,0,0],"id":39,"left_children":[1,3,5,7,9,11,13,-1,-1,15,17,19,-1,21,23,-1,-1,-1,-1,-1,-1,-1,-1,-1,-1],"loss_changes":[2.4029202E1,1.6194E0,2.7308884E0,3.506756E-2,2.3864317E-1,2.0182896E-1,2.7996552E-1,0E0,0E0,3.395866E-2,7.199943E-3,9.831905E-3,0E0,1.869917E-2,2.313614E-3,0E0,0E0,0E0,0E0,0E0,0E0,0E0,0E0,0E0,0E0],"parents":[2147483647,0,0,1,1,2,2,3,3,4,4,5,5,6,6,9,9,10,10,11,11,13,13,14,14],"right_children":[2,4,6,8,10,12,14,-1,-1,16,18,20,-1,22,24,-1,-1,-1,-1,-1,-1,-1,-1,-1,-1],"split_conditions":[2.6186558E1,3.867951E1,1.5497935E0,3.6087574E1,1.5933404E1,2.6645071E1,2.6322464E1,-3.0354487E-3,-2.4092633E-3,4.9476914E3,2.5135392E-1,3.03817E1,5.110353E-3,4.4318545E3,2.6392063E1,-6.392232E-4,-2.901845E-5,-1.0423004E-3,-1.6166512E-3,3.70396E-3,1.4849701E-3,5.677172E-4,1.1419929E-3,1.7578525E-3,2.531875E-3],"split_indices":[10,38,1,38,21,67,67,0,0,31,4,81,0,63,67,0,0,0,0,0,0,0,0,0,0],"split_type":[0,0,0,0,0,0,0,0,0,0,0,0,0,0,0,0,0,0,0,0,0,0,0,0,0],"sum_hessian":[1.444E3,8.51E2,5.93E2,5.4E2,3.11E2,3.05E2,2.88E2,3.11E2,2.29E2,1.42E2,1.69E2,1.59E2,1.46E2,1.32E2,1.56E2,7E1,7.2E1,5.6E1,1.13E2,1.49E2,1E1,5.8E1,7.4E1,7.6E1,8E1],"tree_param":{"num_deleted":"0","num_feature":"177","num_nodes":"25","size_leaf_vector":"1"}},{"base_weights":[7.1680767E-4,-9.878105E-2,1.6047755E-1,-1.2858875E-1,-2.0483417E-2,9.920708E-2,2.2635004E-1,-2.8095432E-3,-1.7454831E-3,-4.3468866E-2,8.536848E-3,6.5523535E-2,1.302574E-1,3.8133222E-3,5.111477E-3,-9.89417E-4,-4.5300927E-4,-1.1153987E-4,4.434903E-4,8.6201075E-4,1.5388982E-3,9.867223E-4,2.6855099E-3],"categories":[],"categories_nodes":[],"categories_segments":[],"categories_sizes":[],"default_left":[0,0,0,0,0,0,0,0,0,0,0,0,0,0,0,0,0,0,0,0,0,0,0],"id":40,"left_children":[1,3,5,7,9,11,13,-1,-1,15,17,19,21,-1,-1,-1,-1,-1,-1,-1,-1,-1,-1],"loss_changes":[2.311235E1,2.07798E0,2.1398325E0,2.5697517E-1,1.7061752E-1,2.689991E-1,3.2701492E-2,0E0,0E0,1.2140423E-2,2.2946004E-2,2.2601664E-2,1.564908E-2,0E0,0E0,0E0,0E0,0E0,0E0,0E0,0E0,0E0,0E0],"parents":[2147483647,0,0,1,1,2,2,3,3,4,4,5,5,6,6,9,9,10,10,11,11,12,12],"right_children":[2,4,6,8,10,12,14,-1,-1,16,18,20,22,-1,-1,-1,-1,-1,-1,-1,-1,-1,-1],"split_conditions":[2.614077E1,2.4093997E3,2.6272997E1,2.9549353E1,4.9519214E3,2.5663372E3,3.0136242E1,-2.8095432E-3,-1.7454831E-3,2.8351605E-1,3.0217842E1,2.628469E1,2.2098597E-2,3.8133222E-3,5.111477E-3,-9.89417E-4,-4.5300927E-4,-1.1153987E-4,4.434903E-4,8.6201075E-4,1.5388982E-3,9.867223E-4,2.6855099E-3],"split_indices":[12,47,11,23,31,47,22,0,0,4,130,66,141,0,0,0,0,0,0,0,0,0,0],"split_type":[0,0,0,0,0,0,0,0,0,0,0,0,0,0,0,0,0,0,0,0,0,0,0],"sum_hessian":[1.444E3,8.91E2,5.53E2,6.43E2,2.48E2,2.93E2,2.6E2,4.9E2,1.53E2,1.37E2,1.11E2,1.48E2,1.45E2,1.34E2,1.26E2,1.01E2,3.6E1,5.6E1,5.5E1,5.8E1,9E1,1E1,1.35E2],"tree_param":{"num_deleted":"0","num_feature":"177","num_nodes":"23","size_leaf_vector":"1"}},{"base_weights":[7.346346E-4,-9.941103E-2,1.5338086E-1,-1.3075155E-1,-3.4605704E-2,2.2177048E-1,9.3195006E-2,-2.826474E-3,-2.0328523E-3,-5.6515742E-2,-1.9456558E-4,4.9937717E-3,3.718086E-3,1.2629685E-1,5.927524E-2,-7.3447597E-4,-1.3343223E-3,-2.3785484E-4,3.2043236E-4,1.6917881E-3,2.7245583E-3,-8.497477E-5,1.2790122E-3],"categories":[],"categories_nodes":[],"categories_segments":[],"categories_sizes":[],"default_left":[0,0,0,0,0,0,0,0,0,0,0,0,0,0,0,0,0,0,0,0,0,0,0],"id":41,"left_children":[1,3,5,7,9,11,13,-1,-1,15,17,-1,-1,19,21,-1,-1,-1,-1,-1,-1,-1,-1],"loss_changes":[2.2226894E1,1.760623E0,2.2675266E0,1.0974598E-1,2.208522E-1,3.4258842E-2,3.1625295E-1,0E0,0E0,2.3887038E-2,2.352698E-2,0E0,0E0,6.5836906E-3,5.0363302E-2,0E0,0E0,0E0,0E0,0E0,0E0,0E0,0E0],"parents":[2147483647,0,0,1,1,2,2,3,3,4,4,5,5,6,6,9,9,10,10,13,13,14,14],"right_children":[2,4,6,8,10,12,14,-1,-1,16,18,-1,-1,20,22,-1,-1,-1,-1,-1,-1,-1,-1],"split_conditions":[2.621117E1,1.9870474E3,3.8479633E1,2.3180903E3,2.6095493E1,8.803623E2,2.043278E-2,-2.826474E-3,-2.0328523E-3,4.8298405E1,2.6158562E1,4.9937717E-3,3.718086E-3,1.1769382E3,5.036784E3,-7.3447597E-4,-1.3343223E-3,-2.3785484E-4,3.2043236E-4,1.6917881E-3,2.7245583E-3,-8.497477E-5,1.2790122E-3],"split_indices":[10,47,88,39,10,17,27,0,0,36,67,0,0,6,108,0,0,0,0,0,0,0,0],"split_type":[0,0,0,0,0,0,0,0,0,0,0,0,0,0,0,0,0,0,0,0,0,0,0],"sum_hessian":[1.444E3,8.73E2,5.71E2,5.85E2,2.88E2,2.61E2,3.1E2,4.15E2,1.7E2,1.74E2,1.14E2,1.3E2,1.31E2,1.5E2,1.6E2,6.7E1,1.07E2,6.7E1,4.7E1,3.8E1,1.12E2,1.1E1,1.49E2],"tree_param":{"num_deleted":"0","num_feature":"177","num_nodes":"23","size_leaf_vector":"1"}},{"base_weights":[7.460063E-4,-1.0059925E-1,1.4580923E-1,-1.3191572E-1,-4.581392E-2,7.003399E-2,2.011227E-1,-2.8757849E-3,-2.2845124E-3,-7.043009E-2,-1.749649E-2,3.6469653E-2,1.8178489E-3,3.1061603E-3,4.630435E-3,-1.5892653E-3,-1.0959518E-3,-6.314636E-4,-3.1527004E-5,4.556529E-4,8.569128E-4],"categories":[],"categories_nodes":[],"categories_segments":[],"categories_sizes":[],"default_left":[0,0,0,0,0,0,0,0,0,0,0,0,0,0,0,0,0,0,0,0,0],"id":42,"left_children":[1,3,5,7,9,11,13,-1,-1,15,17,19,-1,-1,-1,-1,-1,-1,-1,-1,-1],"loss_changes":[2.1375772E1,1.438406E0,2.4360247E0,3.172207E-2,2.1620286E-1,1.65452E-1,2.9791832E-1,0E0,0E0,2.0926595E-3,3.4487095E-2,4.544288E-3,0E0,0E0,0E0,0E0,0E0,0E0,0E0,0E0,0E0],"parents":[2147483647,0,0,1,1,2,2,3,3,4,4,5,5,6,6,9,9,10,10,11,11],"right_children":[2,4,6,8,10,12,14,-1,-1,16,18,20,-1,-1,-1,-1,-1,-1,-1,-1,-1],"split_conditions":[2.6186558E1,2.5929977E1,2.6442497E1,2.8560238E1,2.6024277E1,2.6293318E1,2.6602812E1,-2.8757849E-3,-2.2845124E-3,9.5307184E2,4.9318794E3,5.516118E3,1.8178489E-3,3.1061603E-3,4.630435E-3,-1.5892653E-3,-1.0959518E-3,-6.314636E-4,-3.1527004E-5,4.556529E-4,8.569128E-4],"split_indices":[10,10,10,8,12,10,116,0,0,144,54,34,0,0,0,0,0,0,0,0,0],"split_type":[0,0,0,0,0,0,0,0,0,0,0,0,0,0,0,0,0,0,0,0,0],"sum_hessian":[1.444E3,8.51E2,5.93E2,5.37E2,3.14E2,2.55E2,3.38E2,3E2,2.37E2,1.64E2,1.5E2,1.03E2,1.52E2,1.47E2,1.91E2,9.1E1,7.3E1,7.7E1,7.3E1,4E1,6.3E1],"tree_param":{"num_deleted":"0","num_feature":"177","num_nodes":"21","size_leaf_vector":"1"}},{"base_weights":[7.3931675E-4,-9.807107E-2,1.437919E-1,-1.2627415E-1,-3.833768E-2,2.0368758E-1,7.705621E-2,-2.712665E-3,-1.9517756E-3,-5.868311E-2,-9.083342E-3,4.7282754E-3,1.6692181E-1,4.2713974E-2,1.02660485E-1,-8.40502E-4,-1.3673275E-3,-3.8563486E-4,1.2998581E-4,3.4236822E-3,1.3561172E-3,5.2767026E-4,1.0465685E-3,1.5269273E-3,2.266195E-3],"categories":[],"categories_nodes":[],"categories_segments":[],"categories_sizes":[],"default_left":[0,0,0,0,0,0,0,0,0,0,0,0,0,0,0,0,0,0,0,0,0,0,0,0,0],"id":43,"left_children":[1,3,5,7,9,11,13,-1,-1,15,17,-1,19,21,23,-1,-1,-1,-1,-1,-1,-1,-1,-1,-1],"loss_changes":[2.0552244E1,1.4246073E0,2.295848E0,9.006786E-2,1.6577414E-1,1.7568016E-1,2.321949E-1,0E0,0E0,1.2410939E-2,2.0014577E-2,0E0,1.0825157E-2,1.3822064E-2,2.1425486E-3,0E0,0E0,0E0,0E0,0E0,0E0,0E0,0E0,0E0,0E0],"parents":[2147483647,0,0,1,1,2,2,3,3,4,4,5,5,6,6,9,9,10,10,12,12,13,13,14,14],"right_children":[2,4,6,8,10,12,14,-1,-1,16,18,-1,20,22,24,-1,-1,-1,-1,-1,-1,-1,-1,-1,-1],"split_conditions":[2.6116997E1,2.5977596E1,1.5497935E0,4.2334442E1,2.8682913E1,8.9978796E2,2.6322916E1,-2.712665E-3,-1.9517756E-3,4.8328842E1,4.975579E3,4.7282754E-3,3.03817E1,5.0621597E3,2.5663372E3,-8.40502E-4,-1.3673275E-3,-3.8563486E-4,1.2998581E-4,3.4236822E-3,1.3561172E-3,5.2767026E-4,1.0465685E-3,1.5269273E-3,2.266195E-3],"split_indices":[12,12,1,35,22,95,66,0,0,36,31,0,81,59,47,0,0,0,0,0,0,0,0,0,0],"split_type":[0,0,0,0,0,0,0,0,0,0,0,0,0,0,0,0,0,0,0,0,0,0,0,0,0],"sum_hessian":[1.444E3,8.55E2,5.89E2,5.77E2,2.78E2,3.05E2,2.84E2,4.21E2,1.56E2,1.61E2,1.17E2,1.47E2,1.58E2,1.27E2,1.57E2,6.9E1,9.2E1,7E1,4.7E1,1.48E2,1E1,5.4E1,7.3E1,5.7E1,1E2],"tree_param":{"num_deleted":"0","num_feature":"177","num_nodes":"25","size_leaf_vector":"1"}},{"base_weights":[7.510478E-4,-9.6707255E-2,1.402503E-1,-1.2680016E-1,-4.406182E-2,6.587807E-2,1.9236863E-1,-2.7658464E-3,-2.193928E-3,-6.557396E-2,-1.42150875E-2,1.707891E-3,3.46006E-2,1.39659E-1,4.338801E-3,-8.784185E-4,-1.4445169E-3,-5.014554E-4,4.702441E-5,4.388648E-4,8.1218715E-4,1.1784668E-3,2.882352E-3],"categories":[],"categories_nodes":[],"categories_segments":[],"categories_sizes":[],"default_left":[0,0,0,0,0,0,0,0,0,0,0,0,0,0,0,0,0,0,0,0,0,0,0],"id":44,"left_children":[1,3,5,7,9,11,13,-1,-1,15,17,-1,19,21,-1,-1,-1,-1,-1,-1,-1,-1,-1],"loss_changes":[1.9767492E1,1.328187E0,2.2545767E0,3.0684471E-2,2.0015872E-1,1.4027488E-1,3.00519E-1,0E0,0E0,1.0641038E-2,2.54768E-2,0E0,3.6063194E-3,2.5365353E-3,0E0,0E0,0E0,0E0,0E0,0E0,0E0,0E0,0E0],"parents":[2147483647,0,0,1,1,2,2,3,3,4,4,5,5,6,6,9,9,10,10,12,12,13,13],"right_children":[2,4,6,8,10,12,14,-1,-1,16,18,-1,20,22,-1,-1,-1,-1,-1,-1,-1,-1,-1],"split_conditions":[2.6186558E1,2.5929977E1,2.6437155E1,2.8560238E1,2.6065405E1,2.066565E3,2.6573315E1,-2.7658464E-3,-2.193928E-3,4.8340042E1,5.4321616E3,1.707891E-3,5.516118E3,3.910981E-3,4.338801E-3,-8.784185E-4,-1.4445169E-3,-5.014554E-4,4.702441E-5,4.388648E-4,8.1218715E-4,1.1784668E-3,2.882352E-3],"split_indices":[10,10,10,8,10,91,10,0,0,36,34,0,34,135,0,0,0,0,0,0,0,0,0],"split_type":[0,0,0,0,0,0,0,0,0,0,0,0,0,0,0,0,0,0,0,0,0,0,0],"sum_hessian":[1.444E3,8.51E2,5.93E2,5.37E2,3.14E2,2.49E2,3.44E2,3E2,2.37E2,1.79E2,1.35E2,1.48E2,1.01E2,1.2E2,2.24E2,5.1E1,1.28E2,8E1,5.5E1,4E1,6.1E1,1E1,1.1E2],"tree_param":{"num_deleted":"0","num_feature":"177","num_nodes":"23","size_leaf_vector":"1"}},{"base_weights":[7.4839673E-4,-9.481858E-2,1.3754034E-1,-1.2431023E-1,-4.3224312E-2,6.4619176E-2,1.8864141E-1,-2.717065E-3,-2.1577438E-3,-6.286326E-2,-1.1862171E-2,3.4203164E-2,1.6780964E-3,1.4991039E-1,4.449069E-3,-1.4253778E-3,-8.63281E-4,-4.510678E-4,4.6243666E-5,4.3106588E-4,8.029374E-4,1.2059682E-3,3.0689968E-3],"categories":[],"categories_nodes":[],"categories_segments":[],"categories_sizes":[],"default_left":[0,0,0,0,0,0,0,0,0,0,0,0,0,0,0,0,0,0,0,0,0,0,0],"id":45,"left_children":[1,3,5,7,9,11,13,-1,-1,15,17,19,-1,21,-1,-1,-1,-1,-1,-1,-1,-1,-1],"loss_changes":[1.9007683E1,1.2756243E0,2.167408E0,2.9462814E-2,1.9274986E-1,1.3464534E-1,2.9030037E-1,0E0,0E0,1.6907632E-2,1.9809548E-2,3.7185252E-3,0E0,1.0193348E-2,0E0,0E0,0E0,0E0,0E0,0E0,0E0,0E0,0E0],"parents":[2147483647,0,0,1,1,2,2,3,3,4,4,5,5,6,6,9,9,10,10,11,11,13,13],"right_children":[2,4,6,8,10,12,14,-1,-1,16,18,20,-1,22,-1,-1,-1,-1,-1,-1,-1,-1,-1],"split_conditions":[2.6186558E1,2.5929977E1,2.6437155E1,4.1843903E1,2.6071209E1,2.628689E1,1.1365951E3,-2.717065E-3,-2.1577438E-3,2.6006533E1,2.369269E3,5.516118E3,1.6780964E-3,3.0095865E1,4.449069E-3,-1.4253778E-3,-8.63281E-4,-4.510678E-4,4.6243666E-5,4.3106588E-4,8.029374E-4,1.2059682E-3,3.0689968E-3],"split_indices":[10,10,10,35,10,116,97,0,0,10,39,34,0,128,0,0,0,0,0,0,0,0,0],"split_type":[0,0,0,0,0,0,0,0,0,0,0,0,0,0,0,0,0,0,0,0,0,0,0],"sum_hessian":[1.444E3,8.51E2,5.93E2,5.37E2,3.14E2,2.49E2,3.44E2,2.94E2,2.43E2,1.9E2,1.24E2,1.02E2,1.47E2,1.73E2,1.71E2,1.24E2,6.6E1,6.9E1,5.5E1,4E1,6.2E1,1E1,1.63E2],"tree_param":{"num_deleted":"0","num_feature":"177","num_nodes":"23","size_leaf_vector":"1"}},{"base_weights":[7.4739766E-4,-9.2966326E-2,1.3488655E-1,-1.1844624E-1,-3.5778202E-2,1.9216157E-1,7.1986556E-2,-2.5504585E-3,-1.8105985E-3,-5.2863326E-2,-7.5449413E-3,4.5480765E-3,1.6039206E-1,4.164133E-2,1.9753196E-3,-1.2178245E-3,-7.0121704E-4,-3.2351917E-4,9.8576544E-5,3.2846376E-3,1.2682012E-3,4.936769E-4,1.0283071E-3],"categories":[],"categories_nodes":[],"categories_segments":[],"categories_sizes":[],"default_left":[0,0,0,0,0,0,0,0,0,0,0,0,0,0,0,0,0,0,0,0,0,0,0],"id":46,"left_children":[1,3,5,7,9,11,13,-1,-1,15,17,-1,19,21,-1,-1,-1,-1,-1,-1,-1,-1,-1],"loss_changes":[1.8277613E1,1.2261305E0,2.0851889E0,9.1775894E-2,1.2872764E-1,1.6471672E-1,2.1753609E-1,0E0,0E0,1.3335496E-2,1.2026066E-2,0E0,1.4961243E-2,1.7852843E-2,0E0,0E0,0E0,0E0,0E0,0E0,0E0,0E0,0E0],"parents":[2147483647,0,0,1,1,2,2,3,3,4,4,5,5,6,6,9,9,10,10,12,12,13,13],"right_children":[2,4,6,8,10,12,14,-1,-1,16,18,-1,20,22,-1,-1,-1,-1,-1,-1,-1,-1,-1],"split_conditions":[2.6186558E1,1.9870474E3,1.5497935E0,4.2339764E1,2.608391E1,8.803623E2,2.6327763E1,-2.5504585E-3,-1.8105985E-3,2.602968E1,4.975579E3,4.5480765E-3,3.03817E1,4.4318545E3,1.9753196E-3,-1.2178245E-3,-7.0121704E-4,-3.2351917E-4,9.8576544E-5,3.2846376E-3,1.2682012E-3,4.936769E-4,1.0283071E-3],"split_indices":[10,47,1,132,10,17,116,0,0,10,31,0,81,63,0,0,0,0,0,0,0,0,0],"split_type":[0,0,0,0,0,0,0,0,0,0,0,0,0,0,0,0,0,0,0,0,0,0,0],"sum_hessian":[1.444E3,8.51E2,5.93E2,5.85E2,2.66E2,3.05E2,2.88E2,4.28E2,1.57E2,1.63E2,1.03E2,1.3E2,1.75E2,1.41E2,1.47E2,1.04E2,5.9E1,6E1,4.3E1,1.65E2,1E1,5.8E1,8.3E1],"tree_param":{"num_deleted":"0","num_feature":"177","num_nodes":"23","size_leaf_vector":"1"}},{"base_weights":[7.531579E-4,-9.11453E-2,1.3229382E-1,-1.1949207E-1,-4.155385E-2,6.2094953E-2,1.8148878E-1,-2.6054566E-3,-2.0619803E-3,-1.5223194E-2,-6.333512E-2,1.6092352E-3,3.2655355E-2,1.3101628E-1,4.088708E-3,-5.610956E-4,-2.1395992E-5,-1.4400868E-3,-9.6925226E-4,4.146203E-4,7.6623395E-4,1.0949707E-3,2.706863E-3],"categories":[],"categories_nodes":[],"categories_segments":[],"categories_sizes":[],"default_left":[0,0,0,0,0,0,0,0,0,0,0,0,0,0,0,0,0,0,0,0,0,0,0],"id":47,"left_children":[1,3,5,7,9,11,13,-1,-1,15,17,-1,19,21,-1,-1,-1,-1,-1,-1,-1,-1,-1],"loss_changes":[1.7576357E1,1.1785011E0,2.0088043E0,2.863264E-2,1.7813051E-1,1.24203146E-1,2.7028084E-1,0E0,0E0,2.7273126E-2,4.857838E-3,0E0,3.1782985E-3,3.5407543E-3,0E0,0E0,0E0,0E0,0E0,0E0,0E0,0E0,0E0],"parents":[2147483647,0,0,1,1,2,2,3,3,4,4,5,5,6,6,9,9,10,10,12,12,13,13],"right_children":[2,4,6,8,10,12,14,-1,-1,16,18,-1,20,22,-1,-1,-1,-1,-1,-1,-1,-1,-1],"split_conditions":[2.6186558E1,2.5929977E1,2.6437155E1,4.1881332E1,5.328727E-1,2.066565E3,2.6395252E1,-2.6054566E-3,-2.0619803E-3,4.9342197E3,9.521131E2,1.6092352E-3,5.516118E3,8.6729124E-5,4.088708E-3,-5.610956E-4,-2.1395992E-5,-1.4400868E-3,-9.6925226E-4,4.146203E-4,7.6623395E-4,1.0949707E-3,2.706863E-3],"split_indices":[10,10,10,83,14,91,71,0,0,33,95,0,34,111,0,0,0,0,0,0,0,0,0],"split_type":[0,0,0,0,0,0,0,0,0,0,0,0,0,0,0,0,0,0,0,0,0,0,0],"sum_hessian":[1.444E3,8.51E2,5.93E2,5.37E2,3.14E2,2.49E2,3.44E2,3.03E2,2.34E2,1.46E2,1.68E2,1.48E2,1.01E2,1.18E2,2.26E2,7.4E1,7.2E1,9.4E1,7.4E1,4E1,6.1E1,1E1,1.08E2],"tree_param":{"num_deleted":"0","num_feature":"177","num_nodes":"23","size_leaf_vector":"1"}},{"base_weights":[7.483033E-4,-9.000903E-2,1.2882584E-1,-1.1764161E-1,-4.255273E-2,6.0115226E-2,1.7797175E-1,-2.561306E-3,-2.0432228E-3,-6.334832E-2,-1.6734136E-2,3.1930078E-2,1.584337E-3,1.4452134E-1,4.2767036E-3,-1.4291861E-3,-9.5949427E-4,-5.648134E-4,-5.3256306E-5,4.062576E-4,7.624867E-4,1.1313705E-3,2.9545864E-3],"categories":[],"categories_nodes":[],"categories_segments":[],"categories_sizes":[],"default_left":[0,0,0,0,0,0,0,0,0,0,0,0,0,0,0,0,0,0,0,0,0,0,0],"id":48,"left_children":[1,3,5,7,9,11,13,-1,-1,15,17,19,-1,21,-1,-1,-1,-1,-1,-1,-1,-1,-1],"loss_changes":[1.690112E1,1.0909209E0,1.9827442E0,2.09136E-2,1.670487E-1,1.2679398E-1,2.6415825E-1,0E0,0E0,4.8051476E-3,2.391082E-2,4.2593926E-3,0E0,1.351738E-2,0E0,0E0,0E0,0E0,0E0,0E0,0E0,0E0,0E0],"parents":[2147483647,0,0,1,1,2,2,3,3,4,4,5,5,6,6,9,9,10,10,11,11,13,13],"right_children":[2,4,6,8,10,12,14,-1,-1,16,18,20,-1,22,-1,-1,-1,-1,-1,-1,-1,-1,-1],"split_conditions":[2.617838E1,3.8601284E1,2.6437155E1,4.1843903E1,2.6024277E1,2.6293318E1,2.6454105E1,-2.561306E-3,-2.0432228E-3,9.531282E2,4.932138E3,5.516118E3,1.584337E-3,3.0095865E1,4.2767036E-3,-1.4291861E-3,-9.5949427E-4,-5.648134E-4,-5.3256306E-5,4.062576E-4,7.624867E-4,1.1313705E-3,2.9545864E-3],"split_indices":[10,38,10,82,12,10,71,0,0,95,33,34,0,128,0,0,0,0,0,0,0,0,0],"split_type":[0,0,0,0,0,0,0,0,0,0,0,0,0,0,0,0,0,0,0,0,0,0,0],"sum_hessian":[1.444E3,8.46E2,5.98E2,5.3E2,3.16E2,2.54E2,3.44E2,2.95E2,2.35E2,1.71E2,1.45E2,1.08E2,1.46E2,1.91E2,1.53E2,1E2,7.1E1,7.7E1,6.8E1,4.5E1,6.3E1,1E1,1.81E2],"tree_param":{"num_deleted":"0","num_feature":"177","num_nodes":"23","size_leaf_vector":"1"}},{"base_weights":[7.4533233E-4,-8.82537E-2,1.2634143E-1,-1.1581921E-1,-4.253462E-2,5.896558E-2,1.7453237E-1,-2.5109285E-3,-2.0161897E-3,-6.27778E-2,-1.642011E-2,3.3284597E-2,1.5855432E-3,4.211671E-3,1.4240964E-1,-9.014492E-4,-1.3724986E-3,-5.542104E-4,-5.226135E-5,4.2916767E-4,8.196988E-4,1.1162898E-3,2.9099693E-3],"categories":[],"categories_nodes":[],"categories_segments":[],"categories_sizes":[],"default_left":[0,0,0,0,0,0,0,0,0,0,0,0,0,0,0,0,0,0,0,0,0,0,0],"id":49,"left_children":[1,3,5,7,9,11,13,-1,-1,15,17,19,-1,-1,21,-1,-1,-1,-1,-1,-1,-1,-1],"loss_changes":[1.6252571E1,1.0478573E0,1.9064274E0,1.3808727E-2,1.6824013E-1,1.219064E-1,2.5421715E-1,0E0,0E0,3.4796596E-3,2.3021024E-2,6.803751E-3,0E0,0E0,1.2891769E-2,0E0,0E0,0E0,0E0,0E0,0E0,0E0,0E0],"parents":[2147483647,0,0,1,1,2,2,3,3,4,4,5,5,6,6,9,9,10,10,11,11,14,14],"right_children":[2,4,6,8,10,12,14,-1,-1,16,18,20,-1,-1,22,-1,-1,-1,-1,-1,-1,-1,-1],"split_conditions":[2.617838E1,3.8504738E1,2.6437155E1,4.1843903E1,2.6024277E1,2.6298574E1,8.9857196E2,-2.5109285E-3,-2.0161897E-3,4.8618286E1,4.9318794E3,2.6238016E1,1.5855432E-3,4.211671E-3,3.0095865E1,-9.014492E-4,-1.3724986E-3,-5.542104E-4,-5.226135E-5,4.2916767E-4,8.196988E-4,1.1162898E-3,2.9099693E-3],"split_indices":[10,38,10,82,12,116,17,0,0,36,54,10,0,0,128,0,0,0,0,0,0,0,0],"split_type":[0,0,0,0,0,0,0,0,0,0,0,0,0,0,0,0,0,0,0,0,0,0,0],"sum_hessian":[1.444E3,8.46E2,5.98E2,5.23E2,3.23E2,2.54E2,3.44E2,2.95E2,2.28E2,1.78E2,1.45E2,1.18E2,1.36E2,1.49E2,1.95E2,5.5E1,1.23E2,7.7E1,6.8E1,5.4E1,6.4E1,1E1,1.85E2],"tree_param":{"num_deleted":"0","num_feature":"177","num_nodes":"23","size_leaf_vector":"1"}},{"base_weights":[7.429577E-4,-8.591572E-2,1.24783285E-1,-1.0944148E-1,-3.3112127E-2,1.8645808E-1,7.425091E-2,-2.3682867E-3,-1.6955946E-3,-4.898311E-2,-6.890968E-3,4.247623E-3,3.1268566E-3,4.031783E-2,1.0071491E-1,-1.1403993E-3,-6.7317305E-4,-2.9772325E-4,1.0138816E-4,4.8321098E-4,1.0106248E-3,2.3471978E-3,1.5005848E-3],"categories":[],"categories_nodes":[],"categories_segments":[],"categories_sizes":[],"default_left":[0,0,0,0,0,0,0,0,0,0,0,0,0,0,0,0,0,0,0,0,0,0,0],"id":50,"left_children":[1,3,5,7,9,11,13,-1,-1,15,17,-1,-1,19,21,-1,-1,-1,-1,-1,-1,-1,-1],"loss_changes":[1.5629153E1,1.0452414E0,1.794488E0,8.036327E-2,1.1109042E-1,4.1639328E-2,2.8232467E-1,0E0,0E0,1.1094868E-2,1.0704877E-2,0E0,0E0,1.9638956E-2,3.5494924E-2,0E0,0E0,0E0,0E0,0E0,0E0,0E0,0E0],"parents":[2147483647,0,0,1,1,2,2,3,3,4,4,5,5,6,6,9,9,10,10,13,13,14,14],"right_children":[2,4,6,8,10,12,14,-1,-1,16,18,-1,-1,20,22,-1,-1,-1,-1,-1,-1,-1,-1],"split_conditions":[2.6186558E1,1.9870474E3,3.8479404E1,2.3180903E3,2.608391E1,8.7341864E2,2.5528594E3,-2.3682867E-3,-1.6955946E-3,2.6025965E1,4.962707E3,4.247623E-3,3.1268566E-3,3.9151924E1,5.0304414E3,-1.1403993E-3,-6.7317305E-4,-2.9772325E-4,1.0138816E-4,4.8321098E-4,1.0106248E-3,2.3471978E-3,1.5005848E-3],"split_indices":[10,47,38,39,10,17,114,0,0,10,33,0,0,138,104,0,0,0,0,0,0,0,0],"split_type":[0,0,0,0,0,0,0,0,0,0,0,0,0,0,0,0,0,0,0,0,0,0,0],"sum_hessian":[1.444E3,8.51E2,5.93E2,5.85E2,2.66E2,2.61E2,3.32E2,4.15E2,1.7E2,1.63E2,1.03E2,1.24E2,1.37E2,1.51E2,1.81E2,9.8E1,6.5E1,6.1E1,4.2E1,6.5E1,8.6E1,9.9E1,8.2E1],"tree_param":{"num_deleted":"0","num_feature":"177","num_nodes":"23","size_leaf_vector":"1"}},{"base_weights":[7.512242E-4,-8.1605285E-2,1.2628119E-1,-1.040931E-1,-2.1040775E-2,1.8491635E-1,7.815194E-2,-2.2660317E-3,-1.4172517E-3,-3.911538E-2,9.348828E-4,4.2017964E-3,3.1311018E-3,4.920936E-2,1.06821254E-1,-5.6255277E-4,-9.130051E-4,-1.6426556E-4,3.0088544E-4,5.9478485E-4,1.1949157E-3,2.2202765E-3,8.628443E-4],"categories":[],"categories_nodes":[],"categories_segments":[],"categories_sizes":[],"default_left":[0,0,0,0,0,0,0,0,0,0,0,0,0,0,0,0,0,0,0,0,0,0,0],"id":51,"left_children":[1,3,5,7,9,11,13,-1,-1,15,17,-1,-1,19,21,-1,-1,-1,-1,-1,-1,-1,-1],"loss_changes":[1.5031592E1,1.1848531E0,1.5532522E0,1.5539122E-1,9.709996E-2,1.8318176E-2,2.433902E-1,0E0,0E0,3.2015145E-3,1.5461436E-2,0E0,0E0,2.6195914E-2,1.8502712E-2,0E0,0E0,0E0,0E0,0E0,0E0,0E0,0E0],"parents":[2147483647,0,0,1,1,2,2,3,3,4,4,5,5,6,6,9,9,10,10,13,13,14,14],"right_children":[2,4,6,8,10,12,14,-1,-1,16,18,-1,-1,20,22,-1,-1,-1,-1,-1,-1,-1,-1],"split_conditions":[2.621117E1,2.5987495E1,3.8445984E1,3.8124428E1,2.6096968E1,3.7946823E1,2.5663372E3,-2.2660317E-3,-1.4172517E-3,2.9945225E1,5.455793E3,4.2017964E-3,3.1311018E-3,4.449839E3,3.0172436E1,-5.6255277E-4,-9.130051E-4,-1.6426556E-4,3.0088544E-4,5.9478485E-4,1.1949157E-3,2.2202765E-3,8.628443E-4],"split_indices":[10,10,38,38,116,138,47,0,0,81,34,0,0,46,124,0,0,0,0,0,0,0,0],"split_type":[0,0,0,0,0,0,0,0,0,0,0,0,0,0,0,0,0,0,0,0,0,0,0],"sum_hessian":[1.444E3,8.73E2,5.71E2,6.34E2,2.39E2,2.51E2,3.2E2,4.87E2,1.47E2,1.29E2,1.1E2,1.16E2,1.35E2,1.66E2,1.54E2,5.8E1,7.1E1,6.8E1,4.2E1,6.5E1,1.01E2,1.41E2,1.3E1],"tree_param":{"num_deleted":"0","num_feature":"177","num_nodes":"23","size_leaf_vector":"1"}},{"base_weights":[7.609439E-4,-8.317474E-2,1.1921114E-1,-1.0823834E-1,-3.858766E-2,1.7111963E-1,6.321218E-2,-2.3704935E-3,-1.871075E-3,-1.4938407E-2,-5.743074E-2,1.42996E-1,4.072548E-3,3.622928E-2,1.7587641E-3,-5.136954E-4,-4.8656202E-5,-1.3112628E-3,-8.8816014E-4,2.9312386E-3,1.0840709E-3,4.3371425E-4,9.0818014E-4],"categories":[],"categories_nodes":[],"categories_segments":[],"categories_sizes":[],"default_left":[0,0,0,0,0,0,0,0,0,0,0,0,0,0,0,0,0,0,0,0,0,0,0],"id":52,"left_children":[1,3,5,7,9,11,13,-1,-1,15,17,19,-1,21,-1,-1,-1,-1,-1,-1,-1,-1,-1],"loss_changes":[1.4455821E1,9.3012E-1,1.6987295E0,2.6427746E-2,1.356366E-1,1.3782406E-1,1.8288994E-1,0E0,0E0,1.9308466E-2,3.764093E-3,1.8221855E-2,0E0,1.5235767E-2,0E0,0E0,0E0,0E0,0E0,0E0,0E0,0E0,0E0],"parents":[2147483647,0,0,1,1,2,2,3,3,4,4,5,5,6,6,9,9,10,10,11,11,13,13],"right_children":[2,4,6,8,10,12,14,-1,-1,16,18,20,-1,22,-1,-1,-1,-1,-1,-1,-1,-1,-1],"split_conditions":[2.617838E1,2.5929977E1,1.5497935E0,4.1843903E1,5.328727E-1,2.6670507E1,2.6327763E1,-2.3704935E-3,-1.871075E-3,4.932138E3,9.5307184E2,3.0382277E1,4.072548E-3,5.0621597E3,1.7587641E-3,-5.136954E-4,-4.8656202E-5,-1.3112628E-3,-8.8816014E-4,2.9312386E-3,1.0840709E-3,4.3371425E-4,9.0818014E-4],"split_indices":[10,10,1,82,14,10,116,0,0,33,144,130,0,59,0,0,0,0,0,0,0,0,0],"split_type":[0,0,0,0,0,0,0,0,0,0,0,0,0,0,0,0,0,0,0,0,0,0,0],"sum_hessian":[1.444E3,8.46E2,5.98E2,5.37E2,3.09E2,3.05E2,2.93E2,2.95E2,2.42E2,1.41E2,1.68E2,1.78E2,1.27E2,1.46E2,1.47E2,7.3E1,6.8E1,9.1E1,7.7E1,1.68E2,1E1,6.3E1,8.3E1],"tree_param":{"num_deleted":"0","num_feature":"177","num_nodes":"23","size_leaf_vector":"1"}},{"base_weights":[7.6029496E-4,-7.6409206E-2,1.2466723E-1,-1.0004998E-1,-1.7292779E-2,7.932913E-2,1.7933722E-1,-2.1815007E-3,-1.3722205E-3,-3.5529707E-2,6.4679487E-3,5.0143722E-2,1.0383951E-1,3.0622699E-3,4.073522E-3,-3.835322E-4,-8.130236E-4,-9.678734E-5,3.560327E-4,6.119963E-4,1.1473205E-3,2.1564101E-3,8.231333E-4],"categories":[],"categories_nodes":[],"categories_segments":[],"categories_sizes":[],"default_left":[0,0,0,0,0,0,0,0,0,0,0,0,0,0,0,0,0,0,0,0,0,0,0],"id":53,"left_children":[1,3,5,7,9,11,13,-1,-1,15,17,19,21,-1,-1,-1,-1,-1,-1,-1,-1,-1,-1],"loss_changes":[1.3902729E1,1.2435617E0,1.311944E0,1.4389038E-1,1.1467957E-1,1.9858396E-1,2.998352E-3,0E0,0E0,8.581281E-3,1.55528635E-2,1.281935E-2,1.9236088E-2,0E0,0E0,0E0,0E0,0E0,0E0,0E0,0E0,0E0,0E0],"parents":[2147483647,0,0,1,1,2,2,3,3,4,4,5,5,6,6,9,9,10,10,11,11,12,12],"right_children":[2,4,6,8,10,12,14,-1,-1,16,18,20,22,-1,-1,-1,-1,-1,-1,-1,-1,-1,-1],"split_conditions":[2.614077E1,2.5987495E1,2.6549055E1,2.8133389E1,2.606289E1,2.5663372E3,2.8675088E-1,-2.1815007E-3,-1.3722205E-3,3.9013405E1,3.0217842E1,2.540591E3,3.0172436E1,3.0622699E-3,4.073522E-3,-3.835322E-4,-8.130236E-4,-9.678734E-5,3.560327E-4,6.119963E-4,1.1473205E-3,2.1564101E-3,8.231333E-4],"split_indices":[12,10,67,22,12,47,50,0,0,38,130,47,124,0,0,0,0,0,0,0,0,0,0],"split_type":[0,0,0,0,0,0,0,0,0,0,0,0,0,0,0,0,0,0,0,0,0,0,0],"sum_hessian":[1.444E3,8.91E2,5.53E2,6.34E2,2.57E2,3.09E2,2.44E2,4.83E2,1.51E2,1.44E2,1.13E2,1.48E2,1.61E2,1.35E2,1.09E2,4E1,1.04E2,5.8E1,5.5E1,4.7E1,1.01E2,1.48E2,1.3E1],"tree_param":{"num_deleted":"0","num_feature":"177","num_nodes":"23","size_leaf_vector":"1"}},{"base_weights":[7.703135E-4,-7.757289E-2,1.18143894E-1,-1.0110263E-1,-2.7850214E-2,7.131873E-2,1.7281175E-1,-2.2030848E-3,-1.5894155E-3,-4.450072E-2,-1.7554291E-3,4.4576433E-2,9.834654E-2,3.9662076E-3,2.9261154E-3,-1.0425382E-3,-5.931811E-4,-2.1683384E-4,2.213235E-4,5.3046E-4,1.0932261E-3,6.63564E-4,2.0334776E-3],"categories":[],"categories_nodes":[],"categories_segments":[],"categories_sizes":[],"default_left":[0,0,0,0,0,0,0,0,0,0,0,0,0,0,0,0,0,0,0,0,0,0,0],"id":54,"left_children":[1,3,5,7,9,11,13,-1,-1,15,17,19,21,-1,-1,-1,-1,-1,-1,-1,-1,-1,-1],"loss_changes":[1.336999E1,1.0061274E0,1.4281988E0,7.175398E-2,1.2430842E-1,2.1081746E-1,3.403473E-2,0E0,0E0,1.2077302E-2,1.4230435E-2,2.3884505E-2,1.6959786E-2,0E0,0E0,0E0,0E0,0E0,0E0,0E0,0E0,0E0,0E0],"parents":[2147483647,0,0,1,1,2,2,3,3,4,4,5,5,6,6,9,9,10,10,11,11,12,12],"right_children":[2,4,6,8,10,12,14,-1,-1,16,18,20,22,-1,-1,-1,-1,-1,-1,-1,-1,-1,-1],"split_conditions":[2.6200958E1,1.9870474E3,2.6272997E1,2.2911575E3,2.879319E1,2.5639824E3,3.7946823E1,-2.2030848E-3,-1.5894155E-3,2.602968E1,4.3814653E3,4.4470376E3,4.7348058E-5,3.9662076E-3,2.9261154E-3,-1.0425382E-3,-5.931811E-4,-2.1683384E-4,2.213235E-4,5.3046E-4,1.0932261E-3,6.63564E-4,2.0334776E-3],"split_indices":[10,47,11,39,22,47,138,0,0,10,112,46,103,0,0,0,0,0,0,0,0,0,0],"split_type":[0,0,0,0,0,0,0,0,0,0,0,0,0,0,0,0,0,0,0,0,0,0,0],"sum_hessian":[1.444E3,8.67E2,5.77E2,5.85E2,2.82E2,3.17E2,2.6E2,3.98E2,1.87E2,1.7E2,1.12E2,1.66E2,1.51E2,1.16E2,1.44E2,1.04E2,6.6E1,6.6E1,4.6E1,6.6E1,1E2,1E1,1.41E2],"tree_param":{"num_deleted":"0","num_feature":"177","num_nodes":"23","size_leaf_vector":"1"}},{"base_weights":[7.7501143E-4,-7.311735E-2,1.2046035E-1,-9.559814E-2,-1.4784791E-2,7.682518E-2,1.7254162E-1,-2.0929822E-3,-1.294448E-3,-3.0426133E-2,9.926435E-3,9.944799E-2,4.7852557E-2,2.9457267E-3,3.9197844E-3,-7.3991506E-4,-3.0313697E-4,-1.8390734E-5,3.6185767E-4,2.1394494E-3,1.3148931E-3,7.872009E-5,1.0187401E-3],"categories":[],"categories_nodes":[],"categories_segments":[],"categories_sizes":[],"default_left":[0,0,0,0,0,0,0,0,0,0,0,0,0,0,0,0,0,0,0,0,0,0,0],"id":55,"left_children":[1,3,5,7,9,11,13,-1,-1,15,17,19,21,-1,-1,-1,-1,-1,-1,-1,-1,-1,-1],"loss_changes":[1.2858752E1,1.1718478E0,1.1950006E0,1.4722109E-1,1.0045841E-1,1.8004847E-1,3.1189919E-3,0E0,0E0,1.30458325E-2,9.206211E-3,7.947564E-3,1.877445E-2,0E0,0E0,0E0,0E0,0E0,0E0,0E0,0E0,0E0,0E0],"parents":[2147483647,0,0,1,1,2,2,3,3,4,4,5,5,6,6,9,9,10,10,11,11,12,12],"right_children":[2,4,6,8,10,12,14,-1,-1,16,18,20,22,-1,-1,-1,-1,-1,-1,-1,-1,-1,-1],"split_conditions":[2.6230028E1,2.4093997E3,2.6549055E1,4.8492607E3,5.4321616E3,2.043278E-2,2.8675088E-1,-2.0929822E-3,-1.294448E-3,2.8538188E-1,4.998048E3,3.9283516E1,3.5350973E-4,2.9457267E-3,3.9197844E-3,-7.3991506E-4,-3.0313697E-4,-1.8390734E-5,3.6185767E-4,2.1394494E-3,1.3148931E-3,7.872009E-5,1.0187401E-3],"split_indices":[10,47,67,31,34,27,50,0,0,4,31,138,123,0,0,0,0,0,0,0,0,0,0],"split_type":[0,0,0,0,0,0,0,0,0,0,0,0,0,0,0,0,0,0,0,0,0,0,0],"sum_hessian":[1.444E3,8.94E2,5.5E2,6.43E2,2.51E2,3.06E2,2.44E2,4.88E2,1.55E2,1.53E2,9.8E1,1.65E2,1.41E2,1.35E2,1.09E2,1.02E2,5.1E1,4.4E1,5.4E1,1.26E2,3.9E1,1E1,1.31E2],"tree_param":{"num_deleted":"0","num_feature":"177","num_nodes":"23","size_leaf_vector":"1"}},{"base_weights":[7.847575E-4,-7.2313994E-2,1.1713638E-1,-9.393468E-2,-1.6072702E-2,7.437051E-2,1.6922915E-1,-1.0261749E-1,-1.2746657E-3,-3.289755E-2,5.693751E-3,4.656657E-2,9.764405E-2,2.8889317E-3,3.844831E-3,-2.22568E-3,-1.8083339E-3,-7.358946E-4,-3.2191275E-4,-9.110647E-5,3.3044445E-4,5.973342E-4,1.0968073E-3,6.1833696E-4,2.0177783E-3],"categories":[],"categories_nodes":[],"categories_segments":[],"categories_sizes":[],"default_left":[0,0,0,0,0,0,0,0,0,0,0,0,0,0,0,0,0,0,0,0,0,0,0,0,0],"id":56,"left_children":[1,3,5,7,9,11,13,15,-1,17,19,21,23,-1,-1,-1,-1,-1,-1,-1,-1,-1,-1,-1,-1],"loss_changes":[1.2366327E1,1.0783167E0,1.186863E0,1.3617754E-1,9.395574E-2,1.8239486E-1,3.1633377E-3,1.7137527E-3,0E0,6.4679533E-3,1.313923E-2,1.3088852E-2,2.077949E-2,0E0,0E0,0E0,0E0,0E0,0E0,0E0,0E0,0E0,0E0,0E0,0E0],"parents":[2147483647,0,0,1,1,2,2,3,3,4,4,5,5,6,6,7,7,9,9,10,10,11,11,12,12],"right_children":[2,4,6,8,10,12,14,16,-1,18,20,22,24,-1,-1,-1,-1,-1,-1,-1,-1,-1,-1,-1,-1],"split_conditions":[2.6114626E1,