{"learner":{"attributes":{"scikit_learn":"{\"_estimator_type\": \"regressor\"}"},"feature_names":["Injection EC","Net Flow","TL Interval Flow","TL Bottom Flow","TL Collar Flow","TL Interval EC","TL Bottom EC","TL Interval Pressure","TL Bottom Pressure","TL Packer Pressure","TL-TEC-INT-U","TL-TEC-INT-L","TL-TEC-BOT-U","TL-TEC-BOT-L","TN Interval Flow","TN Bottom Flow","TN Collar Flow","TN Interval EC","TN Bottom EC","TN Interval Pressure","TN Bottom Pressure","TN Packer Pressure","TN-TEC-INT-U","TN-TEC-INT-L","TN-TEC-BOT-U","TN-TEC-BOT-L","TC Interval Flow","TC Bottom Flow","TC Collar Flow","TC Interval EC","TC Bottom EC","TC Interval Pressure","TC Bottom Pressure","Injection Pressure","TC Packer Pressure","TC-TEC-INT-U","TC-TEC-INT-L","TC-TEC-BOT-U","TC-TEC-BOT-L","PT 403","PT 503","PT 504","TL Packer Center Depth","TN Packer Center Depth","TC Packer Center Depth","Total_Production_Flow","Pressure_Differential","TC_Impedance_Proxy","TL Interval EC__MixFrac","TL Bottom EC__MixFrac","TN Interval EC__MixFrac","TN Bottom EC__MixFrac","Net Flow__lag_1h","Net Flow__lag_3h","Injection Pressure__lag_1h","Injection Pressure__lag_3h","Injection EC__lag_1h","Injection EC__lag_3h","TC Interval Pressure__lag_1h","TC Interval Pressure__lag_3h","Total_Production_Flow__lag_1h","Total_Production_Flow__lag_3h","Pressure_Differential__lag_1h","Pressure_Differential__lag_3h","TC_Impedance_Proxy__lag_1h","TC_Impedance_Proxy__lag_3h","TL-TEC-INT-U__lag_1h","TL-TEC-INT-U__lag_3h","TL-TEC-INT-L__lag_1h","TL-TEC-INT-L__lag_3h","TL-TEC-BOT-U__lag_1h","TL-TEC-BOT-U__lag_3h","TL-TEC-BOT-L__lag_1h","TL-TEC-BOT-L__lag_3h","TN-TEC-INT-U__lag_1h","TN-TEC-INT-U__lag_3h","TN-TEC-INT-L__lag_1h","TN-TEC-INT-L__lag_3h","TN-TEC-BOT-U__lag_1h","TN-TEC-BOT-U__lag_3h","TN-TEC-BOT-L__lag_1h","TN-TEC-BOT-L__lag_3h","TC-TEC-INT-U__lag_1h","TC-TEC-INT-U__lag_3h","TC-TEC-INT-L__lag_1h","TC-TEC-INT-L__lag_3h","TC-TEC-BOT-U__lag_1h","TC-TEC-BOT-U__lag_3h","TC-TEC-BOT-L__lag_1h","TC-TEC-BOT-L__lag_3h","TL Interval EC__lag_1h","TL Interval EC__lag_3h","TL Bottom EC__lag_1h","TL Bottom EC__lag_3h","TN Interval EC__lag_1h","TN Interval EC__lag_3h","TN Bottom EC__lag_1h","TN Bottom EC__lag_3h","TC Interval EC__lag_1h","TC Interval EC__lag_3h","TC Bottom EC__lag_1h","TC Bottom EC__lag_3h","Net Flow__roll_mean_3h","Net Flow__roll_std_3h","Injection Pressure__roll_mean_3h","Injection Pressure__roll_std_3h","Injection EC__roll_mean_3h","Injection EC__roll_std_3h","TC Interval Pressure__roll_mean_3h","TC Interval Pressure__roll_std_3h","Total_Production_Flow__roll_mean_3h","Total_Production_Flow__roll_std_3h","Pressure_Differential__roll_mean_3h","Pressure_Differential__roll_std_3h","TC_Impedance_Proxy__roll_mean_3h","TC_Impedance_Proxy__roll_std_3h","TL-TEC-INT-U__roll_mean_3h","TL-TEC-INT-U__roll_std_3h","TL-TEC-INT-L__roll_mean_3h","TL-TEC-INT-L__roll_std_3h","TL-TEC-BOT-U__roll_mean_3h","TL-TEC-BOT-U__roll_std_3h","TL-TEC-BOT-L__roll_mean_3h","TL-TEC-BOT-L__roll_std_3h","TN-TEC-INT-U__roll_mean_3h","TN-TEC-INT-U__roll_std_3h","TN-TEC-INT-L__roll_mean_3h","TN-TEC-INT-L__roll_std_3h","TN-TEC-BOT-U__roll_mean_3h","TN-TEC-BOT-U__roll_std_3h","TN-TEC-BOT-L__roll_mean_3h","TN-TEC-BOT-L__roll_std_3h","TC-TEC-INT-U__roll_mean_3h","TC-TEC-INT-U__roll_std_3h","TC-TEC-INT-L__roll_mean_3h","TC-TEC-INT-L__roll_std_3h","TC-TEC-BOT-U__roll_mean_3h","TC-TEC-BOT-U__roll_std_3h","TC-TEC-BOT-L__roll_mean_3h","TC-TEC-BOT-L__roll_std_3h","TL Interval EC__roll_mean_3h","TL Interval EC__roll_std_3h","TL Bottom EC__roll_mean_3h","TL Bottom EC__roll_std_3h","TN Interval EC__roll_mean_3h","TN Interval EC__roll_std_3h","TN Bottom EC__roll_mean_3h","TN Bottom EC__roll_std_3h","TC Interval EC__roll_mean_3h","TC Interval EC__roll_std_3h","TC Bottom EC__roll_mean_3h","TC Bottom EC__roll_std_3h","Net Flow__roc_1h","Injection Pressure__roc_1h","Injection EC__roc_1h","TC Interval Pressure__roc_1h","Total_Production_Flow__roc_1h","Pressure_Differential__roc_1h","TC_Impedance_Proxy__roc_1h","TL-TEC-INT-U__roc_1h","TL-TEC-INT-L__roc_1h","TL-TEC-BOT-U__roc_1h","TL-TEC-BOT-L__roc_1h","TN-TEC-INT-U__roc_1h","TN-TEC-INT-L__roc_1h","TN-TEC-BOT-U__roc_1h","TN-TEC-BOT-L__roc_1h","TC-TEC-INT-U__roc_1h","TC-TEC-INT-L__roc_1h","TC-TEC-BOT-U__roc_1h","TC-TEC-BOT-L__roc_1h","TL Interval EC__roc_1h","TL Bottom EC__roc_1h","TN Interval EC__roc_1h","TN Bottom EC__roc_1h","TC Interval EC__roc_1h","TC Bottom EC__roc_1h"],"feature_types":["float","float","float","float","float","float","float","float","float","float","float","float","float","float","float","float","float","float","float","float","float","float","float","float","float","float","float","float","float","float","float","float","float","float","float","float","float","float","float","float","float","float","float","float","float","float","float","float","float","float","float","float","float","float","float","float","float","float","float","float","float","float","float","float","float","float","float","float","float","float","float","float","float","float","float","float","float","float","float","float","float","float","float","float","float","float","float","float","float","float","float","float","float","float","float","float","float","float","float","float","float","float","float","float","float","float","float","float","float","float","float","float","float","float","float","float","float","float","float","float","float","float","float","float","float","float","float","float","float","float","float","float","float","float","float","float","float","float","float","float","float","float","float","float","float","float","float","float","float","float","float","float","float","float","float","float","float","float","float","float","float","float","float","float","float","float","float","float","float","float","float","float","float","float","float","float","float"],"gradient_booster":{"model":{"gbtree_model_param":{"num_parallel_tree":"1","num_trees":"167"},"iteration_indptr":[0,1,2,3,4,5,6,7,8,9,10,11,12,13,14,15,16,17,18,19,20,21,22,23,24,25,26,27,28,29,30,31,32,33,34,35,36,37,38,39,40,41,42,43,44,45,46,47,48,49,50,51,52,53,54,55,56,57,58,59,60,61,62,63,64,65,66,67,68,69,70,71,72,73,74,75,76,77,78,79,80,81,82,83,84,85,86,87,88,89,90,91,92,93,94,95,96,97,98,99,100,101,102,103,104,105,106,107,108,109,110,111,112,113,114,115,116,117,118,119,120,121,122,123,124,125,126,127,128,129,130,131,132,133,134,135,136,137,138,139,140,141,142,143,144,145,146,147,148,149,150,151,152,153,154,155,156,157,158,159,160,161,162,163,164,165,166,167],"tree_info":[0,0,0,0,0,0,0,0,0,0,0,0,0,0,0,0,0,0,0,0,0,0,0,0,0,0,0,0,0,0,0,0,0,0,0,0,0,0,0,0,0,0,0,0,0,0,0,0,0,0,0,0,0,0,0,0,0,0,0,0,0,0,0,0,0,0,0,0,0,0,0,0,0,0,0,0,0,0,0,0,0,0,0,0,0,0,0,0,0,0,0,0,0,0,0,0,0,0,0,0,0,0,0,0,0,0,0,0,0,0,0,0,0,0,0,0,0,0,0,0,0,0,0,0,0,0,0,0,0,0,0,0,0,0,0,0,0,0,0,0,0,0,0,0,0,0,0,0,0,0,0,0,0,0,0,0,0,0,0,0,0,0,0,0,0,0,0],"trees":[{"base_weights":[1.5652632E-4,-4.4661386E2,1.7007823E2,-8.3310004E2,-2.8993808E2,4.9810936E1,2.217734E2,-1.8692648E1,-1.1516506E1,-2.1734369E2,-7.9510584E0,-5.6877167E1,9.686019E1,2.010574E2,5.472268E0,-4.8027897E0,-2.9584792E0,-1.64354E0,-1.478059E-1,9.393115E-1,2.2157686E0,3.1741142E0,4.2436233E0],"categories":[],"categories_nodes":[],"categories_segments":[],"categories_sizes":[],"default_left":[0,0,0,0,0,0,0,0,0,0,0,0,0,0,0,0,0,0,0,0,0,0,0],"id":0,"left_children":[1,3,5,7,9,11,13,-1,-1,15,-1,17,19,21,-1,-1,-1,-1,-1,-1,-1,-1,-1],"loss_changes":[1.1044476E8,2.3074032E7,6.491518E6,2.60824E5,1.856956E6,1.6488752E6,5.14268E5,0E0,0E0,1.16728E5,0E0,1.2466844E5,1.3104125E5,8.7912E4,0E0,0E0,0E0,0E0,0E0,0E0,0E0,0E0,0E0],"parents":[2147483647,0,0,1,1,2,2,3,3,4,4,5,5,6,6,9,9,11,11,12,12,13,13],"right_children":[2,4,6,8,10,12,14,-1,-1,16,-1,18,20,22,-1,-1,-1,-1,-1,-1,-1,-1,-1],"split_conditions":[5.134469E3,4.0402E1,4.944716E3,5.0943577E1,6.500595E-1,4.80824E3,5.0439863E3,-1.8692648E1,-1.1516506E1,4.612571E3,-7.9510584E0,1.9059681E3,4.8789434E3,4.9925625E3,5.472268E0,-4.8027897E0,-2.9584792E0,-1.64354E0,-1.478059E-1,9.393115E-1,2.2157686E0,3.1741142E0,4.2436233E0],"split_indices":[34,35,31,36,110,54,31,0,0,31,0,47,108,31,0,0,0,0,0,0,0,0,0],"split_type":[0,0,0,0,0,0,0,0,0,0,0,0,0,0,0,0,0,0,0,0,0,0,0],"sum_hessian":[1.444E3,3.96E2,1.048E3,1.08E2,2.88E2,3.18E2,7.3E2,6.8E1,4E1,1.81E2,1.07E2,9.7E1,2.21E2,5.39E2,1.91E2,1.27E2,5.4E1,6.2E1,3.5E1,5.3E1,1.68E2,1.28E2,4.11E2],"tree_param":{"num_deleted":"0","num_feature":"177","num_nodes":"23","size_leaf_vector":"1"}},{"base_weights":[-1.0912378E-1,-4.390217E2,1.6646164E2,-8.1777454E2,-2.8493204E2,4.828008E1,2.174256E2,-1.7527552E1,-9.376419E0,-2.1364868E2,-7.799134E0,-5.655931E1,9.499272E1,1.9749168E2,5.3881464E0,-4.7311554E0,-2.9537868E0,-1.6279926E0,-1.452168E-1,9.2214215E-1,2.172733E0,3.2543335E0,4.2232575E0],"categories":[],"categories_nodes":[],"categories_segments":[],"categories_sizes":[],"default_left":[0,0,0,0,0,0,0,0,0,0,0,0,0,0,0,0,0,0,0,0,0,0,0],"id":1,"left_children":[1,3,5,7,9,11,13,-1,-1,15,-1,17,19,21,-1,-1,-1,-1,-1,-1,-1,-1,-1],"loss_changes":[1.0630179E8,2.2179712E7,6.295754E6,2.56496E5,1.769494E6,1.6135968E6,4.9558E5,0E0,0E0,1.04862E5,0E0,1.2317759E5,1.25695625E5,8.968E4,0E0,0E0,0E0,0E0,0E0,0E0,0E0,0E0,0E0],"parents":[2147483647,0,0,1,1,2,2,3,3,4,4,5,5,6,6,9,9,11,11,12,12,13,13],"right_children":[2,4,6,8,10,12,14,-1,-1,16,-1,18,20,22,-1,-1,-1,-1,-1,-1,-1,-1,-1],"split_conditions":[4.1114478E3,4.0402E1,4.944716E3,1.9690943E0,6.500595E-1,4.2285024E3,5.0464604E3,-1.7527552E1,-9.376419E0,2.9332195E1,-7.799134E0,1.9059681E3,4.8789434E3,4.999039E3,5.3881464E0,-4.7311554E0,-2.9537868E0,-1.6279926E0,-1.452168E-1,9.2214215E-1,2.172733E0,3.2543335E0,4.2232575E0],"split_indices":[46,35,31,174,110,62,31,0,0,8,0,47,108,31,0,0,0,0,0,0,0,0,0],"split_type":[0,0,0,0,0,0,0,0,0,0,0,0,0,0,0,0,0,0,0,0,0,0,0],"sum_hessian":[1.444E3,3.95E2,1.049E3,1.08E2,2.87E2,3.19E2,7.3E2,8.6E1,2.2E1,1.8E2,1.07E2,9.8E1,2.21E2,5.45E2,1.85E2,1.24E2,5.6E1,6.3E1,3.5E1,5.3E1,1.68E2,1.72E2,3.73E2],"tree_param":{"num_deleted":"0","num_feature":"177","num_nodes":"23","size_leaf_vector":"1"}},{"base_weights":[-2.0428605E-1,-4.307712E2,1.6319969E2,-7.936146E2,-2.758874E2,4.7334743E1,2.1316464E2,-1.8382633E1,-1.1496508E1,-7.4895535E0,-2.0817883E2,-5.551431E1,9.3161194E1,1.9399196E2,5.3061395E0,-4.5904727E0,-2.8551714E0,-1.619723E0,-1.7756557E-1,9.052852E-1,2.130532E0,3.1910841E0,4.1467934E0],"categories":[],"categories_nodes":[],"categories_segments":[],"categories_sizes":[],"default_left":[0,0,0,0,0,0,0,0,0,0,0,0,0,0,0,0,0,0,0,0,0,0,0],"id":2,"left_children":[1,3,5,7,9,11,13,-1,-1,-1,15,17,19,21,-1,-1,-1,-1,-1,-1,-1,-1,-1],"loss_changes":[1.0229784E8,2.1384688E7,6.051352E6,5.7132E5,1.532724E6,1.552938E6,4.77446E5,0E0,0E0,0E0,9.03095E4,1.1875919E5,1.205675E5,9.0166E4,0E0,0E0,0E0,0E0,0E0,0E0,0E0,0E0,0E0],"parents":[2147483647,0,0,1,1,2,2,3,3,4,4,5,5,6,6,10,10,11,11,12,12,13,13],"right_children":[2,4,6,8,10,12,14,-1,-1,-1,16,18,20,22,-1,-1,-1,-1,-1,-1,-1,-1,-1],"split_conditions":[4.1114478E3,4.0444733E1,4.944716E3,5.1719517E1,3.4236984E1,4.80824E3,5.0475874E3,-1.8382633E1,-1.1496508E1,-7.4895535E0,4.612571E3,1.9014977E3,4.8789434E3,4.999039E3,5.3061395E0,-4.5904727E0,-2.8551714E0,-1.619723E0,-1.7756557E-1,9.052852E-1,2.130532E0,3.1910841E0,4.1467934E0],"split_indices":[46,35,31,136,138,54,31,0,0,0,31,65,108,31,0,0,0,0,0,0,0,0,0],"split_type":[0,0,0,0,0,0,0,0,0,0,0,0,0,0,0,0,0,0,0,0,0,0,0],"sum_hessian":[1.444E3,3.95E2,1.049E3,1.12E2,2.83E2,3.19E2,7.3E2,6.1E1,5.1E1,1.06E2,1.77E2,9.8E1,2.21E2,5.51E2,1.79E2,1.24E2,5.3E1,6.1E1,3.7E1,5.3E1,1.68E2,1.72E2,3.79E2],"tree_param":{"num_deleted":"0","num_feature":"177","num_nodes":"23","size_leaf_vector":"1"}},{"base_weights":[-3.0693936E-1,-4.2271594E2,1.6000154E2,-7.7901904E2,-2.7062897E2,4.6399845E1,2.0899057E2,-1.779545E1,-1.0969169E1,-7.346506E0,-2.0421996E2,-5.4491264E1,9.1354645E1,1.9049266E2,5.222534E0,-4.5565944E0,-2.9092836E0,-1.6117568E0,-2.0680818E-1,8.8874054E-1,2.0888789E0,3.0651295E0,4.0443616E0],"categories":[],"categories_nodes":[],"categories_segments":[],"categories_sizes":[],"default_left":[0,0,0,0,0,0,0,0,0,0,0,0,0,0,0,0,0,0,0,0,0,0,0],"id":3,"left_children":[1,3,5,7,9,11,13,-1,-1,-1,15,17,19,21,-1,-1,-1,-1,-1,-1,-1,-1,-1],"loss_changes":[9.845829E7,2.0621496E7,5.817272E6,5.47624E5,1.474318E6,1.4944051E6,4.60128E5,0E0,0E0,0E0,8.6767E4,1.1450866E5,1.1558475E5,8.9982E4,0E0,0E0,0E0,0E0,0E0,0E0,0E0,0E0,0E0],"parents":[2147483647,0,0,1,1,2,2,3,3,4,4,5,5,6,6,10,10,11,11,12,12,13,13],"right_children":[2,4,6,8,10,12,14,-1,-1,-1,16,18,20,22,-1,-1,-1,-1,-1,-1,-1,-1,-1],"split_conditions":[4.1114478E3,4.0444733E1,4.9342197E3,5.1751007E1,3.4236984E1,4.80824E3,5.048459E3,-1.779545E1,-1.0969169E1,-7.346506E0,4.591403E3,1.9014977E3,4.8789434E3,4.9957114E3,5.222534E0,-4.5565944E0,-2.9092836E0,-1.6117568E0,-2.0680818E-1,8.8874054E-1,2.0888789E0,3.0651295E0,4.0443616E0],"split_indices":[46,35,33,87,138,54,31,0,0,0,55,64,108,31,0,0,0,0,0,0,0,0,0],"split_type":[0,0,0,0,0,0,0,0,0,0,0,0,0,0,0,0,0,0,0,0,0,0,0],"sum_hessian":[1.444E3,3.95E2,1.049E3,1.12E2,2.83E2,3.19E2,7.3E2,6.6E1,4.6E1,1.06E2,1.77E2,9.8E1,2.21E2,5.56E2,1.74E2,1.16E2,6.1E1,5.9E1,3.9E1,5.3E1,1.68E2,1.5E2,4.06E2],"tree_param":{"num_deleted":"0","num_feature":"177","num_nodes":"23","size_leaf_vector":"1"}},{"base_weights":[-4.0460742E-1,-4.1480627E2,1.568655E2,-7.734336E2,-2.689196E2,4.5488155E1,2.0489534E2,-1.8765282E1,-1.2103233E1,-7.5421124E0,-2.0631046E2,-5.3489597E1,8.959111E1,1.8568796E2,5.059574E0,-4.608063E0,-2.8803613E0,-1.5404522E0,-1.3594556E-1,8.724993E-1,2.0482476E0,2.8823433E0,3.9054239E0],"categories":[],"categories_nodes":[],"categories_segments":[],"categories_sizes":[],"default_left":[0,0,0,0,0,0,0,0,0,0,0,0,0,0,0,0,0,0,0,0,0,0,0],"id":4,"left_children":[1,3,5,7,9,11,13,-1,-1,-1,15,17,19,21,-1,-1,-1,-1,-1,-1,-1,-1,-1],"loss_changes":[9.4761016E7,1.9887624E7,5.591702E6,2.952E5,1.58884E6,1.4382895E6,4.43942E5,0E0,0E0,0E0,1.28244E5,1.1055981E5,1.10853125E5,7.601E4,0E0,0E0,0E0,0E0,0E0,0E0,0E0,0E0,0E0],"parents":[2147483647,0,0,1,1,2,2,3,3,4,4,5,5,6,6,10,10,11,11,12,12,13,13],"right_children":[2,4,6,8,10,12,14,-1,-1,-1,16,18,20,22,-1,-1,-1,-1,-1,-1,-1,-1,-1],"split_conditions":[4.1114478E3,4.0402E1,4.944716E3,2.7778223E1,1.7926523E3,4.80824E3,5.0439863E3,-1.8765282E1,-1.2103233E1,-7.5421124E0,4.591403E3,1.9059681E3,4.8789434E3,5.455793E3,5.059574E0,-4.608063E0,-2.8803613E0,-1.5404522E0,-1.3594556E-1,8.724993E-1,2.0482476E0,2.8823433E0,3.9054239E0],"split_indices":[46,35,31,24,47,54,31,0,0,0,54,47,108,34,0,0,0,0,0,0,0,0,0],"split_type":[0,0,0,0,0,0,0,0,0,0,0,0,0,0,0,0,0,0,0,0,0,0,0],"sum_hessian":[1.444E3,3.95E2,1.049E3,1.08E2,2.87E2,3.19E2,7.3E2,4.3E1,6.5E1,9.6E1,1.91E2,9.8E1,2.21E2,5.39E2,1.91E2,1.28E2,6.3E1,6.3E1,3.5E1,5.3E1,1.68E2,1.16E2,4.23E2],"tree_param":{"num_deleted":"0","num_feature":"177","num_nodes":"23","size_leaf_vector":"1"}},{"base_weights":[-5.0972533E-1,-4.07084E2,1.5379034E2,-7.7791144E2,-2.7050967E2,4.4591442E1,2.008808E2,-1.6437012E1,-7.7141504E0,-7.715579E0,-2.05038E2,-4.920749E1,8.9420975E1,1.8371324E2,5.067073E0,-4.5959783E0,-2.863386E0,-1.5119072E0,-7.729969E-2,9.021836E-1,2.008237E0,3.0587738E0,3.9520552E0],"categories":[],"categories_nodes":[],"categories_segments":[],"categories_sizes":[],"default_left":[0,0,0,0,0,0,0,0,0,0,0,0,0,0,0,0,0,0,0,0,0,0,0],"id":5,"left_children":[1,3,5,7,9,11,13,-1,-1,-1,15,17,19,21,-1,-1,-1,-1,-1,-1,-1,-1,-1],"loss_changes":[9.121523E7,1.920604E7,5.37512E6,2.245E5,1.868566E6,1.3844088E6,4.2939E5,0E0,0E0,0E0,1.44949E5,1.27760266E5,8.4985E4,9.3392E4,0E0,0E0,0E0,0E0,0E0,0E0,0E0,0E0,0E0],"parents":[2147483647,0,0,1,1,2,2,3,3,4,4,5,5,6,6,10,10,11,11,12,12,13,13],"right_children":[2,4,6,8,10,12,14,-1,-1,-1,16,18,20,22,-1,-1,-1,-1,-1,-1,-1,-1,-1],"split_conditions":[4.1114478E3,3.1148154E-1,4.9342197E3,3.4427586E0,1.7884263E3,4.238493E3,5.0518394E3,-1.6437012E1,-7.7141504E0,-7.715579E0,3.599152E1,1.9059681E3,4.8789434E3,5.0027607E3,5.067073E0,-4.5959783E0,-2.863386E0,-1.5119072E0,-7.729969E-2,9.021836E-1,2.008237E0,3.0587738E0,3.9520552E0],"split_indices":[46,4,33,174,47,62,108,0,0,0,138,47,108,31,0,0,0,0,0,0,0,0,0],"split_type":[0,0,0,0,0,0,0,0,0,0,0,0,0,0,0,0,0,0,0,0,0,0,0],"sum_hessian":[1.444E3,3.95E2,1.049E3,1E2,2.95E2,3.19E2,7.3E2,8.5E1,1.5E1,9.8E1,1.97E2,1.03E2,2.16E2,5.67E2,1.63E2,1.31E2,6.6E1,6.3E1,4E1,4.8E1,1.68E2,1.95E2,3.72E2],"tree_param":{"num_deleted":"0","num_feature":"177","num_nodes":"23","size_leaf_vector":"1"}},{"base_weights":[-5.889678E-1,-4.1147723E2,1.4635141E2,-7.6825183E2,-2.7531876E2,-2.5116776E1,1.7998146E2,-1.625716E1,-7.598435E0,-7.6920485E0,-2.0963489E2,-8.15828E1,3.088314E1,1.1981276E2,2.0764157E2,-4.564931E0,-2.9302514E0,-8.92311E-1,-2.014076E0,8.1835285E-2,1.0069947E0,1.9888371E0,2.814677E0,3.8228436E0,5.06386E0],"categories":[],"categories_nodes":[],"categories_segments":[],"categories_sizes":[],"default_left":[0,0,0,0,0,0,0,0,0,0,0,0,0,0,0,0,0,0,0,0,0,0,0,0,0],"id":6,"left_children":[1,3,5,7,9,11,13,-1,-1,-1,15,17,19,21,23,-1,-1,-1,-1,-1,-1,-1,-1,-1,-1],"loss_changes":[8.778604E7,1.7547764E7,6.198506E6,2.40048E5,1.642648E6,5.817744E5,1.366798E6,0E0,0E0,0E0,5.48345E4,4.1858562E4,4.7994367E4,5.5323E4,2.14224E5,0E0,0E0,0E0,0E0,0E0,0E0,0E0,0E0,0E0,0E0],"parents":[2147483647,0,0,1,1,2,2,3,3,4,4,5,5,6,6,10,10,11,11,12,12,13,13,14,14],"right_children":[2,4,6,8,10,12,14,-1,-1,-1,16,18,20,22,24,-1,-1,-1,-1,-1,-1,-1,-1,-1,-1],"split_conditions":[4.0943662E3,2.774012E-1,4.8963706E3,3.4427586E0,2.7310993E1,4.7771606E3,4.9925625E3,-1.625716E1,-7.598435E0,-7.6920485E0,2.8903322E1,2.0785774E3,4.243853E3,4.944716E3,5.0621597E3,-4.564931E0,-2.9302514E0,-8.92311E-1,-2.014076E0,8.1835285E-2,1.0069947E0,1.9888371E0,2.814677E0,3.8228436E0,5.06386E0],"split_indices":[46,4,31,174,124,31,31,0,0,0,8,5,62,31,31,0,0,0,0,0,0,0,0,0,0],"split_type":[0,0,0,0,0,0,0,0,0,0,0,0,0,0,0,0,0,0,0,0,0,0,0,0,0],"sum_hessian":[1.444E3,3.78E2,1.066E3,9.8E1,2.8E2,1.75E2,8.91E2,8.3E1,1.5E1,9.6E1,1.84E2,8.6E1,8.9E1,2.89E2,6.02E2,1.32E2,5.2E1,3.5E1,5.1E1,4E1,4.9E1,1.61E2,1.28E2,4.61E2,1.41E2],"tree_param":{"num_deleted":"0","num_feature":"177","num_nodes":"25","size_leaf_vector":"1"}},{"base_weights":[-6.7090064E-1,-3.906139E2,1.4834093E2,-7.2364026E2,-2.4952028E2,4.7682785E1,1.9483313E2,-1.78433E1,-1.1308644E1,-6.7482624E0,-1.8643541E2,-4.5990166E1,8.840093E1,1.7893005E2,4.9192076E0,-4.1136427E0,-2.5643935E0,-1.41616E0,-5.9464443E-2,8.696962E-1,1.9720764E0,3.0204992E0,3.829056E0],"categories":[],"categories_nodes":[],"categories_segments":[],"categories_sizes":[],"default_left":[0,0,0,0,0,0,0,0,0,0,0,0,0,0,0,0,0,0,0,0,0,0,0],"id":7,"left_children":[1,3,5,7,9,11,13,-1,-1,-1,15,17,19,21,-1,-1,-1,-1,-1,-1,-1,-1,-1],"loss_changes":[8.448549E7,1.7986312E7,4.876718E6,5.9716E5,1.293438E6,1.3133379E6,3.63744E5,0E0,0E0,0E0,6.9821E4,1.12111625E5,8.7630625E4,5.3218E4,0E0,0E0,0E0,0E0,0E0,0E0,0E0,0E0,0E0],"parents":[2147483647,0,0,1,1,2,2,3,3,4,4,5,5,6,6,10,10,11,11,12,12,13,13],"right_children":[2,4,6,8,10,12,14,-1,-1,-1,16,18,20,22,-1,-1,-1,-1,-1,-1,-1,-1,-1],"split_conditions":[4.6613037E3,4.0444733E1,4.9519214E3,2.7778223E1,2.5276676E1,4.238493E3,5.055535E3,-1.78433E1,-1.1308644E1,-6.7482624E0,2.9406572E1,1.9059681E3,4.8789434E3,5.4739346E3,4.9192076E0,-4.1136427E0,-2.5643935E0,-1.41616E0,-5.9464443E-2,8.696962E-1,1.9720764E0,3.0204992E0,3.829056E0],"split_indices":[33,35,31,24,8,62,31,0,0,0,8,64,108,34,0,0,0,0,0,0,0,0,0],"split_type":[0,0,0,0,0,0,0,0,0,0,0,0,0,0,0,0,0,0,0,0,0,0,0],"sum_hessian":[1.444E3,3.97E2,1.047E3,1.12E2,2.85E2,3.34E2,7.13E2,4.3E1,6.9E1,1.1E2,1.75E2,1.01E2,2.33E2,5.61E2,1.52E2,1.22E2,5.3E1,6.2E1,3.9E1,4.8E1,1.85E2,1.94E2,3.67E2],"tree_param":{"num_deleted":"0","num_feature":"177","num_nodes":"23","size_leaf_vector":"1"}},{"base_weights":[-7.591377E-1,-3.9624066E2,1.4067244E2,-7.184711E2,-2.5662888E2,-2.4202206E1,1.7300957E2,-1.7523607E1,-1.1180164E1,-6.9838476E0,-1.9723189E2,-7.802154E1,3.0339619E1,1.0897606E2,1.9694688E2,-4.2826886E0,-2.7931511E0,-8.465015E-1,-1.9438047E0,9.19833E-2,9.700819E-1,1.1280913E0,2.2545898E0,3.630462E0,4.8710303E0],"categories":[],"categories_nodes":[],"categories_segments":[],"categories_sizes":[],"default_left":[0,0,0,0,0,0,0,0,0,0,0,0,0,0,0,0,0,0,0,0,0,0,0,0,0],"id":8,"left_children":[1,3,5,7,9,11,13,-1,-1,-1,15,17,19,21,23,-1,-1,-1,-1,-1,-1,-1,-1,-1,-1],"loss_changes":[8.1326456E7,1.6308184E7,5.731054E6,3.92852E5,1.16759E6,5.402085E5,1.266064E6,0E0,0E0,0E0,2.4666E4,4.2383562E4,4.236786E4,1.8525E4,2.43306E5,0E0,0E0,0E0,0E0,0E0,0E0,0E0,0E0,0E0,0E0],"parents":[2147483647,0,0,1,1,2,2,3,3,4,4,5,5,6,6,10,10,11,11,12,12,13,13,14,14],"right_children":[2,4,6,8,10,12,14,-1,-1,-1,16,18,20,22,24,-1,-1,-1,-1,-1,-1,-1,-1,-1,-1],"split_conditions":[4.0943662E3,4.0402E1,4.8963706E3,2.7778223E1,1.7926523E3,1.9101188E3,4.983575E3,-1.7523607E1,-1.1180164E1,-6.9838476E0,4.190964E1,2.0785774E3,4.243853E3,2.0689958E3,5.0621597E3,-4.2826886E0,-2.7931511E0,-8.465015E-1,-1.9438047E0,9.19833E-2,9.700819E-1,1.1280913E0,2.2545898E0,3.630462E0,4.8710303E0],"split_indices":[46,35,31,24,47,64,31,0,0,0,82,5,62,91,31,0,0,0,0,0,0,0,0,0,0],"split_type":[0,0,0,0,0,0,0,0,0,0,0,0,0,0,0,0,0,0,0,0,0,0,0,0,0],"sum_hessian":[1.444E3,3.78E2,1.066E3,1.08E2,2.7E2,1.75E2,8.91E2,4.3E1,6.5E1,9.6E1,1.74E2,8.7E1,8.8E1,2.5E2,6.41E2,1.24E2,5E1,3.6E1,5.1E1,3.9E1,4.9E1,2.2E1,2.28E2,5E2,1.41E2],"tree_param":{"num_deleted":"0","num_feature":"177","num_nodes":"25","size_leaf_vector":"1"}},{"base_weights":[-8.564135E-1,-3.76221E2,1.4258546E2,-7.227285E2,-2.4951773E2,4.3190308E1,1.8613243E2,-7.6377075E2,-7.147124E0,-7.146361E0,-1.889735E2,-4.7408092E1,8.186774E1,1.6858325E2,4.5928874E0,-1.7302542E1,-1.0224802E1,-4.247215E0,-2.6491876E0,-1.4355699E0,-2.09351E-1,7.491898E-1,1.8498462E0,2.8459923E0,3.6282818E0],"categories":[],"categories_nodes":[],"categories_segments":[],"categories_sizes":[],"default_left":[0,0,0,0,0,0,0,0,0,0,0,0,0,0,0,0,0,0,0,0,0,0,0,0,0],"id":9,"left_children":[1,3,5,7,9,11,13,15,-1,-1,17,19,21,23,-1,-1,-1,-1,-1,-1,-1,-1,-1,-1,-1],"loss_changes":[7.828672E7,1.6747596E7,4.513234E6,2.09856E5,1.63344E6,1.165251E6,3.63858E5,9.2168E4,0E0,0E0,1.289825E5,8.716911E4,9.1666625E4,5.2697E4,0E0,0E0,0E0,0E0,0E0,0E0,0E0,0E0,0E0,0E0,0E0],"parents":[2147483647,0,0,1,1,2,2,3,3,4,4,5,5,6,6,7,7,10,10,11,11,12,12,13,13],"right_children":[2,4,6,8,10,12,14,16,-1,-1,18,20,22,24,-1,-1,-1,-1,-1,-1,-1,-1,-1,-1,-1],"split_conditions":[4.6613037E3,3.1148154E-1,4.945773E3,3.4427586E0,1.7884263E3,4.80824E3,5.0439863E3,5.068226E1,-7.147124E0,-7.146361E0,3.599152E1,4.751609E3,4.8792056E3,5.0034487E3,4.5928874E0,-1.7302542E1,-1.0224802E1,-4.247215E0,-2.6491876E0,-1.4355699E0,-2.09351E-1,7.491898E-1,1.8498462E0,2.8459923E0,3.6282818E0],"split_indices":[33,4,31,174,47,54,31,36,0,0,138,33,31,31,0,0,0,0,0,0,0,0,0,0,0],"split_type":[0,0,0,0,0,0,0,0,0,0,0,0,0,0,0,0,0,0,0,0,0,0,0,0,0],"sum_hessian":[1.444E3,3.97E2,1.047E3,1E2,2.97E2,3.22E2,7.25E2,8.5E1,1.5E1,9.8E1,1.99E2,9.6E1,2.26E2,5.34E2,1.91E2,5.2E1,3.3E1,1.31E2,6.8E1,5.5E1,4.1E1,4.8E1,1.78E2,1.95E2,3.39E2],"tree_param":{"num_deleted":"0","num_feature":"177","num_nodes":"25","size_leaf_vector":"1"}},{"base_weights":[-9.659098E-1,-3.8174384E2,1.3520848E2,-6.8529987E2,-2.4364505E2,-2.332315E1,1.6630185E2,-1.607665E1,-1.0013095E1,-6.6092186E0,-1.8979384E2,-7.517769E1,2.9227749E1,1.0887584E2,1.911203E2,-4.1357765E0,-2.730243E0,-8.141985E-1,-1.8740145E0,8.9276895E-2,9.339894E-1,1.834986E0,2.5574548E0,3.5179644E0,4.688235E0],"categories":[],"categories_nodes":[],"categories_segments":[],"categories_sizes":[],"default_left":[0,0,0,0,0,0,0,0,0,0,0,0,0,0,0,0,0,0,0,0,0,0,0,0,0],"id":10,"left_children":[1,3,5,7,9,11,13,-1,-1,-1,15,17,19,21,23,-1,-1,-1,-1,-1,-1,-1,-1,-1,-1],"loss_changes":[7.539192E7,1.5220788E7,5.298654E6,5.48504E5,9.53366E5,5.0148684E5,1.172958E6,0E0,0E0,0E0,2.0942E4,3.966447E4,3.9195836E4,3.308775E4,2.0175E5,0E0,0E0,0E0,0E0,0E0,0E0,0E0,0E0,0E0,0E0],"parents":[2147483647,0,0,1,1,2,2,3,3,4,4,5,5,6,6,10,10,11,11,12,12,13,13,14,14],"right_children":[2,4,6,8,10,12,14,-1,-1,-1,16,18,20,22,24,-1,-1,-1,-1,-1,-1,-1,-1,-1,-1],"split_conditions":[4.0943662E3,4.0444733E1,4.8963706E3,5.07496E1,1.7926523E3,1.9101188E3,5.455793E3,-1.607665E1,-1.0013095E1,-6.6092186E0,3.5890423E1,2.0785774E3,4.243853E3,4.9342197E3,5.0621597E3,-4.1357765E0,-2.730243E0,-8.141985E-1,-1.8740145E0,8.9276895E-2,9.339894E-1,1.834986E0,2.5574548E0,3.5179644E0,4.688235E0],"split_indices":[46,35,31,36,47,64,34,0,0,0,89,5,62,33,31,0,0,0,0,0,0,0,0,0,0],"split_type":[0,0,0,0,0,0,0,0,0,0,0,0,0,0,0,0,0,0,0,0,0,0,0,0,0],"sum_hessian":[1.444E3,3.78E2,1.066E3,1.12E2,2.66E2,1.75E2,8.91E2,5.8E1,5.4E1,9.2E1,1.74E2,8.7E1,8.8E1,2.77E2,6.14E2,1.21E2,5.3E1,3.6E1,5.1E1,3.9E1,4.9E1,1.61E2,1.16E2,4.73E2,1.41E2],"tree_param":{"num_deleted":"0","num_feature":"177","num_nodes":"25","size_leaf_vector":"1"}},{"base_weights":[-1.0454471E0,-3.746254E2,1.3255525E2,-7.014764E2,-2.4992795E2,-2.2903023E1,1.63046E2,-1.4859212E1,-6.871531E0,-7.1302686E0,-1.9326758E2,-7.438058E1,2.8149876E1,1.1456349E2,1.9152492E2,-4.3721476E0,-2.9233434E0,-1.8494111E0,-8.208543E-1,1.40830325E-2,8.728755E-1,1.8370277E0,2.7230165E0,3.5229917E0,4.620609E0],"categories":[],"categories_nodes":[],"categories_segments":[],"categories_sizes":[],"default_left":[0,0,0,0,0,0,0,0,0,0,0,0,0,0,0,0,0,0,0,0,0,0,0,0,0],"id":11,"left_children":[1,3,5,7,9,11,13,-1,-1,-1,15,17,19,21,23,-1,-1,-1,-1,-1,-1,-1,-1,-1,-1],"loss_changes":[7.256867E7,1.4733532E7,5.095252E6,2.5294E5,1.376652E6,4.835231E5,1.127424E6,0E0,0E0,0E0,7.53565E4,3.5904156E4,3.9819023E4,1.061335E5,1.34848E5,0E0,0E0,0E0,0E0,0E0,0E0,0E0,0E0,0E0,0E0],"parents":[2147483647,0,0,1,1,2,2,3,3,4,4,5,5,6,6,10,10,11,11,12,12,13,13,14,14],"right_children":[2,4,6,8,10,12,14,-1,-1,-1,16,18,20,22,24,-1,-1,-1,-1,-1,-1,-1,-1,-1,-1],"split_conditions":[4.0943662E3,2.774012E-1,4.8963706E3,3.4427586E0,2.7175924E1,4.7771606E3,5.0006855E3,-1.4859212E1,-6.871531E0,-7.1302686E0,4.0362163E3,2.9247072E1,4.238493E3,4.9519214E3,5.065862E3,-4.3721476E0,-2.9233434E0,-1.8494111E0,-8.208543E-1,1.40830325E-2,8.728755E-1,1.8370277E0,2.7230165E0,3.5229917E0,4.620609E0],"split_indices":[46,4,31,174,74,31,31,0,0,0,46,23,62,31,31,0,0,0,0,0,0,0,0,0,0],"split_type":[0,0,0,0,0,0,0,0,0,0,0,0,0,0,0,0,0,0,0,0,0,0,0,0,0],"sum_hessian":[1.444E3,3.78E2,1.066E3,9.8E1,2.8E2,1.75E2,8.91E2,8.3E1,1.5E1,8.8E1,1.92E2,8.6E1,8.9E1,3.39E2,5.52E2,1.13E2,7.9E1,5E1,3.6E1,3.4E1,5.5E1,1.78E2,1.61E2,4.17E2,1.35E2],"tree_param":{"num_deleted":"0","num_feature":"177","num_nodes":"25","size_leaf_vector":"1"}},{"base_weights":[-1.1116003E0,-3.556558E2,1.343754E2,-6.604333E2,-2.2656184E2,4.3108498E1,1.7653084E2,-1.6345367E1,-1.028157E1,-6.0072265E0,-1.6483673E2,-4.1874157E1,8.005228E1,1.6139195E2,4.425787E0,-3.6312447E0,-2.320921E0,-1.2993336E0,-6.704861E-2,7.9189545E-1,1.7846229E0,2.729638E0,3.4577637E0],"categories":[],"categories_nodes":[],"categories_segments":[],"categories_sizes":[],"default_left":[0,0,0,0,0,0,0,0,0,0,0,0,0,0,0,0,0,0,0,0,0,0,0],"id":12,"left_children":[1,3,5,7,9,11,13,-1,-1,-1,15,17,19,21,-1,-1,-1,-1,-1,-1,-1,-1,-1],"loss_changes":[6.984331E7,1.5068524E7,4.009412E6,5.84864E5,1.073478E6,1.0810782E6,3.0794E5,0E0,0E0,0E0,3.25645E4,9.320483E4,7.0716875E4,4.0955E4,0E0,0E0,0E0,0E0,0E0,0E0,0E0,0E0,0E0],"parents":[2147483647,0,0,1,1,2,2,3,3,4,4,5,5,6,6,10,10,11,11,12,12,13,13],"right_children":[2,4,6,8,10,12,14,-1,-1,-1,16,18,20,22,-1,-1,-1,-1,-1,-1,-1,-1,-1],"split_conditions":[4.6613037E3,4.0444733E1,4.9519214E3,2.7778223E1,2.5798845E1,4.238493E3,5.051973E3,-1.6345367E1,-1.028157E1,-6.0072265E0,4.6037847E3,1.9059681E3,4.8789434E3,5.4739346E3,4.425787E0,-3.6312447E0,-2.320921E0,-1.2993336E0,-6.704861E-2,7.9189545E-1,1.7846229E0,2.729638E0,3.4577637E0],"split_indices":[33,35,31,24,8,62,31,0,0,0,55,47,108,34,0,0,0,0,0,0,0,0,0],"split_type":[0,0,0,0,0,0,0,0,0,0,0,0,0,0,0,0,0,0,0,0,0,0,0],"sum_hessian":[1.444E3,3.97E2,1.047E3,1.12E2,2.85E2,3.34E2,7.13E2,4.3E1,6.9E1,1.21E2,1.64E2,1.01E2,2.33E2,5.5E2,1.63E2,1.12E2,5.2E1,6.1E1,4E1,4.8E1,1.85E2,1.94E2,3.56E2],"tree_param":{"num_deleted":"0","num_feature":"177","num_nodes":"23","size_leaf_vector":"1"}},{"base_weights":[-1.1816428E0,-3.6075772E2,1.27411766E2,-6.805036E2,-2.4194891E2,-2.5113585E1,1.5612834E2,-7.1944214E2,-6.4625244E0,-7.229366E0,-1.9194058E2,-7.167965E1,2.446687E1,9.7854355E1,1.7846405E2,-1.0716628E1,-1.7364117E1,-4.3780103E0,-2.858684E0,-1.7585391E0,-7.4899185E-1,1.5002504E-2,7.866035E-1,1.0033436E0,2.028177E0,3.2817197E0,4.4032826E0],"categories":[],"categories_nodes":[],"categories_segments":[],"categories_sizes":[],"default_left":[0,0,0,0,0,0,0,0,0,0,0,0,0,0,0,0,0,0,0,0,0,0,0,0,0,0,0],"id":13,"left_children":[1,3,5,7,9,11,13,15,-1,-1,17,19,21,23,25,-1,-1,-1,-1,-1,-1,-1,-1,-1,-1,-1,-1],"loss_changes":[6.7230296E7,1.3726404E7,4.71059E6,2.4314E5,1.368488E6,4.1049425E5,1.086718E6,5.0308E4,0E0,0E0,1.24976E5,3.4145188E4,3.0873305E4,1.880375E4,2.0669E5,0E0,0E0,0E0,0E0,0E0,0E0,0E0,0E0,0E0,0E0,0E0,0E0],"parents":[2147483647,0,0,1,1,2,2,3,3,4,4,5,5,6,6,7,7,10,10,11,11,12,12,13,13,14,14],"right_children":[2,4,6,8,10,12,14,16,-1,-1,18,20,22,24,26,-1,-1,-1,-1,-1,-1,-1,-1,-1,-1,-1,-1],"split_conditions":[4.0943662E3,2.668346E-1,4.8774604E3,3.4427586E0,1.7730555E3,4.770835E3,4.9723013E3,2.0706804E3,-6.4625244E0,-7.229366E0,4.0263174E3,3.1413593E1,4.238493E3,2.0689958E3,5.058755E3,-1.0716628E1,-1.7364117E1,-4.3780103E0,-2.858684E0,-1.7585391E0,-7.4899185E-1,1.5002504E-2,7.866035E-1,1.0033436E0,2.028177E0,3.2817197E0,4.4032826E0],"split_indices":[46,4,33,174,47,33,33,30,0,0,46,8,62,91,58,0,0,0,0,0,0,0,0,0,0,0,0],"split_type":[0,0,0,0,0,0,0,0,0,0,0,0,0,0,0,0,0,0,0,0,0,0,0,0,0,0,0],"sum_hessian":[1.444E3,3.78E2,1.066E3,9.6E1,2.82E2,1.69E2,8.97E2,8.2E1,1.4E1,7.4E1,2.08E2,8.6E1,8.3E1,2.56E2,6.41E2,4.7E1,3.5E1,1.23E2,8.5E1,5.3E1,3.3E1,3.4E1,4.9E1,2.3E1,2.33E2,4.95E2,1.46E2],"tree_param":{"num_deleted":"0","num_feature":"177","num_nodes":"27","size_leaf_vector":"1"}},{"base_weights":[-1.2960587E0,-3.4385248E2,1.2871252E2,-6.6437823E2,-2.2884116E2,3.713348E1,1.6820647E2,-7.0357306E2,-6.516528E0,-6.6432953E0,-1.7416211E2,-4.6789722E1,7.24497E1,1.4273433E2,3.8579369E0,-1.7320084E1,-1.0668668E1,-3.9160771E0,-2.4546096E0,-1.3654063E0,-2.685484E-1,6.0633487E-1,1.648848E0,2.8915505E0,9.913522E-1],"categories":[],"categories_nodes":[],"categories_segments":[],"categories_sizes":[],"default_left":[0,0,0,0,0,0,0,0,0,0,0,0,0,0,0,0,0,0,0,0,0,0,0,0,0],"id":14,"left_children":[1,3,5,7,9,11,13,15,-1,-1,17,19,21,23,-1,-1,-1,-1,-1,-1,-1,-1,-1,-1,-1],"loss_changes":[6.4752904E7,1.3985452E7,3.780896E6,2.2054E5,1.416937E6,9.772369E5,3.24588E5,1.22188E5,0E0,0E0,1.113635E5,6.636411E4,8.433825E4,2.9595E4,0E0,0E0,0E0,0E0,0E0,0E0,0E0,0E0,0E0,0E0,0E0],"parents":[2147483647,0,0,1,1,2,2,3,3,4,4,5,5,6,6,7,7,10,10,11,11,12,12,13,13],"right_children":[2,4,6,8,10,12,14,16,-1,-1,18,20,22,24,-1,-1,-1,-1,-1,-1,-1,-1,-1,-1,-1],"split_conditions":[4.1114478E3,2.774012E-1,4.9342197E3,3.4427586E0,3.3738773E1,1.924806E3,4.403882E3,5.0981377E1,-6.516528E0,-6.6432953E0,4.582509E3,2.9804976E1,4.8651157E3,8.161666E-3,3.8579369E0,-1.7320084E1,-1.0668668E1,-3.9160771E0,-2.4546096E0,-1.3654063E0,-2.685484E-1,6.0633487E-1,1.648848E0,2.8915505E0,9.913522E-1],"split_indices":[46,4,33,174,89,114,62,37,0,0,33,24,33,123,0,0,0,0,0,0,0,0,0,0,0],"split_type":[0,0,0,0,0,0,0,0,0,0,0,0,0,0,0,0,0,0,0,0,0,0,0,0,0],"sum_hessian":[1.444E3,3.95E2,1.049E3,9.8E1,2.97E2,3.19E2,7.3E2,8.3E1,1.5E1,9.4E1,2.03E2,9.4E1,2.25E2,3.76E2,3.54E2,3.2E1,5.1E1,1.33E2,7E1,5.4E1,4E1,4.7E1,1.78E2,3.66E2,1E1],"tree_param":{"num_deleted":"0","num_feature":"177","num_nodes":"25","size_leaf_vector":"1"}},{"base_weights":[-1.4053032E0,-3.477294E2,1.2245011E2,-6.5693115E2,-2.3285822E2,-2.1311838E1,1.5064755E2,-6.94165E2,-6.2712545E0,-7.0579686E0,-1.8600427E2,-6.856514E1,2.6579159E1,1.0840589E2,1.7892856E2,-1.7020489E1,-1.0510709E1,-4.2709427E0,-2.787882E0,-1.7215747E0,-7.4936295E-1,1.03784695E-1,8.7371284E-1,1.7068721E0,2.5695658E0,3.2814138E0,4.287051E0],"categories":[],"categories_nodes":[],"categories_segments":[],"categories_sizes":[],"default_left":[0,0,0,0,0,0,0,0,0,0,0,0,0,0,0,0,0,0,0,0,0,0,0,0,0,0,0],"id":15,"left_children":[1,3,5,7,9,11,13,15,-1,-1,17,19,21,23,25,-1,-1,-1,-1,-1,-1,-1,-1,-1,-1,-1,-1],"loss_changes":[6.236647E7,1.2838676E7,4.357585E6,2.0296E5,1.285987E6,4.164534E5,9.7341E5,6.5032E4,0E0,0E0,1.297435E5,3.397897E4,3.289582E4,1.1738E5,1.02582E5,0E0,0E0,0E0,0E0,0E0,0E0,0E0,0E0,0E0,0E0,0E0,0E0],"parents":[2147483647,0,0,1,1,2,2,3,3,4,4,5,5,6,6,7,7,10,10,11,11,12,12,13,13,14,14],"right_children":[2,4,6,8,10,12,14,16,-1,-1,18,20,22,24,26,-1,-1,-1,-1,-1,-1,-1,-1,-1,-1,-1,-1],"split_conditions":[4.0943662E3,2.668346E-1,4.8963706E3,3.4427586E0,4.4181455E3,1.9101188E3,5.004901E3,5.0981377E1,-6.2712545E0,-7.0579686E0,4.0222336E3,2.9247072E1,2.952187E1,4.9418423E3,5.5348667E3,-1.7020489E1,-1.0510709E1,-4.2709427E0,-2.787882E0,-1.7215747E0,-7.4936295E-1,1.03784695E-1,8.7371284E-1,1.7068721E0,2.5695658E0,3.2814138E0,4.287051E0],"split_indices":[46,4,31,174,104,64,31,37,0,0,46,23,76,33,34,0,0,0,0,0,0,0,0,0,0,0,0],"split_type":[0,0,0,0,0,0,0,0,0,0,0,0,0,0,0,0,0,0,0,0,0,0,0,0,0,0,0],"sum_hessian":[1.444E3,3.78E2,1.066E3,9.6E1,2.82E2,1.75E2,8.91E2,8.2E1,1.4E1,7E1,2.12E2,8.7E1,8.8E1,3.67E2,5.24E2,3.2E1,5E1,1.22E2,9E1,5E1,3.7E1,4.2E1,4.6E1,1.83E2,1.84E2,3.89E2,1.35E2],"tree_param":{"num_deleted":"0","num_feature":"177","num_nodes":"27","size_leaf_vector":"1"}},{"base_weights":[-1.5067488E0,-3.432174E2,1.1940347E2,-6.454659E2,-2.2968506E2,-2.2407434E1,1.4770078E2,-6.8186395E2,-6.178833E0,-6.9486175E0,-1.8381708E2,-6.871444E1,2.6100119E1,1.0629529E2,1.7542163E2,-1.0140047E1,-1.647902E1,-4.19242E0,-2.742761E0,-1.7179108E0,-7.3615724E-1,1.019259E-1,8.579549E-1,1.673467E0,2.5197098E0,3.2166207E0,4.2043734E0],"categories":[],"categories_nodes":[],"categories_segments":[],"categories_sizes":[],"default_left":[0,0,0,0,0,0,0,0,0,0,0,0,0,0,0,0,0,0,0,0,0,0,0,0,0,0,0],"id":16,"left_children":[1,3,5,7,9,11,13,15,-1,-1,17,19,21,23,25,-1,-1,-1,-1,-1,-1,-1,-1,-1,-1,-1,-1],"loss_changes":[6.007224E7,1.229842E7,4.326366E6,1.83852E5,1.214498E6,4.200291E5,9.35192E5,7.284E4,0E0,0E0,1.152325E5,3.6269906E4,3.1718648E4,1.129915E5,9.953E4,0E0,0E0,0E0,0E0,0E0,0E0,0E0,0E0,0E0,0E0,0E0,0E0],"parents":[2147483647,0,0,1,1,2,2,3,3,4,4,5,5,6,6,7,7,10,10,11,11,12,12,13,13,14,14],"right_children":[2,4,6,8,10,12,14,16,-1,-1,18,20,22,24,26,-1,-1,-1,-1,-1,-1,-1,-1,-1,-1,-1,-1],"split_conditions":[4.6485557E3,2.668346E-1,4.8963706E3,3.4427586E0,3.3186287E1,1.9101188E3,5.004901E3,2.0706804E3,-6.178833E0,-6.9486175E0,4.0210552E3,2.9908083E1,2.952187E1,4.9550244E3,5.0553594E3,-1.0140047E1,-1.647902E1,-4.19242E0,-2.742761E0,-1.7179108E0,-7.3615724E-1,1.019259E-1,8.579549E-1,1.673467E0,2.5197098E0,3.2166207E0,4.2043734E0],"split_indices":[31,4,31,174,89,64,31,30,0,0,112,81,76,31,33,0,0,0,0,0,0,0,0,0,0,0,0],"split_type":[0,0,0,0,0,0,0,0,0,0,0,0,0,0,0,0,0,0,0,0,0,0,0,0,0,0,0],"sum_hessian":[1.444E3,3.75E2,1.069E3,9.6E1,2.79E2,1.78E2,8.91E2,8.2E1,1.4E1,6.9E1,2.1E2,9E1,8.8E1,3.67E2,5.24E2,4.7E1,3.5E1,1.24E2,8.6E1,5.3E1,3.7E1,4.2E1,4.6E1,1.83E2,1.84E2,3.89E2,1.35E2],"tree_param":{"num_deleted":"0","num_feature":"177","num_nodes":"27","size_leaf_vector":"1"}},{"base_weights":[-1.6028088E0,-3.3518567E2,1.1769714E2,-6.301845E2,-2.2269159E2,-1.5732169E1,1.458288E2,-1.6932144E1,-1.0462735E1,-6.7487273E0,-1.7895969E2,-6.6098305E1,2.9578844E1,1.0592662E2,1.723079E2,-4.1092525E0,-2.68221E0,-1.6263145E0,-6.754821E-1,9.4563055E-1,1.3092984E-1,1.6774522E0,2.4915378E0,3.158117E0,4.1234236E0],"categories":[],"categories_nodes":[],"categories_segments":[],"categories_sizes":[],"default_left":[0,0,0,0,0,0,0,0,0,0,0,0,0,0,0,0,0,0,0,0,0,0,0,0,0],"id":17,"left_children":[1,3,5,7,9,11,13,-1,-1,-1,15,17,19,21,23,-1,-1,-1,-1,-1,-1,-1,-1,-1,-1],"loss_changes":[5.786226E7,1.2008408E7,4.031563E6,1.71804E5,1.128195E6,4.456644E5,8.43808E5,0E0,0E0,0E0,1.201595E5,3.1522156E4,4.0856742E4,9.829775E4,9.2777E4,0E0,0E0,0E0,0E0,0E0,0E0,0E0,0E0,0E0,0E0],"parents":[2147483647,0,0,1,1,2,2,3,3,4,4,5,5,6,6,10,10,11,11,12,12,13,13,14,14],"right_children":[2,4,6,8,10,12,14,-1,-1,-1,16,18,20,22,24,-1,-1,-1,-1,-1,-1,-1,-1,-1,-1],"split_conditions":[4.0943662E3,2.774012E-1,4.9027773E3,7.5523574E-3,4.4181455E3,1.9101188E3,5.4739346E3,-1.6932144E1,-1.0462735E1,-6.7487273E0,4.0222336E3,3.146235E1,9.907147E2,4.9573574E3,5.5348667E3,-4.1092525E0,-2.68221E0,-1.6263145E0,-6.754821E-1,9.4563055E-1,1.3092984E-1,1.6774522E0,2.4915378E0,3.158117E0,4.1234236E0],"split_indices":[46,4,31,14,104,64,34,0,0,0,46,8,17,31,34,0,0,0,0,0,0,0,0,0,0],"split_type":[0,0,0,0,0,0,0,0,0,0,0,0,0,0,0,0,0,0,0,0,0,0,0,0,0],"sum_hessian":[1.444E3,3.78E2,1.066E3,9.8E1,2.8E2,1.86E2,8.8E2,2.1E1,7.7E1,6.8E1,2.12E2,8.7E1,9.9E1,3.61E2,5.19E2,1.22E2,9E1,5.4E1,3.3E1,5.3E1,4.6E1,1.78E2,1.83E2,3.84E2,1.35E2],"tree_param":{"num_deleted":"0","num_feature":"177","num_nodes":"25","size_leaf_vector":"1"}},{"base_weights":[-1.6767482E0,-3.1564905E2,1.2038162E2,-6.15055E2,-2.0810553E2,3.9015816E1,1.5625018E2,-1.6658627E1,-5.1100662E2,-1.583611E2,-6.09242E0,-3.439218E1,7.0267456E1,1.4094089E2,3.8531003E0,-4.3888373E0,-1.0711602E1,-3.568268E0,-2.1728065E0,-1.0859302E0,-4.8739348E-2,6.834006E-1,1.561643E0,2.4039786E0,3.0363872E0],"categories":[],"categories_nodes":[],"categories_segments":[],"categories_sizes":[],"default_left":[0,0,0,0,0,0,0,0,0,0,0,0,0,0,0,0,0,0,0,0,0,0,0,0,0],"id":18,"left_children":[1,3,5,7,9,11,13,-1,15,17,-1,19,21,23,-1,-1,-1,-1,-1,-1,-1,-1,-1,-1,-1],"loss_changes":[5.5719948E7,1.246508E7,3.025161E6,2.52148E5,1.23274E6,7.622605E5,2.68302E5,0E0,1.4194E4,1.1545E5,0E0,6.357918E4,5.18225E4,2.8121E4,0E0,0E0,0E0,0E0,0E0,0E0,0E0,0E0,0E0,0E0,0E0],"parents":[2147483647,0,0,1,1,2,2,3,3,4,4,5,5,6,6,8,8,9,9,11,11,12,12,13,13],"right_children":[2,4,6,8,10,12,14,-1,16,18,-1,20,22,24,-1,-1,-1,-1,-1,-1,-1,-1,-1,-1,-1],"split_conditions":[4.6814976E3,3.1148154E-1,5.414448E3,7.5523574E-3,7.09765E-1,4.238493E3,5.04022E3,-1.6658627E1,-1.0755496E-2,4.0550146E3,-6.09242E0,1.9059681E3,4.8792056E3,5.0007104E3,3.8531003E0,-4.3888373E0,-1.0711602E1,-3.568268E0,-2.1728065E0,-1.0859302E0,-4.8739348E-2,6.834006E-1,1.561643E0,2.4039786E0,3.0363872E0],"split_indices":[31,4,34,14,110,62,31,0,166,46,0,64,58,33,0,0,0,0,0,0,0,0,0,0,0],"split_type":[0,0,0,0,0,0,0,0,0,0,0,0,0,0,0,0,0,0,0,0,0,0,0,0,0],"sum_hessian":[1.444E3,4.02E2,1.042E3,1E2,3.02E2,3.22E2,7.2E2,2.1E1,7.9E1,2.08E2,9.4E1,9.6E1,2.26E2,5.24E2,1.96E2,1E1,6.9E1,1.39E2,6.9E1,5.7E1,3.9E1,4.5E1,1.81E2,2.01E2,3.23E2],"tree_param":{"num_deleted":"0","num_feature":"177","num_nodes":"25","size_leaf_vector":"1"}},{"base_weights":[-1.7577497E0,-3.2473688E2,1.1252611E2,-6.1209845E2,-2.1682419E2,-2.3883133E1,1.3867001E2,-6.4709265E2,-5.8156686E0,-6.638764E0,-1.743599E2,-6.542815E1,2.185149E1,8.989717E1,1.6001572E2,-1.6021935E1,-9.806278E0,-3.9774857E0,-2.584407E0,-1.6340355E0,-7.1106887E-1,-3.6384996E-2,6.7280865E-1,1.5041391E0,2.11134E0,2.9392369E0,3.9490511E0],"categories":[],"categories_nodes":[],"categories_segments":[],"categories_sizes":[],"default_left":[0,0,0,0,0,0,0,0,0,0,0,0,0,0,0,0,0,0,0,0,0,0,0,0,0,0,0],"id":19,"left_children":[1,3,5,7,9,11,13,15,-1,-1,17,19,21,23,25,-1,-1,-1,-1,-1,-1,-1,-1,-1,-1,-1,-1],"loss_changes":[5.366718E7,1.11202E7,3.846735E6,1.9484E5,1.098875E6,3.4345656E5,8.67138E5,1.36632E5,0E0,0E0,1.127385E5,3.1176062E4,2.4862676E4,2.61385E4,1.58391E5,0E0,0E0,0E0,0E0,0E0,0E0,0E0,0E0,0E0,0E0,0E0,0E0],"parents":[2147483647,0,0,1,1,2,2,3,3,4,4,5,5,6,6,7,7,10,10,11,11,12,12,13,13,14,14],"right_children":[2,4,6,8,10,12,14,16,-1,-1,18,20,22,24,26,-1,-1,-1,-1,-1,-1,-1,-1,-1,-1,-1,-1],"split_conditions":[4.6485557E3,2.668346E-1,4.8890366E3,3.4427586E0,3.3186287E1,4.7771606E3,2.4916475E3,4.977079E1,-5.8156686E0,-6.638764E0,4.0210552E3,2.298671E3,4.80824E3,4.3456045E3,5.0621597E3,-1.6021935E1,-9.806278E0,-3.9774857E0,-2.584407E0,-1.6340355E0,-7.1106887E-1,-3.6384996E-2,6.7280865E-1,1.5041391E0,2.11134E0,2.9392369E0,3.9490511E0],"split_indices":[31,4,31,174,38,31,47,36,0,0,112,39,54,46,31,0,0,0,0,0,0,0,0,0,0,0,0],"split_type":[0,0,0,0,0,0,0,0,0,0,0,0,0,0,0,0,0,0,0,0,0,0,0,0,0,0,0],"sum_hessian":[1.444E3,3.75E2,1.069E3,9.6E1,2.79E2,1.72E2,8.97E2,8.2E1,1.4E1,6.6E1,2.13E2,8.9E1,8.3E1,2.81E2,6.16E2,3.1E1,5.1E1,1.27E2,8.6E1,5.2E1,3.7E1,2.9E1,5.4E1,1.6E2,1.21E2,4.75E2,1.41E2],"tree_param":{"num_deleted":"0","num_feature":"177","num_nodes":"27","size_leaf_vector":"1"}},{"base_weights":[-1.8470424E0,-3.188322E2,1.1031646E2,-6.014231E2,-2.127201E2,-1.4356575E1,1.3788277E2,-6.3563525E2,-5.729968E0,-6.4937735E0,-1.7066783E2,-6.3781506E1,2.9378757E1,1.0033139E2,1.6243741E2,-1.5746E1,-9.6276655E0,-3.8984554E0,-2.5423827E0,-1.604217E0,-6.917324E-1,9.390227E-1,1.426727E-1,1.6017503E0,2.3566794E0,2.9815729E0,3.915095E0],"categories":[],"categories_nodes":[],"categories_segments":[],"categories_sizes":[],"default_left":[0,0,0,0,0,0,0,0,0,0,0,0,0,0,0,0,0,0,0,0,0,0,0,0,0,0,0],"id":20,"left_children":[1,3,5,7,9,11,13,15,-1,-1,17,19,21,23,25,-1,-1,-1,-1,-1,-1,-1,-1,-1,-1,-1,-1],"loss_changes":[5.169385E7,1.0755128E7,3.700994E6,1.77652E5,1.060154E6,4.395307E5,7.29925E5,1.40364E5,0E0,0E0,1.05319E5,3.1695906E4,4.0933414E4,8.07245E4,8.7308E4,0E0,0E0,0E0,0E0,0E0,0E0,0E0,0E0,0E0,0E0,0E0,0E0],"parents":[2147483647,0,0,1,1,2,2,3,3,4,4,5,5,6,6,7,7,10,10,11,11,12,12,13,13,14,14],"right_children":[2,4,6,8,10,12,14,16,-1,-1,18,20,22,24,26,-1,-1,-1,-1,-1,-1,-1,-1,-1,-1,-1,-1],"split_conditions":[4.6485557E3,2.668346E-1,4.9051973E3,3.4427586E0,3.3186287E1,1.9101188E3,5.4739346E3,4.977079E1,-5.729968E0,-6.4937735E0,4.0222336E3,2.298671E3,9.805573E2,4.9593823E3,5.0722744E3,-1.5746E1,-9.6276655E0,-3.8984554E0,-2.5423827E0,-1.604217E0,-6.917324E-1,9.390227E-1,1.426727E-1,1.6017503E0,2.3566794E0,2.9815729E0,3.915095E0],"split_indices":[31,4,31,174,88,64,34,36,0,0,46,39,17,31,31,0,0,0,0,0,0,0,0,0,0,0,0],"split_type":[0,0,0,0,0,0,0,0,0,0,0,0,0,0,0,0,0,0,0,0,0,0,0,0,0,0,0],"sum_hessian":[1.444E3,3.75E2,1.069E3,9.6E1,2.79E2,1.94E2,8.75E2,8.2E1,1.4E1,6.7E1,2.12E2,9E1,1.04E2,3.56E2,5.19E2,3.1E1,5.1E1,1.25E2,8.7E1,5.2E1,3.8E1,5.5E1,4.9E1,1.78E2,1.78E2,3.9E2,1.29E2],"tree_param":{"num_deleted":"0","num_feature":"177","num_nodes":"27","size_leaf_vector":"1"}},{"base_weights":[-1.928709E0,-3.1303503E2,1.08155136E2,-5.909345E2,-2.0869342E2,-1.6011559E1,1.3476256E2,-1.5876348E1,-4.8806418E2,-6.394614E0,-1.6774336E2,-6.2626766E1,2.733943E1,9.785514E1,1.592555E2,-4.134312E0,-1.0269829E1,-3.8263066E0,-2.4866872E0,-1.5671844E0,-6.6890854E-1,1.4008518E-1,8.9638937E-1,1.5504159E0,2.3009229E0,2.922723E0,3.8397162E0],"categories":[],"categories_nodes":[],"categories_segments":[],"categories_sizes":[],"default_left":[0,0,0,0,0,0,0,0,0,0,0,0,0,0,0,0,0,0,0,0,0,0,0,0,0,0,0],"id":21,"left_children":[1,3,5,7,9,11,13,-1,15,-1,17,19,21,23,25,-1,-1,-1,-1,-1,-1,-1,-1,-1,-1,-1,-1],"loss_changes":[4.979432E7,1.040204E7,3.559022E6,1.70764E5,1.02318E6,4.0059906E5,7.22094E5,0E0,4.158E4,0E0,1.041305E5,3.0510156E4,3.5398156E4,8.334975E4,8.4726E4,0E0,0E0,0E0,0E0,0E0,0E0,0E0,0E0,0E0,0E0,0E0,0E0],"parents":[2147483647,0,0,1,1,2,2,3,3,4,4,5,5,6,6,8,8,10,10,11,11,12,12,13,13,14,14],"right_children":[2,4,6,8,10,12,14,-1,16,-1,18,20,22,24,26,-1,-1,-1,-1,-1,-1,-1,-1,-1,-1,-1,-1],"split_conditions":[4.6485557E3,2.668346E-1,4.9027773E3,7.5523574E-3,3.3186287E1,1.9101188E3,5.0007104E3,-1.5876348E1,-1.0755496E-2,-6.394614E0,4.0222336E3,2.9247072E1,1.0534153E-1,4.9573574E3,5.0722744E3,-4.134312E0,-1.0269829E1,-3.8263066E0,-2.4866872E0,-1.5671844E0,-6.6890854E-1,1.4008518E-1,8.9638937E-1,1.5504159E0,2.3009229E0,2.922723E0,3.8397162E0],"split_indices":[31,4,31,14,38,64,33,0,166,0,62,23,50,31,31,0,0,0,0,0,0,0,0,0,0,0,0],"split_type":[0,0,0,0,0,0,0,0,0,0,0,0,0,0,0,0,0,0,0,0,0,0,0,0,0,0,0],"sum_hessian":[1.444E3,3.75E2,1.069E3,9.6E1,2.79E2,1.89E2,8.8E2,2.1E1,7.5E1,6.6E1,2.13E2,9E1,9.9E1,3.61E2,5.19E2,1E1,6.5E1,1.27E2,8.6E1,5.3E1,3.7E1,4.9E1,5E1,1.78E2,1.83E2,3.9E2,1.29E2],"tree_param":{"num_deleted":"0","num_feature":"177","num_nodes":"27","size_leaf_vector":"1"}},{"base_weights":[-2.0059946E0,-2.9581818E2,1.1027778E2,-5.31948E2,-1.7709734E2,3.2395832E1,1.436473E2,-1.3792579E1,-4.1702188E2,-2.5331883E0,-4.465616E0,-3.8764236E1,6.214128E1,1.2142004E2,1.6523601E2,-8.7517605E0,-3.3939888E0,-1.1522397E0,-2.2391813E-1,4.665879E-1,1.3947651E0,2.4621594E0,7.8396744E-1,2.9716809E0,3.7833297E0],"categories":[],"categories_nodes":[],"categories_segments":[],"categories_sizes":[],"default_left":[0,0,0,0,0,0,0,0,0,0,0,0,0,0,0,0,0,0,0,0,0,0,0,0,0],"id":22,"left_children":[1,3,5,7,9,11,13,-1,15,-1,-1,17,19,21,23,-1,-1,-1,-1,-1,-1,-1,-1,-1,-1],"loss_changes":[4.796611E7,1.0798452E7,2.710756E6,9.54108E5,4.99181E5,6.936178E5,2.52382E5,0E0,8.1404E4,0E0,0E0,4.7695812E4,5.9386562E4,2.8749E4,2.521E3,0E0,0E0,0E0,0E0,0E0,0E0,0E0,0E0,0E0,0E0],"parents":[2147483647,0,0,1,1,2,2,3,3,4,4,5,5,6,6,8,8,11,11,12,12,13,13,14,14],"right_children":[2,4,6,8,10,12,14,-1,16,-1,-1,18,20,22,24,-1,-1,-1,-1,-1,-1,-1,-1,-1,-1],"split_conditions":[4.6613037E3,4.0617786E1,4.944716E3,2.7778223E1,4.5401678E2,3.795811E1,4.403882E3,-1.3792579E1,9.9546987E-1,-2.5331883E0,-4.465616E0,2.9804976E1,4.868761E3,8.161666E-3,5.059208E3,-8.7517605E0,-3.3939888E0,-1.1522397E0,-2.2391813E-1,4.665879E-1,1.3947651E0,2.4621594E0,7.8396744E-1,2.9716809E0,3.7833297E0],"split_indices":[33,35,31,24,142,88,62,0,154,0,0,24,31,123,33,0,0,0,0,0,0,0,0,0,0],"split_type":[0,0,0,0,0,0,0,0,0,0,0,0,0,0,0,0,0,0,0,0,0,0,0,0,0],"sum_hessian":[1.444E3,3.97E2,1.047E3,1.27E2,2.7E2,3.17E2,7.3E2,4.3E1,8.4E1,1.38E2,1.32E2,9.3E1,2.24E2,3.76E2,3.54E2,7.4E1,1E1,5.2E1,4.1E1,4E1,1.84E2,3.66E2,1E1,2.3E2,1.24E2],"tree_param":{"num_deleted":"0","num_feature":"177","num_nodes":"25","size_leaf_vector":"1"}},{"base_weights":[-2.043336E0,-3.0822583E2,1.0171852E2,-5.704684E2,-2.0518309E2,-3.4748264E1,1.26706215E2,-1.5408711E1,-4.6982474E2,-6.16101E0,-1.6474861E2,6.1084666E0,-7.1450874E1,7.7329056E1,1.463336E2,-3.9839275E0,-9.885152E0,-3.6820114E0,-2.4552596E0,4.3841037E-1,-2.6132253E-1,-1.644351E0,-8.014086E-1,1.1540196E0,1.7246785E0,2.6851382E0,3.6391406E0],"categories":[],"categories_nodes":[],"categories_segments":[],"categories_sizes":[],"default_left":[0,0,0,0,0,0,0,0,0,0,0,0,0,0,0,0,0,0,0,0,0,0,0,0,0,0,0],"id":23,"left_children":[1,3,5,7,9,11,13,-1,15,-1,17,19,21,23,25,-1,-1,-1,-1,-1,-1,-1,-1,-1,-1,-1,-1],"loss_changes":[4.6191584E7,9.358912E6,3.725264E6,2.2282E5,8.776E5,2.6010467E5,8.34065E5,0E0,3.6708E4,0E0,5.43725E4,2.7506395E4,1.4273031E4,2.26625E4,1.58353E5,0E0,0E0,0E0,0E0,0E0,0E0,0E0,0E0,0E0,0E0,0E0,0E0],"parents":[2147483647,0,0,1,1,2,2,3,3,4,4,5,5,6,6,8,8,10,10,11,11,12,12,13,13,14,14],"right_children":[2,4,6,8,10,12,14,-1,16,-1,18,20,22,24,26,-1,-1,-1,-1,-1,-1,-1,-1,-1,-1,-1,-1],"split_conditions":[4.6419043E3,2.668346E-1,4.868761E3,7.5523574E-3,3.3186287E1,2.0758625E3,4.979881E3,-1.5408711E1,-1.0755496E-2,-6.16101E0,4.0222336E3,3.1938856E1,2.2911575E3,4.920911E3,5.5288066E3,-3.9839275E0,-9.885152E0,-3.6820114E0,-2.4552596E0,4.3841037E-1,-2.6132253E-1,-1.644351E0,-8.014086E-1,1.1540196E0,1.7246785E0,2.6851382E0,3.6391406E0],"split_indices":[31,4,31,14,38,140,31,0,166,0,46,8,39,31,34,0,0,0,0,0,0,0,0,0,0,0,0],"split_type":[0,0,0,0,0,0,0,0,0,0,0,0,0,0,0,0,0,0,0,0,0,0,0,0,0,0,0],"sum_hessian":[1.444E3,3.63E2,1.081E3,9.6E1,2.67E2,1.67E2,9.14E2,2.1E1,7.5E1,6.6E1,2.01E2,8.1E1,8.6E1,2.67E2,6.47E2,1E1,6.5E1,1.26E2,7.5E1,4.4E1,3.7E1,5.8E1,2.8E1,9.5E1,1.72E2,5.01E2,1.46E2],"tree_param":{"num_deleted":"0","num_feature":"177","num_nodes":"27","size_leaf_vector":"1"}},{"base_weights":[-2.1219478E0,-3.0538678E2,9.879074E1,-5.6050836E2,-2.0316127E2,-3.6042595E1,1.2422224E2,-1.51598015E1,-4.6129498E2,-6.0464654E0,-1.6308014E2,-7.349195E1,4.241336E0,7.583551E1,1.4345549E2,-3.9308093E0,-9.701569E0,-3.6635182E0,-2.5111618E0,-8.307586E-1,-1.6586617E0,4.236287E-1,-3.0104512E-1,1.1320972E0,1.6911607E0,2.6319678E0,3.5687673E0],"categories":[],"categories_nodes":[],"categories_segments":[],"categories_sizes":[],"default_left":[0,0,0,0,0,0,0,0,0,0,0,0,0,0,0,0,0,0,0,0,0,0,0,0,0,0,0],"id":24,"left_children":[1,3,5,7,9,11,13,-1,15,-1,17,19,21,23,25,-1,-1,-1,-1,-1,-1,-1,-1,-1,-1,-1,-1],"loss_changes":[4.4494984E7,8.897652E6,3.76344E6,2.30588E5,8.14683E5,2.6858203E5,8.00858E5,0E0,2.7056E4,0E0,3.6565E4,1.05304375E4,3.1009326E4,2.1693125E4,1.53036E5,0E0,0E0,0E0,0E0,0E0,0E0,0E0,0E0,0E0,0E0,0E0,0E0],"parents":[2147483647,0,0,1,1,2,2,3,3,4,4,5,5,6,6,8,8,10,10,11,11,12,12,13,13,14,14],"right_children":[2,4,6,8,10,12,14,-1,16,-1,18,20,22,24,26,-1,-1,-1,-1,-1,-1,-1,-1,-1,-1,-1,-1],"split_conditions":[4.6370586E3,2.668346E-1,4.868761E3,7.5523574E-3,4.0915047E1,2.941671E1,4.979881E3,-1.51598015E1,-1.0755496E-2,-6.0464654E0,2.6668013E1,2.0803555E3,2.0734526E3,4.920911E3,5.5288066E3,-3.9308093E0,-9.701569E0,-3.6635182E0,-2.5111618E0,-8.307586E-1,-1.6586617E0,4.236287E-1,-3.0104512E-1,1.1320972E0,1.6911607E0,2.6319678E0,3.5687673E0],"split_indices":[31,4,31,14,132,23,31,0,166,0,8,5,5,31,34,0,0,0,0,0,0,0,0,0,0,0,0],"split_type":[0,0,0,0,0,0,0,0,0,0,0,0,0,0,0,0,0,0,0,0,0,0,0,0,0,0,0],"sum_hessian":[1.444E3,3.58E2,1.086E3,9.6E1,2.62E2,1.72E2,9.14E2,2.1E1,7.5E1,6.6E1,1.96E2,8.7E1,8.5E1,2.67E2,6.47E2,1E1,6.5E1,1.15E2,8.1E1,2.6E1,6.1E1,4.5E1,4E1,9.5E1,1.72E2,5.01E2,1.46E2],"tree_param":{"num_deleted":"0","num_feature":"177","num_nodes":"27","size_leaf_vector":"1"}},{"base_weights":[-2.1980052E0,-2.971375E2,9.775479E1,-5.507235E2,-1.97513E2,-3.349143E1,1.2178697E2,-1.5292575E1,-4.5827243E2,-5.9340534E0,-1.5853226E2,6.341527E0,-6.8473434E1,7.437077E1,1.4063402E2,-4.132758E0,-9.647334E0,-3.557954E0,-2.382347E0,4.229241E-1,-2.4250452E-1,-7.582395E-1,-1.5776439E0,1.1105831E0,1.6582975E0,2.5843184E0,3.5156217E0],"categories":[],"categories_nodes":[],"categories_segments":[],"categories_sizes":[],"default_left":[0,0,0,0,0,0,0,0,0,0,0,0,0,0,0,0,0,0,0,0,0,0,0,0,0,0,0],"id":25,"left_children":[1,3,5,7,9,11,13,-1,15,-1,17,19,21,23,25,-1,-1,-1,-1,-1,-1,-1,-1,-1,-1,-1,-1],"loss_changes":[4.2861796E7,8.753052E6,3.445782E6,2.4531E5,8.165E5,2.4184222E5,7.68974E5,0E0,4.85E3,0E0,5.12835E4,2.4520533E4,1.43129375E4,2.0766875E4,1.48086E5,0E0,0E0,0E0,0E0,0E0,0E0,0E0,0E0,0E0,0E0,0E0,0E0],"parents":[2147483647,0,0,1,1,2,2,3,3,4,4,5,5,6,6,8,8,10,10,11,11,12,12,13,13,14,14],"right_children":[2,4,6,8,10,12,14,-1,16,-1,18,20,22,24,26,-1,-1,-1,-1,-1,-1,-1,-1,-1,-1,-1,-1],"split_conditions":[4.6318716E3,2.668346E-1,4.868761E3,3.679002E2,3.3186287E1,2.0757778E3,4.979881E3,-1.5292575E1,2.5571155E2,-5.9340534E0,4.0164907E3,3.1938856E1,2.079742E3,4.920911E3,5.0621597E3,-4.132758E0,-9.647334E0,-3.557954E0,-2.382347E0,4.229241E-1,-2.4250452E-1,-7.582395E-1,-1.5776439E0,1.1105831E0,1.6582975E0,2.5843184E0,3.5156217E0],"split_indices":[33,4,31,0,38,91,31,0,29,0,63,8,5,31,31,0,0,0,0,0,0,0,0,0,0,0,0],"split_type":[0,0,0,0,0,0,0,0,0,0,0,0,0,0,0,0,0,0,0,0,0,0,0,0,0,0,0],"sum_hessian":[1.444E3,3.63E2,1.081E3,9.6E1,2.67E2,1.67E2,9.14E2,1.8E1,7.8E1,6.6E1,2.01E2,8E1,8.7E1,2.67E2,6.47E2,1.1E1,6.7E1,1.23E2,7.8E1,4.4E1,3.6E1,2.8E1,5.9E1,9.5E1,1.72E2,5.06E2,1.41E2],"tree_param":{"num_deleted":"0","num_feature":"177","num_nodes":"27","size_leaf_vector":"1"}},{"base_weights":[-2.272176E0,-2.9441608E2,9.4941025E1,-5.1593866E2,-1.852917E2,-3.4731247E1,1.1939944E2,-1.4693736E1,-4.2982254E2,-4.8895607E0,-2.8671505E0,-7.082665E1,4.09579E0,7.634461E1,1.3944553E2,-2.97345E0,-9.077413E0,-8.025208E-1,-1.5976197E0,4.0865466E-1,-2.9022917E-1,1.0894864E0,1.7004794E0,2.5648165E0,3.4672322E0],"categories":[],"categories_nodes":[],"categories_segments":[],"categories_sizes":[],"default_left":[0,0,0,0,0,0,0,0,0,0,0,0,0,0,0,0,0,0,0,0,0,0,0,0,0],"id":26,"left_children":[1,3,5,7,9,11,13,-1,15,-1,-1,17,19,21,23,-1,-1,-1,-1,-1,-1,-1,-1,-1,-1],"loss_changes":[4.1291716E7,8.29699E6,3.480927E6,6.25092E5,4.47725E5,2.4951197E5,7.39941E5,0E0,3.11678E5,0E0,0E0,9.547E3,2.8841246E4,3.43575E4,1.24832E5,0E0,0E0,0E0,0E0,0E0,0E0,0E0,0E0,0E0,0E0],"parents":[2147483647,0,0,1,1,2,2,3,3,4,4,5,5,6,6,8,8,11,11,12,12,13,13,14,14],"right_children":[2,4,6,8,10,12,14,-1,16,-1,-1,18,20,22,24,-1,-1,-1,-1,-1,-1,-1,-1,-1,-1],"split_conditions":[4.6370586E3,4.0444733E1,4.868761E3,7.5523574E-3,1.7926523E3,2.941671E1,2.4916475E3,-1.4693736E1,1.1541268E0,-4.8895607E0,-2.8671505E0,2.0803555E3,2.0734526E3,4.920911E3,5.5348667E3,-2.97345E0,-9.077413E0,-8.025208E-1,-1.5976197E0,4.0865466E-1,-2.9022917E-1,1.0894864E0,1.7004794E0,2.5648165E0,3.4672322E0],"split_indices":[31,35,31,14,47,23,47,0,145,0,0,5,5,31,34,0,0,0,0,0,0,0,0,0,0],"split_type":[0,0,0,0,0,0,0,0,0,0,0,0,0,0,0,0,0,0,0,0,0,0,0,0,0],"sum_hessian":[1.444E3,3.58E2,1.086E3,1.12E2,2.46E2,1.72E2,9.14E2,2.1E1,9.1E1,9.2E1,1.54E2,8.7E1,8.5E1,2.98E2,6.16E2,1E1,8.1E1,2.6E1,6.1E1,4.5E1,4E1,9.5E1,2.03E2,4.81E2,1.35E2],"tree_param":{"num_deleted":"0","num_feature":"177","num_nodes":"25","size_leaf_vector":"1"}},{"base_weights":[-2.3232589E0,-2.890029E2,9.307208E1,-5.3177527E2,-1.917556E2,-3.4101086E1,1.1705934E2,-1.4828108E1,-4.4165033E2,-5.7577515E0,-1.5435716E2,5.7024837E0,-6.798235E1,7.725129E1,1.3798509E2,-4.1041517E0,-9.343225E0,-3.4817057E0,-2.3736975E0,4.0799025E-1,-2.4245837E-1,-1.562152E0,-7.606448E-1,1.2450085E0,1.855476E0,2.5451453E0,3.4377806E0],"categories":[],"categories_nodes":[],"categories_segments":[],"categories_sizes":[],"default_left":[0,0,0,0,0,0,0,0,0,0,0,0,0,0,0,0,0,0,0,0,0,0,0,0,0,0,0],"id":27,"left_children":[1,3,5,7,9,11,13,-1,15,-1,17,19,21,23,25,-1,-1,-1,-1,-1,-1,-1,-1,-1,-1,-1,-1],"loss_changes":[3.97616E7,8.060196E6,3.348093E6,2.70974E5,7.37728E5,2.4063969E5,7.12242E5,0E0,2.1322E4,0E0,3.9554E4,2.3766828E4,1.4259219E4,4.7499125E4,1.07404E5,0E0,0E0,0E0,0E0,0E0,0E0,0E0,0E0,0E0,0E0,0E0,0E0],"parents":[2147483647,0,0,1,1,2,2,3,3,4,4,5,5,6,6,8,8,10,10,11,11,12,12,13,13,14,14],"right_children":[2,4,6,8,10,12,14,-1,16,-1,18,20,22,24,26,-1,-1,-1,-1,-1,-1,-1,-1,-1,-1,-1,-1],"split_conditions":[4.6370586E3,2.668346E-1,4.868761E3,3.679002E2,4.0902473E1,2.0758625E3,4.9936807E3,-1.4828108E1,7.063103E-2,-5.7577515E0,2.6651508E1,3.1938856E1,2.9862844E1,4.3456045E3,5.059208E3,-4.1041517E0,-9.343225E0,-3.4817057E0,-2.3736975E0,4.0799025E-1,-2.4245837E-1,-1.562152E0,-7.606448E-1,1.2450085E0,1.855476E0,2.5451453E0,3.4377806E0],"split_indices":[31,4,31,0,132,140,31,0,4,0,8,8,25,46,33,0,0,0,0,0,0,0,0,0,0,0,0],"split_type":[0,0,0,0,0,0,0,0,0,0,0,0,0,0,0,0,0,0,0,0,0,0,0,0,0,0,0],"sum_hessian":[1.444E3,3.58E2,1.086E3,9.6E1,2.62E2,1.72E2,9.14E2,1.8E1,7.8E1,6.4E1,1.98E2,8.1E1,9.1E1,3.23E2,5.91E2,1.2E1,6.6E1,1.15E2,8.3E1,4.4E1,3.7E1,6.2E1,2.9E1,1.77E2,1.46E2,4.67E2,1.24E2],"tree_param":{"num_deleted":"0","num_feature":"177","num_nodes":"27","size_leaf_vector":"1"}},{"base_weights":[-2.390487E0,-2.8377222E2,9.124243E1,-5.2253955E2,-1.881379E2,-3.3480045E1,1.1476765E2,-1.4596015E1,-4.336274E2,-5.65094E0,-1.5141417E2,5.5980425E0,-6.6743744E1,8.15129E1,1.3905783E2,-3.8664012E0,-9.13832E0,-3.398788E0,-2.301093E0,3.9421093E-1,-2.4590033E-1,-1.5451913E0,-7.6973736E-1,1.2523817E0,1.9591556E0,2.5619357E0,3.3917086E0],"categories":[],"categories_nodes":[],"categories_segments":[],"categories_sizes":[],"default_left":[0,0,0,0,0,0,0,0,0,0,0,0,0,0,0,0,0,0,0,0,0,0,0,0,0,0,0],"id":28,"left_children":[1,3,5,7,9,11,13,-1,15,-1,17,19,21,23,25,-1,-1,-1,-1,-1,-1,-1,-1,-1,-1,-1,-1],"loss_changes":[3.830567E7,7.797324E6,3.22034E6,2.78922E5,7.11795E5,2.3194723E5,6.85659E5,0E0,2.2848E4,0E0,3.8973E4,2.2928074E4,1.3658469E4,9.36125E4,6.6722E4,0E0,0E0,0E0,0E0,0E0,0E0,0E0,0E0,0E0,0E0,0E0,0E0],"parents":[2147483647,0,0,1,1,2,2,3,3,4,4,5,5,6,6,8,8,10,10,11,11,12,12,13,13,14,14],"right_children":[2,4,6,8,10,12,14,-1,16,-1,18,20,22,24,26,-1,-1,-1,-1,-1,-1,-1,-1,-1,-1,-1,-1],"split_conditions":[4.6370586E3,2.668346E-1,4.868761E3,3.679002E2,4.0902473E1,2.0758625E3,5.0007104E3,-1.4596015E1,2.5571155E2,-5.65094E0,4.5600864E3,2.0734526E3,2.2864612E3,4.9476914E3,5.07805E3,-3.8664012E0,-9.13832E0,-3.398788E0,-2.301093E0,3.9421093E-1,-2.4590033E-1,-1.5451913E0,-7.6973736E-1,1.2523817E0,1.9591556E0,2.5619357E0,3.3917086E0],"split_indices":[31,4,31,0,132,140,33,0,29,0,59,5,39,31,31,0,0,0,0,0,0,0,0,0,0,0,0],"split_type":[0,0,0,0,0,0,0,0,0,0,0,0,0,0,0,0,0,0,0,0,0,0,0,0,0,0,0],"sum_hessian":[1.444E3,3.58E2,1.086E3,9.6E1,2.62E2,1.72E2,9.14E2,1.8E1,7.8E1,6.4E1,1.98E2,8.1E1,9.1E1,3.95E2,5.19E2,1.1E1,6.7E1,1.19E2,7.9E1,4.5E1,3.6E1,6E1,3.1E1,1.95E2,2E2,4.01E2,1.18E2],"tree_param":{"num_deleted":"0","num_feature":"177","num_nodes":"27","size_leaf_vector":"1"}},{"base_weights":[-2.4529054E0,-2.7863324E2,8.9449684E1,-5.134552E2,-1.845876E2,-3.3295055E1,1.12445145E2,-1.402687E1,-4.2030057E2,-5.5282087E0,-1.481988E2,-6.704737E1,3.465491E0,6.724984E1,1.2945712E2,-3.7509315E0,-8.876318E0,-3.3439267E0,-2.281772E0,-1.5166607E0,-7.745068E-1,-3.1493065E-1,3.4751484E-1,3.0522332E-1,1.3802017E0,2.3502173E0,3.1695268E0],"categories":[],"categories_nodes":[],"categories_segments":[],"categories_sizes":[],"default_left":[0,0,0,0,0,0,0,0,0,0,0,0,0,0,0,0,0,0,0,0,0,0,0,0,0,0,0],"id":29,"left_children":[1,3,5,7,9,11,13,-1,15,-1,17,19,21,23,25,-1,-1,-1,-1,-1,-1,-1,-1,-1,-1,-1,-1],"loss_changes":[3.690268E7,7.542598E6,3.098145E6,2.93896E5,6.87314E5,2.1953438E5,6.63823E5,0E0,2.1683E4,0E0,3.5522E4,8.208875E3,2.515276E4,1.8710375E4,1.3673E5,0E0,0E0,0E0,0E0,0E0,0E0,0E0,0E0,0E0,0E0,0E0,0E0],"parents":[2147483647,0,0,1,1,2,2,3,3,4,4,5,5,6,6,8,8,10,10,11,11,12,12,13,13,14,14],"right_children":[2,4,6,8,10,12,14,-1,16,-1,18,20,22,24,26,-1,-1,-1,-1,-1,-1,-1,-1,-1,-1,-1,-1],"split_conditions":[4.6370586E3,2.668346E-1,2.8163897E1,7.5523574E-3,4.3959985E3,2.941671E1,4.976117E3,-1.402687E1,7.063103E-2,-5.5282087E0,2.6651508E1,2.2864612E3,4.8041494E3,-3.207877E0,5.048459E3,-3.7509315E0,-8.876318E0,-3.3439267E0,-2.281772E0,-1.5166607E0,-7.745068E-1,-3.1493065E-1,3.4751484E-1,3.0522332E-1,1.3802017E0,2.3502173E0,3.1695268E0],"split_indices":[31,4,75,14,104,23,31,0,4,0,8,39,31,157,31,0,0,0,0,0,0,0,0,0,0,0,0],"split_type":[0,0,0,0,0,0,0,0,0,0,0,0,0,0,0,0,0,0,0,0,0,0,0,0,0,0,0],"sum_hessian":[1.444E3,3.58E2,1.086E3,9.6E1,2.62E2,1.71E2,9.15E2,2.1E1,7.5E1,6.5E1,1.97E2,8.7E1,8.4E1,2.57E2,6.58E2,1.1E1,6.4E1,1.14E2,8.3E1,6E1,2.7E1,3.5E1,4.9E1,1E1,2.47E2,4.84E2,1.74E2],"tree_param":{"num_deleted":"0","num_feature":"177","num_nodes":"27","size_leaf_vector":"1"}},{"base_weights":[-2.5172312E0,-2.7358136E2,8.768338E1,-5.0450552E2,-1.8110478E2,-3.4353306E1,1.0992569E2,-1.4152481E1,-4.1782776E2,-5.408075E0,-1.4505627E2,1.3529762E0,-6.621016E1,7.5358E1,1.3202542E2,-8.853793E0,-3.8220422E0,-3.2566328E0,-2.2121074E0,-3.1715462E-1,3.0660915E-1,-1.4886619E0,-7.657891E-1,1.1600139E0,1.8091627E0,2.43329E0,3.259324E0],"categories":[],"categories_nodes":[],"categories_segments":[],"categories_sizes":[],"default_left":[0,0,0,0,0,0,0,0,0,0,0,0,0,0,0,0,0,0,0,0,0,0,0,0,0,0,0],"id":30,"left_children":[1,3,5,7,9,11,13,-1,15,-1,17,19,21,23,25,-1,-1,-1,-1,-1,-1,-1,-1,-1,-1,-1,-1],"loss_changes":[3.5548212E7,7.29505E6,2.9802685E6,2.99868E5,6.6338E5,1.9609616E5,6.56131E5,0E0,4.4863E4,0E0,3.3037E4,2.1903895E4,6.6427188E3,7.12675E4,7.9425E4,0E0,0E0,0E0,0E0,0E0,0E0,0E0,0E0,0E0,0E0,0E0,0E0],"parents":[2147483647,0,0,1,1,2,2,3,3,4,4,5,5,6,6,8,8,10,10,11,11,12,12,13,13,14,14],"right_children":[2,4,6,8,10,12,14,-1,16,-1,18,20,22,24,26,-1,-1,-1,-1,-1,-1,-1,-1,-1,-1,-1,-1],"split_conditions":[4.6370586E3,2.668346E-1,4.8636772E3,3.679002E2,1.7587759E3,2.0763418E3,5.0006855E3,-1.4152481E1,2.8163204E1,-5.408075E0,4.5600864E3,4.8041494E3,5.1650913E3,4.3456045E3,4.445395E3,-8.853793E0,-3.8220422E0,-3.2566328E0,-2.2121074E0,-3.1715462E-1,3.0660915E-1,-1.4886619E0,-7.657891E-1,1.1600139E0,1.8091627E0,2.43329E0,3.259324E0],"split_indices":[31,4,31,0,65,5,31,0,25,0,59,31,34,46,46,0,0,0,0,0,0,0,0,0,0,0,0],"split_type":[0,0,0,0,0,0,0,0,0,0,0,0,0,0,0,0,0,0,0,0,0,0,0,0,0,0,0],"sum_hessian":[1.444E3,3.58E2,1.086E3,9.6E1,2.62E2,1.67E2,9.19E2,1.8E1,7.8E1,6.6E1,1.96E2,8.1E1,8.6E1,3.67E2,5.52E2,6.6E1,1.2E1,1.17E2,7.9E1,3.6E1,4.5E1,6E1,2.6E1,1.82E2,1.85E2,4.32E2,1.2E2],"tree_param":{"num_deleted":"0","num_feature":"177","num_nodes":"27","size_leaf_vector":"1"}},{"base_weights":[-2.574842E0,-2.7160168E2,8.498711E1,-4.957434E2,-1.7966176E2,-3.5687847E1,1.07774124E2,-1.3595712E1,-4.0494574E2,-5.363098E0,-1.4473326E2,5.5460984E-1,-6.73815E1,7.6550545E1,1.3140187E2,-3.3176394E0,-8.54498E0,-3.2714107E0,-2.2719305E0,-3.2740393E-1,3.0108964E-1,-1.503574E0,-7.831691E-1,1.1659745E0,1.8476571E0,2.4234133E0,3.220725E0],"categories":[],"categories_nodes":[],"categories_segments":[],"categories_sizes":[],"default_left":[0,0,0,0,0,0,0,0,0,0,0,0,0,0,0,0,0,0,0,0,0,0,0,0,0,0,0],"id":31,"left_children":[1,3,5,7,9,11,13,-1,15,-1,17,19,21,23,25,-1,-1,-1,-1,-1,-1,-1,-1,-1,-1,-1,-1],"loss_changes":[3.42488E7,6.911572E6,3.035786E6,3.1139E5,6.12679E5,2.046476E5,6.31379E5,0E0,7.2187E4,0E0,2.322775E4,2.2828088E4,6.1863438E3,9.1548E4,5.9795E4,0E0,0E0,0E0,0E0,0E0,0E0,0E0,0E0,0E0,0E0,0E0,0E0],"parents":[2147483647,0,0,1,1,2,2,3,3,4,4,5,5,6,6,8,8,10,10,11,11,12,12,13,13,14,14],"right_children":[2,4,6,8,10,12,14,-1,16,-1,18,20,22,24,26,-1,-1,-1,-1,-1,-1,-1,-1,-1,-1,-1,-1],"split_conditions":[4.619521E3,2.668346E-1,4.851187E3,7.5523574E-3,4.089902E1,2.0768018E3,5.479336E3,-1.3595712E1,-1.0755496E-2,-5.363098E0,3.8766646E0,5.2708013E3,4.6969614E3,5.414448E3,5.0648047E3,-3.3176394E0,-8.54498E0,-3.2714107E0,-2.2719305E0,-3.2740393E-1,3.0108964E-1,-1.503574E0,-7.831691E-1,1.1659745E0,1.8476571E0,2.4234133E0,3.220725E0],"split_indices":[33,4,33,14,132,140,34,0,166,0,7,34,59,34,33,0,0,0,0,0,0,0,0,0,0,0,0],"split_type":[0,0,0,0,0,0,0,0,0,0,0,0,0,0,0,0,0,0,0,0,0,0,0,0,0,0,0],"sum_hessian":[1.444E3,3.52E2,1.092E3,9.6E1,2.56E2,1.73E2,9.19E2,2.1E1,7.5E1,6.3E1,1.93E2,8.3E1,9E1,4.05E2,5.14E2,1E1,6.5E1,1.07E2,8.6E1,3.8E1,4.5E1,6.4E1,2.6E1,1.99E2,2.06E2,4.01E2,1.13E2],"tree_param":{"num_deleted":"0","num_feature":"177","num_nodes":"27","size_leaf_vector":"1"}},{"base_weights":[-2.6269085E0,-2.666789E2,8.33163E1,-4.8708887E2,-1.7627736E2,-3.3498295E1,1.05972466E2,-1.3722556E1,-4.025908E2,-5.319493E0,-1.4288577E2,2.8054795E0,-6.545549E1,7.5510185E1,1.2888422E2,-8.537782E0,-3.6540108E0,-2.2631114E0,-3.274325E0,-3.0582747E-1,3.257183E-1,-1.4706416E0,-7.5121063E-1,1.1579896E0,1.8193415E0,2.3755047E0,3.1557686E0],"categories":[],"categories_nodes":[],"categories_segments":[],"categories_sizes":[],"default_left":[0,0,0,0,0,0,0,0,0,0,0,0,0,0,0,0,0,0,0,0,0,0,0,0,0,0,0],"id":32,"left_children":[1,3,5,7,9,11,13,-1,15,-1,17,19,21,23,25,-1,-1,-1,-1,-1,-1,-1,-1,-1,-1,-1,-1],"loss_changes":[3.2993936E7,6.684054E6,2.921038E6,3.17516E5,5.917095E5,2.1206855E5,5.93448E5,0E0,5.35E4,0E0,3.1851E4,2.3200982E4,8.0442188E3,8.445325E4,5.7649E4,0E0,0E0,0E0,0E0,0E0,0E0,0E0,0E0,0E0,0E0,0E0,0E0],"parents":[2147483647,0,0,1,1,2,2,3,3,4,4,5,5,6,6,8,8,10,10,11,11,12,12,13,13,14,14],"right_children":[2,4,6,8,10,12,14,-1,16,-1,18,20,22,24,26,-1,-1,-1,-1,-1,-1,-1,-1,-1,-1,-1,-1],"split_conditions":[4.628337E3,2.668346E-1,2.8163897E1,3.679002E2,1.7515323E3,2.0763418E3,5.011814E3,-1.3722556E1,2.8163204E1,-5.319493E0,4.5401678E2,4.8041494E3,2.285599E3,4.3526763E3,4.4470376E3,-8.537782E0,-3.6540108E0,-2.2631114E0,-3.274325E0,-3.0582747E-1,3.257183E-1,-1.4706416E0,-7.5121063E-1,1.1579896E0,1.8193415E0,2.3755047E0,3.1557686E0],"split_indices":[31,4,75,0,65,5,31,0,25,0,142,31,39,46,46,0,0,0,0,0,0,0,0,0,0,0,0],"split_type":[0,0,0,0,0,0,0,0,0,0,0,0,0,0,0,0,0,0,0,0,0,0,0,0,0,0,0],"sum_hessian":[1.444E3,3.52E2,1.092E3,9.6E1,2.56E2,1.77E2,9.15E2,1.8E1,7.8E1,6E1,1.96E2,8.5E1,9.2E1,4.02E2,5.13E2,6.6E1,1.2E1,9.4E1,1.02E2,3.6E1,4.9E1,6.5E1,2.7E1,1.99E2,2.03E2,3.99E2,1.14E2],"tree_param":{"num_deleted":"0","num_feature":"177","num_nodes":"27","size_leaf_vector":"1"}},{"base_weights":[-2.6795256E0,-2.6186035E2,8.167868E1,-4.7564322E2,-1.7178722E2,-3.442269E1,1.0360254E2,-1.3177882E1,-3.8853665E2,-4.871084E0,-2.6826396E0,-6.460569E1,8.60997E-1,6.1081238E1,1.1944094E2,-3.1791015E0,-8.187689E0,-1.4484019E0,-7.532245E-1,-3.0814615E-1,2.8880545E-1,7.9331297E-1,1.3297448E0,2.148503E0,2.8937187E0],"categories":[],"categories_nodes":[],"categories_segments":[],"categories_sizes":[],"default_left":[0,0,0,0,0,0,0,0,0,0,0,0,0,0,0,0,0,0,0,0,0,0,0,0,0],"id":33,"left_children":[1,3,5,7,9,11,13,-1,15,-1,-1,17,19,21,23,-1,-1,-1,-1,-1,-1,-1,-1,-1,-1],"loss_changes":[3.178792E7,6.465878E6,2.810124E6,3.641E5,5.365805E5,1.8984234E5,5.85808E5,0E0,6.7105E4,0E0,0E0,6.5761562E3,2.0331756E4,1.7030375E4,1.24916E5,0E0,0E0,0E0,0E0,0E0,0E0,0E0,0E0,0E0,0E0],"parents":[2147483647,0,0,1,1,2,2,3,3,4,4,5,5,6,6,8,8,11,11,12,12,13,13,14,14],"right_children":[2,4,6,8,10,12,14,-1,16,-1,-1,18,20,22,24,-1,-1,-1,-1,-1,-1,-1,-1,-1,-1],"split_conditions":[4.628337E3,2.774012E-1,4.8636772E3,7.5523574E-3,1.7752056E3,2.5928425E1,4.975579E3,-1.3177882E1,-1.0755496E-2,-4.871084E0,-2.6826396E0,4.684706E3,4.8041494E3,4.9119487E3,5.04022E3,-3.1791015E0,-8.187689E0,-1.4484019E0,-7.532245E-1,-3.0814615E-1,2.8880545E-1,7.9331297E-1,1.3297448E0,2.148503E0,2.8937187E0],"split_indices":[31,4,31,14,47,120,31,0,166,0,0,55,31,31,31,0,0,0,0,0,0,0,0,0,0],"split_type":[0,0,0,0,0,0,0,0,0,0,0,0,0,0,0,0,0,0,0,0,0,0,0,0,0],"sum_hessian":[1.444E3,3.52E2,1.092E3,9.8E1,2.54E2,1.73E2,9.19E2,2.1E1,7.7E1,7.8E1,1.76E2,9.1E1,8.2E1,2.56E2,6.63E2,1E1,6.7E1,6.4E1,2.7E1,3.7E1,4.5E1,6E1,1.96E2,4.67E2,1.96E2],"tree_param":{"num_deleted":"0","num_feature":"177","num_nodes":"25","size_leaf_vector":"1"}},{"base_weights":[-2.719586E0,-2.519835E2,8.175806E1,-4.484601E2,-1.5726599E2,-2.0516058E1,1.03560135E2,-1.2965011E1,-3.7099292E2,-4.149334E0,-2.3800707E0,-5.3483067E1,1.7750784E1,7.492972E1,1.2420497E2,-2.3693612E0,-7.869372E0,-1.316154E0,-5.727677E-1,4.35434E-2,5.817041E-1,1.1958656E0,1.788841E0,2.288119E0,3.0431805E0],"categories":[],"categories_nodes":[],"categories_segments":[],"categories_sizes":[],"default_left":[0,0,0,0,0,0,0,0,0,0,0,0,0,0,0,0,0,0,0,0,0,0,0,0,0],"id":34,"left_children":[1,3,5,7,9,11,13,-1,15,-1,-1,17,19,21,23,-1,-1,-1,-1,-1,-1,-1,-1,-1,-1],"loss_changes":[3.061493E7,6.495762E6,2.4321735E6,6.0835E5,3.682785E5,2.5074778E5,4.83065E5,0E0,3.11796E5,0E0,0E0,2.303425E4,1.6276066E4,5.848975E4,5.34825E4,0E0,0E0,0E0,0E0,0E0,0E0,0E0,0E0,0E0,0E0],"parents":[2147483647,0,0,1,1,2,2,3,3,4,4,5,5,6,6,8,8,11,11,12,12,13,13,14,14],"right_children":[2,4,6,8,10,12,14,-1,16,-1,-1,18,20,22,24,-1,-1,-1,-1,-1,-1,-1,-1,-1,-1],"split_conditions":[4.6419043E3,4.0444733E1,4.8963706E3,7.5523574E-3,2.5014858E1,4.7771606E3,5.0133516E3,-1.2965011E1,1.1541268E0,-4.149334E0,-2.3800707E0,2.9908083E1,4.243853E3,4.9625273E3,5.0797954E3,-2.3693612E0,-7.869372E0,-1.316154E0,-5.727677E-1,4.35434E-2,5.817041E-1,1.1958656E0,1.788841E0,2.288119E0,3.0431805E0],"split_indices":[31,35,31,14,8,31,31,0,145,0,0,25,62,31,31,0,0,0,0,0,0,0,0,0,0],"split_type":[0,0,0,0,0,0,0,0,0,0,0,0,0,0,0,0,0,0,0,0,0,0,0,0,0],"sum_hessian":[1.444E3,3.63E2,1.081E3,1.12E2,2.51E2,1.9E2,8.91E2,2.1E1,9.1E1,9.9E1,1.52E2,1.01E2,8.9E1,3.83E2,5.08E2,1E1,8.1E1,6.2E1,3.9E1,4E1,4.9E1,2E2,1.83E2,3.95E2,1.13E2],"tree_param":{"num_deleted":"0","num_feature":"177","num_nodes":"25","size_leaf_vector":"1"}},{"base_weights":[-2.743485E0,-2.5236768E2,7.850497E1,-4.5927652E2,-1.652115E2,-3.167687E1,9.987515E1,-1.3107349E1,-3.7920035E2,-4.9999404E0,-1.345272E2,-6.1538998E1,2.984622E0,7.139719E1,1.217729E2,-7.9907784E0,-3.022145E0,-2.1239974E0,-3.0890057E0,-7.286197E-1,-1.3987463E0,3.4342608E-1,-2.4286579E-1,1.0674937E0,1.6981895E0,2.2429295E0,2.9848998E0],"categories":[],"categories_nodes":[],"categories_segments":[],"categories_sizes":[],"default_left":[0,0,0,0,0,0,0,0,0,0,0,0,0,0,0,0,0,0,0,0,0,0,0,0,0,0,0],"id":35,"left_children":[1,3,5,7,9,11,13,-1,15,-1,17,19,21,23,25,-1,-1,-1,-1,-1,-1,-1,-1,-1,-1,-1,-1],"loss_changes":[2.948707E7,6.058526E6,2.5988215E6,3.74752E5,5.056535E5,1.8930038E5,5.30244E5,0E0,9.2457E4,0E0,3.142475E4,7.9253438E3,2.0143307E4,7.767225E4,5.19805E4,0E0,0E0,0E0,0E0,0E0,0E0,0E0,0E0,0E0,0E0,0E0,0E0],"parents":[2147483647,0,0,1,1,2,2,3,3,4,4,5,5,6,6,8,8,10,10,11,11,12,12,13,13,14,14],"right_children":[2,4,6,8,10,12,14,-1,16,-1,18,20,22,24,26,-1,-1,-1,-1,-1,-1,-1,-1,-1,-1,-1,-1],"split_conditions":[4.628337E3,2.774012E-1,2.8163897E1,3.679002E2,3.3002308E1,2.941671E1,5.0133516E3,-1.3107349E1,2.5816652E1,-4.9999404E0,4.5401678E2,2.0809106E3,3.1938856E1,4.9342197E3,5.0797954E3,-7.9907784E0,-3.022145E0,-2.1239974E0,-3.0890057E0,-7.286197E-1,-1.3987463E0,3.4342608E-1,-2.4286579E-1,1.0674937E0,1.6981895E0,2.2429295E0,2.9848998E0],"split_indices":[31,4,75,0,38,23,31,0,10,0,142,5,8,33,31,0,0,0,0,0,0,0,0,0,0,0,0],"split_type":[0,0,0,0,0,0,0,0,0,0,0,0,0,0,0,0,0,0,0,0,0,0,0,0,0,0,0],"sum_hessian":[1.444E3,3.52E2,1.092E3,9.8E1,2.54E2,1.77E2,9.15E2,1.8E1,8E1,5.8E1,1.96E2,9.3E1,8.4E1,4.07E2,5.08E2,7E1,1E1,9.4E1,1.02E2,3E1,6.3E1,4.3E1,4.1E1,1.85E2,2.22E2,3.95E2,1.13E2],"tree_param":{"num_deleted":"0","num_feature":"177","num_nodes":"27","size_leaf_vector":"1"}},{"base_weights":[-2.786557E0,-2.4780122E2,7.6962E1,-4.3773474E2,-1.5663055E2,-3.255767E1,9.7643486E1,-1.2567231E1,-3.6007202E2,-2.4597316E0,-4.2861824E0,4.2550382E-1,-6.1396942E1,6.213559E1,1.1463739E2,-2.2683425E0,-7.664724E0,-2.9963934E-1,2.726676E-1,-7.281903E-1,-1.372825E0,8.765891E-1,1.4088578E0,2.0949895E0,2.8362973E0],"categories":[],"categories_nodes":[],"categories_segments":[],"categories_sizes":[],"default_left":[0,0,0,0,0,0,0,0,0,0,0,0,0,0,0,0,0,0,0,0,0,0,0,0,0],"id":36,"left_children":[1,3,5,7,9,11,13,-1,15,-1,-1,17,19,21,23,-1,-1,-1,-1,-1,-1,-1,-1,-1,-1],"loss_changes":[2.8408188E7,5.839128E6,2.500632E6,5.41644E5,3.51408E5,1.6944612E5,5.21943E5,0E0,3.0832E5,0E0,0E0,1.892927E4,4.7005938E3,3.170575E4,9.20675E4,0E0,0E0,0E0,0E0,0E0,0E0,0E0,0E0,0E0,0E0],"parents":[2147483647,0,0,1,1,2,2,3,3,4,4,5,5,6,6,8,8,11,11,12,12,13,13,14,14],"right_children":[2,4,6,8,10,12,14,-1,16,-1,-1,18,20,22,24,-1,-1,-1,-1,-1,-1,-1,-1,-1,-1],"split_conditions":[4.619521E3,4.0402E1,4.851187E3,7.5523574E-3,7.8213084E-1,2.0768018E3,5.455793E3,-1.2567231E1,1.1541268E0,-2.4597316E0,-4.2861824E0,5.2708013E3,2.0809106E3,4.913227E3,5.5288066E3,-2.2683425E0,-7.664724E0,-2.9963934E-1,2.726676E-1,-7.281903E-1,-1.372825E0,8.765891E-1,1.4088578E0,2.0949895E0,2.8362973E0],"split_indices":[33,35,33,14,60,140,34,0,145,0,0,34,5,33,34,0,0,0,0,0,0,0,0,0,0],"split_type":[0,0,0,0,0,0,0,0,0,0,0,0,0,0,0,0,0,0,0,0,0,0,0,0,0],"sum_hessian":[1.444E3,3.52E2,1.092E3,1.08E2,2.44E2,1.73E2,9.19E2,2.1E1,8.7E1,1.64E2,8E1,8.3E1,9E1,3.05E2,6.14E2,1E1,7.7E1,3.8E1,4.5E1,2.7E1,6.3E1,1.05E2,2E2,4.68E2,1.46E2],"tree_param":{"num_deleted":"0","num_feature":"177","num_nodes":"25","size_leaf_vector":"1"}},{"base_weights":[-2.8142035E0,-2.4325473E2,7.544591E1,-4.434413E2,-1.5894781E2,-2.8853811E1,9.634953E1,-1.2709745E1,-3.6539114E2,-4.876842E0,-1.3008313E2,-5.7201023E1,7.0166073E0,6.900797E1,1.17102486E2,-3.165512E0,-7.7719345E0,-2.036948E0,-2.991648E0,-6.145669E-1,-1.3148308E0,3.6147037E-1,-1.7818032E-1,1.0561486E0,1.6504757E0,2.1594875E0,2.8863034E0],"categories":[],"categories_nodes":[],"categories_segments":[],"categories_sizes":[],"default_left":[0,0,0,0,0,0,0,0,0,0,0,0,0,0,0,0,0,0,0,0,0,0,0,0,0,0,0],"id":37,"left_children":[1,3,5,7,9,11,13,-1,15,-1,17,19,21,23,25,-1,-1,-1,-1,-1,-1,-1,-1,-1,-1,-1,-1],"loss_changes":[2.7357452E7,5.67271E6,2.4056255E6,3.82884E5,4.760675E5,1.9215333E5,4.78783E5,0E0,1.01003E5,0E0,3.614475E4,1.36388125E4,1.6124762E4,6.732875E4,4.95185E4,0E0,0E0,0E0,0E0,0E0,0E0,0E0,0E0,0E0,0E0,0E0,0E0],"parents":[2147483647,0,0,1,1,2,2,3,3,4,4,5,5,6,6,8,8,10,10,11,11,12,12,13,13,14,14],"right_children":[2,4,6,8,10,12,14,-1,16,-1,18,20,22,24,26,-1,-1,-1,-1,-1,-1,-1,-1,-1,-1,-1,-1],"split_conditions":[4.628337E3,2.774012E-1,2.8177013E1,3.679002E2,1.7515323E3,4.751609E3,5.0133516E3,-1.2709745E1,7.063103E-2,-4.876842E0,4.5401678E2,2.079742E3,3.1938856E1,4.3526763E3,4.449839E3,-3.165512E0,-7.7719345E0,-2.036948E0,-2.991648E0,-6.145669E-1,-1.3148308E0,3.6147037E-1,-1.7818032E-1,1.0561486E0,1.6504757E0,2.1594875E0,2.8863034E0],"split_indices":[31,4,75,0,47,33,31,0,4,0,142,5,8,46,46,0,0,0,0,0,0,0,0,0,0,0,0],"split_type":[0,0,0,0,0,0,0,0,0,0,0,0,0,0,0,0,0,0,0,0,0,0,0,0,0,0,0],"sum_hessian":[1.444E3,3.52E2,1.092E3,9.8E1,2.54E2,1.82E2,9.1E2,1.8E1,8E1,5.5E1,1.99E2,1E2,8.2E1,4.02E2,5.08E2,1.2E1,6.8E1,9.4E1,1.05E2,3E1,7E1,4.8E1,3.4E1,1.94E2,2.08E2,3.99E2,1.09E2],"tree_param":{"num_deleted":"0","num_feature":"177","num_nodes":"27","size_leaf_vector":"1"}},{"base_weights":[-2.8529673E0,-2.4107263E2,7.325192E1,-4.3572034E2,-1.5739517E2,-3.4949398E1,9.345125E1,-1.2510808E1,-3.5872665E2,-4.7874312E0,-1.2872401E2,-6.0672333E1,-2.1624389E0,5.4064106E1,1.08010284E2,-7.5664377E0,-2.8234987E0,-2.8678746E0,-1.9233956E0,-7.4153847E-1,-1.3648895E0,1.5950018E-1,-3.7461084E-1,7.016043E-1,1.1917986E0,1.9398617E0,2.6304712E0],"categories":[],"categories_nodes":[],"categories_segments":[],"categories_sizes":[],"default_left":[0,0,0,0,0,0,0,0,0,0,0,0,0,0,0,0,0,0,0,0,0,0,0,0,0,0,0],"id":38,"left_children":[1,3,5,7,9,11,13,-1,15,-1,17,19,21,23,25,-1,-1,-1,-1,-1,-1,-1,-1,-1,-1,-1,-1],"loss_changes":[2.6358204E7,5.390342E6,2.424855E6,3.8335E5,4.429265E5,1.4862173E5,5.041005E5,0E0,9.5305E4,0E0,2.6084E4,5.0365938E3,1.4687418E4,1.6927125E4,1.108155E5,0E0,0E0,0E0,0E0,0E0,0E0,0E0,0E0,0E0,0E0,0E0,0E0],"parents":[2147483647,0,0,1,1,2,2,3,3,4,4,5,5,6,6,8,8,10,10,11,11,12,12,13,13,14,14],"right_children":[2,4,6,8,10,12,14,-1,16,-1,18,20,22,24,26,-1,-1,-1,-1,-1,-1,-1,-1,-1,-1,-1,-1],"split_conditions":[4.623319E3,2.774012E-1,4.858293E3,3.679002E2,1.7515323E3,4.7284116E3,4.9717744E3,-1.2510808E1,2.5816652E1,-4.7874312E0,2.6651508E1,9.4789246E2,2.074456E3,4.9119487E3,5.04022E3,-7.5664377E0,-2.8234987E0,-2.8678746E0,-1.9233956E0,-7.4153847E-1,-1.3648895E0,1.5950018E-1,-3.7461084E-1,7.016043E-1,1.1917986E0,1.9398617E0,2.6304712E0],"split_indices":[31,4,31,0,47,33,31,0,10,0,8,146,5,31,58,0,0,0,0,0,0,0,0,0,0,0,0],"split_type":[0,0,0,0,0,0,0,0,0,0,0,0,0,0,0,0,0,0,0,0,0,0,0,0,0,0,0],"sum_hessian":[1.444E3,3.47E2,1.097E3,9.8E1,2.49E2,1.72E2,9.25E2,1.8E1,8E1,5.5E1,1.94E2,9.4E1,7.8E1,2.56E2,6.69E2,7E1,1E1,1.22E2,7.2E1,3E1,6.4E1,5E1,2.8E1,6.6E1,1.9E2,4.73E2,1.96E2],"tree_param":{"num_deleted":"0","num_feature":"177","num_nodes":"27","size_leaf_vector":"1"}},{"base_weights":[-2.8937423E0,-2.367126E2,7.1805626E1,-4.2811765E2,-1.544359E2,-3.431608E1,9.1616936E1,-1.2314987E1,-3.521633E2,-4.699659E0,-1.2627006E2,-5.9565315E1,-2.132283E0,5.4666176E1,1.0655487E2,-3.0363207E0,-7.493974E0,-1.9747566E0,-2.8811607E0,-1.3351767E0,-7.199103E-1,-3.3181998E-1,1.813914E-1,6.916736E-1,1.2044712E0,1.9361502E0,2.6409097E0],"categories":[],"categories_nodes":[],"categories_segments":[],"categories_sizes":[],"default_left":[0,0,0,0,0,0,0,0,0,0,0,0,0,0,0,0,0,0,0,0,0,0,0,0,0,0,0],"id":39,"left_children":[1,3,5,7,9,11,13,-1,15,-1,17,19,21,23,25,-1,-1,-1,-1,-1,-1,-1,-1,-1,-1,-1,-1],"loss_changes":[2.5393394E7,5.212772E6,2.332575E6,3.83676E5,4.27887E5,1.4319805E5,4.842055E5,0E0,9.9341E4,0E0,2.6339E4,4.7703438E3,1.4195415E4,2.0612688E4,9.9327E4,0E0,0E0,0E0,0E0,0E0,0E0,0E0,0E0,0E0,0E0,0E0,0E0],"parents":[2147483647,0,0,1,1,2,2,3,3,4,4,5,5,6,6,8,8,10,10,11,11,12,12,13,13,14,14],"right_children":[2,4,6,8,10,12,14,-1,16,-1,18,20,22,24,26,-1,-1,-1,-1,-1,-1,-1,-1,-1,-1,-1,-1],"split_conditions":[4.623319E3,2.774012E-1,4.858293E3,3.679002E2,1.7515323E3,4.7284116E3,4.9784185E3,-1.2314987E1,7.063103E-2,-4.699659E0,4.5401678E2,1.8745643E3,4.2089824E3,4.9100254E3,5.516118E3,-3.0363207E0,-7.493974E0,-1.9747566E0,-2.8811607E0,-1.3351767E0,-7.199103E-1,-3.3181998E-1,1.813914E-1,6.916736E-1,1.2044712E0,1.9361502E0,2.6409097E0],"split_indices":[31,4,31,0,47,33,31,0,4,0,142,65,46,59,34,0,0,0,0,0,0,0,0,0,0,0,0],"split_type":[0,0,0,0,0,0,0,0,0,0,0,0,0,0,0,0,0,0,0,0,0,0,0,0,0,0,0],"sum_hessian":[1.444E3,3.47E2,1.097E3,9.8E1,2.49E2,1.72E2,9.25E2,1.8E1,8E1,5.5E1,1.94E2,9.4E1,7.8E1,2.73E2,6.52E2,1.2E1,6.8E1,8.9E1,1.05E2,6.5E1,2.9E1,3.3E1,4.5E1,6.7E1,2.06E2,4.89E2,1.63E2],"tree_param":{"num_deleted":"0","num_feature":"177","num_nodes":"27","size_leaf_vector":"1"}},{"base_weights":[-2.9329455E0,-2.3030849E2,7.107593E1,-4.2333054E2,-1.5120209E2,-3.0270903E1,9.0214836E1,-1.1817384E1,-3.424223E2,-4.6492E0,-1.2280012E2,-5.6431717E1,9.9599725E-1,6.4464966E1,1.1075797E2,-2.6364446E0,-7.261843E0,-2.7946737E0,-1.8819008E0,-1.2655102E0,-6.528692E-1,-2.5596634E-1,2.6499307E-1,9.566033E-1,1.5386407E0,2.041403E0,2.7368267E0],"categories":[],"categories_nodes":[],"categories_segments":[],"categories_sizes":[],"default_left":[0,0,0,0,0,0,0,0,0,0,0,0,0,0,0,0,0,0,0,0,0,0,0,0,0,0,0],"id":40,"left_children":[1,3,5,7,9,11,13,-1,15,-1,17,19,21,23,25,-1,-1,-1,-1,-1,-1,-1,-1,-1,-1,-1,-1],"loss_changes":[2.446534E7,5.13109E6,2.1414705E6,3.57446E5,4.596275E5,1.4587927E5,4.530805E5,0E0,1.08928E5,0E0,3.3419E4,5.464125E3,1.5384515E4,6.9119E4,4.5053E4,0E0,0E0,0E0,0E0,0E0,0E0,0E0,0E0,0E0,0E0,0E0,0E0],"parents":[2147483647,0,0,1,1,2,2,3,3,4,4,5,5,6,6,8,8,10,10,11,11,12,12,13,13,14,14],"right_children":[2,4,6,8,10,12,14,-1,16,-1,18,20,22,24,26,-1,-1,-1,-1,-1,-1,-1,-1,-1,-1,-1,-1],"split_conditions":[4.628337E3,2.668346E-1,4.8636772E3,7.5523574E-3,1.7515323E3,1.8949519E3,5.0153716E3,-1.1817384E1,-1.0755496E-2,-4.6492E0,3.8766646E0,2.285599E3,3.7863182E1,4.9342197E3,5.084584E3,-2.6364446E0,-7.261843E0,-2.7946737E0,-1.8819008E0,-1.2655102E0,-6.528692E-1,-2.5596634E-1,2.6499307E-1,9.566033E-1,1.5386407E0,2.041403E0,2.7368267E0],"split_indices":[31,4,31,14,47,114,31,0,166,0,7,39,138,33,31,0,0,0,0,0,0,0,0,0,0,0,0],"split_type":[0,0,0,0,0,0,0,0,0,0,0,0,0,0,0,0,0,0,0,0,0,0,0,0,0,0,0],"sum_hessian":[1.444E3,3.52E2,1.092E3,9.6E1,2.56E2,1.73E2,9.19E2,2.1E1,7.5E1,5.7E1,1.99E2,9.2E1,8.1E1,4.17E2,5.02E2,1E1,6.5E1,1.13E2,8.6E1,6.5E1,2.7E1,3.8E1,4.3E1,1.89E2,2.28E2,3.95E2,1.07E2],"tree_param":{"num_deleted":"0","num_feature":"177","num_nodes":"27","size_leaf_vector":"1"}},{"base_weights":[-2.9629226E0,-2.2823468E2,6.900665E1,-4.1593906E2,-1.4972173E2,-3.3075043E1,8.80641E1,-1.1941225E1,-3.4069202E2,-4.5814567E0,-1.217766E2,-2.0759425E0,-5.7393726E1,6.239351E1,1.0832272E2,-7.2075267E0,-2.6266184E0,-1.9882529E0,-2.881675E0,1.5187873E-1,-3.5755742E-1,-7.0284146E-1,-1.2904365E0,9.161981E-1,1.4947648E0,2.001076E0,2.7004569E0],"categories":[],"categories_nodes":[],"categories_segments":[],"categories_sizes":[],"default_left":[0,0,0,0,0,0,0,0,0,0,0,0,0,0,0,0,0,0,0,0,0,0,0,0,0,0,0],"id":41,"left_children":[1,3,5,7,9,11,13,-1,15,-1,17,19,21,23,25,-1,-1,-1,-1,-1,-1,-1,-1,-1,-1,-1,-1],"loss_changes":[2.357097E7,4.876128E6,2.1584125E6,3.5945E5,4.281955E5,1.3283703E5,4.49854E5,0E0,1.05412E5,0E0,2.815625E4,1.3361443E4,4.3654062E3,6.9273E4,4.57125E4,0E0,0E0,0E0,0E0,0E0,0E0,0E0,0E0,0E0,0E0,0E0,0E0],"parents":[2147483647,0,0,1,1,2,2,3,3,4,4,5,5,6,6,8,8,10,10,11,11,12,12,13,13,14,14],"right_children":[2,4,6,8,10,12,14,-1,16,-1,18,20,22,24,26,-1,-1,-1,-1,-1,-1,-1,-1,-1,-1,-1,-1],"split_conditions":[4.623319E3,2.668346E-1,4.858293E3,3.679002E2,3.2812912E1,2.076888E3,5.0133516E3,-1.1941225E1,6.21451E-3,-4.5814567E0,4.546125E2,2.074456E3,9.4789246E2,4.3456045E3,5.085657E3,-7.2075267E0,-2.6266184E0,-1.9882529E0,-2.881675E0,1.5187873E-1,-3.5755742E-1,-7.0284146E-1,-1.2904365E0,9.161981E-1,1.4947648E0,2.001076E0,2.7004569E0],"split_indices":[31,4,31,0,88,90,31,0,2,0,6,5,146,46,31,0,0,0,0,0,0,0,0,0,0,0,0],"split_type":[0,0,0,0,0,0,0,0,0,0,0,0,0,0,0,0,0,0,0,0,0,0,0,0,0,0,0],"sum_hessian":[1.444E3,3.47E2,1.097E3,9.6E1,2.51E2,1.72E2,9.25E2,1.8E1,7.8E1,5.6E1,1.95E2,7.8E1,9.4E1,4.17E2,5.08E2,6.8E1,1E1,1.11E2,8.4E1,5E1,2.8E1,3E1,6.4E1,1.88E2,2.29E2,4.06E2,1.02E2],"tree_param":{"num_deleted":"0","num_feature":"177","num_nodes":"27","size_leaf_vector":"1"}},{"base_weights":[-2.9943912E0,-2.2287753E2,6.804609E1,-4.1271735E2,-1.4761537E2,-2.6922413E1,8.72907E1,-1.164994E1,-3.3501736E2,-4.546594E0,-1.1884791E2,-5.1837345E1,7.3068094E0,6.2691986E1,1.0646785E2,-7.1968527E0,-3.436441E0,-1.9402934E0,-2.8272762E0,-5.5609936E-1,-1.2066283E0,3.4706375E-1,-1.1826708E-1,9.497686E-1,1.4916183E0,1.9615642E0,2.6335561E0],"categories":[],"categories_nodes":[],"categories_segments":[],"categories_sizes":[],"default_left":[0,0,0,0,0,0,0,0,0,0,0,0,0,0,0,0,0,0,0,0,0,0,0,0,0,0,0],"id":42,"left_children":[1,3,5,7,9,11,13,-1,15,-1,17,19,21,23,25,-1,-1,-1,-1,-1,-1,-1,-1,-1,-1,-1,-1],"loss_changes":[2.2710086E7,4.767538E6,2.0203175E6,3.17071E5,4.65725E5,1.6307656E5,3.982625E5,0E0,1.0914E4,0E0,3.122175E4,1.40670625E4,1.1669518E4,5.694275E4,4.26585E4,0E0,0E0,0E0,0E0,0E0,0E0,0E0,0E0,0E0,0E0,0E0,0E0],"parents":[2147483647,0,0,1,1,2,2,3,3,4,4,5,5,6,6,8,8,10,10,11,11,12,12,13,13,14,14],"right_children":[2,4,6,8,10,12,14,-1,16,-1,18,20,22,24,26,-1,-1,-1,-1,-1,-1,-1,-1,-1,-1,-1,-1],"split_conditions":[4.074088E3,2.2208714E-1,2.8177013E1,4.573982E2,3.2812912E1,3.7629616E1,5.0153716E3,-1.164994E1,2.8213848E1,-4.546594E0,4.546125E2,2.079742E3,2.0733037E3,5.414448E3,5.084584E3,-7.1968527E0,-3.436441E0,-1.9402934E0,-2.8272762E0,-5.5609936E-1,-1.2066283E0,3.4706375E-1,-1.1826708E-1,9.497686E-1,1.4916183E0,1.9615642E0,2.6335561E0],"split_indices":[46,4,75,142,88,138,31,0,23,0,6,5,90,34,31,0,0,0,0,0,0,0,0,0,0,0,0],"split_type":[0,0,0,0,0,0,0,0,0,0,0,0,0,0,0,0,0,0,0,0,0,0,0,0,0,0,0],"sum_hessian":[1.444E3,3.5E2,1.094E3,9.3E1,2.57E2,1.84E2,9.1E2,1.9E1,7.4E1,5.9E1,1.98E2,1.05E2,7.9E1,4.08E2,5.02E2,5.9E1,1.5E1,1.14E2,8.4E1,3.3E1,7.2E1,4.4E1,3.5E1,1.9E2,2.18E2,3.95E2,1.07E2],"tree_param":{"num_deleted":"0","num_feature":"177","num_nodes":"27","size_leaf_vector":"1"}},{"base_weights":[-3.0245476E0,-2.2008334E2,6.632193E1,-4.0559995E2,-1.4563916E2,-3.1885218E1,8.4656395E1,-1.1575842E1,-3.3045718E2,-4.4627705E0,-1.17198395E2,-5.5303505E1,-2.0317676E0,5.5763306E1,1.0121931E2,-7.028148E0,-2.4507422E0,-1.8225197E0,-2.6799703E0,-1.2519926E0,-6.92363E-1,1.4613992E-1,-3.457706E-1,7.302923E-1,1.2675438E0,1.8591579E0,2.536388E0],"categories":[],"categories_nodes":[],"categories_segments":[],"categories_sizes":[],"default_left":[0,0,0,0,0,0,0,0,0,0,0,0,0,0,0,0,0,0,0,0,0,0,0,0,0,0,0],"id":43,"left_children":[1,3,5,7,9,11,13,-1,15,-1,17,19,21,23,25,-1,-1,-1,-1,-1,-1,-1,-1,-1,-1,-1,-1],"loss_changes":[2.188371E7,4.565986E6,1.997731E6,3.19056E5,4.401155E5,1.2318183E5,4.16833E5,0E0,1.33175E5,0E0,2.655025E4,4.1059375E3,1.2457417E4,3.9724125E4,6.4779E4,0E0,0E0,0E0,0E0,0E0,0E0,0E0,0E0,0E0,0E0,0E0,0E0],"parents":[2147483647,0,0,1,1,2,2,3,3,4,4,5,5,6,6,8,8,10,10,11,11,12,12,13,13,14,14],"right_children":[2,4,6,8,10,12,14,-1,16,-1,18,20,22,24,26,-1,-1,-1,-1,-1,-1,-1,-1,-1,-1,-1,-1],"split_conditions":[4.623319E3,2.2208714E-1,4.858293E3,3.679002E2,3.2812912E1,4.7284116E3,4.9874966E3,-1.1575842E1,2.8163204E1,-4.4627705E0,4.5401678E2,2.269005E3,2.074456E3,4.920911E3,5.0745625E3,-7.028148E0,-2.4507422E0,-1.8225197E0,-2.6799703E0,-1.2519926E0,-6.92363E-1,1.4613992E-1,-3.457706E-1,7.302923E-1,1.2675438E0,1.8591579E0,2.536388E0],"split_indices":[31,4,31,0,88,33,33,0,25,0,142,39,5,31,31,0,0,0,0,0,0,0,0,0,0,0,0],"split_type":[0,0,0,0,0,0,0,0,0,0,0,0,0,0,0,0,0,0,0,0,0,0,0,0,0,0,0],"sum_hessian":[1.444E3,3.47E2,1.097E3,9.3E1,2.54E2,1.72E2,9.25E2,1.8E1,7.5E1,5.9E1,1.95E2,9.4E1,7.8E1,3.45E2,5.8E2,6.5E1,1E1,8.9E1,1.06E2,6.2E1,3.2E1,5E1,2.8E1,1.06E2,2.39E2,4.56E2,1.24E2],"tree_param":{"num_deleted":"0","num_feature":"177","num_nodes":"27","size_leaf_vector":"1"}},{"base_weights":[-3.053047E0,-2.1732213E2,6.4634895E1,-3.9856207E2,-1.4369662E2,-3.2355656E1,8.293579E1,-1.1110068E1,-3.1968826E2,-4.3804855E0,-1.1557758E2,-5.4900402E1,-2.33929E0,4.7750893E1,9.599775E1,-2.5272806E0,-6.846718E0,-1.8843521E0,-2.7240887E0,-1.2403215E0,-6.8038666E-1,1.3667408E-1,-3.3990413E-1,1.0245508E-1,9.868168E-1,1.7164332E0,2.3376484E0],"categories":[],"categories_nodes":[],"categories_segments":[],"categories_sizes":[],"default_left":[0,0,0,0,0,0,0,0,0,0,0,0,0,0,0,0,0,0,0,0,0,0,0,0,0,0,0],"id":44,"left_children":[1,3,5,7,9,11,13,-1,15,-1,17,19,21,23,25,-1,-1,-1,-1,-1,-1,-1,-1,-1,-1,-1,-1],"loss_changes":[2.1085706E7,4.370656E6,1.9748075E6,3.25158E5,4.15673E5,1.2048917E5,4.049525E5,0E0,1.20838E5,0E0,2.263175E4,4.6067188E3,1.1604669E4,1.6493688E4,9.3086E4,0E0,0E0,0E0,0E0,0E0,0E0,0E0,0E0,0E0,0E0,0E0,0E0],"parents":[2147483647,0,0,1,1,2,2,3,3,4,4,5,5,6,6,8,8,10,10,11,11,12,12,13,13,14,14],"right_children":[2,4,6,8,10,12,14,-1,16,-1,18,20,22,24,26,-1,-1,-1,-1,-1,-1,-1,-1,-1,-1,-1,-1],"split_conditions":[4.0679968E3,2.2208714E-1,2.9549353E1,7.5523574E-3,3.2812912E1,4.7284116E3,4.9717744E3,-1.1110068E1,7.063103E-2,-4.3804855E0,4.546125E2,2.269005E3,2.074456E3,-3.636548E0,5.0381E3,-2.5272806E0,-6.846718E0,-1.8843521E0,-2.7240887E0,-1.2403215E0,-6.8038666E-1,1.3667408E-1,-3.3990413E-1,1.0245508E-1,9.868168E-1,1.7164332E0,2.3376484E0],"split_indices":[46,4,77,14,88,33,31,0,4,0,6,39,5,157,31,0,0,0,0,0,0,0,0,0,0,0,0],"split_type":[0,0,0,0,0,0,0,0,0,0,0,0,0,0,0,0,0,0,0,0,0,0,0,0,0,0,0],"sum_hessian":[1.444E3,3.44E2,1.1E3,9.3E1,2.51E2,1.74E2,9.26E2,2.1E1,7.2E1,5.9E1,1.92E2,9.7E1,7.7E1,2.57E2,6.69E2,1.1E1,6.1E1,1.08E2,8.4E1,6.5E1,3.2E1,4.9E1,2.8E1,1E1,2.47E2,4.67E2,2.02E2],"tree_param":{"num_deleted":"0","num_feature":"177","num_nodes":"27","size_leaf_vector":"1"}},{"base_weights":[-3.083286E0,-2.1580801E2,6.260528E1,-3.91636E2,-1.4256729E2,-3.3190334E1,8.13047E1,-1.1224471E1,-3.184023E2,-4.2997227E0,-1.1456916E2,-5.5103764E1,-2.3049436E0,5.7754288E1,1.0043016E2,-6.77914E0,-2.326927E0,-1.8671664E0,-2.6726668E0,-1.2405938E0,-6.686214E-1,-3.017506E-1,1.5686563E-1,8.416511E-1,1.3843812E0,1.8571023E0,2.5256708E0],"categories":[],"categories_nodes":[],"categories_segments":[],"categories_sizes":[],"default_left":[0,0,0,0,0,0,0,0,0,0,0,0,0,0,0,0,0,0,0,0,0,0,0,0,0,0,0],"id":45,"left_children":[1,3,5,7,9,11,13,-1,15,-1,17,19,21,23,25,-1,-1,-1,-1,-1,-1,-1,-1,-1,-1,-1,-1],"loss_changes":[2.0315274E7,4.137903E6,2.003652E6,3.23638E5,3.83744E5,1.2457383E5,3.903325E5,0E0,1.350735E5,0E0,1.485525E4,5.8425938E3,1.1228766E4,6.2515125E4,4.0661E4,0E0,0E0,0E0,0E0,0E0,0E0,0E0,0E0,0E0,0E0,0E0,0E0],"parents":[2147483647,0,0,1,1,2,2,3,3,4,4,5,5,6,6,8,8,10,10,11,11,12,12,13,13,14,14],"right_children":[2,4,6,8,10,12,14,-1,16,-1,18,20,22,24,26,-1,-1,-1,-1,-1,-1,-1,-1,-1,-1,-1,-1],"split_conditions":[4.0615942E3,2.2208714E-1,2.9549353E1,3.679002E2,3.2812912E1,4.7284116E3,5.0153716E3,-1.1224471E1,2.8163204E1,-4.2997227E0,4.546125E2,2.269005E3,4.2089824E3,4.3456045E3,5.0880054E3,-6.77914E0,-2.326927E0,-1.8671664E0,-2.6726668E0,-1.2405938E0,-6.686214E-1,-3.017506E-1,1.5686563E-1,8.416511E-1,1.3843812E0,1.8571023E0,2.5256708E0],"split_indices":[46,4,77,0,88,33,31,0,25,0,6,39,46,46,31,0,0,0,0,0,0,0,0,0,0,0,0],"split_type":[0,0,0,0,0,0,0,0,0,0,0,0,0,0,0,0,0,0,0,0,0,0,0,0,0,0,0],"sum_hessian":[1.444E3,3.38E2,1.106E3,9.3E1,2.45E2,1.8E2,9.26E2,1.8E1,7.5E1,5.9E1,1.86E2,1.03E2,7.7E1,4.24E2,5.02E2,6.5E1,1E1,1.02E2,8.4E1,7.1E1,3.2E1,3.3E1,4.4E1,1.89E2,2.35E2,4.06E2,9.6E1],"tree_param":{"num_deleted":"0","num_feature":"177","num_nodes":"27","size_leaf_vector":"1"}},{"base_weights":[-3.1064956E0,-2.1191696E2,6.1373722E1,-3.848404E2,-1.3989264E2,-3.2286205E1,7.977574E1,-1.0769807E1,-3.0796896E2,-4.2204447E0,-1.1239652E2,-2.5773494E0,-5.4586407E1,5.694568E1,9.867323E1,-2.1584804E0,-6.595447E0,-1.8315678E0,-2.6222131E0,-3.4209237E-1,1.380316E-1,-1.2174119E0,-6.6285354E-1,8.359768E-1,1.3695555E0,1.8237344E0,2.477654E0],"categories":[],"categories_nodes":[],"categories_segments":[],"categories_sizes":[],"default_left":[0,0,0,0,0,0,0,0,0,0,0,0,0,0,0,0,0,0,0,0,0,0,0,0,0,0,0],"id":46,"left_children":[1,3,5,7,9,11,13,-1,15,-1,17,19,21,23,25,-1,-1,-1,-1,-1,-1,-1,-1,-1,-1,-1,-1],"loss_changes":[1.9574576E7,4.002777E6,1.9277215E6,3.28316E5,3.703565E5,1.2252406E5,3.73136E5,0E0,1.578955E5,0E0,1.4378E4,1.2294997E4,4.1970938E3,6.1322625E4,3.8261E4,0E0,0E0,0E0,0E0,0E0,0E0,0E0,0E0,0E0,0E0,0E0,0E0],"parents":[2147483647,0,0,1,1,2,2,3,3,4,4,5,5,6,6,8,8,10,10,11,11,12,12,13,13,14,14],"right_children":[2,4,6,8,10,12,14,-1,16,-1,18,20,22,24,26,-1,-1,-1,-1,-1,-1,-1,-1,-1,-1,-1,-1],"split_conditions":[4.0615942E3,2.2208714E-1,4.858293E3,7.5523574E-3,3.2812912E1,2.077252E3,5.0060913E3,-1.0769807E1,-8.27993E-3,-4.2204447E0,4.546125E2,4.7922876E3,2.269005E3,4.9342197E3,5.0880054E3,-2.1584804E0,-6.595447E0,-1.8315678E0,-2.6222131E0,-3.4209237E-1,1.380316E-1,-1.2174119E0,-6.6285354E-1,8.359768E-1,1.3695555E0,1.8237344E0,2.477654E0],"split_indices":[46,4,31,14,88,91,33,0,166,0,6,31,39,33,31,0,0,0,0,0,0,0,0,0,0,0,0],"split_type":[0,0,0,0,0,0,0,0,0,0,0,0,0,0,0,0,0,0,0,0,0,0,0,0,0,0,0],"sum_hessian":[1.444E3,3.38E2,1.106E3,9.3E1,2.45E2,1.81E2,9.25E2,2.1E1,7.2E1,5.9E1,1.86E2,8E1,1.01E2,4.28E2,4.97E2,1E1,6.2E1,1.02E2,8.4E1,3E1,5E1,7.1E1,3E1,1.95E2,2.33E2,4.01E2,9.6E1],"tree_param":{"num_deleted":"0","num_feature":"177","num_nodes":"27","size_leaf_vector":"1"}},{"base_weights":[-3.1264317E0,-2.0808978E2,6.0166153E1,-3.9970755E2,-1.4510817E2,-3.1995928E1,7.8156654E1,-1.0613196E1,-6.2933946E0,-1.10864655E2,-2.164752E2,-2.850086E0,-5.358339E1,4.858107E1,9.210892E1,-2.5877414E0,-1.78655E0,-4.594323E0,-1.6328567E0,-3.43152E-1,1.2507315E-1,-1.1946679E0,-6.5148634E-1,6.537779E-1,1.1102431E0,1.6786113E0,2.3022103E0],"categories":[],"categories_nodes":[],"categories_segments":[],"categories_sizes":[],"default_left":[0,0,0,0,0,0,0,0,0,0,0,0,0,0,0,0,0,0,0,0,0,0,0,0,0,0,0],"id":47,"left_children":[1,3,5,7,9,11,13,-1,-1,15,17,19,21,23,25,-1,-1,-1,-1,-1,-1,-1,-1,-1,-1,-1,-1],"loss_changes":[1.8859984E7,3.849455E6,1.854588E6,7.8231E4,5.30069E5,1.15635625E5,3.618E5,0E0,0E0,1.800575E4,5.083725E4,1.1477652E4,3.9669375E3,2.4963188E4,6.9642E4,0E0,0E0,0E0,0E0,0E0,0E0,0E0,0E0,0E0,0E0,0E0,0E0],"parents":[2147483647,0,0,1,1,2,2,3,3,4,4,5,5,6,6,9,9,10,10,11,11,12,12,13,13,14,14],"right_children":[2,4,6,8,10,12,14,-1,-1,16,18,20,22,24,26,-1,-1,-1,-1,-1,-1,-1,-1,-1,-1,-1,-1],"split_conditions":[4.0615942E3,2.822789E1,2.9549353E1,1.6462743E-2,4.5749103E2,2.077252E3,2.6153112E1,-1.0613196E1,-6.2933946E0,8.5755184E-2,8.708684E0,5.255056E3,2.269005E3,4.909526E3,5.058755E3,-2.5877414E0,-1.78655E0,-4.594323E0,-1.6328567E0,-3.43152E-1,1.2507315E-1,-1.1946679E0,-6.5148634E-1,6.537779E-1,1.1102431E0,1.6786113E0,2.3022103E0],"split_indices":[46,24,77,15,93,91,10,0,0,49,109,34,39,33,58,0,0,0,0,0,0,0,0,0,0,0,0],"split_type":[0,0,0,0,0,0,0,0,0,0,0,0,0,0,0,0,0,0,0,0,0,0,0,0,0,0,0],"sum_hessian":[1.444E3,3.38E2,1.106E3,7.7E1,2.61E2,1.8E2,9.26E2,2E1,5.7E1,1.85E2,7.6E1,7.9E1,1.01E2,3.04E2,6.22E2,8.6E1,9.9E1,6.6E1,1E1,2.9E1,5E1,7.1E1,3E1,1.01E2,2.03E2,4.76E2,1.46E2],"tree_param":{"num_deleted":"0","num_feature":"177","num_nodes":"27","size_leaf_vector":"1"}},{"base_weights":[-3.146154E0,-2.0205344E2,5.9690384E1,-3.6575137E2,-1.3085362E2,-2.4055708E1,7.7880165E1,-1.072295E1,-2.981294E2,-3.6931188E0,-1.0125904E2,-4.6691734E1,8.928036E0,5.7201237E1,9.584663E1,-6.3352976E0,-2.111509E0,-2.2069318E0,-1.4989719E0,-1.1090568E0,-5.051491E-1,-6.4016424E-2,3.4332424E-1,8.833249E-1,1.3742608E0,1.768002E0,2.3867908E0],"categories":[],"categories_nodes":[],"categories_segments":[],"categories_sizes":[],"default_left":[0,0,0,0,0,0,0,0,0,0,0,0,0,0,0,0,0,0,0,0,0,0,0,0,0,0,0],"id":48,"left_children":[1,3,5,7,9,11,13,-1,15,-1,17,19,21,23,25,-1,-1,-1,-1,-1,-1,-1,-1,-1,-1,-1,-1],"loss_changes":[1.817084E7,3.828387E6,1.6926392E6,3.87614E5,3.061665E5,1.5215512E5,3.103055E5,0E0,1.377955E5,0E0,1.225E1,1.55315625E4,8.867822E3,5.01005E4,3.10485E4,0E0,0E0,0E0,0E0,0E0,0E0,0E0,0E0,0E0,0E0,0E0,0E0],"parents":[2147483647,0,0,1,1,2,2,3,3,4,4,5,5,6,6,8,8,10,10,11,11,12,12,13,13,14,14],"right_children":[2,4,6,8,10,12,14,-1,16,-1,18,20,22,24,26,-1,-1,-1,-1,-1,-1,-1,-1,-1,-1,-1,-1],"split_conditions":[4.0679968E3,2.774012E-1,2.820223E1,3.679002E2,1.7752056E3,1.9059681E3,5.01899E3,-1.072295E1,6.2269433E-3,-3.6931188E0,4.0222336E3,2.9862844E1,4.80824E3,4.9625273E3,5.0880054E3,-6.3352976E0,-2.111509E0,-2.2069318E0,-1.4989719E0,-1.1090568E0,-5.051491E-1,-6.4016424E-2,3.4332424E-1,8.833249E-1,1.3742608E0,1.768002E0,2.3867908E0],"split_indices":[46,4,75,0,47,64,31,0,2,0,62,25,54,31,31,0,0,0,0,0,0,0,0,0,0,0,0],"split_type":[0,0,0,0,0,0,0,0,0,0,0,0,0,0,0,0,0,0,0,0,0,0,0,0,0,0,0],"sum_hessian":[1.444E3,3.44E2,1.1E3,9.8E1,2.46E2,1.96E2,9.04E2,1.8E1,8E1,7.8E1,1.68E2,1.15E2,8.1E1,4.3E2,4.74E2,7E1,1E1,1.13E2,5.5E1,7.6E1,3.9E1,3.4E1,4.7E1,2.13E2,2.17E2,3.78E2,9.6E1],"tree_param":{"num_deleted":"0","num_feature":"177","num_nodes":"27","size_leaf_vector":"1"}},{"base_weights":[-3.1573365E0,-2.0063057E2,5.7822956E1,-3.3187668E2,-1.1578038E2,-3.0556446E1,7.518796E1,-1.0276206E1,-2.743122E2,-1.7217636E0,-2.762298E0,-2.481233E0,-5.1628246E1,5.436589E1,9.373227E1,-1.4579563E0,-5.812908E0,1.3422562E-1,-3.1850776E-1,-1.1510088E0,-6.27863E-1,8.036277E-1,1.3166667E0,1.7293563E0,2.3414195E0],"categories":[],"categories_nodes":[],"categories_segments":[],"categories_sizes":[],"default_left":[0,0,0,0,0,0,0,0,0,0,0,0,0,0,0,0,0,0,0,0,0,0,0,0,0],"id":49,"left_children":[1,3,5,7,9,11,13,-1,15,-1,-1,17,19,21,23,-1,-1,-1,-1,-1,-1,-1,-1,-1,-1],"loss_changes":[1.7506828E7,3.627612E6,1.716549E6,6.77702E5,8.37925E4,1.0939622E5,3.336225E5,0E0,2.59224E5,0E0,0E0,1.1039173E4,3.6692188E3,5.99705E4,3.1614E4,0E0,0E0,0E0,0E0,0E0,0E0,0E0,0E0,0E0,0E0],"parents":[2147483647,0,0,1,1,2,2,3,3,4,4,5,5,6,6,8,8,11,11,12,12,13,13,14,14],"right_children":[2,4,6,8,10,12,14,-1,16,-1,-1,18,20,22,24,-1,-1,-1,-1,-1,-1,-1,-1,-1,-1],"split_conditions":[4.0615942E3,4.0617786E1,4.858293E3,7.5523574E-3,4.546125E2,2.077252E3,5.017739E3,-1.0276206E1,1.1541268E0,-1.7217636E0,-2.762298E0,2.074456E3,2.269005E3,4.3526763E3,5.0880054E3,-1.4579563E0,-5.812908E0,1.3422562E-1,-3.1850776E-1,-1.1510088E0,-6.27863E-1,8.036277E-1,1.3166667E0,1.7293563E0,2.3414195E0],"split_indices":[46,35,31,14,6,91,31,0,145,0,0,90,39,46,31,0,0,0,0,0,0,0,0,0,0],"split_type":[0,0,0,0,0,0,0,0,0,0,0,0,0,0,0,0,0,0,0,0,0,0,0,0,0],"sum_hessian":[1.444E3,3.38E2,1.106E3,1.27E2,2.11E2,1.81E2,9.25E2,2.1E1,1.06E2,1.01E2,1.1E2,8E1,1.01E2,4.45E2,4.8E2,1E1,9.6E1,4.9E1,3.1E1,7.1E1,3E1,2.09E2,2.36E2,3.84E2,9.6E1],"tree_param":{"num_deleted":"0","num_feature":"177","num_nodes":"25","size_leaf_vector":"1"}},{"base_weights":[-3.1557178E0,-1.9693913E2,5.668541E1,-3.5898737E2,-1.2947745E2,-2.7312792E1,7.4272606E1,-1.039815E1,-2.902861E2,-3.9190643E0,-1.0381339E2,1.0589759E0,-5.0006725E1,5.425164E1,9.213896E1,-2.2184534E0,-6.2756476E0,-1.6048465E0,-2.3437405E0,-2.3224565E-1,2.3845327E-1,-1.1295056E0,-6.097954E-1,8.072647E-1,1.298446E0,1.7036105E0,2.3156507E0],"categories":[],"categories_nodes":[],"categories_segments":[],"categories_sizes":[],"default_left":[0,0,0,0,0,0,0,0,0,0,0,0,0,0,0,0,0,0,0,0,0,0,0,0,0,0,0],"id":50,"left_children":[1,3,5,7,9,11,13,-1,15,-1,17,19,21,23,25,-1,-1,-1,-1,-1,-1,-1,-1,-1,-1,-1,-1],"loss_changes":[1.6858738E7,3.517289E6,1.6514158E6,3.28821E5,3.2479675E5,1.264627E5,3.04092E5,0E0,1.63122E5,0E0,1.3192375E4,1.3356654E4,5.1512812E3,5.2994125E4,2.9494E4,0E0,0E0,0E0,0E0,0E0,0E0,0E0,0E0,0E0,0E0,0E0,0E0],"parents":[2147483647,0,0,1,1,2,2,3,3,4,4,5,5,6,6,8,8,10,10,11,11,12,12,13,13,14,14],"right_children":[2,4,6,8,10,12,14,-1,16,-1,18,20,22,24,26,-1,-1,-1,-1,-1,-1,-1,-1,-1,-1,-1,-1],"split_conditions":[4.0615942E3,2.2208714E-1,2.8163897E1,3.679002E2,3.2812912E1,2.0768018E3,5.01899E3,-1.039815E1,7.063103E-2,-3.9190643E0,4.5401678E2,3.7863182E1,2.269005E3,4.939365E3,5.0935723E3,-2.2184534E0,-6.2756476E0,-1.6048465E0,-2.3437405E0,-2.3224565E-1,2.3845327E-1,-1.1295056E0,-6.097954E-1,8.072647E-1,1.298446E0,1.7036105E0,2.3156507E0],"split_indices":[46,4,75,0,88,140,31,0,4,0,142,138,39,33,31,0,0,0,0,0,0,0,0,0,0,0,0],"split_type":[0,0,0,0,0,0,0,0,0,0,0,0,0,0,0,0,0,0,0,0,0,0,0,0,0,0,0],"sum_hessian":[1.444E3,3.38E2,1.106E3,9.3E1,2.45E2,1.91E2,9.15E2,1.8E1,7.5E1,5.9E1,1.86E2,8.7E1,1.04E2,4.41E2,4.74E2,1.2E1,6.3E1,8E1,1.06E2,4E1,4.7E1,7.1E1,3.3E1,2.02E2,2.39E2,3.84E2,9E1],"tree_param":{"num_deleted":"0","num_feature":"177","num_nodes":"27","size_leaf_vector":"1"}},{"base_weights":[-3.1697197E0,-1.933904E2,5.557154E1,-3.4720212E2,-1.24779945E2,-2.9734755E1,7.2224396E1,-1.0235396E1,-2.8224838E2,-3.6382155E0,-9.9553825E1,-5.065666E1,-3.7948942E0,4.182593E1,8.381672E1,-2.1871367E0,-6.0635743E0,-2.1948082E0,-1.4911393E0,-1.1084038E0,-6.1615765E-1,-3.4364593E-1,1.1599147E-1,4.0875E-2,8.666823E-1,1.4041563E0,1.9160461E0],"categories":[],"categories_nodes":[],"categories_segments":[],"categories_sizes":[],"default_left":[0,0,0,0,0,0,0,0,0,0,0,0,0,0,0,0,0,0,0,0,0,0,0,0,0,0,0],"id":51,"left_children":[1,3,5,7,9,11,13,-1,15,-1,17,19,21,23,25,-1,-1,-1,-1,-1,-1,-1,-1,-1,-1,-1,-1],"loss_changes":[1.6244575E7,3.40309E6,1.5890172E6,3.78765E5,2.6254225E5,9.944039E4,3.105455E5,0E0,1.41814E5,0E0,5.178875E3,1.1072188E3,1.1801409E4,1.5576875E4,7.54905E4,0E0,0E0,0E0,0E0,0E0,0E0,0E0,0E0,0E0,0E0,0E0,0E0],"parents":[2147483647,0,0,1,1,2,2,3,3,4,4,5,5,6,6,8,8,10,10,11,11,12,12,13,13,14,14],"right_children":[2,4,6,8,10,12,14,-1,16,-1,18,20,22,24,26,-1,-1,-1,-1,-1,-1,-1,-1,-1,-1,-1,-1],"split_conditions":[4.0615942E3,2.774012E-1,2.9549353E1,3.679002E2,3.3186287E1,3.741573E1,5.4418257E3,-1.0235396E1,7.063103E-2,-3.6382155E0,2.6651508E1,1.8745643E3,3.7760242E1,-3.636548E0,4.4073228E3,-2.1871367E0,-6.0635743E0,-2.1948082E0,-1.4911393E0,-1.1084038E0,-6.1615765E-1,-3.4364593E-1,1.1599147E-1,4.0875E-2,8.666823E-1,1.4041563E0,1.9160461E0],"split_indices":[46,4,77,0,38,89,34,0,4,0,8,47,38,157,112,0,0,0,0,0,0,0,0,0,0,0,0],"split_type":[0,0,0,0,0,0,0,0,0,0,0,0,0,0,0,0,0,0,0,0,0,0,0,0,0,0,0],"sum_hessian":[1.444E3,3.38E2,1.106E3,9.8E1,2.4E2,1.8E2,9.26E2,1.8E1,8E1,6.4E1,1.76E2,9.7E1,8.3E1,2.62E2,6.64E2,1.2E1,6.8E1,1.13E2,6.3E1,7.1E1,2.6E1,3.3E1,5E1,1E1,2.52E2,3.27E2,3.37E2],"tree_param":{"num_deleted":"0","num_feature":"177","num_nodes":"27","size_leaf_vector":"1"}},{"base_weights":[-3.1875718E0,-1.9170175E2,5.3921505E1,-3.6731934E2,-1.3285443E2,-3.1303246E1,7.058695E1,-5.6195226E0,-9.533496E0,-1.0132486E2,-1.9666551E2,-5.058292E1,-4.8813243E0,4.0293007E1,8.201909E1,-1.6380447E0,-2.361607E0,-4.186681E0,-1.4229186E0,-6.1346436E-1,-1.1077074E0,-3.377719E-1,9.087661E-2,4.832324E-1,9.044587E-1,1.4406365E0,1.9715742E0],"categories":[],"categories_nodes":[],"categories_segments":[],"categories_sizes":[],"default_left":[0,0,0,0,0,0,0,0,0,0,0,0,0,0,0,0,0,0,0,0,0,0,0,0,0,0,0],"id":52,"left_children":[1,3,5,7,9,11,13,-1,-1,15,17,19,21,23,25,-1,-1,-1,-1,-1,-1,-1,-1,-1,-1,-1,-1],"loss_changes":[1.565143E7,3.249103E6,1.5961125E6,1.04582E5,4.2548E5,9.351494E4,3.072895E5,0E0,0E0,1.1850375E4,5.433575E4,1.736625E3,9.890007E3,1.569075E4,7.59655E4,0E0,0E0,0E0,0E0,0E0,0E0,0E0,0E0,0E0,0E0,0E0,0E0],"parents":[2147483647,0,0,1,1,2,2,3,3,4,4,5,5,6,6,9,9,10,10,11,11,12,12,13,13,14,14],"right_children":[2,4,6,8,10,12,14,-1,-1,16,18,20,22,24,26,-1,-1,-1,-1,-1,-1,-1,-1,-1,-1,-1,-1],"split_conditions":[4.0550146E3,2.822789E1,4.8492607E3,1.210441E-1,4.5749103E2,3.741573E1,4.9717744E3,-5.6195226E0,-9.533496E0,4.546125E2,8.72786E0,2.0820435E3,5.255056E3,4.9100254E3,5.0367974E3,-1.6380447E0,-2.361607E0,-4.186681E0,-1.4229186E0,-6.1346436E-1,-1.1077074E0,-3.377719E-1,9.087661E-2,4.832324E-1,9.044587E-1,1.4406365E0,1.9715742E0],"split_indices":[46,24,31,135,93,89,31,0,0,6,105,5,34,58,31,0,0,0,0,0,0,0,0,0,0,0,0],"split_type":[0,0,0,0,0,0,0,0,0,0,0,0,0,0,0,0,0,0,0,0,0,0,0,0,0,0,0],"sum_hessian":[1.444E3,3.33E2,1.111E3,7.7E1,2.56E2,1.81E2,9.3E2,5.3E1,2.4E1,1.8E2,7.6E1,1.02E2,7.9E1,2.61E2,6.69E2,9.7E1,8.3E1,6.6E1,1E1,2.7E1,7.5E1,3.3E1,4.6E1,6.8E1,1.93E2,4.34E2,2.35E2],"tree_param":{"num_deleted":"0","num_feature":"177","num_nodes":"27","size_leaf_vector":"1"}},{"base_weights":[-3.1994064E0,-1.8823395E2,5.2855854E1,-3.6089682E2,-1.3038135E2,-3.0729996E1,6.920097E1,-5.647865E0,-9.668127E0,-1.9525226E2,-9.8975006E1,-4.9651596E1,-4.7983165E0,4.683102E1,8.4297966E1,-4.1792383E0,-1.3237962E0,-1.5162112E0,-2.2179136E0,-6.031152E-1,-1.086934E0,-3.3796692E-1,8.545391E-2,5.734043E-1,1.0718187E0,1.5539485E0,2.1623611E0],"categories":[],"categories_nodes":[],"categories_segments":[],"categories_sizes":[],"default_left":[0,0,0,0,0,0,0,0,0,0,0,0,0,0,0,0,0,0,0,0,0,0,0,0,0,0,0],"id":53,"left_children":[1,3,5,7,9,11,13,-1,-1,15,17,19,21,23,25,-1,-1,-1,-1,-1,-1,-1,-1,-1,-1,-1,-1],"loss_changes":[1.5079005E7,3.14101E6,1.5353352E6,1.06076E5,4.351245E5,9.007319E4,2.960285E5,0E0,0E0,7.239625E4,9.32625E3,1.5999375E3,9.580807E3,3.9950688E4,4.47855E4,0E0,0E0,0E0,0E0,0E0,0E0,0E0,0E0,0E0,0E0,0E0,0E0],"parents":[2147483647,0,0,1,1,2,2,3,3,4,4,5,5,6,6,9,9,10,10,11,11,12,12,13,13,14,14],"right_children":[2,4,6,8,10,12,14,-1,-1,16,18,20,22,24,26,-1,-1,-1,-1,-1,-1,-1,-1,-1,-1,-1,-1],"split_conditions":[4.0550146E3,2.822789E1,4.8492607E3,2.8232597E1,4.0860603E1,3.741573E1,5.0010415E3,-5.647865E0,-9.668127E0,2.746437E-2,4.5401678E2,2.0820435E3,3.7744713E1,4.920911E3,5.085657E3,-4.1792383E0,-1.3237962E0,-1.5162112E0,-2.2179136E0,-6.031152E-1,-1.086934E0,-3.3796692E-1,8.545391E-2,5.734043E-1,1.0718187E0,1.5539485E0,2.1623611E0],"split_indices":[46,24,31,77,35,89,31,0,0,129,142,5,38,31,31,0,0,0,0,0,0,0,0,0,0,0,0],