{"learner":{"attributes":{"scikit_learn":"{\"_estimator_type\": \"regressor\"}"},"feature_names":["Injection EC","Net Flow","TL Interval Flow","TL Bottom Flow","TL Collar Flow","TL Interval EC","TL Bottom EC","TL Interval Pressure","TL Bottom Pressure","TL Packer Pressure","TL-TEC-INT-U","TL-TEC-INT-L","TL-TEC-BOT-U","TL-TEC-BOT-L","TN Interval Flow","TN Bottom Flow","TN Collar Flow","TN Interval EC","TN Bottom EC","TN Interval Pressure","TN Bottom Pressure","TN Packer Pressure","TN-TEC-INT-U","TN-TEC-INT-L","TN-TEC-BOT-U","TN-TEC-BOT-L","TC Interval Flow","TC Bottom Flow","TC Collar Flow","TC Interval EC","TC Bottom EC","TC Interval Pressure","TC Bottom Pressure","Injection Pressure","TC Packer Pressure","TC-TEC-INT-U","TC-TEC-INT-L","TC-TEC-BOT-U","TC-TEC-BOT-L","PT 403","PT 503","PT 504","TL Packer Center Depth","TN Packer Center Depth","TC Packer Center Depth","Total_Production_Flow","Pressure_Differential","TC_Impedance_Proxy","TL Interval EC__MixFrac","TL Bottom EC__MixFrac","TN Interval EC__MixFrac","TN Bottom EC__MixFrac","Net Flow__lag_1h","Net Flow__lag_3h","Injection Pressure__lag_1h","Injection Pressure__lag_3h","Injection EC__lag_1h","Injection EC__lag_3h","TC Interval Pressure__lag_1h","TC Interval Pressure__lag_3h","Total_Production_Flow__lag_1h","Total_Production_Flow__lag_3h","Pressure_Differential__lag_1h","Pressure_Differential__lag_3h","TC_Impedance_Proxy__lag_1h","TC_Impedance_Proxy__lag_3h","TL-TEC-INT-U__lag_1h","TL-TEC-INT-U__lag_3h","TL-TEC-INT-L__lag_1h","TL-TEC-INT-L__lag_3h","TL-TEC-BOT-U__lag_1h","TL-TEC-BOT-U__lag_3h","TL-TEC-BOT-L__lag_1h","TL-TEC-BOT-L__lag_3h","TN-TEC-INT-U__lag_1h","TN-TEC-INT-U__lag_3h","TN-TEC-INT-L__lag_1h","TN-TEC-INT-L__lag_3h","TN-TEC-BOT-U__lag_1h","TN-TEC-BOT-U__lag_3h","TN-TEC-BOT-L__lag_1h","TN-TEC-BOT-L__lag_3h","TC-TEC-INT-U__lag_1h","TC-TEC-INT-U__lag_3h","TC-TEC-INT-L__lag_1h","TC-TEC-INT-L__lag_3h","TC-TEC-BOT-U__lag_1h","TC-TEC-BOT-U__lag_3h","TC-TEC-BOT-L__lag_1h","TC-TEC-BOT-L__lag_3h","TL Interval EC__lag_1h","TL Interval EC__lag_3h","TL Bottom EC__lag_1h","TL Bottom EC__lag_3h","TN Interval EC__lag_1h","TN Interval EC__lag_3h","TN Bottom EC__lag_1h","TN Bottom EC__lag_3h","TC Interval EC__lag_1h","TC Interval EC__lag_3h","TC Bottom EC__lag_1h","TC Bottom EC__lag_3h","Net Flow__roll_mean_3h","Net Flow__roll_std_3h","Injection Pressure__roll_mean_3h","Injection Pressure__roll_std_3h","Injection EC__roll_mean_3h","Injection EC__roll_std_3h","TC Interval Pressure__roll_mean_3h","TC Interval Pressure__roll_std_3h","Total_Production_Flow__roll_mean_3h","Total_Production_Flow__roll_std_3h","Pressure_Differential__roll_mean_3h","Pressure_Differential__roll_std_3h","TC_Impedance_Proxy__roll_mean_3h","TC_Impedance_Proxy__roll_std_3h","TL-TEC-INT-U__roll_mean_3h","TL-TEC-INT-U__roll_std_3h","TL-TEC-INT-L__roll_mean_3h","TL-TEC-INT-L__roll_std_3h","TL-TEC-BOT-U__roll_mean_3h","TL-TEC-BOT-U__roll_std_3h","TL-TEC-BOT-L__roll_mean_3h","TL-TEC-BOT-L__roll_std_3h","TN-TEC-INT-U__roll_mean_3h","TN-TEC-INT-U__roll_std_3h","TN-TEC-INT-L__roll_mean_3h","TN-TEC-INT-L__roll_std_3h","TN-TEC-BOT-U__roll_mean_3h","TN-TEC-BOT-U__roll_std_3h","TN-TEC-BOT-L__roll_mean_3h","TN-TEC-BOT-L__roll_std_3h","TC-TEC-INT-U__roll_mean_3h","TC-TEC-INT-U__roll_std_3h","TC-TEC-INT-L__roll_mean_3h","TC-TEC-INT-L__roll_std_3h","TC-TEC-BOT-U__roll_mean_3h","TC-TEC-BOT-U__roll_std_3h","TC-TEC-BOT-L__roll_mean_3h","TC-TEC-BOT-L__roll_std_3h","TL Interval EC__roll_mean_3h","TL Interval EC__roll_std_3h","TL Bottom EC__roll_mean_3h","TL Bottom EC__roll_std_3h","TN Interval EC__roll_mean_3h","TN Interval EC__roll_std_3h","TN Bottom EC__roll_mean_3h","TN Bottom EC__roll_std_3h","TC Interval EC__roll_mean_3h","TC Interval EC__roll_std_3h","TC Bottom EC__roll_mean_3h","TC Bottom EC__roll_std_3h","Net Flow__roc_1h","Injection Pressure__roc_1h","Injection EC__roc_1h","TC Interval Pressure__roc_1h","Total_Production_Flow__roc_1h","Pressure_Differential__roc_1h","TC_Impedance_Proxy__roc_1h","TL-TEC-INT-U__roc_1h","TL-TEC-INT-L__roc_1h","TL-TEC-BOT-U__roc_1h","TL-TEC-BOT-L__roc_1h","TN-TEC-INT-U__roc_1h","TN-TEC-INT-L__roc_1h","TN-TEC-BOT-U__roc_1h","TN-TEC-BOT-L__roc_1h","TC-TEC-INT-U__roc_1h","TC-TEC-INT-L__roc_1h","TC-TEC-BOT-U__roc_1h","TC-TEC-BOT-L__roc_1h","TL Interval EC__roc_1h","TL Bottom EC__roc_1h","TN Interval EC__roc_1h","TN Bottom EC__roc_1h","TC Interval EC__roc_1h","TC Bottom EC__roc_1h"],"feature_types":["float","float","float","float","float","float","float","float","float","float","float","float","float","float","float","float","float","float","float","float","float","float","float","float","float","float","float","float","float","float","float","float","float","float","float","float","float","float","float","float","float","float","float","float","float","float","float","float","float","float","float","float","float","float","float","float","float","float","float","float","float","float","float","float","float","float","float","float","float","float","float","float","float","float","float","float","float","float","float","float","float","float","float","float","float","float","float","float","float","float","float","float","float","float","float","float","float","float","float","float","float","float","float","float","float","float","float","float","float","float","float","float","float","float","float","float","float","float","float","float","float","float","float","float","float","float","float","float","float","float","float","float","float","float","float","float","float","float","float","float","float","float","float","float","float","float","float","float","float","float","float","float","float","float","float","float","float","float","float","float","float","float","float","float","float","float","float","float","float","float","float","float","float","float","float","float","float"],"gradient_booster":{"model":{"gbtree_model_param":{"num_parallel_tree":"1","num_trees":"46"},"iteration_indptr":[0,1,2,3,4,5,6,7,8,9,10,11,12,13,14,15,16,17,18,19,20,21,22,23,24,25,26,27,28,29,30,31,32,33,34,35,36,37,38,39,40,41,42,43,44,45,46],"tree_info":[0,0,0,0,0,0,0,0,0,0,0,0,0,0,0,0,0,0,0,0,0,0,0,0,0,0,0,0,0,0,0,0,0,0,0,0,0,0,0,0,0,0,0,0,0,0],"trees":[{"base_weights":[1.3985907E-9,-1.3085032E-1,1.9888341E-1,-1.3716388E-1,-1.5147906E-2,1.17469594E-1,3.4941176E-1,-9.244053E-2,-2.8669217E-3,1.2258685E-3,-4.6526447E-2,9.7385794E-2,3.0703847E-3,7.163725E-3,2.7314343E-3,-1.6540278E-5,-2.0225248E-3,-4.314709E-4,-1.342308E-3,2.7826833E-4,2.009174E-3],"categories":[],"categories_nodes":[],"categories_segments":[],"categories_sizes":[],"default_left":[0,0,0,0,0,0,0,0,0,0,0,0,0,0,0,0,0,0,0,0,0],"id":0,"left_children":[1,3,5,7,9,11,13,15,-1,-1,17,19,-1,-1,-1,-1,-1,-1,-1,-1,-1],"loss_changes":[3.7838837E1,6.3025475E-1,6.865961E0,1.6350842E-1,1.365883E-1,2.018199E-1,1.2892151E-1,9.109068E-2,0E0,0E0,1.2796827E-2,5.9445858E-2,0E0,0E0,0E0,0E0,0E0,0E0,0E0,0E0,0E0],"parents":[2147483647,0,0,1,1,2,2,3,3,4,4,5,5,6,6,7,7,10,10,11,11],"right_children":[2,4,6,8,10,12,14,16,-1,-1,18,20,-1,-1,-1,-1,-1,-1,-1,-1,-1],"split_conditions":[1.7931104E-1,2.9305397E1,3.8635206E-1,2.3840997E2,3.922989E-1,2.7525252E-1,3.3433225E3,4.352678E-1,-2.8669217E-3,1.2258685E-3,4.382087E-1,-1.7245213E-2,3.0703847E-3,7.163725E-3,2.7314343E-3,-1.6540278E-5,-2.0225248E-3,-4.314709E-4,-1.342308E-3,2.7826833E-4,2.009174E-3],"split_indices":[16,74,16,29,14,16,47,45,0,0,14,163,0,0,0,0,0,0,0,0,0],"split_type":[0,0,0,0,0,0,0,0,0,0,0,0,0,0,0,0,0,0,0,0,0],"sum_hessian":[1.444E3,8.72E2,5.72E2,8.26E2,4.6E1,3.77E2,1.95E2,1.1E2,7.16E2,1.2E1,3.4E1,2.54E2,1.23E2,1.84E2,1.1E1,1E1,1E2,2E1,1.4E1,1E1,2.44E2],"tree_param":{"num_deleted":"0","num_feature":"177","num_nodes":"21","size_leaf_vector":"1"}},{"base_weights":[3.3816123E-5,-1.2543121E-1,1.9461437E-1,-1.1310174E-2,-1.3532794E-1,1.0902207E-1,2.9970387E-1,-5.3701803E-2,1.8345246E-3,-2.8123662E-3,-1.9420765E-3,2.6970562E-3,9.434938E-2,3.248017E-1,2.4069254E-3,-2.2628292E-4,-2.1925543E-3,7.1061123E-4,1.9257172E-3,6.738097E-3,9.579404E-4],"categories":[],"categories_nodes":[],"categories_segments":[],"categories_sizes":[],"default_left":[0,0,0,0,0,0,0,0,0,0,0,0,0,0,0,0,0,0,0,0,0],"id":1,"left_children":[1,3,5,7,9,11,13,15,-1,-1,-1,-1,17,19,-1,-1,-1,-1,-1,-1,-1],"loss_changes":[3.5496567E1,9.9075794E-1,4.9636955E0,3.5658824E-1,9.613228E-2,5.842352E-2,9.4343376E-1,1.2892067E-1,0E0,0E0,0E0,0E0,8.1807375E-3,6.5327644E-1,0E0,0E0,0E0,0E0,0E0,0E0,0E0],"parents":[2147483647,0,0,1,1,2,2,3,3,4,4,5,5,6,6,7,7,12,12,13,13],"right_children":[2,4,6,8,10,12,14,16,-1,-1,-1,-1,18,20,-1,-1,-1,-1,-1,-1,-1],"split_conditions":[2.9416914E1,4.382087E-1,1.582355E-2,2.0692898E3,2.6024277E1,3.3513994E3,8.99655E0,2.3840997E2,1.8345246E-3,-2.8123662E-3,-1.9420765E-3,2.6970562E-3,-1.7902467E-2,2.7346197E-1,2.4069254E-3,-2.2628292E-4,-2.1925543E-3,7.1061123E-4,1.9257172E-3,6.738097E-3,9.579404E-4],"split_indices":[22,14,27,90,12,47,143,29,0,0,0,0,164,45,0,0,0,0,0,0,0],"split_type":[0,0,0,0,0,0,0,0,0,0,0,0,0,0,0,0,0,0,0,0,0],"sum_hessian":[1.444E3,8.79E2,5.65E2,7.1E1,8.08E2,3.17E2,2.48E2,5.2E1,1.9E1,6.98E2,1.1E2,1E2,2.17E2,2.14E2,3.4E1,3.3E1,1.9E1,1E1,2.07E2,2.04E2,1E1],"tree_param":{"num_deleted":"0","num_feature":"177","num_nodes":"21","size_leaf_vector":"1"}},{"base_weights":[6.798834E-5,-1.2577176E-1,1.913351E-1,-1.3181916E-1,-1.4904256E-2,1.1296412E-1,3.362403E-1,-8.906888E-2,-2.7544743E-3,1.1767143E-3,-4.513652E-2,9.408378E-2,2.9779153E-3,6.894968E-3,2.6132595E-3,-1.3756951E-4,-1.9486281E-3,-4.2094663E-4,-1.2990957E-3,2.5668787E-4,1.9405985E-3],"categories":[],"categories_nodes":[],"categories_segments":[],"categories_sizes":[],"default_left":[0,0,0,0,0,0,0,0,0,0,0,0,0,0,0,0,0,0,0,0,0],"id":2,"left_children":[1,3,5,7,9,11,13,15,-1,-1,17,19,-1,-1,-1,-1,-1,-1,-1,-1,-1],"loss_changes":[3.499631E1,5.781698E-1,6.362705E0,1.4842892E-1,1.2697385E-1,1.8910599E-1,1.24586105E-1,7.5690806E-2,0E0,0E0,1.17831975E-2,5.6967497E-2,0E0,0E0,0E0,0E0,0E0,0E0,0E0,0E0,0E0],"parents":[2147483647,0,0,1,1,2,2,3,3,4,4,5,5,6,6,7,7,10,10,11,11],"right_children":[2,4,6,8,10,12,14,16,-1,-1,18,20,-1,-1,-1,-1,-1,-1,-1,-1,-1],"split_conditions":[1.7931104E-1,2.9305397E1,3.8635206E-1,2.3840997E2,3.922989E-1,2.7568567E-1,3.3433225E3,4.382087E-1,-2.7544743E-3,1.1767143E-3,4.382087E-1,-1.7245213E-2,2.9779153E-3,6.894968E-3,2.6132595E-3,-1.3756951E-4,-1.9486281E-3,-4.2094663E-4,-1.2990957E-3,2.5668787E-4,1.9405985E-3],"split_indices":[16,74,16,29,14,16,47,14,0,0,14,163,0,0,0,0,0,0,0,0,0],"split_type":[0,0,0,0,0,0,0,0,0,0,0,0,0,0,0,0,0,0,0,0,0],"sum_hessian":[1.444E3,8.72E2,5.72E2,8.26E2,4.6E1,3.77E2,1.95E2,1.1E2,7.16E2,1.2E1,3.4E1,2.59E2,1.18E2,1.84E2,1.1E1,1.1E1,9.9E1,2E1,1.4E1,1E1,2.49E2],"tree_param":{"num_deleted":"0","num_feature":"177","num_nodes":"21","size_leaf_vector":"1"}},{"base_weights":[9.87201E-5,-1.2328702E-1,1.8763565E-1,-1.2878074E-1,-1.7599637E-3,1.1077258E-1,3.297532E-1,-8.6734965E-2,-2.699872E-3,1.1996124E-3,-3.2355264E-2,9.224372E-2,2.9207778E-3,6.760717E-3,2.5773272E-3,-2.413684E-5,-1.8863505E-3,-1.0039739E-3,-9.065907E-5,2.5326537E-4,1.9025506E-3],"categories":[],"categories_nodes":[],"categories_segments":[],"categories_sizes":[],"default_left":[0,0,0,0,0,0,0,0,0,0,0,0,0,0,0,0,0,0,0,0,0],"id":3,"left_children":[1,3,5,7,9,11,13,15,-1,-1,17,19,-1,-1,-1,-1,-1,-1,-1,-1,-1],"loss_changes":[3.364463E1,5.84383E-1,6.1202717E0,1.606226E-1,9.0929225E-2,1.8225956E-1,1.1497116E-1,7.855064E-2,0E0,0E0,1.4748517E-2,5.4564E-2,0E0,0E0,0E0,0E0,0E0,0E0,0E0,0E0,0E0],"parents":[2147483647,0,0,1,1,2,2,3,3,4,4,5,5,6,6,7,7,10,10,11,11],"right_children":[2,4,6,8,10,12,14,16,-1,-1,18,20,-1,-1,-1,-1,-1,-1,-1,-1,-1],"split_conditions":[1.7931104E-1,2.931713E1,3.8635206E-1,2.3840997E2,3.8839445E-1,2.7568567E-1,3.3433225E3,4.284357E-1,-2.699872E-3,1.1996124E-3,2.2965929E2,-1.7245213E-2,2.9207778E-3,6.760717E-3,2.5773272E-3,-2.413684E-5,-1.8863505E-3,-1.0039739E-3,-9.065907E-5,2.5326537E-4,1.9025506E-3],"split_indices":[16,22,16,29,45,16,47,45,0,0,29,163,0,0,0,0,0,0,0,0,0],"split_type":[0,0,0,0,0,0,0,0,0,0,0,0,0,0,0,0,0,0,0,0,0],"sum_hessian":[1.444E3,8.72E2,5.72E2,8.34E2,3.8E1,3.77E2,1.95E2,1.17E2,7.17E2,1.1E1,2.7E1,2.59E2,1.18E2,1.84E2,1.1E1,1E1,1.07E2,1.4E1,1.3E1,1E1,2.49E2],"tree_param":{"num_deleted":"0","num_feature":"177","num_nodes":"21","size_leaf_vector":"1"}},{"base_weights":[1.3093707E-4,-1.2084697E-1,1.8400784E-1,-1.2623261E-1,-1.7125568E-3,1.0862358E-1,3.2339156E-1,-8.507856E-2,-2.6462483E-3,1.144684E-3,-3.3761982E-2,8.9936E-2,2.843872E-3,6.6290796E-3,2.541889E-3,-8.185532E-5,-1.8583963E-3,-9.771555E-4,-8.683242E-5,2.4988854E-4,1.8559042E-3],"categories":[],"categories_nodes":[],"categories_segments":[],"categories_sizes":[],"default_left":[0,0,0,0,0,0,0,0,0,0,0,0,0,0,0,0,0,0,0,0,0],"id":4,"left_children":[1,3,5,7,9,11,13,15,-1,-1,17,19,-1,-1,-1,-1,-1,-1,-1,-1,-1],"loss_changes":[3.234425E1,5.61615E-1,5.8870945E0,1.5364075E-1,9.089772E-2,1.7570353E-1,1.058979E-1,7.557225E-2,0E0,0E0,1.2707226E-2,5.1551104E-2,0E0,0E0,0E0,0E0,0E0,0E0,0E0,0E0,0E0],"parents":[2147483647,0,0,1,1,2,2,3,3,4,4,5,5,6,6,7,7,10,10,11,11],"right_children":[2,4,6,8,10,12,14,16,-1,-1,18,20,-1,-1,-1,-1,-1,-1,-1,-1,-1],"split_conditions":[1.7931104E-1,2.931713E1,3.8635206E-1,2.3840997E2,3.922989E-1,2.7525252E-1,3.3433225E3,4.352678E-1,-2.6462483E-3,1.144684E-3,2.2989333E2,-1.7245213E-2,2.843872E-3,6.6290796E-3,2.541889E-3,-8.185532E-5,-1.8583963E-3,-9.771555E-4,-8.683242E-5,2.4988854E-4,1.8559042E-3],"split_indices":[16,22,16,29,14,16,47,45,0,0,29,163,0,0,0,0,0,0,0,0,0],"split_type":[0,0,0,0,0,0,0,0,0,0,0,0,0,0,0,0,0,0,0,0,0],"sum_hessian":[1.444E3,8.72E2,5.72E2,8.34E2,3.8E1,3.77E2,1.95E2,1.17E2,7.17E2,1.2E1,2.6E1,2.54E2,1.23E2,1.84E2,1.1E1,1.1E1,1.06E2,1.5E1,1.1E1,1E1,2.44E2],"tree_param":{"num_deleted":"0","num_feature":"177","num_nodes":"21","size_leaf_vector":"1"}},{"base_weights":[1.6149707E-4,-1.18455715E-1,1.8045004E-1,-1.2409133E-1,-8.197849E-3,1.0651589E-1,3.17153E-1,-2.5908854E-3,-8.4366165E-2,1.128524E-3,-3.757617E-2,8.866104E-2,2.8101716E-3,3.250003E-1,2.5069378E-3,-1.831692E-3,-5.436487E-4,-2.2452182E-4,-1.0744955E-3,2.4655665E-4,1.8284721E-3,6.9548804E-3,4.587316E-3],"categories":[],"categories_nodes":[],"categories_segments":[],"categories_sizes":[],"default_left":[0,0,0,0,0,0,0,0,0,0,0,0,0,0,0,0,0,0,0,0,0,0,0],"id":5,"left_children":[1,3,5,7,9,11,13,-1,15,-1,17,19,-1,21,-1,-1,-1,-1,-1,-1,-1,-1,-1],"loss_changes":[3.1094212E1,5.3985596E-1,5.66284E0,1.2601471E-1,1.01731606E-1,1.6956091E-1,9.7343445E-2,0E0,3.502196E-2,0E0,1.2303021E-2,5.0035954E-2,0E0,1.2289047E-2,0E0,0E0,0E0,0E0,0E0,0E0,0E0,0E0,0E0],"parents":[2147483647,0,0,1,1,2,2,3,3,4,4,5,5,6,6,8,8,10,10,11,11,13,13],"right_children":[2,4,6,8,10,12,14,-1,16,-1,18,20,-1,22,-1,-1,-1,-1,-1,-1,-1,-1,-1],"split_conditions":[1.7931104E-1,2.9306078E1,3.8635206E-1,1.3956377E-2,3.922989E-1,2.7568567E-1,3.3433225E3,-2.5908854E-3,7.6491565E-2,1.128524E-3,2.5061921E3,-1.7245213E-2,2.8101716E-3,1.4043841E-1,2.5069378E-3,-1.831692E-3,-5.436487E-4,-2.2452182E-4,-1.0744955E-3,2.4655665E-4,1.8284721E-3,6.9548804E-3,4.587316E-3],"split_indices":[16,22,16,16,14,16,47,0,16,0,39,163,0,14,0,0,0,0,0,0,0,0,0],"split_type":[0,0,0,0,0,0,0,0,0,0,0,0,0,0,0,0,0,0,0,0,0,0,0],"sum_hessian":[1.444E3,8.72E2,5.72E2,8.29E2,4.3E1,3.77E2,1.95E2,7.19E2,1.1E2,1.2E1,3.1E1,2.59E2,1.18E2,1.84E2,1.1E1,9.5E1,1.5E1,1.5E1,1.6E1,1E1,2.49E2,1.38E2,4.6E1],"tree_param":{"num_deleted":"0","num_feature":"177","num_nodes":"23","size_leaf_vector":"1"}},{"base_weights":[2.0587503E-4,-1.1611589E-1,1.7700511E-1,-1.2129347E-1,-1.5911339E-3,1.0444952E-1,3.111612E-1,-8.18491E-2,-2.542372E-3,1.1518612E-3,-3.0934617E-2,8.7491296E-2,2.782404E-3,3.1880563E-1,2.4724673E-3,-9.736001E-6,-1.781837E-3,-9.616277E-4,-8.484598E-5,2.4009556E-4,1.8032753E-3,6.8192147E-3,4.508578E-3],"categories":[],"categories_nodes":[],"categories_segments":[],"categories_sizes":[],"default_left":[0,0,0,0,0,0,0,0,0,0,0,0,0,0,0,0,0,0,0,0,0,0,0],"id":6,"left_children":[1,3,5,7,9,11,13,15,-1,-1,17,19,-1,21,-1,-1,-1,-1,-1,-1,-1,-1,-1],"loss_changes":[2.990232E1,5.190611E-1,5.453884E0,1.4075279E-1,8.358493E-2,1.6373873E-1,8.966637E-2,7.1676254E-2,0E0,0E0,1.3626106E-2,4.905653E-2,0E0,6.685257E-3,0E0,0E0,0E0,0E0,0E0,0E0,0E0,0E0,0E0],"parents":[2147483647,0,0,1,1,2,2,3,3,4,4,5,5,6,6,7,7,10,10,11,11,13,13],"right_children":[2,4,6,8,10,12,14,16,-1,-1,18,20,-1,22,-1,-1,-1,-1,-1,-1,-1,-1,-1],"split_conditions":[1.7931104E-1,2.931713E1,3.8635206E-1,2.3840997E2,3.8839445E-1,2.7609026E-1,3.3433225E3,4.284357E-1,-2.542372E-3,1.1518612E-3,2.2965929E2,-2.1470515E-2,2.782404E-3,1.402486E-1,2.4724673E-3,-9.736001E-6,-1.781837E-3,-9.616277E-4,-8.484598E-5,2.4009556E-4,1.8032753E-3,6.8192147E-3,4.508578E-3],"split_indices":[16,22,16,29,45,16,47,45,0,0,29,163,0,45,0,0,0,0,0,0,0,0,0],"split_type":[0,0,0,0,0,0,0,0,0,0,0,0,0,0,0,0,0,0,0,0,0,0,0],"sum_hessian":[1.444E3,8.72E2,5.72E2,8.34E2,3.8E1,3.77E2,1.95E2,1.17E2,7.17E2,1.1E1,2.7E1,2.65E2,1.12E2,1.84E2,1.1E1,1E1,1.07E2,1.4E1,1.3E1,1E1,2.55E2,1.38E2,4.6E1],"tree_param":{"num_deleted":"0","num_feature":"177","num_nodes":"23","size_leaf_vector":"1"}},{"base_weights":[2.5143923E-4,-1.1381768E-1,1.7362641E-1,-1.1889342E-1,-1.5470549E-3,1.0242368E-1,3.0528295E-1,-8.028554E-2,-2.4918765E-3,1.0977852E-3,-3.2246478E-2,8.473168E-2,2.6844284E-3,3.1272918E-1,2.4384712E-3,-9.606262E-6,-1.7477913E-3,-9.3538297E-4,-8.032231E-5,2.3798367E-4,1.7483549E-3,6.689354E-3,4.422327E-3],"categories":[],"categories_nodes":[],"categories_segments":[],"categories_sizes":[],"default_left":[0,0,0,0,0,0,0,0,0,0,0,0,0,0,0,0,0,0,0,0,0,0,0],"id":7,"left_children":[1,3,5,7,9,11,13,15,-1,-1,17,19,-1,21,-1,-1,-1,-1,-1,-1,-1,-1,-1],"loss_changes":[2.8755291E1,4.988451E-1,5.252634E0,1.3463211E-1,8.335011E-2,1.5803576E-1,8.242226E-2,6.8956554E-2,0E0,0E0,1.17702335E-2,4.5467734E-2,0E0,6.6165924E-3,0E0,0E0,0E0,0E0,0E0,0E0,0E0,0E0,0E0],"parents":[2147483647,0,0,1,1,2,2,3,3,4,4,5,5,6,6,7,7,10,10,11,11,13,13],"right_children":[2,4,6,8,10,12,14,16,-1,-1,18,20,-1,22,-1,-1,-1,-1,-1,-1,-1,-1,-1],"split_conditions":[1.7931104E-1,2.931713E1,3.8635206E-1,2.3840997E2,3.922989E-1,2.7525252E-1,3.3433225E3,4.3187967E-1,-2.4918765E-3,1.0977852E-3,2.2989333E2,-1.7245213E-2,2.6844284E-3,1.4043841E-1,2.4384712E-3,-9.606262E-6,-1.7477913E-3,-9.3538297E-4,-8.032231E-5,2.3798367E-4,1.7483549E-3,6.689354E-3,4.422327E-3],"split_indices":[16,22,16,29,14,16,47,14,0,0,29,163,0,14,0,0,0,0,0,0,0,0,0],"split_type":[0,0,0,0,0,0,0,0,0,0,0,0,0,0,0,0,0,0,0,0,0,0,0],"sum_hessian":[1.444E3,8.72E2,5.72E2,8.34E2,3.8E1,3.77E2,1.95E2,1.17E2,7.17E2,1.2E1,2.6E1,2.54E2,1.23E2,1.84E2,1.1E1,1E1,1.07E2,1.5E1,1.1E1,1E1,2.44E2,1.38E2,4.6E1],"tree_param":{"num_deleted":"0","num_feature":"177","num_nodes":"23","size_leaf_vector":"1"}},{"base_weights":[2.9490376E-4,-1.1156508E-1,1.7031178E-1,-1.1654088E-1,-1.5065729E-3,1.0043635E-1,2.9951605E-1,-7.8751855E-2,-2.4423841E-3,1.1209286E-3,-3.0047672E-2,8.4081136E-2,1.33887E-1,3.0676854E-1,2.4049422E-3,-6.322061E-5,-1.722009E-3,-9.336718E-4,-8.28192E-5,1.7270948E-3,6.814477E-4,1.1496759E-3,2.7668264E-3,6.5588066E-3,4.3465826E-3],"categories":[],"categories_nodes":[],"categories_segments":[],"categories_sizes":[],"default_left":[0,0,0,0,0,0,0,0,0,0,0,0,0,0,0,0,0,0,0,0,0,0,0,0,0],"id":8,"left_children":[1,3,5,7,9,11,13,15,-1,-1,17,19,21,23,-1,-1,-1,-1,-1,-1,-1,-1,-1,-1,-1],"loss_changes":[2.765221E1,4.7939205E-1,5.0588627E0,1.287756E-1,7.905324E-2,1.5270281E-1,7.558823E-2,6.6408515E-2,0E0,0E0,1.2824845E-2,1.5987396E-2,5.6028366E-5,1.5354156E-3,0E0,0E0,0E0,0E0,0E0,0E0,0E0,0E0,0E0,0E0,0E0],"parents":[2147483647,0,0,1,1,2,2,3,3,4,4,5,5,6,6,7,7,10,10,11,11,12,12,13,13],"right_children":[2,4,6,8,10,12,14,16,-1,-1,18,20,22,24,-1,-1,-1,-1,-1,-1,-1,-1,-1,-1,-1],"split_conditions":[1.7931104E-1,2.931713E1,3.8635206E-1,2.3840997E2,3.8839445E-1,2.7609026E-1,3.3433225E3,4.352678E-1,-2.4423841E-3,1.1209286E-3,2.2965929E2,3.9408367E1,3.0045938E1,1.402486E-1,2.4049422E-3,-6.322061E-5,-1.722009E-3,-9.336718E-4,-8.28192E-5,1.7270948E-3,6.814477E-4,1.1496759E-3,2.7668264E-3,6.5588066E-3,4.3465826E-3],"split_indices":[16,22,16,29,45,16,47,45,0,0,29,83,79,45,0,0,0,0,0,0,0,0,0,0,0],"split_type":[0,0,0,0,0,0,0,0,0,0,0,0,0,0,0,0,0,0,0,0,0,0,0,0,0],"sum_hessian":[1.444E3,8.72E2,5.72E2,8.34E2,3.8E1,3.77E2,1.95E2,1.17E2,7.17E2,1.1E1,2.7E1,2.65E2,1.12E2,1.84E2,1.1E1,1.1E1,1.06E2,1.4E1,1.3E1,2.5E2,1.5E1,1E1,1.02E2,1.38E2,4.6E1],"tree_param":{"num_deleted":"0","num_feature":"177","num_nodes":"25","size_leaf_vector":"1"}},{"base_weights":[3.425388E-4,-1.0935728E-1,1.670757E-1,-1.1456403E-1,-7.4986718E-3,9.8510414E-2,2.938585E-1,-7.801305E-2,-2.3938746E-3,1.0678784E-3,-3.5212025E-2,8.1896596E-2,2.6032971E-3,6.0744532E-3,2.900409E-3,-3.3537606E-5,-1.7013781E-3,-2.04848E-4,-1.0121762E-3,2.2014779E-4,1.6894165E-3],"categories":[],"categories_nodes":[],"categories_segments":[],"categories_sizes":[],"default_left":[0,0,0,0,0,0,0,0,0,0,0,0,0,0,0,0,0,0,0,0,0],"id":9,"left_children":[1,3,5,7,9,11,13,15,-1,-1,17,19,-1,-1,-1,-1,-1,-1,-1,-1,-1],"loss_changes":[2.659443E1,4.6082306E-1,4.8710613E0,1.0968304E-1,9.0402365E-2,1.4759398E-1,7.340431E-2,6.2305033E-2,0E0,0E0,1.1248488E-2,4.3527126E-2,0E0,0E0,0E0,0E0,0E0,0E0,0E0,0E0,0E0],"parents":[2147483647,0,0,1,1,2,2,3,3,4,4,5,5,6,6,7,7,10,10,11,11],"right_children":[2,4,6,8,10,12,14,16,-1,-1,18,20,-1,-1,-1,-1,-1,-1,-1,-1,-1],"split_conditions":[1.7931104E-1,2.9306078E1,3.8635206E-1,2.3840997E2,3.922989E-1,2.7568567E-1,8.0165425E-3,4.352678E-1,-2.3938746E-3,1.0678784E-3,2.5061921E3,-1.7245213E-2,2.6032971E-3,6.0744532E-3,2.900409E-3,-3.3537606E-5,-1.7013781E-3,-2.04848E-4,-1.0121762E-3,2.2014779E-4,1.6894165E-3],"split_indices":[16,22,16,29,14,16,156,45,0,0,39,163,0,0,0,0,0,0,0,0,0],"split_type":[0,0,0,0,0,0,0,0,0,0,0,0,0,0,0,0,0,0,0,0,0],"sum_hessian":[1.444E3,8.72E2,5.72E2,8.29E2,4.3E1,3.77E2,1.95E2,1.12E2,7.17E2,1.2E1,3.1E1,2.59E2,1.18E2,1.78E2,1.7E1,1E1,1.02E2,1.5E1,1.6E1,1E1,2.49E2],"tree_param":{"num_deleted":"0","num_feature":"177","num_nodes":"21","size_leaf_vector":"1"}},{"base_weights":[3.6746386E-4,-1.0719453E-1,1.6385105E-1,-1.1197812E-1,-1.3943695E-3,9.659927E-2,2.8820568E-1,-7.579652E-2,-2.3463287E-3,1.0528025E-3,-3.0801293E-2,8.08201E-2,1.2888458E-1,2.9524302E-1,2.300253E-3,-7.959465E-6,-1.6502152E-3,-8.954374E-4,-7.425336E-5,2.0968355E-4,1.666474E-3,1.0996364E-3,2.6644426E-3,6.318499E-3,4.166144E-3],"categories":[],"categories_nodes":[],"categories_segments":[],"categories_sizes":[],"default_left":[0,0,0,0,0,0,0,0,0,0,0,0,0,0,0,0,0,0,0,0,0,0,0,0,0],"id":10,"left_children":[1,3,5,7,9,11,13,15,-1,-1,17,19,21,23,-1,-1,-1,-1,-1,-1,-1,-1,-1,-1,-1],"loss_changes":[2.5567934E1,4.4307423E-1,4.686289E0,1.1758995E-1,7.643342E-2,1.4252186E-1,7.398224E-2,6.1597645E-2,0E0,0E0,1.0900637E-2,4.3177366E-2,8.813143E-4,1.0774612E-2,0E0,0E0,0E0,0E0,0E0,0E0,0E0,0E0,0E0,0E0,0E0],"parents":[2147483647,0,0,1,1,2,2,3,3,4,4,5,5,6,6,7,7,10,10,11,11,12,12,13,13],"right_children":[2,4,6,8,10,12,14,16,-1,-1,18,20,22,24,-1,-1,-1,-1,-1,-1,-1,-1,-1,-1,-1],"split_conditions":[1.7931104E-1,2.931713E1,3.8635206E-1,2.3840997E2,3.922989E-1,2.7609026E-1,3.3433225E3,4.3187967E-1,-2.3463287E-3,1.0528025E-3,2.2989333E2,-2.1470515E-2,3.0045938E1,1.4043841E-1,2.300253E-3,-7.959465E-6,-1.6502152E-3,-8.954374E-4,-7.425336E-5,2.0968355E-4,1.666474E-3,1.0996364E-3,2.6644426E-3,6.318499E-3,4.166144E-3],"split_indices":[16,22,16,29,14,16,47,14,0,0,29,163,79,14,0,0,0,0,0,0,0,0,0,0,0],"split_type":[0,0,0,0,0,0,0,0,0,0,0,0,0,0,0,0,0,0,0,0,0,0,0,0,0],"sum_hessian":[1.444E3,8.72E2,5.72E2,8.34E2,3.8E1,3.77E2,1.95E2,1.17E2,7.17E2,1.2E1,2.6E1,2.65E2,1.12E2,1.84E2,1.1E1,1E1,1.07E2,1.5E1,1.1E1,1E1,2.55E2,1E1,1.02E2,1.38E2,4.6E1],"tree_param":{"num_deleted":"0","num_feature":"177","num_nodes":"25","size_leaf_vector":"1"}},{"base_weights":[4.101641E-4,-1.05073E-1,1.607337E-1,-1.0976242E-1,-1.3568156E-3,9.474111E-2,2.8276122E-1,-7.434855E-2,-2.2997272E-3,1.0379396E-3,-3.0341666E-2,7.825442E-2,1.2440009E-1,5.845348E-3,2.7884608E-3,-7.8533685E-6,-1.6186844E-3,-8.820057E-4,-7.323239E-5,2.1247423E-4,1.6151437E-3,2.0588727E-3,3.0732846E-3],"categories":[],"categories_nodes":[],"categories_segments":[],"categories_sizes":[],"default_left":[0,0,0,0,0,0,0,0,0,0,0,0,0,0,0,0,0,0,0,0,0,0,0],"id":11,"left_children":[1,3,5,7,9,11,13,15,-1,-1,17,19,21,-1,-1,-1,-1,-1,-1,-1,-1,-1,-1],"loss_changes":[2.4589111E1,4.2580223E-1,4.5125837E0,1.1246967E-1,7.4246E-2,1.381154E-1,6.877518E-2,5.9261084E-2,0E0,0E0,1.0572111E-2,3.954959E-2,1.2779236E-3,0E0,0E0,0E0,0E0,0E0,0E0,0E0,0E0,0E0,0E0],"parents":[2147483647,0,0,1,1,2,2,3,3,4,4,5,5,6,6,7,7,10,10,11,11,12,12],"right_children":[2,4,6,8,10,12,14,16,-1,-1,18,20,22,-1,-1,-1,-1,-1,-1,-1,-1,-1,-1],"split_conditions":[1.7931104E-1,2.931713E1,3.8635206E-1,2.3840997E2,3.922989E-1,2.7525252E-1,8.0165425E-3,4.3187967E-1,-2.2997272E-3,1.0379396E-3,2.2989333E2,-1.7245213E-2,2.8912598E-1,5.845348E-3,2.7884608E-3,-7.8533685E-6,-1.6186844E-3,-8.820057E-4,-7.323239E-5,2.1247423E-4,1.6151437E-3,2.0588727E-3,3.0732846E-3],"split_indices":[16,22,16,29,14,16,156,14,0,0,29,163,16,0,0,0,0,0,0,0,0,0,0],"split_type":[0,0,0,0,0,0,0,0,0,0,0,0,0,0,0,0,0,0,0,0,0,0,0],"sum_hessian":[1.444E3,8.72E2,5.72E2,8.34E2,3.8E1,3.77E2,1.95E2,1.17E2,7.17E2,1.2E1,2.6E1,2.54E2,1.23E2,1.78E2,1.7E1,1E1,1.07E2,1.5E1,1.1E1,1E1,2.44E2,8.4E1,3.9E1],"tree_param":{"num_deleted":"0","num_feature":"177","num_nodes":"23","size_leaf_vector":"1"}},{"base_weights":[4.4250675E-4,-1.0299345E-1,1.5765415E-1,-1.0759058E-1,-1.3200634E-3,9.293739E-2,2.7732185E-1,-7.292824E-2,-2.2540512E-3,1.0232863E-3,-2.9888906E-2,7.672462E-2,1.2211255E-1,2.841513E-1,2.1997145E-3,-5.7392164E-5,-1.5948345E-3,-8.6877577E-4,-7.2225346E-5,2.0964124E-4,1.5834896E-3,2.0200086E-3,3.0188034E-3,6.0854387E-3,3.997532E-3],"categories":[],"categories_nodes":[],"categories_segments":[],"categories_sizes":[],"default_left":[0,0,0,0,0,0,0,0,0,0,0,0,0,0,0,0,0,0,0,0,0,0,0,0,0],"id":12,"left_children":[1,3,5,7,9,11,13,15,-1,-1,17,19,21,23,-1,-1,-1,-1,-1,-1,-1,-1,-1,-1,-1],"loss_changes":[2.3643864E1,4.0920448E-1,4.339712E0,1.07569695E-1,7.2121195E-2,1.3384461E-1,7.2301865E-2,5.7091713E-2,0E0,0E0,1.0253483E-2,3.7882328E-2,1.6771555E-3,1.6394615E-2,0E0,0E0,0E0,0E0,0E0,0E0,0E0,0E0,0E0,0E0,0E0],"parents":[2147483647,0,0,1,1,2,2,3,3,4,4,5,5,6,6,7,7,10,10,11,11,12,12,13,13],"right_children":[2,4,6,8,10,12,14,16,-1,-1,18,20,22,24,-1,-1,-1,-1,-1,-1,-1,-1,-1,-1,-1],"split_conditions":[1.7931104E-1,2.931713E1,3.8635206E-1,2.3840997E2,3.922989E-1,2.7525252E-1,3.3433225E3,4.352678E-1,-2.2540512E-3,1.0232863E-3,2.2989333E2,-1.7245213E-2,2.8912598E-1,1.4043841E-1,2.1997145E-3,-5.7392164E-5,-1.5948345E-3,-8.6877577E-4,-7.2225346E-5,2.0964124E-4,1.5834896E-3,2.0200086E-3,3.0188034E-3,6.0854387E-3,3.997532E-3],"split_indices":[16,22,16,29,14,16,47,45,0,0,29,163,16,14,0,0,0,0,0,0,0,0,0,0,0],"split_type":[0,0,0,0,0,0,0,0,0,0,0,0,0,0,0,0,0,0,0,0,0,0,0,0,0],"sum_hessian":[1.444E3,8.72E2,5.72E2,8.34E2,3.8E1,3.77E2,1.95E2,1.17E2,7.17E2,1.2E1,2.6E1,2.54E2,1.23E2,1.84E2,1.1E1,1.1E1,1.06E2,1.5E1,1.1E1,1E1,2.44E2,8.4E1,3.9E1,1.38E2,4.6E1],"tree_param":{"num_deleted":"0","num_feature":"177","num_nodes":"25","size_leaf_vector":"1"}},{"base_weights":[4.864209E-4,-1.0095538E-1,1.546667E-1,-1.05765775E-1,-6.858608E-3,9.116807E-2,2.7208245E-1,-7.2252676E-2,-2.2092822E-3,1.0088397E-3,-3.296464E-2,7.522474E-2,1.1986714E-1,2.78735E-1,2.1694684E-3,-2.7776798E-5,-1.5762113E-3,-1.867025E-4,-9.524043E-4,2.0684597E-4,1.5524557E-3,1.9463658E-3,2.90623E-3,3.6012821E-3,5.8767283E-3],"categories":[],"categories_nodes":[],"categories_segments":[],"categories_sizes":[],"default_left":[0,0,0,0,0,0,0,0,0,0,0,0,0,0,0,0,0,0,0,0,0,0,0,0,0],"id":13,"left_children":[1,3,5,7,9,11,13,15,-1,-1,17,19,21,23,-1,-1,-1,-1,-1,-1,-1,-1,-1,-1,-1],"loss_changes":[2.2740906E1,3.9334106E-1,4.1779366E0,9.141064E-2,8.011679E-2,1.2970257E-1,6.650734E-2,5.3824544E-2,0E0,0E0,1.0244243E-2,3.628409E-2,2.7314425E-3,1.7076492E-2,0E0,0E0,0E0,0E0,0E0,0E0,0E0,0E0,0E0,0E0,0E0],"parents":[2147483647,0,0,1,1,2,2,3,3,4,4,5,5,6,6,7,7,10,10,11,11,12,12,13,13],"right_children":[2,4,6,8,10,12,14,16,-1,-1,18,20,22,24,-1,-1,-1,-1,-1,-1,-1,-1,-1,-1,-1],"split_conditions":[1.7931104E-1,2.9306078E1,3.8635206E-1,2.3840997E2,3.922989E-1,2.7525252E-1,3.3433225E3,4.352678E-1,-2.2092822E-3,1.0088397E-3,2.5061921E3,-1.7245213E-2,3.0453402E1,4.5667776E-1,2.1694684E-3,-2.7776798E-5,-1.5762113E-3,-1.867025E-4,-9.524043E-4,2.0684597E-4,1.5524557E-3,1.9463658E-3,2.90623E-3,3.6012821E-3,5.8767283E-3],"split_indices":[16,22,16,29,14,16,47,45,0,0,39,163,81,16,0,0,0,0,0,0,0,0,0,0,0],"split_type":[0,0,0,0,0,0,0,0,0,0,0,0,0,0,0,0,0,0,0,0,0,0,0,0,0],"sum_hessian":[1.444E3,8.72E2,5.72E2,8.29E2,4.3E1,3.77E2,1.95E2,1.12E2,7.17E2,1.2E1,3.1E1,2.54E2,1.23E2,1.84E2,1.1E1,1E1,1.02E2,1.5E1,1.6E1,1E1,2.44E2,7.8E1,4.5E1,3.3E1,1.51E2],"tree_param":{"num_deleted":"0","num_feature":"177","num_nodes":"25","size_leaf_vector":"1"}},{"base_weights":[5.260918E-4,-9.895875E-2,1.5173161E-1,-1.0337821E-1,-1.2212492E-3,8.943125E-2,2.6693198E-1,-7.01908E-2,-2.1654025E-3,9.945973E-4,-2.8965209E-2,7.46761E-2,1.19659744E-1,5.520248E-3,2.6146658E-3,-6.4011015E-6,-1.5282995E-3,-8.437551E-4,-6.7708024E-5,1.9130649E-4,1.5399281E-3,1.3621117E-3,2.560282E-3],"categories":[],"categories_nodes":[],"categories_segments":[],"categories_sizes":[],"default_left":[0,0,0,0,0,0,0,0,0,0,0,0,0,0,0,0,0,0,0,0,0,0,0],"id":14,"left_children":[1,3,5,7,9,11,13,15,-1,-1,17,19,21,-1,-1,-1,-1,-1,-1,-1,-1,-1,-1],"loss_changes":[2.1871887E1,3.7818432E-1,4.021783E0,9.82151E-2,6.798637E-2,1.2570357E-1,6.692791E-2,5.293405E-2,0E0,0E0,9.771019E-3,3.710842E-2,6.799698E-3,0E0,0E0,0E0,0E0,0E0,0E0,0E0,0E0,0E0,0E0],"parents":[2147483647,0,0,1,1,2,2,3,3,4,4,5,5,6,6,7,7,10,10,11,11,12,12],"right_children":[2,4,6,8,10,12,14,16,-1,-1,18,20,22,-1,-1,-1,-1,-1,-1,-1,-1,-1,-1],"split_conditions":[1.7931104E-1,2.931713E1,3.8635206E-1,2.3840997E2,3.922989E-1,2.7609026E-1,8.0165425E-3,4.3187967E-1,-2.1654025E-3,9.945973E-4,2.2989333E2,-2.1470515E-2,-3.4125778E-4,5.520248E-3,2.6146658E-3,-6.4011015E-6,-1.5282995E-3,-8.437551E-4,-6.7708024E-5,1.9130649E-4,1.5399281E-3,1.3621117E-3,2.560282E-3],"split_indices":[16,22,16,29,14,16,156,14,0,0,29,163,152,0,0,0,0,0,0,0,0,0,0],"split_type":[0,0,0,0,0,0,0,0,0,0,0,0,0,0,0,0,0,0,0,0,0,0,0],"sum_hessian":[1.444E3,8.72E2,5.72E2,8.34E2,3.8E1,3.77E2,1.95E2,1.17E2,7.17E2,1.2E1,2.6E1,2.65E2,1.12E2,1.78E2,1.7E1,1E1,1.07E2,1.5E1,1.1E1,1E1,2.55E2,2.2E1,9E1],"tree_param":{"num_deleted":"0","num_feature":"177","num_nodes":"23","size_leaf_vector":"1"}},{"base_weights":[5.506631E-4,-9.7000204E-2,1.4881645E-1,-1.01332694E-1,-1.1871578E-3,8.771662E-2,2.617967E-1,-1.0293702E-1,-4.407258E-4,9.80556E-4,-2.8532917E-2,7.9241395E-2,2.8763406E-3,3.5574916E-3,5.608466E-3,-1.5173786E-3,-2.1233025E-3,-8.310988E-4,-6.6777E-5,5.656993E-4,1.622811E-3],"categories":[],"categories_nodes":[],"categories_segments":[],"categories_sizes":[],"default_left":[0,0,0,0,0,0,0,0,0,0,0,0,0,0,0,0,0,0,0,0,0],"id":15,"left_children":[1,3,5,7,9,11,13,15,-1,-1,17,19,-1,-1,-1,-1,-1,-1,-1,-1,-1],"loss_changes":[2.1029724E1,3.634491E-1,3.8682528E0,9.539318E-2,6.604068E-2,1.2464571E-1,6.323624E-2,3.146553E-2,0E0,0E0,9.476682E-3,2.1718264E-2,0E0,0E0,0E0,0E0,0E0,0E0,0E0,0E0,0E0],"parents":[2147483647,0,0,1,1,2,2,3,3,4,4,5,5,6,6,7,7,10,10,11,11],"right_children":[2,4,6,8,10,12,14,16,-1,-1,18,20,-1,-1,-1,-1,-1,-1,-1,-1,-1],"split_conditions":[1.7931104E-1,2.931713E1,3.8635206E-1,7.6491565E-2,3.922989E-1,2.8912598E-1,4.7643107E-1,2.3840997E2,-4.407258E-4,9.80556E-4,2.2989333E2,-2.3249695E-2,2.8763406E-3,3.5574916E-3,5.608466E-3,-1.5173786E-3,-2.1233025E-3,-8.310988E-4,-6.6777E-5,5.656993E-4,1.622811E-3],"split_indices":[16,22,16,16,14,16,16,29,0,0,29,163,0,0,0,0,0,0,0,0,0],"split_type":[0,0,0,0,0,0,0,0,0,0,0,0,0,0,0,0,0,0,0,0,0],"sum_hessian":[1.444E3,8.72E2,5.72E2,8.34E2,3.8E1,3.77E2,1.95E2,8.16E2,1.8E1,1.2E1,2.6E1,3.38E2,3.9E1,4.5E1,1.5E2,1E2,7.16E2,1.5E1,1.1E1,1.5E1,3.23E2],"tree_param":{"num_deleted":"0","num_feature":"177","num_nodes":"21","size_leaf_vector":"1"}},{"base_weights":[5.7496014E-4,-9.5083E-2,1.4596345E-1,-9.9330366E-2,-1.1538025E-3,8.602858E-2,2.5678992E-1,-1.0090046E-1,-4.338274E-4,9.667129E-4,-2.810708E-2,7.768847E-2,2.825351E-3,2.6322603E-1,2.0103327E-3,-1.4884762E-3,-2.081131E-3,-1.4661658E-4,-9.058786E-4,1.6597486E-3,1.0798834E-3,5.643814E-3,3.684882E-3],"categories":[],"categories_nodes":[],"categories_segments":[],"categories_sizes":[],"default_left":[0,0,0,0,0,0,0,0,0,0,0,0,0,0,0,0,0,0,0,0,0,0,0],"id":16,"left_children":[1,3,5,7,9,11,13,15,-1,-1,17,19,-1,21,-1,-1,-1,-1,-1,-1,-1,-1,-1],"loss_changes":[2.0221455E1,3.49308E-1,3.7221928E0,9.133148E-2,6.415069E-2,1.2111282E-1,6.886482E-2,2.9883385E-2,0E0,0E0,9.409217E-3,2.0661116E-2,0E0,2.3136139E-2,0E0,0E0,0E0,0E0,0E0,0E0,0E0,0E0,0E0],"parents":[2147483647,0,0,1,1,2,2,3,3,4,4,5,5,6,6,7,7,10,10,11,11,13,13],"right_children":[2,4,6,8,10,12,14,16,-1,-1,18,20,-1,22,-1,-1,-1,-1,-1,-1,-1,-1,-1],"split_conditions":[1.7931104E-1,2.931713E1,3.8635206E-1,7.6491565E-2,3.922989E-1,2.8912598E-1,3.3433225E3,2.3840997E2,-4.338274E-4,9.667129E-4,8.124355E-3,4.5179512E1,2.825351E-3,1.4043841E-1,2.0103327E-3,-1.4884762E-3,-2.081131E-3,-1.4661658E-4,-9.058786E-4,1.6597486E-3,1.0798834E-3,5.643814E-3,3.684882E-3],"split_indices":[16,22,16,16,14,16,47,29,0,0,127,87,0,14,0,0,0,0,0,0,0,0,0],"split_type":[0,0,0,0,0,0,0,0,0,0,0,0,0,0,0,0,0,0,0,0,0,0,0],"sum_hessian":[1.444E3,8.72E2,5.72E2,8.34E2,3.8E1,3.77E2,1.95E2,8.16E2,1.8E1,1.2E1,2.6E1,3.38E2,3.9E1,1.84E2,1.1E1,1E2,7.16E2,1.5E1,1.1E1,2.66E2,7.2E1,1.38E2,4.6E1],"tree_param":{"num_deleted":"0","num_feature":"177","num_nodes":"23","size_leaf_vector":"1"}},{"base_weights":[6.076811E-4,-9.320465E-2,1.4319065E-1,-9.7367615E-2,-1.1407044E-3,8.438085E-2,2.519376E-1,-9.8904185E-2,-4.27037E-4,9.530651E-4,-2.77147E-2,6.9256574E-2,1.1168775E-1,2.6065698E-1,2.4429925E-3,-1.4601243E-3,-2.039797E-3,-1.444174E-4,-8.9342287E-4,1.7188657E-4,1.4304046E-3,1.3653005E-3,2.398327E-3,3.8835348E-3,5.6891805E-3],"categories":[],"categories_nodes":[],"categories_segments":[],"categories_sizes":[],"default_left":[0,0,0,0,0,0,0,0,0,0,0,0,0,0,0,0,0,0,0,0,0,0,0,0,0],"id":17,"left_children":[1,3,5,7,9,11,13,15,-1,-1,17,19,21,23,-1,-1,-1,-1,-1,-1,-1,-1,-1,-1,-1],"loss_changes":[1.944861E1,3.355627E-1,3.5838451E0,8.743906E-2,6.2359456E-2,1.19089365E-1,6.7139626E-2,2.8378487E-2,0E0,0E0,9.159757E-3,3.249204E-2,4.804969E-3,1.3395309E-2,0E0,0E0,0E0,0E0,0E0,0E0,0E0,0E0,0E0,0E0,0E0],"parents":[2147483647,0,0,1,1,2,2,3,3,4,4,5,5,6,6,7,7,10,10,11,11,12,12,13,13],"right_children":[2,4,6,8,10,12,14,16,-1,-1,18,20,22,24,-1,-1,-1,-1,-1,-1,-1,-1,-1,-1,-1],"split_conditions":[1.7931104E-1,2.931713E1,3.8635206E-1,7.6491565E-2,3.922989E-1,2.7525252E-1,8.0165425E-3,2.3840997E2,-4.27037E-4,9.530651E-4,8.124355E-3,-1.7245213E-2,-3.4125778E-4,3.0465553E1,2.4429925E-3,-1.4601243E-3,-2.039797E-3,-1.444174E-4,-8.9342287E-4,1.7188657E-4,1.4304046E-3,1.3653005E-3,2.398327E-3,3.8835348E-3,5.6891805E-3],"split_indices":[16,22,16,16,14,16,156,29,0,0,127,163,152,25,0,0,0,0,0,0,0,0,0,0,0],"split_type":[0,0,0,0,0,0,0,0,0,0,0,0,0,0,0,0,0,0,0,0,0,0,0,0,0],"sum_hessian":[1.444E3,8.72E2,5.72E2,8.34E2,3.8E1,3.77E2,1.95E2,8.16E2,1.8E1,1.2E1,2.6E1,2.54E2,1.23E2,1.78E2,1.7E1,1E2,7.16E2,1.5E1,1.1E1,1E1,2.44E2,2.7E1,9.6E1,5.9E1,1.19E2],"tree_param":{"num_deleted":"0","num_feature":"177","num_nodes":"25","size_leaf_vector":"1"}},{"base_weights":[6.416628E-4,-8.936653E-2,1.4022769E-1,-1.3197191E-2,-9.707214E-2,9.108199E-2,2.3461136E-1,-3.6775872E-2,1.4997072E-3,-1.4263453E-3,-2.0013829E-3,7.589957E-2,1.915457E-1,2.4703266E-1,1.130071E-3,4.2291748E-4,-1.0266063E-3,2.717753E-4,1.5632411E-3,1.2311616E-3,4.367176E-3,5.1650507E-3,1.7035785E-3],"categories":[],"categories_nodes":[],"categories_segments":[],"categories_sizes":[],"default_left":[0,0,0,0,0,0,0,0,0,0,0,0,0,0,0,0,0,0,0,0,0,0,0],"id":18,"left_children":[1,3,5,7,9,11,13,15,-1,-1,-1,17,19,21,-1,-1,-1,-1,-1,-1,-1,-1,-1],"loss_changes":[1.8267729E1,5.1244164E-1,2.5371304E0,1.9468114E-1,2.6221275E-2,5.1149154E-1,3.5497665E-1,6.6124484E-2,0E0,0E0,0E0,4.2762876E-2,9.660387E-2,2.1325588E-1,0E0,0E0,0E0,0E0,0E0,0E0,0E0,0E0,0E0],"parents":[2147483647,0,0,1,1,2,2,3,3,4,4,5,5,6,6,7,7,11,11,12,12,13,13],"right_children":[2,4,6,8,10,12,14,16,-1,-1,-1,18,20,22,-1,-1,-1,-1,-1,-1,-1,-1,-1],"split_conditions":[2.9416914E1,4.4897816E-1,4.5688828E1,1.048685E3,1.4080915E1,3.0465553E1,3.0626547E1,-4.202131E1,1.4997072E-3,-1.4263453E-3,-2.0013829E-3,8.85949E-4,4.368058E1,2.1750441E-1,1.130071E-3,4.2291748E-4,-1.0266063E-3,2.717753E-4,1.5632411E-3,1.2311616E-3,4.367176E-3,5.1650507E-3,1.7035785E-3],"split_indices":[22,14,37,97,21,25,23,40,0,0,0,125,136,14,0,0,0,0,0,0,0,0,0],"split_type":[0,0,0,0,0,0,0,0,0,0,0,0,0,0,0,0,0,0,0,0,0,0,0],"sum_hessian":[1.444E3,8.79E2,5.65E2,8.2E1,7.97E2,3.78E2,1.87E2,6.7E1,1.5E1,9.6E1,7.01E2,3.36E2,4.2E1,1.73E2,1.4E1,1.3E1,5.4E1,1.3E1,3.23E2,1E1,3.2E1,1.59E2,1.4E1],"tree_param":{"num_deleted":"0","num_feature":"177","num_nodes":"23","size_leaf_vector":"1"}},{"base_weights":[6.733457E-4,-8.95795E-2,1.3784559E-1,-9.359124E-2,-8.876951E-4,8.1192836E-2,2.426062E-1,-9.505898E-2,-4.1707058E-4,9.2901353E-4,-2.6704272E-2,7.315139E-2,2.6930629E-3,2.5102583E-1,2.3486475E-3,-1.4063106E-3,-1.9600636E-3,-1.3040115E-4,-8.7178906E-4,1.5428934E-3,9.0455957E-4,3.6959744E-3,5.4730484E-3],"categories":[],"categories_nodes":[],"categories_segments":[],"categories_sizes":[],"default_left":[0,0,0,0,0,0,0,0,0,0,0,0,0,0,0,0,0,0,0,0,0,0,0],"id":19,"left_children":[1,3,5,7,9,11,13,15,-1,-1,17,19,-1,21,-1,-1,-1,-1,-1,-1,-1,-1,-1],"loss_changes":[1.800063E1,3.1162882E-1,3.3259916E0,7.965994E-2,5.875309E-2,1.1497116E-1,6.338978E-2,2.5353909E-2,0E0,0E0,9.144209E-3,2.0800948E-2,0E0,2.1371841E-2,0E0,0E0,0E0,0E0,0E0,0E0,0E0,0E0,0E0],"parents":[2147483647,0,0,1,1,2,2,3,3,4,4,5,5,6,6,7,7,10,10,11,11,13,13],"right_children":[2,4,6,8,10,12,14,16,-1,-1,18,20,-1,22,-1,-1,-1,-1,-1,-1,-1,-1,-1],"split_conditions":[1.7931104E-1,2.931713E1,3.8635206E-1,7.6491565E-2,3.922989E-1,2.8912598E-1,8.0165425E-3,2.3840997E2,-4.1707058E-4,9.2901353E-4,8.124355E-3,9.269873E2,2.6930629E-3,5.059203E-1,2.3486475E-3,-1.4063106E-3,-1.9600636E-3,-1.3040115E-4,-8.7178906E-4,1.5428934E-3,9.0455957E-4,3.6959744E-3,5.4730484E-3],"split_indices":[16,22,16,16,14,16,156,29,0,0,127,95,0,16,0,0,0,0,0,0,0,0,0],"split_type":[0,0,0,0,0,0,0,0,0,0,0,0,0,0,0,0,0,0,0,0,0,0,0],"sum_hessian":[1.444E3,8.72E2,5.72E2,8.34E2,3.8E1,3.77E2,1.95E2,8.16E2,1.8E1,1.2E1,2.6E1,3.38E2,3.9E1,1.78E2,1.7E1,1E2,7.16E2,1.5E1,1.1E1,2.88E2,5E1,5.7E1,1.21E2],"tree_param":{"num_deleted":"0","num_feature":"177","num_nodes":"23","size_leaf_vector":"1"}},{"base_weights":[7.0405146E-4,-8.7809905E-2,1.3523303E-1,-9.174197E-2,-8.784495E-4,7.963627E-2,2.3804201E-1,-9.31783E-2,-4.1054256E-4,9.1589807E-4,-2.6331829E-2,6.505951E-2,1.0602062E-1,2.4405083E-1,1.8534953E-3,-1.3795237E-3,-1.9211341E-3,-8.810124E-5,-8.18884E-4,1.3963654E-4,1.3450352E-3,1.6998531E-3,2.6064995E-3,3.117558E-3,5.154134E-3],"categories":[],"categories_nodes":[],"categories_segments":[],"categories_sizes":[],"default_left":[0,0,0,0,0,0,0,0,0,0,0,0,0,0,0,0,0,0,0,0,0,0,0,0,0],"id":20,"left_children":[1,3,5,7,9,11,13,15,-1,-1,17,19,21,23,-1,-1,-1,-1,-1,-1,-1,-1,-1,-1,-1],"loss_changes":[1.7313618E1,2.9937363E-1,3.2032595E0,7.6256275E-2,5.7113092E-2,1.1242819E-1,6.1610222E-2,2.4065495E-2,0E0,0E0,9.030655E-3,3.0628324E-2,1.0033846E-2,2.6717186E-2,0E0,0E0,0E0,0E0,0E0,0E0,0E0,0E0,0E0,0E0,0E0],"parents":[2147483647,0,0,1,1,2,2,3,3,4,4,5,5,6,6,7,7,10,10,11,11,12,12,13,13],"right_children":[2,4,6,8,10,12,14,16,-1,-1,18,20,22,24,-1,-1,-1,-1,-1,-1,-1,-1,-1,-1,-1],"split_conditions":[1.7931104E-1,2.931713E1,3.8635206E-1,7.6491565E-2,3.922989E-1,2.7525252E-1,3.3433225E3,2.3840997E2,-4.1054256E-4,9.1589807E-4,2.5061921E3,-1.7245213E-2,3.0453402E1,4.5667776E-1,1.8534953E-3,-1.3795237E-3,-1.9211341E-3,-8.810124E-5,-8.18884E-4,1.3963654E-4,1.3450352E-3,1.6998531E-3,2.6064995E-3,3.117558E-3,5.154134E-3],"split_indices":[16,22,16,16,14,16,47,29,0,0,39,163,81,16,0,0,0,0,0,0,0,0,0,0,0],"split_type":[0,0,0,0,0,0,0,0,0,0,0,0,0,0,0,0,0,0,0,0,0,0,0,0,0],"sum_hessian":[1.444E3,8.72E2,5.72E2,8.34E2,3.8E1,3.77E2,1.95E2,8.16E2,1.8E1,1.2E1,2.6E1,2.54E2,1.23E2,1.84E2,1.1E1,1E2,7.16E2,1.3E1,1.3E1,1E1,2.44E2,7.8E1,4.5E1,3.3E1,1.51E2],"tree_param":{"num_deleted":"0","num_feature":"177","num_nodes":"25","size_leaf_vector":"1"}},{"base_weights":[7.321153E-4,-8.417189E-2,1.3240138E-1,-1.2267782E-2,-9.14472E-2,7.340726E-2,2.0486817E-1,-3.4898076E-2,1.4453644E-3,-1.3480906E-3,-1.8847816E-3,9.3472995E-2,6.2263396E-2,2.2280452E-1,1.557671E-3,4.1257497E-4,-9.7762E-4,2.5528653E-3,1.5700525E-3,6.298142E-4,1.328671E-3,4.64267E-3,8.735915E-4],"categories":[],"categories_nodes":[],"categories_segments":[],"categories_sizes":[],"default_left":[0,0,0,0,0,0,0,0,0,0,0,0,0,0,0,0,0,0,0,0,0,0,0],"id":21,"left_children":[1,3,5,7,9,11,13,15,-1,-1,-1,17,19,21,-1,-1,-1,-1,-1,-1,-1,-1,-1],"loss_changes":[1.6254454E1,4.5683336E-1,2.3616219E0,1.7904763E-1,2.2072792E-2,4.290259E-2,4.894781E-1,6.0944535E-2,0E0,0E0,0E0,3.6101341E-3,1.8028378E-2,3.152647E-1,0E0,0E0,0E0,0E0,0E0,0E0,0E0,0E0,0E0],"parents":[2147483647,0,0,1,1,2,2,3,3,4,4,5,5,6,6,7,7,11,11,12,12,13,13],"right_children":[2,4,6,8,10,12,14,16,-1,-1,-1,18,20,22,-1,-1,-1,-1,-1,-1,-1,-1,-1],"split_conditions":[2.9416914E1,4.4897816E-1,1.582355E-2,1.048685E3,1.4080915E1,3.3513994E3,8.99655E0,-4.202131E1,1.4453644E-3,-1.3480906E-3,-1.8847816E-3,-8.165547E-3,3.0032259E1,2.4264735E-1,1.557671E-3,4.1257497E-4,-9.7762E-4,2.5528653E-3,1.5700525E-3,6.298142E-4,1.328671E-3,4.64267E-3,8.735915E-4],"split_indices":[22,14,27,97,21,47,143,40,0,0,0,163,74,14,0,0,0,0,0,0,0,0,0],"split_type":[0,0,0,0,0,0,0,0,0,0,0,0,0,0,0,0,0,0,0,0,0,0,0],"sum_hessian":[1.444E3,8.79E2,5.65E2,8.2E1,7.97E2,3.17E2,2.48E2,6.7E1,1.5E1,9.6E1,7.01E2,1E2,2.17E2,2.14E2,3.4E1,1.3E1,5.4E1,1.9E1,8.1E1,3.1E1,1.86E2,2.02E2,1.2E1],"tree_param":{"num_deleted":"0","num_feature":"177","num_nodes":"23","size_leaf_vector":"1"}},{"base_weights":[7.547495E-4,-8.4404305E-2,1.3018407E-1,-8.818411E-2,-8.3964714E-4,7.667989E-2,2.2912244E-1,-8.955566E-2,-4.0111158E-4,8.8197767E-4,-2.534793E-2,6.894756E-2,1.2824334E-1,1.7194174E-1,5.0785914E-3,-1.3286795E-3,-1.8460368E-3,-1.1223512E-4,-8.4193837E-4,4.5050966E-4,1.4145428E-3,1.1743422E-3,2.8504445E-3,1.0864197E-3,3.7129568E-3],"categories":[],"categories_nodes":[],"categories_segments":[],"categories_sizes":[],"default_left":[0,0,0,0,0,0,0,0,0,0,0,0,0,0,0,0,0,0,0,0,0,0,0,0,0],"id":22,"left_children":[1,3,5,7,9,11,13,15,-1,-1,17,19,21,23,-1,-1,-1,-1,-1,-1,-1,-1,-1,-1,-1],"loss_changes":[1.6025932E1,2.7663803E-1,2.9665718E0,6.941652E-2,5.2947823E-2,1.0809541E-1,6.5392494E-2,2.1471024E-2,0E0,0E0,9.066204E-3,2.0370126E-2,1.8388629E-3,7.2098255E-2,0E0,0E0,0E0,0E0,0E0,0E0,0E0,0E0,0E0,0E0,0E0],"parents":[2147483647,0,0,1,1,2,2,3,3,4,4,5,5,6,6,7,7,10,10,11,11,12,12,13,13],"right_children":[2,4,6,8,10,12,14,16,-1,-1,18,20,22,24,-1,-1,-1,-1,-1,-1,-1,-1,-1,-1,-1],"split_conditions":[1.7931104E-1,2.931713E1,3.8635206E-1,7.6491565E-2,3.922989E-1,2.8912598E-1,3.0465553E1,2.3840997E2,-4.0111158E-4,8.8197767E-4,8.124355E-3,-2.3249695E-2,-1.8136305E-4,3.9192043E1,5.0785914E-3,-1.3286795E-3,-1.8460368E-3,-1.1223512E-4,-8.4193837E-4,4.5050966E-4,1.4145428E-3,1.1743422E-3,2.8504445E-3,1.0864197E-3,3.7129568E-3],"split_indices":[16,22,16,16,14,16,25,29,0,0,127,163,152,35,0,0,0,0,0,0,0,0,0,0,0],"split_type":[0,0,0,0,0,0,0,0,0,0,0,0,0,0,0,0,0,0,0,0,0,0,0,0,0],"sum_hessian":[1.444E3,8.72E2,5.72E2,8.34E2,3.8E1,3.77E2,1.95E2,8.16E2,1.8E1,1.2E1,2.6E1,3.38E2,3.9E1,7.1E1,1.24E2,1E2,7.16E2,1.5E1,1.1E1,1.5E1,3.23E2,1.1E1,2.8E1,1E1,6.1E1],"tree_param":{"num_deleted":"0","num_feature":"177","num_nodes":"25","size_leaf_vector":"1"}},{"base_weights":[7.8147807E-4,-8.273702E-2,1.2771703E-1,-8.644174E-2,-8.3124917E-4,7.5223394E-2,2.2478695E-1,-8.7981984E-2,-2.6118642E-2,8.695261E-4,-2.4994867E-2,6.75958E-2,1.2613584E-1,2.3286232E-1,2.130532E-3,-1.3130872E-3,-1.8093721E-3,-1.6489079E-5,-7.988391E-4,-8.101056E-4,-9.079069E-5,1.45019E-3,9.1825565E-4,1.158195E-3,2.8020733E-3,3.4083223E-3,5.086985E-3],"categories":[],"categories_nodes":[],"categories_segments":[],"categories_sizes":[],"default_left":[0,0,0,0,0,0,0,0,0,0,0,0,0,0,0,0,0,0,0,0,0,0,0,0,0,0,0],"id":23,"left_children":[1,3,5,7,9,11,13,15,17,-1,19,21,23,25,-1,-1,-1,-1,-1,-1,-1,-1,-1,-1,-1,-1,-1],"loss_changes":[1.541436E1,2.6575613E-1,2.855588E0,6.646347E-2,5.1470548E-2,1.0571432E-1,6.696892E-2,1.5606403E-2,9.625534E-3,0E0,8.916013E-3,1.989901E-2,1.3638139E-3,2.8819084E-2,0E0,0E0,0E0,0E0,0E0,0E0,0E0,0E0,0E0,0E0,0E0,0E0,0E0],"parents":[2147483647,0,0,1,1,2,2,3,3,4,4,5,5,6,6,7,7,8,8,10,10,11,11,12,12,13,13],"right_children":[2,4,6,8,10,12,14,16,18,-1,20,22,24,26,-1,-1,-1,-1,-1,-1,-1,-1,-1,-1,-1,-1,-1],"split_conditions":[1.7931104E-1,2.931713E1,3.8635206E-1,7.112402E-2,3.922989E-1,2.8912598E-1,8.0165425E-3,2.3840997E2,2.5115464E3,8.695261E-4,2.2932242E2,4.5179512E1,-1.8136305E-4,5.059203E-1,2.130532E-3,-1.3130872E-3,-1.8093721E-3,-1.6489079E-5,-7.988391E-4,-8.101056E-4,-9.079069E-5,1.45019E-3,9.1825565E-4,1.158195E-3,2.8020733E-3,3.4083223E-3,5.086985E-3],"split_indices":[16,22,16,16,14,16,156,29,114,0,29,87,152,16,0,0,0,0,0,0,0,0,0,0,0,0,0],"split_type":[0,0,0,0,0,0,0,0,0,0,0,0,0,0,0,0,0,0,0,0,0,0,0,0,0,0,0],"sum_hessian":[1.444E3,8.72E2,5.72E2,8.34E2,3.8E1,3.77E2,1.95E2,8.11E2,2.3E1,1.2E1,2.6E1,3.38E2,3.9E1,1.78E2,1.7E1,9.5E1,7.16E2,1E1,1.3E1,1.2E1,1.4E1,2.66E2,7.2E1,1.1E1,2.8E1,5.7E1,1.21E2],"tree_param":{"num_deleted":"0","num_feature":"177","num_nodes":"27","size_leaf_vector":"1"}},{"base_weights":[8.106565E-4,-8.1104904E-2,1.253096E-1,-8.473637E-2,-8.1827247E-4,7.3801756E-2,2.2055686E-1,-8.6050056E-2,-3.8845246E-4,8.986205E-4,-2.3565067E-2,5.993146E-2,9.8984554E-2,2.9556113E-3,2.3691835E-1,-1.2789988E-3,-1.7734356E-3,-9.194863E-5,-8.219201E-4,1.0591805E-4,1.2403864E-3,1.5788068E-3,2.44719E-3,1.9354251E-3,4.8649344E-3],"categories":[],"categories_nodes":[],"categories_segments":[],"categories_sizes":[],"default_left":[0,0,0,0,0,0,0,0,0,0,0,0,0,0,0,0,0,0,0,0,0,0,0,0,0],"id":24,"left_children":[1,3,5,7,9,11,13,15,-1,-1,17,19,21,-1,23,-1,-1,-1,-1,-1,-1,-1,-1,-1,-1],"loss_changes":[1.48283E1,2.5534964E-1,2.749364E0,6.363106E-2,5.0041962E-2,1.0376859E-1,6.308651E-2,1.9216537E-2,0E0,0E0,9.695975E-3,2.7902186E-2,1.167655E-2,0E0,1.9773483E-2,0E0,0E0,0E0,0E0,0E0,0E0,0E0,0E0,0E0,0E0],"parents":[2147483647,0,0,1,1,2,2,3,3,4,4,5,5,6,6,7,7,10,10,11,11,12,12,14,14],"right_children":[2,4,6,8,10,12,14,16,-1,-1,18,20,22,-1,24,-1,-1,-1,-1,-1,-1,-1,-1,-1,-1],"split_conditions":[1.7931104E-1,2.931713E1,3.8635206E-1,7.6491565E-2,3.8839445E-1,2.7525252E-1,4.7643107E-1,2.3840997E2,-3.8845246E-4,8.986205E-4,8.124355E-3,-1.7245213E-2,3.0453402E1,2.9556113E-3,-3.927751E-2,-1.2789988E-3,-1.7734356E-3,-9.194863E-5,-8.219201E-4,1.0591805E-4,1.2403864E-3,1.5788068E-3,2.44719E-3,1.9354251E-3,4.8649344E-3],"split_indices":[16,22,16,16,45,16,16,29,0,0,127,163,81,0,165,0,0,0,0,0,0,0,0,0,0],"split_type":[0,0,0,0,0,0,0,0,0,0,0,0,0,0,0,0,0,0,0,0,0,0,0,0,0],"sum_hessian":[1.444E3,8.72E2,5.72E2,8.34E2,3.8E1,3.77E2,1.95E2,8.16E2,1.8E1,1.1E1,2.7E1,2.54E2,1.23E2,4.5E1,1.5E2,1E2,7.16E2,1.6E1,1.1E1,1E1,2.44E2,7.8E1,4.5E1,1E1,1.4E2],"tree_param":{"num_deleted":"0","num_feature":"177","num_nodes":"25","size_leaf_vector":"1"}},{"base_weights":[8.347182E-4,-7.9502515E-2,1.2293451E-1,-8.306216E-2,-8.036766E-4,7.239604E-2,2.1638963E-1,-8.434765E-2,-3.8237235E-4,8.457295E-4,-2.4304133E-2,6.4960726E-2,1.22130886E-1,2.2420327E-1,2.0442957E-3,-1.2546369E-3,-1.7382128E-3,-6.620498E-5,-7.709374E-4,1.3736605E-3,7.84509E-4,1.1140483E-3,2.716679E-3,3.2966014E-3,4.916141E-3],"categories":[],"categories_nodes":[],"categories_segments":[],"categories_sizes":[],"default_left":[0,0,0,0,0,0,0,0,0,0,0,0,0,0,0,0,0,0,0,0,0,0,0,0,0],"id":25,"left_children":[1,3,5,7,9,11,13,15,-1,-1,17,19,21,23,-1,-1,-1,-1,-1,-1,-1,-1,-1,-1,-1],"loss_changes":[1.426234E1,2.4534798E-1,2.6468878E0,6.090212E-2,4.8682123E-2,1.0159302E-1,6.383991E-2,1.8224716E-2,0E0,0E0,8.6313225E-3,1.9386888E-2,2.2206903E-3,3.2149315E-2,0E0,0E0,0E0,0E0,0E0,0E0,0E0,0E0,0E0,0E0,0E0],"parents":[2147483647,0,0,1,1,2,2,3,3,4,4,5,5,6,6,7,7,10,10,11,11,12,12,13,13],"right_children":[2,4,6,8,10,12,14,16,-1,-1,18,20,22,24,-1,-1,-1,-1,-1,-1,-1,-1,-1,-1,-1],"split_conditions":[1.7931104E-1,2.931713E1,3.8635206E-1,7.6491565E-2,3.922989E-1,2.8912598E-1,8.0165425E-3,2.3840997E2,-3.8237235E-4,8.457295E-4,2.5061921E3,9.269873E2,-1.8136305E-4,3.0465553E1,2.0442957E-3,-1.2546369E-3,-1.7382128E-3,-6.620498E-5,-7.709374E-4,1.3736605E-3,7.84509E-4,1.1140483E-3,2.716679E-3,3.2966014E-3,4.916141E-3],"split_indices":[16,22,16,16,14,16,156,29,0,0,39,95,152,25,0,0,0,0,0,0,0,0,0,0,0],"split_type":[0,0,0,0,0,0,0,0,0,0,0,0,0,0,0,0,0,0,0,0,0,0,0,0,0],"sum_hessian":[1.444E3,8.72E2,5.72E2,8.34E2,3.8E1,3.77E2,1.95E2,8.16E2,1.8E1,1.2E1,2.6E1,3.38E2,3.9E1,1.78E2,1.7E1,1E2,7.16E2,1.3E1,1.3E1,2.88E2,5E1,1.1E1,2.8E1,5.9E1,1.19E2],"tree_param":{"num_deleted":"0","num_feature":"177","num_nodes":"25","size_leaf_vector":"1"}},{"base_weights":[8.624659E-4,-7.793166E-2,1.206166E-1,-8.1421025E-2,-7.8660354E-4,7.1026504E-2,2.1231826E-1,-8.286521E-2,-2.4793895E-2,8.337897E-4,-2.3953073E-2,6.3692965E-2,1.2012358E-1,2.1994361E-1,2.0127022E-3,-1.2399993E-3,-1.7036897E-3,-7.919998E-4,-2.6286505E-5,-1.0041637E-4,-8.0266106E-4,3.9462323E-4,1.3080527E-3,1.0987301E-3,2.6705777E-3,3.2358202E-3,4.821783E-3],"categories":[],"categories_nodes":[],"categories_segments":[],"categories_sizes":[],"default_left":[0,0,0,0,0,0,0,0,0,0,0,0,0,0,0,0,0,0,0,0,0,0,0,0,0,0,0],"id":26,"left_children":[1,3,5,7,9,11,13,15,17,-1,19,21,23,25,-1,-1,-1,-1,-1,-1,-1,-1,-1,-1,-1,-1,-1],"loss_changes":[1.371965E1,2.3575687E-1,2.548503E0,5.8341026E-2,4.730586E-2,9.928596E-2,5.9654236E-2,1.3081074E-2,9.473706E-3,0E0,8.488523E-3,1.9327521E-2,1.77145E-3,2.9997826E-2,0E0,0E0,0E0,0E0,0E0,0E0,0E0,0E0,0E0,0E0,0E0,0E0,0E0],"parents":[2147483647,0,0,1,1,2,2,3,3,4,4,5,5,6,6,7,7,8,8,10,10,11,11,12,12,13,13],"right_children":[2,4,6,8,10,12,14,16,18,-1,20,22,24,26,-1,-1,-1,-1,-1,-1,-1,-1,-1,-1,-1,-1,-1],"split_conditions":[1.7931104E-1,2.931713E1,3.8635206E-1,7.112402E-2,3.922989E-1,2.8912598E-1,8.0165425E-3,2.3840997E2,9.8697644E2,8.337897E-4,8.124355E-3,-2.3249695E-2,-1.8136305E-4,3.0465553E1,2.0127022E-3,-1.2399993E-3,-1.7036897E-3,-7.919998E-4,-2.6286505E-5,-1.0041637E-4,-8.0266106E-4,3.9462323E-4,1.3080527E-3,1.0987301E-3,2.6705777E-3,3.2358202E-3,4.821783E-3],"split_indices":[16,22,16,16,14,16,156,29,146,0,127,163,152,25,0,0,0,0,0,0,0,0,0,0,0,0,0],"split_type":[0,0,0,0,0,0,0,0,0,0,0,0,0,0,0,0,0,0,0,0,0,0,0,0,0,0,0],"sum_hessian":[1.444E3,8.72E2,5.72E2,8.34E2,3.8E1,3.77E2,1.95E2,8.11E2,2.3E1,1.2E1,2.6E1,3.38E2,3.9E1,1.78E2,1.7E1,9.5E1,7.16E2,1.2E1,1.1E1,1.5E1,1.1E1,1.5E1,3.23E2,1.1E1,2.8E1,5.9E1,1.19E2],"tree_param":{"num_deleted":"0","num_feature":"177","num_nodes":"27","size_leaf_vector":"1"}},{"base_weights":[8.8562636E-4,-7.639487E-2,1.1833895E-1,-7.981502E-2,-7.789279E-4,6.96776E-2,2.0832366E-1,-8.1046686E-2,-3.6998338E-4,8.631711E-4,-2.2625962E-2,5.626855E-2,9.408819E-2,2.7837725E-3,2.2390516E-1,-1.2078384E-3,-1.6698523E-3,-7.732477E-4,-6.677027E-5,8.163492E-5,1.1656488E-3,1.4957532E-3,2.3343647E-3,1.8110522E-3,4.5995875E-3],"categories":[],"categories_nodes":[],"categories_segments":[],"categories_sizes":[],"default_left":[0,0,0,0,0,0,0,0,0,0,0,0,0,0,0,0,0,0,0,0,0,0,0,0,0],"id":27,"left_children":[1,3,5,7,9,11,13,15,-1,-1,17,19,21,-1,23,-1,-1,-1,-1,-1,-1,-1,-1,-1,-1],"loss_changes":[1.3197559E1,2.2649717E-1,2.4539785E0,5.5865288E-2,4.6158385E-2,9.8566175E-2,5.9620857E-2,1.6265392E-2,0E0,0E0,9.25228E-3,2.6031137E-2,1.2261391E-2,0E0,2.14262E-2,0E0,0E0,0E0,0E0,0E0,0E0,0E0,0E0,0E0,0E0],"parents":[2147483647,0,0,1,1,2,2,3,3,4,4,5,5,6,6,7,7,10,10,11,11,12,12,14,14],"right_children":[2,4,6,8,10,12,14,16,-1,-1,18,20,22,-1,24,-1,-1,-1,-1,-1,-1,-1,-1,-1,-1],"split_conditions":[1.7931104E-1,2.931713E1,3.8635206E-1,7.6491565E-2,3.8839445E-1,2.7525252E-1,4.7643107E-1,2.3840997E2,-3.6998338E-4,8.631711E-4,2.2932242E2,-1.7245213E-2,3.0453402E1,2.7837725E-3,-3.927751E-2,-1.2078384E-3,-1.6698523E-3,-7.732477E-4,-6.677027E-5,8.163492E-5,1.1656488E-3,1.4957532E-3,2.3343647E-3,1.8110522E-3,4.5995875E-3],"split_indices":[16,22,16,16,45,16,16,29,0,0,29,163,81,0,165,0,0,0,0,0,0,0,0,0,0],"split_type":[0,0,0,0,0,0,0,0,0,0,0,0,0,0,0,0,0,0,0,0,0,0,0,0,0],"sum_hessian":[1.444E3,8.72E2,5.72E2,8.34E2,3.8E1,3.77E2,1.95E2,8.16E2,1.8E1,1.1E1,2.7E1,2.54E2,1.23E2,4.5E1,1.5E2,1E2,7.16E2,1.2E1,1.5E1,1E1,2.44E2,7.8E1,4.5E1,1E1,1.4E2],"tree_param":{"num_deleted":"0","num_feature":"177","num_nodes":"25","size_leaf_vector":"1"}},{"base_weights":[9.060346E-4,-7.423404E-2,1.1709545E-1,-1.4465477E-2,-7.913212E-2,6.910663E-2,2.0438704E-1,9.583735E-3,-1.3112512E-3,-5.816082E-2,-1.6384866E-3,6.1918378E-2,1.16309054E-1,2.0980866E-1,1.5294631E-3,1.1457658E-3,-2.1732342E-4,-6.372528E-4,-1.2356316E-3,1.2785883E-3,4.474496E-4,1.0567663E-3,2.5892034E-3,4.5141773E-3,2.8931247E-3],"categories":[],"categories_nodes":[],"categories_segments":[],"categories_sizes":[],"default_left":[0,0,0,0,0,0,0,0,0,0,0,0,0,0,0,0,0,0,0,0,0,0,0,0,0],"id":28,"left_children":[1,3,5,7,9,11,13,15,-1,17,-1,19,21,23,-1,-1,-1,-1,-1,-1,-1,-1,-1,-1,-1],"loss_changes":[1.2693929E1,2.5277615E-1,2.3213081E0,9.284733E-2,2.3899555E-2,9.156954E-2,5.84774E-2,5.579242E-2,0E0,9.171963E-4,0E0,1.9649744E-2,2.5250316E-3,3.254032E-2,0E0,0E0,0E0,0E0,0E0,0E0,0E0,0E0,0E0,0E0,0E0],"parents":[2147483647,0,0,1,1,2,2,3,3,4,4,5,5,6,6,7,7,9,9,11,11,12,12,13,13],"right_children":[2,4,6,8,10,12,14,16,-1,18,-1,20,22,24,-1,-1,-1,-1,-1,-1,-1,-1,-1,-1,-1],"split_conditions":[2.202878E-1,4.382087E-1,3.8635206E-1,2.3840997E2,1.436546E1,2.8912598E-1,3.3433225E3,3.6872545E-1,-1.3112512E-3,4.5192328E-1,-1.6384866E-3,8.301022E-3,-1.8136305E-4,1.4043841E-1,1.5294631E-3,1.1457658E-3,-2.1732342E-4,-6.372528E-4,-1.2356316E-3,1.2785883E-3,4.474496E-4,1.0567663E-3,2.5892034E-3,4.5141773E-3,2.8931247E-3],"split_indices":[16,14,16,29,21,16,47,14,0,60,0,161,152,14,0,0,0,0,0,0,0,0,0,0,0],"split_type":[0,0,0,0,0,0,0,0,0,0,0,0,0,0,0,0,0,0,0,0,0,0,0,0,0],"sum_hessian":[1.444E3,8.78E2,5.66E2,6.8E1,8.1E2,3.71E2,1.95E2,4.9E1,1.9E1,1.08E2,7.02E2,3.32E2,3.9E1,1.84E2,1.1E1,1.2E1,3.7E1,1.9E1,8.9E1,3.13E2,1.9E1,1.1E1,2.8E1,1.38E2,4.6E1],"tree_param":{"num_deleted":"0","num_feature":"177","num_nodes":"25","size_leaf_vector":"1"}},{"base_weights":[9.238492E-4,-7.34111E-2,1.13899805E-1,-7.6703794E-2,-6.29003E-4,6.000633E-2,1.88862E-1,-7.788607E-2,-3.5654265E-4,8.4236375E-4,-2.1904318E-2,6.465864E-2,3.9736092E-2,1.3188519E-1,2.154854E-1,-1.1635743E-3,-1.6043189E-3,-7.85905E-5,-7.730226E-4,2.7589878E-4,1.3309055E-3,1.1296388E-4,8.9979026E-4,7.7571755E-4,2.824302E-3,4.464015E-3,2.030455E-3],"categories":[],"categories_nodes":[],"categories_segments":[],"categories_sizes":[],"default_left":[0,0,0,0,0,0,0,0,0,0,0,0,0,0,0,0,0,0,0,0,0,0,0,0,0,0,0],"id":29,"left_children":[1,3,5,7,9,11,13,15,-1,-1,17,19,21,23,25,-1,-1,-1,-1,-1,-1,-1,-1,-1,-1,-1,-1],"loss_changes":[1.2210599E1,2.0993137E-1,2.2744007E0,5.1458836E-2,4.3719627E-2,1.949954E-2,2.2044563E-1,1.4362812E-2,0E0,0E0,8.873254E-3,2.141571E-2,1.2518473E-2,4.992044E-2,2.2985458E-2,0E0,0E0,0E0,0E0,0E0,0E0,0E0,0E0,0E0,0E0,0E0,0E0],"parents":[2147483647,0,0,1,1,2,2,3,3,4,4,5,5,6,6,7,7,10,10,11,11,12,12,13,13,14,14],"right_children":[2,4,6,8,10,12,14,16,-1,-1,18,20,22,24,26,-1,-1,-1,-1,-1,-1,-1,-1,-1,-1,-1,-1],"split_conditions":[1.7931104E-1,2.931713E1,2.8912598E-1,7.6491565E-2,3.8839445E-1,4.5179512E1,4.7643107E-1,2.3840997E2,-3.5654265E-4,8.4236375E-4,8.124355E-3,8.85949E-4,-7.482513E-1,3.687561E2,5.8499193E-3,-1.1635743E-3,-1.6043189E-3,-7.85905E-5,-7.730226E-4,2.7589878E-4,1.3309055E-3,1.1296388E-4,8.9979026E-4,7.7571755E-4,2.824302E-3,4.464015E-3,2.030455E-3],"split_indices":[16,22,16,16,45,87,16,29,0,0,127,125,155,57,156,0,0,0,0,0,0,0,0,0,0,0,0],"split_type":[0,0,0,0,0,0,0,0,0,0,0,0,0,0,0,0,0,0,0,0,0,0,0,0,0,0,0],"sum_hessian":[1.444E3,8.72E2,5.72E2,8.34E2,3.8E1,3.38E2,2.34E2,8.16E2,1.8E1,1.1E1,2.7E1,2.66E2,7.2E1,8.4E1,1.5E2,1E2,7.16E2,1.6E1,1.1E1,1.1E1,2.55E2,1.1E1,6.1E1,1E1,7.4E1,1.36E2,1.4E1],"tree_param":{"num_deleted":"0","num_feature":"177","num_nodes":"27","size_leaf_vector":"1"}},{"base_weights":[9.384302E-4,-7.133613E-2,1.12696305E-1,-1.3821646E-2,-7.605009E-2,6.649887E-2,1.9673008E-1,9.451359E-3,-1.2661279E-3,-5.6044277E-2,-1.5741957E-3,5.9536666E-2,1.12266295E-1,1.5472762E-1,2.2406264E-1,1.1246189E-3,-2.1216796E-4,-1.243773E-3,-7.5340347E-4,7.916679E-4,1.2860873E-3,1.008523E-3,2.5047872E-3,1.0441857E-3,3.2743495E-3,1.7941102E-3,4.6602613E-3],"categories":[],"categories_nodes":[],"categories_segments":[],"categories_sizes":[],"default_left":[0,0,0,0,0,0,0,0,0,0,0,0,0,0,0,0,0,0,0,0,0,0,0,0,0,0,0],"id":30,"left_children":[1,3,5,7,9,11,13,15,-1,17,-1,19,21,23,25,-1,-1,-1,-1,-1,-1,-1,-1,-1,-1,-1,-1],"loss_changes":[1.1744133E1,2.3414373E-1,2.1512928E0,8.7062754E-2,2.1309376E-2,8.638954E-2,5.6263447E-2,5.365551E-2,0E0,1.0441244E-3,0E0,1.9332409E-2,3.7225485E-3,4.4816494E-2,2.7768135E-2,0E0,0E0,0E0,0E0,0E0,0E0,0E0,0E0,0E0,0E0,0E0,0E0],"parents":[2147483647,0,0,1,1,2,2,3,3,4,4,5,5,6,6,7,7,9,9,11,11,12,12,13,13,14,14],"right_children":[2,4,6,8,10,12,14,16,-1,18,-1,20,22,24,26,-1,-1,-1,-1,-1,-1,-1,-1,-1,-1,-1,-1],"split_conditions":[2.202878E-1,4.382087E-1,3.8635206E-1,2.3840997E2,1.436546E1,2.8912598E-1,5.169698E-1,3.6872545E-1,-1.2661279E-3,2.9249817E1,-1.5741957E-3,1.4865257E0,-1.8136305E-4,9.596857E2,2.1816016E2,1.1246189E-3,-2.1216796E-4,-1.243773E-3,-7.5340347E-4,7.916679E-4,1.2860873E-3,1.008523E-3,2.5047872E-3,1.0441857E-3,3.2743495E-3,1.7941102E-3,4.6602613E-3],"split_indices":[16,14,16,29,21,16,16,14,0,124,0,1,152,97,29,0,0,0,0,0,0,0,0,0,0,0,0],"split_type":[0,0,0,0,0,0,0,0,0,0,0,0,0,0,0,0,0,0,0,0,0,0,0,0,0,0,0],"sum_hessian":[1.444E3,8.78E2,5.66E2,6.8E1,8.1E2,3.71E2,1.95E2,4.9E1,1.9E1,1.08E2,7.02E2,3.32E2,3.9E1,9E1,1.05E2,1.2E1,3.7E1,7.2E1,3.6E1,7.3E1,2.59E2,1.1E1,2.8E1,1E1,8E1,1E1,9.5E1],"tree_param":{"num_deleted":"0","num_feature":"177","num_nodes":"27","size_leaf_vector":"1"}},{"base_weights":[9.625843E-4,-6.9931634E-2,1.1058567E-1,-7.350523E-2,1.4525375E-3,5.837676E-2,1.8188891E-1,-7.485015E-2,-1.4637146E-2,7.4579753E-4,-2.1172758E-2,6.0336467E-2,4.0497608E-4,1.2708195E-1,2.0749132E-1,-1.1211844E-3,-1.5413524E-3,1.7785988E-4,-6.6576473E-4,-3.555641E-5,-7.152774E-4,8.351856E-4,1.2910855E-3,7.398624E-4,2.7228852E-3,1.6520902E-3,4.2651156E-3],"categories":[],"categories_nodes":[],"categories_segments":[],"categories_sizes":[],"default_left":[0,0,0,0,0,0,0,0,0,0,0,0,0,0,0,0,0,0,0,0,0,0,0,0,0,0,0],"id":31,"left_children":[1,3,5,7,9,11,13,15,17,-1,19,21,-1,23,25,-1,-1,-1,-1,-1,-1,-1,-1,-1,-1,-1,-1],"loss_changes":[1.1299777E1,2.2578573E-1,2.0725508E0,6.110668E-2,4.2056676E-2,1.9071937E-2,2.0352125E-1,1.2608051E-2,1.245173E-2,0E0,8.737889E-3,1.1438251E-2,0E0,4.7478676E-2,2.3505688E-2,0E0,0E0,0E0,0E0,0E0,0E0,0E0,0E0,0E0,0E0,0E0,0E0],"parents":[2147483647,0,0,1,1,2,2,3,3,4,4,5,5,6,6,7,7,8,8,10,10,11,11,13,13,14,14],"right_children":[2,4,6,8,10,12,14,16,18,-1,20,22,-1,24,26,-1,-1,-1,-1,-1,-1,-1,-1,-1,-1,-1,-1],"split_conditions":[2.202878E-1,2.931713E1,2.8912598E-1,7.6491565E-2,3.922989E-1,8.301022E-3,4.7643107E-1,2.3840997E2,2.5083716E3,7.4579753E-4,2.5061921E3,1.4865257E0,4.0497608E-4,3.687561E2,-3.927751E-2,-1.1211844E-3,-1.5413524E-3,1.7785988E-4,-6.6576473E-4,-3.555641E-5,-7.152774E-4,8.351856E-4,1.2910855E-3,7.398624E-4,2.7228852E-3,1.6520902E-3,4.2651156E-3],"split_indices":[16,22,16,16,14,161,16,29,65,0,39,1,0,57,165,0,0,0,0,0,0,0,0,0,0,0,0],"split_type":[0,0,0,0,0,0,0,0,0,0,0,0,0,0,0,0,0,0,0,0,0,0,0,0,0,0,0],"sum_hessian":[1.444E3,8.78E2,5.66E2,8.36E2,4.2E1,3.32E2,2.34E2,8.16E2,2E1,1.5E1,2.7E1,3.13E2,1.9E1,8.4E1,1.5E2,1E2,7.16E2,1E1,1E1,1.4E1,1.3E1,6.8E1,2.45E2,1E1,7.4E1,1E1,1.4E2],"tree_param":{"num_deleted":"0","num_feature":"177","num_nodes":"27","size_leaf_vector":"1"}},{"base_weights":[9.735457E-4,-6.855087E-2,1.08478256E-1,-7.205386E-2,1.4229473E-3,5.7246786E-2,1.7844735E-1,-7.336936E-2,-1.4441986E-2,7.648448E-4,-1.9991638E-2,4.784978E-2,6.846627E-2,1.2473484E-1,2.0353237E-1,-1.5099001E-3,-1.093698E-3,1.7548841E-4,-6.5688795E-4,-5.8146583E-5,-7.447035E-4,3.305849E-4,1.0410977E-3,1.4105208E-3,5.503627E-4,7.2999764E-4,2.6718741E-3,4.2185793E-3,1.9016133E-3],"categories":[],"categories_nodes":[],"categories_segments":[],"categories_sizes":[],"default_left":[0,0,0,0,0,0,0,0,0,0,0,0,0,0,0,0,0,0,0,0,0,0,0,0,0,0,0,0,0],"id":32,"left_children":[1,3,5,7,9,11,13,15,17,-1,19,21,23,25,27,-1,-1,-1,-1,-1,-1,-1,-1,-1,-1,-1,-1,-1,-1],"loss_changes":[1.08673E1,2.1695185E-1,1.9957399E0,5.843973E-2,4.0880714E-2,1.9149303E-2,1.9508505E-1,1.1965275E-2,1.2121899E-2,0E0,9.180326E-3,2.2039056E-2,2.273202E-3,4.5187116E-2,2.4060726E-2,0E0,0E0,0E0,0E0,0E0,0E0,0E0,0E0,0E0,0E0,0E0,0E0,0E0,0E0],"parents":[2147483647,0,0,1,1,2,2,3,3,4,4,5,5,6,6,7,7,8,8,10,10,11,11,12,12,13,13,14,14],"right_children":[2,4,6,8,10,12,14,16,18,-1,20,22,24,26,28,-1,-1,-1,-1,-1,-1,-1,-1,-1,-1,-1,-1,-1,-1],"split_conditions":[2.202878E-1,2.931713E1,2.8912598E-1,7.6491565E-2,3.8839445E-1,2.3422495E-2,4.7643107E-1,1.3956377E-2,2.5083716E3,7.648448E-4,8.124355E-3,3.0032259E1,2.8915077E-2,3.687561E2,5.8499193E-3,-1.5099001E-3,-1.093698E-3,1.7548841E-4,-6.5688795E-4,-5.8146583E-5,-7.447035E-4,3.305849E-4,1.0410977E-3,1.4105208E-3,5.503627E-4,7.2999764E-4,2.6718741E-3,4.2185793E-3,1.9016133E-3],"split_indices":[16,22,16,16,45,14,16,16,65,0,127,74,170,57,156,0,0,0,0,0,0,0,0,0,0,0,0,0,0],"split_type":[0,0,0,0,0,0,0,0,0,0,0,0,0,0,0,0,0,0,0,0,0,0,0,0,0,0,0,0,0],"sum_hessian":[1.444E3,8.78E2,5.66E2,8.36E2,4.2E1,3.32E2,2.34E2,8.16E2,2E1,1.4E1,2.8E1,1.95E2,1.37E2,8.4E1,1.5E2,7.19E2,9.7E1,1E1,1E1,1.7E1,1.1E1,2.6E1,1.69E2,1.27E2,1E1,1E1,7.4E1,1.36E2,1.4E1],"tree_param":{"num_deleted":"0","num_feature":"177","num_nodes":"29","size_leaf_vector":"1"}},{"base_weights":[9.876548E-4,-6.719754E-2,1.06421255E-1,-1.28785195E-2,-7.165067E-2,5.6151297E-2,1.7507762E-1,9.26238E-3,-1.2002503E-3,-5.2988958E-2,-1.4825329E-3,4.692708E-2,6.716599E-2,1.2243127E-1,1.9965914E-1,1.0993938E-3,-2.0681723E-4,-1.1032905E-3,-4.5121353E-4,3.2503967E-4,1.020874E-3,1.3833791E-3,5.430246E-4,7.202644E-4,2.6218188E-3,1.5861718E-3,4.1044876E-3],"categories":[],"categories_nodes":[],"categories_segments":[],"categories_sizes":[],"default_left":[0,0,0,0,0,0,0,0,0,0,0,0,0,0,0,0,0,0,0,0,0,0,0,0,0,0,0],"id":33,"left_children":[1,3,5,7,9,11,13,15,-1,17,-1,19,21,23,25,-1,-1,-1,-1,-1,-1,-1,-1,-1,-1,-1,-1],"loss_changes":[1.0452632E1,2.089746E-1,1.9215679E0,7.8961305E-2,1.8018723E-2,1.84803E-2,1.8707418E-1,5.1226787E-2,0E0,1.2577176E-3,0E0,2.1107763E-2,1.990974E-3,4.2998195E-2,2.2436142E-2,0E0,0E0,0E0,0E0,0E0,0E0,0E0,0E0,0E0,0E0,0E0,0E0],"parents":[2147483647,0,0,1,1,2,2,3,3,4,4,5,5,6,6,7,7,9,9,11,11,12,12,13,13,14,14],"right_children":[2,4,6,8,10,12,14,16,-1,18,-1,20,22,24,26,-1,-1,-1,-1,-1,-1,-1,-1,-1,-1,-1,-1],"split_conditions":[2.202878E-1,4.382087E-1,2.8912598E-1,2.3840997E2,1.436546E1,2.3422495E-2,4.7643107E-1,3.6872545E-1,-1.2002503E-3,2.6123468E1,-1.4825329E-3,3.0032259E1,2.8915077E-2,3.687561E2,-3.927751E-2,1.0993938E-3,-2.0681723E-4,-1.1032905E-3,-4.5121353E-4,3.2503967E-4,1.020874E-3,1.3833791E-3,5.430246E-4,7.202644E-4,2.6218188E-3,1.5861718E-3,4.1044876E-3],"split_indices":[16,14,16,29,21,14,16,14,0,118,0,74,170,57,165,0,0,0,0,0,0,0,0,0,0,0,0],"split_type":[0,0,0,0,0,0,0,0,0,0,0,0,0,0,0,0,0,0,0,0,0,0,0,0,0,0,0],"sum_hessian":[1.444E3,8.78E2,5.66E2,6.8E1,8.1E2,3.32E2,2.34E2,4.9E1,1.9E1,1.08E2,7.02E2,1.95E2,1.37E2,8.4E1,1.5E2,1.2E1,3.7E1,9.7E1,1.1E1,2.6E1,1.69E2,1.27E2,1E1,1E1,7.4E1,1E1,1.4E2],"tree_param":{"num_deleted":"0","num_feature":"177","num_nodes":"27","size_leaf_vector":"1"}},{"base_weights":[9.988184E-4,-6.587253E-2,1.04400575E-1,-1.2642025E-2,-7.023629E-2,5.507682E-2,1.7176503E-1,9.159776E-3,-1.1812464E-3,-1.4316732E-3,-4.0604405E-2,4.602218E-2,6.5890506E-2,1.201704E-1,1.9584952E-1,1.0838729E-3,-2.0317337E-4,-2.9382395E-4,-9.124536E-4,3.195874E-4,1.0010431E-3,1.3567597E-3,5.3578423E-4,7.106609E-4,2.5727013E-3,4.060164E-3,1.8237055E-3],"categories":[],"categories_nodes":[],"categories_segments":[],"categories_sizes":[],"default_left":[0,0,0,0,0,0,0,0,0,0,0,0,0,0,0,0,0,0,0,0,0,0,0,0,0,0,0],"id":34,"left_children":[1,3,5,7,9,11,13,15,-1,-1,17,19,21,23,25,-1,-1,-1,-1,-1,-1,-1,-1,-1,-1,-1,-1],"loss_changes":[1.0053662E1,2.006681E-1,1.8499422E0,7.6584354E-2,1.8005848E-2,1.7834902E-2,1.7931223E-1,4.9731832E-2,0E0,0E0,2.760604E-3,2.0215392E-2,1.7265677E-3,4.090798E-2,2.3578167E-2,0E0,0E0,0E0,0E0,0E0,0E0,0E0,0E0,0E0,0E0,0E0,0E0],"parents":[2147483647,0,0,1,1,2,2,3,3,4,4,5,5,6,6,7,7,10,10,11,11,12,12,13,13,14,14],"right_children":[2,4,6,8,10,12,14,16,-1,-1,18,20,22,24,26,-1,-1,-1,-1,-1,-1,-1,-1,-1,-1,-1,-1],"split_conditions":[2.202878E-1,4.382087E-1,2.8912598E-1,2.3840997E2,2.9249817E1,2.3422495E-2,4.7643107E-1,3.6872545E-1,-1.1812464E-3,-1.4316732E-3,1.9998546E0,3.0032259E1,2.8915077E-2,3.687561E2,5.8499193E-3,1.0838729E-3,-2.0317337E-4,-2.9382395E-4,-9.124536E-4,3.195874E-4,1.0010431E-3,1.3567597E-3,5.3578423E-4,7.106609E-4,2.5727013E-3,4.060164E-3,1.8237055E-3],"split_indices":[16,14,16,29,124,14,16,14,0,0,1,74,170,57,156,0,0,0,0,0,0,0,0,0,0,0,0],"split_type":[0,0,0,0,0,0,0,0,0,0,0,0,0,0,0,0,0,0,0,0,0,0,0,0,0,0,0],"sum_hessian":[1.444E3,8.78E2,5.66E2,6.8E1,8.1E2,3.32E2,2.34E2,4.9E1,1.9E1,7.68E2,4.2E1,1.95E2,1.37E2,8.4E1,1.5E2,1.2E1,3.7E1,1E1,3.2E1,2.6E1,1.69E2,1.27E2,1E1,1E1,7.4E1,1.36E2,1.4E1],"tree_param":{"num_deleted":"0","num_feature":"177","num_nodes":"27","size_leaf_vector":"1"}},{"base_weights":[1.0114228E-3,-6.4571716E-2,1.0242097E-1,-6.788286E-2,1.5459332E-3,5.4022953E-2,1.6852151E-1,-6.912108E-2,-1.3643164E-2,7.093646E-4,-1.9897055E-2,5.5897456E-2,3.5861967E-4,1.3257886E-1,2.0464611E-1,-1.4225042E-3,-1.0301479E-3,1.7603021E-4,-6.3080236E-4,-6.630858E-4,-7.526949E-6,9.20578E-4,1.284085E-3,2.7954236E-3,7.171422E-4,1.5869498E-3,4.2641717E-3],"categories":[],"categories_nodes":[],"categories_segments":[],"categories_sizes":[],"default_left":[0,0,0,0,0,0,0,0,0,0,0,0,0,0,0,0,0,0,0,0,0,0,0,0,0,0,0],"id":35,"left_children":[1,3,5,7,9,11,13,15,17,-1,19,21,-1,23,25,-1,-1,-1,-1,-1,-1,-1,-1,-1,-1,-1,-1],"loss_changes":[9.670013E0,1.938355E-1,1.7811866E0,5.176711E-2,3.771615E-2,1.7788112E-2,1.7466211E-1,1.0663986E-2,1.1430286E-2,0E0,8.218913E-3,1.12921E-2,0E0,6.815839E-2,3.3427715E-2,0E0,0E0,0E0,0E0,0E0,0E0,0E0,0E0,0E0,0E0,0E0,0E0],"parents":[2147483647,0,0,1,1,2,2,3,3,4,4,5,5,6,6,7,7,8,8,10,10,11,11,13,13,14,14],"right_children":[2,4,6,8,10,12,14,16,18,-1,20,22,-1,24,26,-1,-1,-1,-1,-1,-1,-1,-1,-1,-1,-1,-1],"split_conditions":[2.202878E-1,2.931713E1,2.8912598E-1,7.6491565E-2,3.922989E-1,8.301022E-3,5.169698E-1,1.3956377E-2,3.9031662E1,7.093646E-4,2.2965929E2,3.0326809E1,3.5861967E-4,2.8487159E-2,2.1816016E2,-1.4225042E-3,-1.0301479E-3,1.7603021E-4,-6.3080236E-4,-6.630858E-4,-7.526949E-6,9.20578E-4,1.284085E-3,2.7954236E-3,7.171422E-4,1.5869498E-3,4.2641717E-3],"split_indices":[16,22,16,16,14,161,16,16,88,0,29,80,0,135,29,0,0,0,0,0,0,0,0,0,0,0,0],"split_type":[0,0,0,0,0,0,0,0,0,0,0,0,0,0,0,0,0,0,0,0,0,0,0,0,0,0,0],"sum_hessian":[1.444E3,8.78E2,5.66E2,8.36E2,4.2E1,3.32E2,2.34E2,8.16E2,2E1,1.5E1,2.7E1,3.13E2,1.9E1,1.29E2,1.05E2,7.19E2,9.7E1,1E1,1E1,1.4E1,1.3E1,1.58E2,1.55E2,1.18E2,1.1E1,1E1,9.5E1],"tree_param":{"num_deleted":"0","num_feature":"177","num_nodes":"27","size_leaf_vector":"1"}},{"base_weights":[1.0224504E-3,-6.329653E-2,1.00476995E-1,-6.654249E-2,1.5191352E-3,5.9215162E-2,1.7553732E-1,-6.775359E-2,-1.3461255E-2,8.618241E-4,-1.5539695E-2,5.1713444E-2,9.513852E-2,1.3702479E-1,2.0081915E-1,-1.3942505E-3,-1.010555E-3,1.7368318E-4,-6.2239164E-4,5.583226E-5,-7.132971E-4,8.695813E-5,1.0632378E-3,6.3905667E-4,2.125803E-3,8.7737147E-4,2.9080769E-3,1.6484874E-3,4.1962257E-3],"categories":[],"categories_nodes":[],"categories_segments":[],"categories_sizes":[],"default_left":[0,0,0,0,0,0,0,0,0,0,0,0,0,0,0,0,0,0,0,0,0,0,0,0,0,0,0,0,0],"id":36,"left_children":[1,3,5,7,9,11,13,15,17,-1,19,21,23,25,27,-1,-1,-1,-1,-1,-1,-1,-1,-1,-1,-1,-1,-1,-1],"loss_changes":[9.300784E0,1.8627906E-1,1.7164869E0,4.9504995E-2,3.667915E-2,7.672727E-2,5.7147026E-2,1.009202E-2,1.1127512E-2,0E0,1.4147869E-2,2.0935535E-2,2.4591446E-2,4.2259812E-2,3.0640602E-2,0E0,0E0,0E0,0E0,0E0,0E0,0E0,0E0,0E0,0E0,0E0,0E0,0E0,0E0],"parents":[2147483647,0,0,1,1,2,2,3,3,4,4,5,5,6,6,7,7,8,8,10,10,11,11,12,12,13,13,14,14],"right_children":[2,4,6,8,10,12,14,16,18,-1,20,22,24,26,28,-1,-1,-1,-1,-1,-1,-1,-1,-1,-1,-1,-1,-1,-1],"split_conditions":[2.202878E-1,2.931713E1,3.8635206E-1,7.6491565E-2,1.9999322E0,3.0447416E1,5.169698E-1,1.3956377E-2,3.9031662E1,8.618241E-4,8.124355E-3,8.85949E-4,5.4630967E3,9.596857E2,3.9075356E1,-1.3942505E-3,-1.010555E-3,1.7368318E-4,-6.2239164E-4,5.583226E-5,-7.132971E-4,8.695813E-5,1.0632378E-3,6.3905667E-4,2.125803E-3,8.7737147E-4,2.9080769E-3,1.6484874E-3,4.1962257E-3],"split_indices":[16,22,16,16,102,81,16,16,88,0,127,125,34,97,35,0,0,0,0,0,0,0,0,0,0,0,0,0,0],"split_type":[0,0,0,0,0,0,0,0,0,0,0,0,0,0,0,0,0,0,0,0,0,0,0,0,0,0,0,0,0],"sum_hessian":[1.444E3,8.78E2,5.66E2,8.36E2,4.2E1,3.71E2,1.95E2,8.16E2,2E1,1E1,3.2E1,3.17E2,5.4E1,9E1,1.05E2,7.19E2,9.7E1,1E1,1E1,1.9E1,1.3E1,1E1,3.07E2,1.1E1,4.3E1,1E1,8E1,1.1E1,9.4E1],"tree_param":{"num_deleted":"0","num_feature":"177","num_nodes":"29","size_leaf_vector":"1"}},{"base_weights":[1.039598E-3,-6.119533E-2,9.754921E-2,-8.503431E-3,-6.6529766E-2,6.2491514E-2,1.6494165E-1,-2.6593644E-2,1.1749438E-3,-1.3497117E-3,-3.6818977E-2,5.1709004E-2,1.3407405E-1,1.7499767E-1,5.4653746E-4,-7.402951E-4,5.0689664E-4,-3.0471617E-4,-8.438046E-4,-4.5230336E-5,1.077651E-3,8.2639954E-4,3.0711784E-3,3.8081603E-3,1.9132461E-3],"categories":[],"categories_nodes":[],"categories_segments":[],"categories_sizes":[],"default_left":[0,0,0,0,0,0,0,0,0,0,0,0,0,0,0,0,0,0,0,0,0,0,0,0,0],"id":37,"left_children":[1,3,5,7,9,11,13,15,-1,-1,17,19,21,23,-1,-1,-1,-1,-1,-1,-1,-1,-1,-1,-1],"loss_changes":[8.732931E0,2.4564767E-1,1.2951579E0,1.1365379E-1,1.0351419E-2,2.6095045E-1,2.4178982E-1,4.366114E-2,0E0,0E0,9.594187E-4,4.0611207E-2,5.3217947E-2,1.265459E-1,0E0,0E0,0E0,0E0,0E0,0E0,0E0,0E0,0E0,0E0,0E0],"parents":[2147483647,0,0,1,1,2,2,3,3,4,4,5,5,6,6,7,7,10,10,11,11,12,12,13,13],"right_children":[2,4,6,8,10,12,14,16,-1,-1,18,20,22,24,-1,-1,-1,-1,-1,-1,-1,-1,-1,-1,-1],"split_conditions":[2.9416914E1,4.4897816E-1,4.5688828E1,1.048685E3,2.9249817E1,3.0465553E1,3.0626547E1,2.662882E0,1.1749438E-3,-1.3497117E-3,6.208163E-3,8.85949E-4,4.368058E1,1.7033029E-1,5.4653746E-4,-7.402951E-4,5.0689664E-4,-3.0471617E-4,-8.438046E-4,-4.5230336E-5,1.077651E-3,8.2639954E-4,3.0711784E-3,3.8081603E-3,1.9132461E-3],"split_indices":[22,14,37,97,124,25,23,173,0,0,2,125,136,14,0,0,0,0,0,0,0,0,0,0,0],"split_type":[0,0,0,0,0,0,0,0,0,0,0,0,0,0,0,0,0,0,0,0,0,0,0,0,0],"sum_hessian":[1.444E3,8.79E2,5.65E2,8.2E1,7.97E2,3.78E2,1.87E2,6.7E1,1.5E1,7.66E2,3.1E1,3.36E2,4.2E1,1.73E2,1.4E1,5.7E1,1E1,1E1,2.1E1,1.3E1,3.23E2,1E1,3.2E1,1.39E2,3.4E1],"tree_param":{"num_deleted":"0","num_feature":"177","num_nodes":"25","size_leaf_vector":"1"}},{"base_weights":[1.0520722E-3,-5.998023E-2,9.569644E-2,-6.33774E-2,1.2076863E-2,6.1306044E-2,1.6180603E-1,-1.3365337E-3,-3.9059356E-2,1.2626195E-3,-1.2223018E-2,5.068996E-2,1.318072E-1,1.7546792E-1,5.8787208E-2,-9.217266E-4,3.166117E-4,1.1136867E-4,-4.912518E-4,-4.457707E-5,1.0564266E-3,8.153809E-4,3.018055E-3,4.1097025E-3,2.4318418E-3,1.672352E-3,1.2168575E-4],"categories":[],"categories_nodes":[],"categories_segments":[],"categories_sizes":[],"default_left":[0,0,0,0,0,0,0,0,0,0,0,0,0,0,0,0,0,0,0,0,0,0,0,0,0,0,0],"id":38,"left_children":[1,3,5,7,9,11,13,-1,15,-1,17,19,21,23,25,-1,-1,-1,-1,-1,-1,-1,-1,-1,-1,-1,-1],"loss_changes":[8.39865E0,2.2022176E-1,1.2463169E0,5.7827473E-2,5.8445048E-2,2.5324833E-1,2.1865082E-1,0E0,4.877597E-2,0E0,8.148199E-3,3.9049804E-2,5.0945163E-2,1.4514542E-1,3.671524E-2,0E0,0E0,0E0,0E0,0E0,0E0,0E0,0E0,0E0,0E0,0E0,0E0],"parents":[2147483647,0,0,1,1,2,2,3,3,4,4,5,5,6,6,8,8,10,10,11,11,12,12,13,13,14,14],"right_children":[2,4,6,8,10,12,14,-1,16,-1,18,20,22,24,26,-1,-1,-1,-1,-1,-1,-1,-1,-1,-1,-1,-1],"split_conditions":[2.9416914E1,2.931713E1,4.5688828E1,2.6071333E1,4.8890823E1,3.0465553E1,3.0075031E1,-1.3365337E-3,2.973121E-2,1.2626195E-3,6.3352617E-3,8.85949E-4,4.368058E1,1.3834825E-1,1.2737489E-2,-9.217266E-4,3.166117E-4,1.1136867E-4,-4.912518E-4,-4.457707E-5,1.0564266E-3,8.153809E-4,3.018055E-3,4.1097025E-3,2.4318418E-3,1.672352E-3,1.2168575E-4],"split_indices":[22,22,37,116,87,25,75,0,111,0,127,125,136,110,171,0,0,0,0,0,0,0,0,0,0,0,0],"split_type":[0,0,0,0,0,0,0,0,0,0,0,0,0,0,0,0,0,0,0,0,0,0,0,0,0,0,0],"sum_hessian":[1.444E3,8.79E2,5.65E2,8.4E2,3.9E1,3.78E2,1.87E2,7.28E2,1.12E2,1E1,2.9E1,3.36E2,4.2E1,1.62E2,2.5E1,1E2,1.2E1,1.3E1,1.6E1,1.3E1,3.23E2,1E1,3.2E1,9.5E1,6.7E1,1.5E1,1E1],"tree_param":{"num_deleted":"0","num_feature":"177","num_nodes":"27","size_leaf_vector":"1"}},{"base_weights":[1.0728596E-3,-5.9638377E-2,9.494791E-2,-1.1231272E-2,-6.360835E-2,4.986551E-2,1.5652964E-1,-2.461815E-2,9.747476E-4,-4.7087267E-2,-1.3159814E-3,4.1178085E-2,6.0345493E-2,1.23042524E-1,3.8164847E-3,-7.424315E-4,2.8211958E-4,-4.994973E-4,-1.0045669E-3,2.5209284E-4,9.0170954E-4,1.2712096E-3,6.259339E-4,2.6920515E-3,1.1516232E-3],"categories":[],"categories_nodes":[],"categories_segments":[],"categories_sizes":[],"default_left":[0,0,0,0,0,0,0,0,0,0,0,0,0,0,0,0,0,0,0,0,0,0,0,0,0],"id":39,"left_children":[1,3,5,7,9,11,13,15,-1,17,-1,19,21,23,-1,-1,-1,-1,-1,-1,-1,-1,-1,-1,-1],"loss_changes":[8.286555E0,1.6611862E-1,1.5462122E0,6.4603016E-2,1.4005899E-2,1.825732E-2,1.5707684E-1,3.3121783E-2,0E0,1.5763938E-3,0E0,1.9488096E-2,3.3154488E-3,6.3406706E-2,0E0,0E0,0E0,0E0,0E0,0E0,0E0,0E0,0E0,0E0,0E0],"parents":[2147483647,0,0,1,1,2,2,3,3,4,4,5,5,6,6,7,7,9,9,11,11,12,12,13,13],"right_children":[2,4,6,8,10,12,14,16,-1,18,-1,20,22,24,-1,-1,-1,-1,-1,-1,-1,-1,-1,-1,-1],"split_conditions":[2.202878E-1,4.382087E-1,2.8912598E-1,2.6276543E1,1.436546E1,2.3422495E-2,3.0377195E1,2.0691675E3,9.747476E-4,4.5192328E-1,-1.3159814E-3,3.0032259E1,1.5515432E0,3.8984917E1,3.8164847E-3,-7.424315E-4,2.8211958E-4,-4.994973E-4,-1.0045669E-3,2.5209284E-4,9.0170954E-4,1.2712096E-3,6.259339E-4,2.6920515E-3,1.1516232E-3],"split_indices":[16,14,16,10,21,14,128,90,0,60,0,74,157,89,0,0,0,0,0,0,0,0,0,0,0],"split_type":[0,0,0,0,0,0,0,0,0,0,0,0,0,0,0,0,0,0,0,0,0,0,0,0,0],"sum_hessian":[1.444E3,8.78E2,5.66E2,6.8E1,8.1E2,3.32E2,2.34E2,5.8E1,1E1,1.08E2,7.02E2,1.95E2,1.37E2,1.3E2,1.04E2,4.4E1,1.4E1,1.9E1,8.9E1,2.6E1,1.69E2,1.18E2,1.9E1,1.06E2,2.4E1],"tree_param":{"num_deleted":"0","num_feature":"177","num_nodes":"25","size_leaf_vector":"1"}},{"base_weights":[1.0804072E-3,-5.8458664E-2,9.314275E-2,-6.1470844E-2,1.6591658E-3,4.8913468E-2,1.535593E-1,-6.2593535E-2,-1.2307445E-2,6.6574913E-4,-1.8367762E-2,3.108441E-2,5.325475E-2,1.2072403E-1,1.8718283E-1,-9.399765E-4,-1.2886106E-3,1.7347976E-4,-5.837279E-4,-8.966295E-6,-6.4361154E-4,-6.7924186E-5,7.399771E-4,1.2295287E-4,1.0997668E-3,6.101703E-4,2.5657073E-3,3.878004E-3,1.609078E-3],"categories":[],"categories_nodes":[],"categories_segments":[],"categories_sizes":[],"default_left":[0,0,0,0,0,0,0,0,0,0,0,0,0,0,0,0,0,0,0,0,0,0,0,0,0,0,0,0,0],"id":40,"left_children":[1,3,5,7,9,11,13,15,17,-1,19,21,23,25,27,-1,-1,-1,-1,-1,-1,-1,-1,-1,-1,-1,-1,-1,-1],"loss_changes":[7.9696383E0,1.6040874E-1,1.4882593E0,4.256749E-2,3.282771E-2,1.7807126E-2,1.5087748E-1,8.378744E-3,1.0119427E-2,0E0,7.848443E-3,1.6535118E-2,1.9869149E-2,7.252097E-2,1.4615059E-4,0E0,0E0,0E0,0E0,0E0,0E0,0E0,0E0,0E0,0E0,0E0,0E0,0E0,0E0],"parents":[2147483647,0,0,1,1,2,2,3,3,4,4,5,5,6,6,7,7,8,8,10,10,11,11,12,12,13,13,14,14],"right_children":[2,4,6,8,10,12,14,16,18,-1,20,22,24,26,28,-1,-1,-1,-1,-1,-1,-1,-1,-1,-1,-1,-1,-1,-1],"split_conditions":[2.202878E-1,2.931713E1,2.8912598E-1,7.6491565E-2,3.922989E-1,1.4865257E0,3.0377195E1,2.3840997E2,2.5083716E3,6.6574913E-4,2.5061921E3,-7.482513E-1,8.85949E-4,3.686596E2,4.3377256E0,-9.399765E-4,-1.2886106E-3,1.7347976E-4,-5.837279E-4,-8.966295E-6,-6.4361154E-4,-6.7924186E-5,7.399771E-4,1.2295287E-4,1.0997668E-3,6.101703E-4,2.5657073E-3,3.878004E-3,1.609078E-3],"split_indices":[16,22,16,16,14,1,128,29,65,0,39,155,125,57,7,0,0,0,0,0,0,0,0,0,0,0,0,0,0],"split_type":[0,0,0,0,0,0,0,0,0,0,0,0,0,0,0,0,0,0,0,0,0,0,0,0,0,0,0,0,0],"sum_hessian":[1.444E3,8.78E2,5.66E2,8.36E2,4.2E1,3.32E2,2.34E2,8.16E2,2E1,1.5E1,2.7E1,7.3E1,2.59E2,1.3E2,1.04E2,1E2,7.16E2,1E1,1E1,1.4E1,1.3E1,1.1E1,6.2E1,1E1,2.49E2,1.2E1,1.18E2,9.4E1,1E1],"tree_param":{"num_deleted":"0","num_feature":"177","num_nodes":"29","size_leaf_vector":"1"}},{"base_weights":[1.0861689E-3,-5.730436E-2,9.137235E-2,-1.0685926E-2,-6.1128438E-2,4.796331E-2,1.5066935E-1,9.075597E-3,-1.0584624E-3,-4.3266885E-2,-1.2587762E-3,3.9490085E-2,5.8208577E-2,1.1814734E-1,1.8343845E-1,1.0246971E-3,-1.8138584E-4,-3.1080854E-4,-9.2215993E-4,1.49404E-6,8.3125226E-4,1.203413E-3,4.3078887E-4,2.4971114E-3,5.9313694E-4,1.3935764E-3,3.826609E-3],"categories":[],"categories_nodes":[],"categories_segments":[],"categories_sizes":[],"default_left":[0,0,0,0,0,0,0,0,0,0,0,0,0,0,0,0,0,0,0,0,0,0,0,0,0,0,0],"id":41,"left_children":[1,3,5,7,9,11,13,15,-1,17,-1,19,21,23,25,-1,-1,-1,-1,-1,-1,-1,-1,-1,-1,-1,-1],"loss_changes":[7.6651015E0,1.5414882E-1,1.4336357E0,6.333255E-2,1.2737989E-2,1.7761767E-2,1.4634228E-1,4.363198E-2,0E0,3.585741E-3,0E0,1.6322374E-2,3.736347E-3,6.103027E-2,3.209901E-2,0E0,0E0,0E0,0E0,0E0,0E0,0E0,0E0,0E0,0E0,0E0,0E0],"parents":[2147483647,0,0,1,1,2,2,3,3,4,4,5,5,6,6,7,7,9,9,11,11,12,12,13,13,14,14],"right_children":[2,4,6,8,10,12,14,16,-1,18,-1,20,22,24,26,-1,-1,-1,-1,-1,-1,-1,-1,-1,-1,-1,-1],"split_conditions":[2.202878E-1,4.382087E-1,2.8912598E-1,2.3840997E2,4.84991E-1,2.3422495E-2,5.169698E-1,3.6872545E-1,-1.0584624E-3,9.05478E2,-1.2587762E-3,3.0153786E1,2.8915077E-2,2.8487159E-2,2.1816016E2,1.0246971E-3,-1.8138584E-4,-3.1080854E-4,-9.2215993E-4,1.49404E-6,8.3125226E-4,1.203413E-3,4.3078887E-4,2.4971114E-3,5.9313694E-4,1.3935764E-3,3.826609E-3],"split_indices":[16,14,16,29,45,14,16,14,0,94,0,24,170,135,29,0,0,0,0,0,0,0,0,0,0,0,0],"split_type":[0,0,0,0,0,0,0,0,0,0,0,0,0,0,0,0,0,0,0,0,0,0,0,0,0,0,0],"sum_hessian":[1.444E3,8.78E2,5.66E2,6.8E1,8.1E2,3.32E2,2.34E2,4.9E1,1.9E1,8.6E1,7.24E2,1.95E2,1.37E2,1.29E2,1.05E2,1.2E1,3.7E1,1.1E1,7.5E1,1E1,1.85E2,1.27E2,1E1,1.18E2,1.1E1,1E1,9.5E1],"tree_param":{"num_deleted":"0","num_feature":"177","num_nodes":"27","size_leaf_vector":"1"}},{"base_weights":[1.0922939E-3,-5.61736E-2,8.963927E-2,-5.9074443E-2,1.7088376E-3,4.704065E-2,1.4782982E-1,-6.0151696E-2,-1.1882488E-2,7.046935E-4,-1.6291434E-2,4.8842836E-2,2.6722965E-4,1.1467955E-1,1.7914897E-1,-1.2376601E-3,-8.98284E-4,1.7370675E-4,-5.697896E-4,1.4587217E-4,-6.162728E-4,7.923041E-4,1.1343429E-3,3.5177698E-5,2.4803265E-3,3.749295E-3,1.5312701E-3],"categories":[],"categories_nodes":[],"categories_segments":[],"categories_sizes":[],"default_left":[0,0,0,0,0,0,0,0,0,0,0,0,0,0,0,0,0,0,0,0,0,0,0,0,0,0,0],"id":42,"left_children":[1,3,5,7,9,11,13,15,17,-1,19,21,-1,23,25,-1,-1,-1,-1,-1,-1,-1,-1,-1,-1,-1,-1],"loss_changes":[7.3726525E0,1.4876747E-1,1.3806462E0,3.9180517E-2,3.1233402E-2,1.719153E-2,1.454153E-1,7.761717E-3,9.776448E-3,0E0,1.2768945E-2,1.1871994E-2,0E0,1.3597012E-1,2.5485754E-2,0E0,0E0,0E0,0E0,0E0,0E0,0E0,0E0,0E0,0E0,0E0,0E0],"parents":[2147483647,0,0,1,1,2,2,3,3,4,4,5,5,6,6,7,7,8,8,10,10,11,11,13,13,14,14],"right_children":[2,4,6,8,10,12,14,16,18,-1,20,22,-1,24,26,-1,-1,-1,-1,-1,-1,-1,-1,-1,-1,-1,-1],"split_conditions":[2.202878E-1,2.931713E1,2.8912598E-1,7.6491565E-2,1.4043878E-1,8.301022E-3,3.0309452E1,1.3956377E-2,3.9031662E1,7.046935E-4,6.0752667E-3,3.0326809E1,2.6722965E-4,3.6869128E2,4.3717813E0,-1.2376601E-3,-8.98284E-4,1.7370675E-4,-5.697896E-4,1.4587217E-4,-6.162728E-4,7.923041E-4,1.1343429E-3,3.5177698E-5,2.4803265E-3,3.749295E-3,1.5312701E-3],"split_indices":[16,22,16,16,15,161,24,16,88,0,127,80,0,57,7,0,0,0,0,0,0,0,0,0,0,0,0],"split_type":[0,0,0,0,0,0,0,0,0,0,0,0,0,0,0,0,0,0,0,0,0,0,0,0,0,0,0],"sum_hessian":[1.444E3,8.78E2,5.66E2,8.36E2,4.2E1,3.32E2,2.34E2,8.16E2,2E1,1.3E1,2.9E1,3.13E2,1.9E1,1.25E2,1.09E2,7.19E2,9.7E1,1E1,1E1,1.2E1,1.7E1,1.58E2,1.55E2,1E1,1.15E2,9.7E1,1.2E1],"tree_param":{"num_deleted":"0","num_feature":"177","num_nodes":"27","size_leaf_vector":"1"}},{"base_weights":[1.0969928E-3,-5.506314E-2,8.7933965E-2,-5.7908006E-2,1.6995871E-3,4.6132386E-2,1.4503632E-1,-5.896167E-2,-1.1724053E-2,6.6894316E-4,-1.683683E-2,2.9009135E-2,5.031781E-2,1.1295409E-1,1.7637269E-1,-8.858735E-4,-1.2137779E-3,1.7139067E-4,-5.621924E-4,-6.3821545E-4,-1.2506914E-5,-8.6675376E-5,6.9613516E-4,9.610116E-5,1.0403012E-3,2.7420573E-4,2.4281943E-3,3.694107E-3,1.5096521E-3],"categories":[],"categories_nodes":[],"categories_segments":[],"categories_sizes":[],"default_left":[0,0,0,0,0,0,0,0,0,0,0,0,0,0,0,0,0,0,0,0,0,0,0,0,0,0,0,0,0],"id":43,"left_children":[1,3,5,7,9,11,13,15,17,-1,19,21,23,25,27,-1,-1,-1,-1,-1,-1,-1,-1,-1,-1,-1,-1,-1,-1],"loss_changes":[7.0906577E0,1.4308095E-1,1.329505E0,3.746867E-2,3.0474572E-2,1.685375E-2,1.4066601E-1,7.3595047E-3,9.517481E-3,0E0,7.964466E-3,1.5832372E-2,1.9143462E-2,1.0244739E-1,2.4446487E-2,0E0,0E0,0E0,0E0,0E0,0E0,0E0,0E0,0E0,0E0,0E0,0E0,0E0,0E0],"parents":[2147483647,0,0,1,1,2,2,3,3,4,4,5,5,6,6,7,7,8,8,10,10,11,11,12,12,13,13,14,14],"right_children":[2,4,6,8,10,12,14,16,18,-1,20,22,24,26,28,-1,-1,-1,-1,-1,-1,-1,-1,-1,-1,-1,-1,-1,-1],"split_conditions":[2.202878E-1,2.931713E1,2.8912598E-1,7.6491565E-2,3.8839445E-1,1.4865257E0,3.0370092E1,2.3840997E2,3.9031662E1,6.6894316E-4,2.2932242E2,-7.482513E-1,8.85949E-4,3.686596E2,4.3717813E0,-8.858735E-4,-1.2137779E-3,1.7139067E-4,-5.621924E-4,-6.3821545E-4,-1.2506914E-5,-8.6675376E-5,6.9613516E-4,9.610116E-5,1.0403012E-3,2.7420573E-4,2.4281943E-3,3.694107E-3,1.5096521E-3],"split_indices":[16,22,16,16,45,1,24,29,88,0,29,155,125,57,7,0,0,0,0,0,0,0,0,0,0,0,0,0,0],"split_type":[0,0,0,0,0,0,0,0,0,0,0,0,0,0,0,0,0,0,0,0,0,0,0,0,0,0,0,0,0],"sum_hessian":[1.444E3,8.78E2,5.66E2,8.36E2,4.2E1,3.32E2,2.34E2,8.16E2,2E1,1.4E1,2.8E1,7.3E1,2.59E2,1.27E2,1.07E2,1E2,7.16E2,1E1,1E1,1.2E1,1.6E1,1.1E1,6.2E1,1E1,2.49E2,1.1E1,1.16E2,9.5E1,1.2E1],"tree_param":{"num_deleted":"0","num_feature":"177","num_nodes":"29","size_leaf_vector":"1"}},{"base_weights":[1.0998292E-3,-5.3975873E-2,8.6259805E-2,-9.901887E-3,-5.7592463E-2,5.062132E-2,1.5110366E-1,8.943826E-3,-1.0048369E-3,-4.076133E-2,-1.1859692E-3,4.385136E-2,8.32793E-2,1.5858576E-1,7.379507E-2,1.0010878E-3,-1.7521811E-4,-4.4875822E-4,-9.130094E-4,4.7106583E-5,9.028723E-4,7.8089803E-4,2.019157E-3,2.3938057E-3,3.5760377E-3,5.9811777E-4,1.8163277E-3],"categories":[],"categories_nodes":[],"categories_segments":[],"categories_sizes":[],"default_left":[0,0,0,0,0,0,0,0,0,0,0,0,0,0,0,0,0,0,0,0,0,0,0,0,0,0,0],"id":44,"left_children":[1,3,5,7,9,11,13,15,-1,17,-1,19,21,23,25,-1,-1,-1,-1,-1,-1,-1,-1,-1,-1,-1,-1],"loss_changes":[6.8194447E0,1.3789701E-1,1.2812996E0,5.7743944E-2,1.1316061E-2,6.487143E-2,5.717182E-2,4.149659E-2,0E0,3.0308068E-3,0E0,1.6735137E-2,2.642855E-2,3.2959938E-2,6.5906644E-3,0E0,0E0,0E0,0E0,0E0,0E0,0E0,0E0,0E0,0E0,0E0,0E0],"parents":[2147483647,0,0,1,1,2,2,3,3,4,4,5,5,6,6,7,7,9,9,11,11,12,12,13,13,14,14],"right_children":[2,4,6,8,10,12,14,16,-1,18,-1,20,22,24,26,-1,-1,-1,-1,-1,-1,-1,-1,-1,-1,-1,-1],"split_conditions":[2.202878E-1,4.382087E-1,3.8635206E-1,2.3840997E2,4.84991E-1,3.0447416E1,5.8499193E-3,3.6872545E-1,-1.0048369E-3,2.8223702E-1,-1.1859692E-3,8.85949E-4,-1.8136305E-4,5.15714E-1,4.0194998E-3,1.0010878E-3,-1.7521811E-4,-4.4875822E-4,-9.130094E-4,4.7106583E-5,9.028723E-4,7.8089803E-4,2.019157E-3,2.3938057E-3,3.5760377E-3,5.9811777E-4,1.8163277E-3],"split_indices":[16,14,16,29,45,81,156,14,0,4,0,125,152,16,123,0,0,0,0,0,0,0,0,0,0,0,0],"split_type":[0,0,0,0,0,0,0,0,0,0,0,0,0,0,0,0,0,0,0,0,0,0,0,0,0,0,0],"sum_hessian":[1.444E3,8.78E2,5.66E2,6.8E1,8.1E2,3.71E2,1.95E2,4.9E1,1.9E1,8.6E1,7.24E2,3.17E2,5.4E1,1.73E2,2.2E1,1.2E1,3.7E1,2.4E1,6.2E1,1E1,3.07E2,2E1,3.4E1,7.1E1,1.02E2,1E1,1.2E1],"tree_param":{"num_deleted":"0","num_feature":"177","num_nodes":"27","size_leaf_vector":"1"}},{"base_weights":[1.1102933E-3,-5.2911796E-2,8.464086E-2,-9.716106E-3,-5.6456245E-2,4.4333566E-2,1.397051E-1,8.8414205E-3,-9.88927E-4,-4.0020928E-2,-1.1624125E-3,3.6210172E-2,5.4213922E-2,1.0817843E-1,1.6952915E-1,9.869548E-4,-1.7213087E-4,-2.8022975E-4,-8.544301E-4,1.9081809E-4,7.984214E-4,1.4777593E-3,9.1790897E-4,9.821206E-6,2.3426383E-3,3.5470156E-3,1.4547565E-3],"categories":[],"categories_nodes":[],"categories_segments":[],"categories_sizes":[],"default_left":[0,0,0,0,0,0,0,0,0,0,0,0,0,0,0,0,0,0,0,0,0,0,0,0,0,0,0],"id":45,"left_children":[1,3,5,7,9,11,13,15,-1,17,-1,19,21,23,25,-1,-1,-1,-1,-1,-1,-1,-1,-1,-1,-1,-1],"loss_changes":[6.560999E0,1.3244891E-1,1.236361E0,5.6008413E-2,1.0663986E-2,1.7232835E-2,1.3302374E-1,4.0288217E-2,0E0,3.39894E-3,0E0,1.7888993E-2,6.2838197E-3,1.2505543E-1,2.180481E-2,0E0,0E0,0E0,0E0,0E0,0E0,0E0,0E0,0E0,0E0,0E0,0E0],"parents":[2147483647,0,0,1,1,2,2,3,3,4,4,5,5,6,6,7,7,9,9,11,11,12,12,13,13,14,14],"right_children":[2,4,6,8,10,12,14,16,-1,18,-1,20,22,24,26,-1,-1,-1,-1,-1,-1,-1,-1,-1,-1,-1,-1],"split_conditions":[2.202878E-1,4.382087E-1,2.8912598E-1,2.3840997E2,4.84991E-1,2.3422495E-2,3.0309452E1,3.6872545E-1,-9.88927E-4,9.05478E2,-1.1624125E-3,3.0032259E1,-7.519129E-3,3.6869128E2,4.3717813E0,9.869548E-4,-1.7213087E-4,-2.8022975E-4,-8.544301E-4,1.9081809E-4,7.984214E-4,1.4777593E-3,9.1790897E-4,9.821206E-6,2.3426383E-3,3.5470156E-3,1.4547565E-3],"split_indices":[16,14,16,29,45,14,24,14,0,94,0,74,164,57,7,0,0,0,0,0,0,0,0,0,0,0,0],"split_type":[0,0,0,0,0,0,0,0,0,0,0,0,0,0,0,0,0,0,0,0,0,0,0,0,0,0,0],"sum_hessian":[1.444E3,8.78E2,5.66E2,6.8E1,8.1E2,3.32E2,2.34E2,4.9E1,1.9E1,8.6E1,7.24E2,1.95E2,1.37E2,1.25E2,1.09E2,1.2E1,3.7E1,1.1E1,7.5E1,2.6E1,1.69E2,2.9E1,1.08E2,1E1,1.15E2,9.7E1,1.2E1],"tree_param":{"num_deleted":"0","num_feature":"177","num_nodes":"27","size_leaf_vector":"1"}}]},"name":"gbtree"},"learner_model_param":{"base_score":"1.5073809E-1","boost_from_average":"1","num_class":"0","num_feature":"177","num_target":"1"},"objective":{"name":"reg:squarederror","reg_loss_param":{"scale_pos_weight":"1"}}},"version":[2,1,3]}