{"learner":{"attributes":{"scikit_learn":"{\"_estimator_type\": \"regressor\"}"},"feature_names":["Injection EC","Net Flow","TL Interval Flow","TL Bottom Flow","TL Collar Flow","TL Interval EC","TL Bottom EC","TL Interval Pressure","TL Bottom Pressure","TL Packer Pressure","TL-TEC-INT-U","TL-TEC-INT-L","TL-TEC-BOT-U","TL-TEC-BOT-L","TN Interval Flow","TN Bottom Flow","TN Collar Flow","TN Interval EC","TN Bottom EC","TN Interval Pressure","TN Bottom Pressure","TN Packer Pressure","TN-TEC-INT-U","TN-TEC-INT-L","TN-TEC-BOT-U","TN-TEC-BOT-L","TC Interval Flow","TC Bottom Flow","TC Collar Flow","TC Interval EC","TC Bottom EC","TC Interval Pressure","TC Bottom Pressure","Injection Pressure","TC Packer Pressure","TC-TEC-INT-U","TC-TEC-INT-L","TC-TEC-BOT-U","TC-TEC-BOT-L","PT 403","PT 503","PT 504","TL Packer Center Depth","TN Packer Center Depth","TC Packer Center Depth","Total_Production_Flow","Pressure_Differential","TC_Impedance_Proxy","TL Interval EC__MixFrac","TL Bottom EC__MixFrac","TN Interval EC__MixFrac","TN Bottom EC__MixFrac","Net Flow__lag_1h","Net Flow__lag_3h","Injection Pressure__lag_1h","Injection Pressure__lag_3h","Injection EC__lag_1h","Injection EC__lag_3h","TC Interval Pressure__lag_1h","TC Interval Pressure__lag_3h","Total_Production_Flow__lag_1h","Total_Production_Flow__lag_3h","Pressure_Differential__lag_1h","Pressure_Differential__lag_3h","TC_Impedance_Proxy__lag_1h","TC_Impedance_Proxy__lag_3h","TL-TEC-INT-U__lag_1h","TL-TEC-INT-U__lag_3h","TL-TEC-INT-L__lag_1h","TL-TEC-INT-L__lag_3h","TL-TEC-BOT-U__lag_1h","TL-TEC-BOT-U__lag_3h","TL-TEC-BOT-L__lag_1h","TL-TEC-BOT-L__lag_3h","TN-TEC-INT-U__lag_1h","TN-TEC-INT-U__lag_3h","TN-TEC-INT-L__lag_1h","TN-TEC-INT-L__lag_3h","TN-TEC-BOT-U__lag_1h","TN-TEC-BOT-U__lag_3h","TN-TEC-BOT-L__lag_1h","TN-TEC-BOT-L__lag_3h","TC-TEC-INT-U__lag_1h","TC-TEC-INT-U__lag_3h","TC-TEC-INT-L__lag_1h","TC-TEC-INT-L__lag_3h","TC-TEC-BOT-U__lag_1h","TC-TEC-BOT-U__lag_3h","TC-TEC-BOT-L__lag_1h","TC-TEC-BOT-L__lag_3h","TL Interval EC__lag_1h","TL Interval EC__lag_3h","TL Bottom EC__lag_1h","TL Bottom EC__lag_3h","TN Interval EC__lag_1h","TN Interval EC__lag_3h","TN Bottom EC__lag_1h","TN Bottom EC__lag_3h","TC Interval EC__lag_1h","TC Interval EC__lag_3h","TC Bottom EC__lag_1h","TC Bottom EC__lag_3h","Net Flow__roll_mean_3h","Net Flow__roll_std_3h","Injection Pressure__roll_mean_3h","Injection Pressure__roll_std_3h","Injection EC__roll_mean_3h","Injection EC__roll_std_3h","TC Interval Pressure__roll_mean_3h","TC Interval Pressure__roll_std_3h","Total_Production_Flow__roll_mean_3h","Total_Production_Flow__roll_std_3h","Pressure_Differential__roll_mean_3h","Pressure_Differential__roll_std_3h","TC_Impedance_Proxy__roll_mean_3h","TC_Impedance_Proxy__roll_std_3h","TL-TEC-INT-U__roll_mean_3h","TL-TEC-INT-U__roll_std_3h","TL-TEC-INT-L__roll_mean_3h","TL-TEC-INT-L__roll_std_3h","TL-TEC-BOT-U__roll_mean_3h","TL-TEC-BOT-U__roll_std_3h","TL-TEC-BOT-L__roll_mean_3h","TL-TEC-BOT-L__roll_std_3h","TN-TEC-INT-U__roll_mean_3h","TN-TEC-INT-U__roll_std_3h","TN-TEC-INT-L__roll_mean_3h","TN-TEC-INT-L__roll_std_3h","TN-TEC-BOT-U__roll_mean_3h","TN-TEC-BOT-U__roll_std_3h","TN-TEC-BOT-L__roll_mean_3h","TN-TEC-BOT-L__roll_std_3h","TC-TEC-INT-U__roll_mean_3h","TC-TEC-INT-U__roll_std_3h","TC-TEC-INT-L__roll_mean_3h","TC-TEC-INT-L__roll_std_3h","TC-TEC-BOT-U__roll_mean_3h","TC-TEC-BOT-U__roll_std_3h","TC-TEC-BOT-L__roll_mean_3h","TC-TEC-BOT-L__roll_std_3h","TL Interval EC__roll_mean_3h","TL Interval EC__roll_std_3h","TL Bottom EC__roll_mean_3h","TL Bottom EC__roll_std_3h","TN Interval EC__roll_mean_3h","TN Interval EC__roll_std_3h","TN Bottom EC__roll_mean_3h","TN Bottom EC__roll_std_3h","TC Interval EC__roll_mean_3h","TC Interval EC__roll_std_3h","TC Bottom EC__roll_mean_3h","TC Bottom EC__roll_std_3h","Net Flow__roc_1h","Injection Pressure__roc_1h","Injection EC__roc_1h","TC Interval Pressure__roc_1h","Total_Production_Flow__roc_1h","Pressure_Differential__roc_1h","TC_Impedance_Proxy__roc_1h","TL-TEC-INT-U__roc_1h","TL-TEC-INT-L__roc_1h","TL-TEC-BOT-U__roc_1h","TL-TEC-BOT-L__roc_1h","TN-TEC-INT-U__roc_1h","TN-TEC-INT-L__roc_1h","TN-TEC-BOT-U__roc_1h","TN-TEC-BOT-L__roc_1h","TC-TEC-INT-U__roc_1h","TC-TEC-INT-L__roc_1h","TC-TEC-BOT-U__roc_1h","TC-TEC-BOT-L__roc_1h","TL Interval EC__roc_1h","TL Bottom EC__roc_1h","TN Interval EC__roc_1h","TN Bottom EC__roc_1h","TC Interval EC__roc_1h","TC Bottom EC__roc_1h"],"feature_types":["float","float","float","float","float","float","float","float","float","float","float","float","float","float","float","float","float","float","float","float","float","float","float","float","float","float","float","float","float","float","float","float","float","float","float","float","float","float","float","float","float","float","float","float","float","float","float","float","float","float","float","float","float","float","float","float","float","float","float","float","float","float","float","float","float","float","float","float","float","float","float","float","float","float","float","float","float","float","float","float","float","float","float","float","float","float","float","float","float","float","float","float","float","float","float","float","float","float","float","float","float","float","float","float","float","float","float","float","float","float","float","float","float","float","float","float","float","float","float","float","float","float","float","float","float","float","float","float","float","float","float","float","float","float","float","float","float","float","float","float","float","float","float","float","float","float","float","float","float","float","float","float","float","float","float","float","float","float","float","float","float","float","float","float","float","float","float","float","float","float","float","float","float","float","float","float","float"],"gradient_booster":{"model":{"gbtree_model_param":{"num_parallel_tree":"1","num_trees":"54"},"iteration_indptr":[0,1,2,3,4,5,6,7,8,9,10,11,12,13,14,15,16,17,18,19,20,21,22,23,24,25,26,27,28,29,30,31,32,33,34,35,36,37,38,39,40,41,42,43,44,45,46,47,48,49,50,51,52,53,54],"tree_info":[0,0,0,0,0,0,0,0,0,0,0,0,0,0,0,0,0,0,0,0,0,0,0,0,0,0,0,0,0,0,0,0,0,0,0,0,0,0,0,0,0,0,0,0,0,0,0,0,0,0,0,0,0,0],"trees":[{"base_weights":[-2.2977766E-11,-5.817853E-4,2.1624845E-4,-1.8538425E-5,-3.2080838E-4,5.3528667E-5,4.81925E-4,-7.3410547E-6,-3.0820866E-6,-3.2533633E-5,3.436611E-6,3.0063803E-4,1.1610734E-5,-2.141002E-6,6.1111365E-7,6.4568053E-6,-1.9511626E-7],"categories":[],"categories_nodes":[],"categories_segments":[],"categories_sizes":[],"default_left":[0,0,0,0,0,0,0,0,0,0,0,0,0,0,0,0,0],"id":0,"left_children":[1,3,5,-1,7,9,11,-1,-1,13,-1,15,-1,-1,-1,-1,-1],"loss_changes":[1.8292798E-4,3.4001743E-5,4.5695706E-5,0E0,1.505694E-6,6.778176E-6,6.3139014E-6,0E0,0E0,1.8404176E-6,0E0,1.0632457E-6,0E0,0E0,0E0,0E0,0E0],"parents":[2147483647,0,0,1,1,2,2,4,4,5,5,6,6,9,9,11,11],"right_children":[2,4,6,-1,8,10,12,-1,-1,14,-1,16,-1,-1,-1,-1,-1],"split_conditions":[1.4650186E-3,4.347843E1,1.9606275E-3,-1.8538425E-5,3.6975394E2,1.7648351E-3,2.1141456E-3,-7.3410547E-6,-3.0820866E-6,1.6163298E-3,3.436611E-6,5.2333977E1,1.1610734E-5,-2.141002E-6,6.1111365E-7,6.4568053E-6,-1.9511626E-7],"split_indices":[3,36,3,0,106,3,3,0,0,3,0,136,0,0,0,0,0],"split_type":[0,0,0,0,0,0,0,0,0,0,0,0,0,0,0,0,0],"sum_hessian":[1.444E3,3.89E2,1.055E3,1.62E2,2.27E2,6.58E2,3.97E2,1.73E2,5.4E1,3.83E2,2.75E2,1.47E2,2.5E2,1.74E2,2.09E2,1.37E2,1E1],"tree_param":{"num_deleted":"0","num_feature":"177","num_nodes":"17","size_leaf_vector":"1"}},{"base_weights":[-3.1692164E-8,-5.705171E-4,2.120168E-4,-9.089378E-4,-3.1461686E-4,5.24725E-5,4.725088E-4,-1.9592766E-5,-1.163792E-5,-7.4040954E-6,-3.5231947E-6,-3.1902655E-5,3.3691067E-6,2.948312E-4,1.1383075E-5,-2.099378E-6,5.9917795E-7,6.332215E-6,-1.9251478E-7],"categories":[],"categories_nodes":[],"categories_segments":[],"categories_sizes":[],"default_left":[0,0,0,0,0,0,0,0,0,0,0,0,0,0,0,0,0,0,0],"id":1,"left_children":[1,3,5,7,9,11,13,-1,-1,-1,-1,15,-1,17,-1,-1,-1,-1,-1],"loss_changes":[1.7589115E-4,3.269133E-5,4.3929653E-5,1.0111398E-6,1.4595225E-6,6.5150352E-6,6.0639723E-6,0E0,0E0,0E0,0E0,1.7694805E-6,0E0,1.0231397E-6,0E0,0E0,0E0,0E0,0E0],"parents":[2147483647,0,0,1,1,2,2,3,3,4,4,5,5,6,6,11,11,13,13],"right_children":[2,4,6,8,10,12,14,-1,-1,-1,-1,16,-1,18,-1,-1,-1,-1,-1],"split_conditions":[1.4650186E-3,4.347843E1,1.9606275E-3,9.0921804E-4,3.6970978E2,1.7648351E-3,2.1141456E-3,-1.9592766E-5,-1.163792E-5,-7.4040954E-6,-3.5231947E-6,1.6163298E-3,3.3691067E-6,5.2333977E1,1.1383075E-5,-2.099378E-6,5.9917795E-7,6.332215E-6,-1.9251478E-7],"split_indices":[3,36,3,3,56,3,3,0,0,0,0,3,0,136,0,0,0,0,0],"split_type":[0,0,0,0,0,0,0,0,0,0,0,0,0,0,0,0,0,0,0],"sum_hessian":[1.444E3,3.89E2,1.055E3,1.62E2,2.27E2,6.58E2,3.97E2,1.25E2,3.7E1,1.56E2,7.1E1,3.83E2,2.75E2,1.47E2,2.5E2,1.74E2,2.09E2,1.37E2,1E1],"tree_param":{"num_deleted":"0","num_feature":"177","num_nodes":"19","size_leaf_vector":"1"}},{"base_weights":[-1.0959402E-7,-5.768005E-4,2.017595E-4,-1.7833881E-5,-3.1879474E-4,4.5673227E-5,4.6327658E-4,-7.2509497E-6,-3.0171461E-6,-3.748941E-5,3.3029287E-6,5.7827315E-6,1.11598765E-5,-2.6240518E-6,3.009369E-7],"categories":[],"categories_nodes":[],"categories_segments":[],"categories_sizes":[],"default_left":[0,0,0,0,0,0,0,0,0,0,0,0,0,0,0],"id":2,"left_children":[1,3,5,-1,7,9,11,-1,-1,13,-1,-1,-1,-1,-1],"loss_changes":[1.6926875E-4,2.9207804E-5,4.3856504E-5,0E0,1.3062963E-6,6.787238E-6,5.823931E-6,0E0,0E0,2.0038237E-6,0E0,0E0,0E0,0E0,0E0],"parents":[2147483647,0,0,1,1,2,2,4,4,5,5,6,6,9,9],"right_children":[2,4,6,-1,8,10,12,-1,-1,14,-1,-1,-1,-1,-1],"split_conditions":[1.4475494E-3,4.347843E1,1.9606275E-3,-1.7833881E-5,3.6981082E2,1.7648351E-3,2.1141456E-3,-7.2509497E-6,-3.0171461E-6,1.5811464E-3,3.3029287E-6,5.7827315E-6,1.11598765E-5,-2.6240518E-6,3.009369E-7],"split_indices":[3,36,3,0,106,3,3,0,0,3,0,0,0,0,0],"split_type":[0,0,0,0,0,0,0,0,0,0,0,0,0,0,0],"sum_hessian":[1.444E3,3.72E2,1.072E3,1.62E2,2.1E2,6.75E2,3.97E2,1.62E2,4.8E1,4E2,2.75E2,1.47E2,2.5E2,1.41E2,2.59E2],"tree_param":{"num_deleted":"0","num_feature":"177","num_nodes":"15","size_leaf_vector":"1"}},{"base_weights":[-1.4253943E-7,-5.656372E-4,1.978075E-4,-8.7439414E-4,-3.1265765E-4,4.4766955E-5,4.5422176E-4,-1.8873023E-5,-1.1118655E-5,-7.1102727E-6,-2.962496E-6,-3.6768317E-5,3.2380497E-6,5.670882E-6,1.0941054E-5,-2.573369E-6,2.9503224E-7],"categories":[],"categories_nodes":[],"categories_segments":[],"categories_sizes":[],"default_left":[0,0,0,0,0,0,0,0,0,0,0,0,0,0,0,0,0],"id":3,"left_children":[1,3,5,7,9,11,13,-1,-1,-1,-1,15,-1,-1,-1,-1,-1],"loss_changes":[1.6276004E-4,2.8080234E-5,4.216172E-5,1.0602671E-6,1.2527107E-6,6.5242252E-6,5.5937926E-6,0E0,0E0,0E0,0E0,1.9270392E-6,0E0,0E0,0E0,0E0,0E0],"parents":[2147483647,0,0,1,1,2,2,3,3,4,4,5,5,6,6,11,11],"right_children":[2,4,6,8,10,12,14,-1,-1,-1,-1,16,-1,-1,-1,-1,-1],"split_conditions":[1.4475494E-3,4.347843E1,1.9606275E-3,9.0921804E-4,3.6981082E2,1.7648351E-3,2.1141456E-3,-1.8873023E-5,-1.1118655E-5,-7.1102727E-6,-2.962496E-6,1.5811464E-3,3.2380497E-6,5.670882E-6,1.0941054E-5,-2.573369E-6,2.9503224E-7],"split_indices":[3,36,3,3,106,3,3,0,0,0,0,3,0,0,0,0,0],"split_type":[0,0,0,0,0,0,0,0,0,0,0,0,0,0,0,0,0],"sum_hessian":[1.444E3,3.72E2,1.072E3,1.62E2,2.1E2,6.75E2,3.97E2,1.25E2,3.7E1,1.62E2,4.8E1,4E2,2.75E2,1.47E2,2.5E2,1.41E2,2.59E2],"tree_param":{"num_deleted":"0","num_feature":"177","num_nodes":"17","size_leaf_vector":"1"}},{"base_weights":[-2.1730784E-7,-5.548558E-4,1.9393291E-4,-8.578042E-4,-3.066387E-4,3.9082868E-5,4.3759504E-4,-1.8994291E-5,-1.2064081E-5,-7.2374705E-6,-3.5388618E-6,-2.118995E-6,9.876782E-5,5.4942307E-6,1.0726524E-5,9.677073E-7,3.5887044E-6],"categories":[],"categories_nodes":[],"categories_segments":[],"categories_sizes":[],"default_left":[0,0,0,0,0,0,0,0,0,0,0,0,0,0,0,0,0],"id":4,"left_children":[1,3,5,7,9,11,13,-1,-1,-1,-1,-1,15,-1,-1,-1,-1],"loss_changes":[1.5657094E-4,2.7034082E-5,4.0550873E-5,1.0435033E-6,1.2200435E-6,5.8000824E-6,5.9854647E-6,0E0,0E0,0E0,0E0,0E0,1.8789665E-6,0E0,0E0,0E0,0E0],"parents":[2147483647,0,0,1,1,2,2,3,3,4,4,5,5,6,6,12,12],"right_children":[2,4,6,8,10,12,14,-1,-1,-1,-1,-1,16,-1,-1,-1,-1],"split_conditions":[1.4475494E-3,4.347843E1,1.9473961E-3,8.361222E-4,3.696109E2,1.6163298E-3,2.1141456E-3,-1.8994291E-5,-1.2064081E-5,-7.2374705E-6,-3.5388618E-6,-2.118995E-6,1.8188942E-3,5.4942307E-6,1.0726524E-5,9.677073E-7,3.5887044E-6],"split_indices":[3,36,3,3,56,3,3,0,0,0,0,0,3,0,0,0,0],"split_type":[0,0,0,0,0,0,0,0,0,0,0,0,0,0,0,0,0],"sum_hessian":[1.444E3,3.72E2,1.072E3,1.62E2,2.1E2,6.59E2,4.13E2,1.09E2,5.3E1,1.41E2,6.9E1,1.91E2,4.68E2,1.63E2,2.5E2,2.93E2,1.75E2],"tree_param":{"num_deleted":"0","num_feature":"177","num_nodes":"17","size_leaf_vector":"1"}},{"base_weights":[-2.9294526E-7,-5.2824075E-4,1.9594564E-4,-1.683156E-5,-2.913075E-4,4.8511924E-5,4.3666412E-4,-6.8717372E-6,-3.227855E-6,-2.9591725E-5,3.1174995E-6,5.4549237E-6,1.05162E-5,-2.067747E-6,4.670042E-7],"categories":[],"categories_nodes":[],"categories_segments":[],"categories_sizes":[],"default_left":[0,0,0,0,0,0,0,0,0,0,0,0,0,0,0],"id":5,"left_children":[1,3,5,-1,7,9,11,-1,-1,13,-1,-1,-1,-1,-1],"loss_changes":[1.5063933E-4,2.8024777E-5,3.7513502E-5,0E0,1.298451E-6,5.582614E-6,5.157206E-6,0E0,0E0,1.5279411E-6,0E0,0E0,0E0,0E0,0E0],"parents":[2147483647,0,0,1,1,2,2,4,4,5,5,6,6,9,9],"right_children":[2,4,6,-1,8,10,12,-1,-1,14,-1,-1,-1,-1,-1],"split_conditions":[1.4650186E-3,4.347843E1,1.9606275E-3,-1.683156E-5,3.6970978E2,1.7648351E-3,2.1141456E-3,-6.8717372E-6,-3.227855E-6,1.6033986E-3,3.1174995E-6,5.4549237E-6,1.05162E-5,-2.067747E-6,4.670042E-7],"split_indices":[3,36,3,0,56,3,3,0,0,3,0,0,0,0,0],"split_type":[0,0,0,0,0,0,0,0,0,0,0,0,0,0,0],"sum_hessian":[1.444E3,3.89E2,1.055E3,1.62E2,2.27E2,6.58E2,3.97E2,1.56E2,7.1E1,3.83E2,2.75E2,1.47E2,2.5E2,1.58E2,2.25E2],"tree_param":{"num_deleted":"0","num_feature":"177","num_nodes":"15","size_leaf_vector":"1"}},{"base_weights":[-3.1965803E-7,-5.338813E-4,1.8645318E-4,-8.2525035E-4,-2.9514625E-4,3.75803E-5,4.2070993E-4,-1.8309202E-5,-1.1535989E-5,-6.7214587E-6,-2.766893E-6,-2.035432E-6,9.492717E-5,5.2862188E-6,1.0310001E-5,9.493868E-7,3.5022842E-6],"categories":[],"categories_nodes":[],"categories_segments":[],"categories_sizes":[],"default_left":[0,0,0,0,0,0,0,0,0,0,0,0,0,0,0,0,0],"id":6,"left_children":[1,3,5,7,9,11,13,-1,-1,-1,-1,-1,15,-1,-1,-1,-1],"loss_changes":[1.4489755E-4,2.5006273E-5,3.7480768E-5,1.1027369E-6,1.1472639E-6,5.3545914E-6,5.5156197E-6,0E0,0E0,0E0,0E0,0E0,1.7584402E-6,0E0,0E0,0E0,0E0],"parents":[2147483647,0,0,1,1,2,2,3,3,4,4,5,5,6,6,12,12],"right_children":[2,4,6,8,10,12,14,-1,-1,-1,-1,-1,16,-1,-1,-1,-1],"split_conditions":[1.4475494E-3,4.347843E1,1.9473961E-3,8.361222E-4,3.6981082E2,1.6163298E-3,2.1141456E-3,-1.8309202E-5,-1.1535989E-5,-6.7214587E-6,-2.766893E-6,-2.035432E-6,1.8231136E-3,5.2862188E-6,1.0310001E-5,9.493868E-7,3.5022842E-6],"split_indices":[3,36,3,3,106,3,3,0,0,0,0,0,3,0,0,0,0],"split_type":[0,0,0,0,0,0,0,0,0,0,0,0,0,0,0,0,0],"sum_hessian":[1.444E3,3.72E2,1.072E3,1.62E2,2.1E2,6.59E2,4.13E2,1.09E2,5.3E1,1.62E2,4.8E1,1.91E2,4.68E2,1.63E2,2.5E2,2.99E2,1.69E2],"tree_param":{"num_deleted":"0","num_feature":"177","num_nodes":"17","size_leaf_vector":"1"}},{"base_weights":[-3.8682276E-7,-5.2372535E-4,1.8280775E-4,-8.0963894E-4,-2.89464E-4,3.68469E-5,4.1248233E-4,-1.7959077E-5,-1.1325159E-5,-3.9624742E-6,-3.661196E-4,-3.430949E-5,2.9061882E-6,5.1836414E-6,1.0107845E-5,-7.926574E-6,-8.1343603E-7,-2.3952905E-6,2.7199073E-7],"categories":[],"categories_nodes":[],"categories_segments":[],"categories_sizes":[],"default_left":[0,0,0,0,0,0,0,0,0,0,0,0,0,0,0,0,0,0,0],"id":7,"left_children":[1,3,5,7,9,11,13,-1,-1,-1,15,17,-1,-1,-1,-1,-1,-1,-1],"loss_changes":[1.3939837E-4,2.4079083E-5,3.602881E-5,1.0471631E-6,1.142691E-6,5.1495467E-6,5.298687E-6,0E0,0E0,0E0,1.0106969E-6,1.6662414E-6,0E0,0E0,0E0,0E0,0E0,0E0,0E0],"parents":[2147483647,0,0,1,1,2,2,3,3,4,4,5,5,6,6,10,10,11,11],"right_children":[2,4,6,8,10,12,14,-1,-1,-1,16,18,-1,-1,-1,-1,-1,-1,-1],"split_conditions":[1.4475494E-3,4.347843E1,1.9473961E-3,8.361222E-4,4.5573676E2,1.7648351E-3,2.1141456E-3,-1.7959077E-5,-1.1325159E-5,-3.9624742E-6,3.833772E1,1.5811464E-3,2.9061882E-6,5.1836414E-6,1.0107845E-5,-7.926574E-6,-8.1343603E-7,-2.3952905E-6,2.7199073E-7],"split_indices":[3,36,3,3,142,3,3,0,0,0,138,3,0,0,0,0,0,0,0],"split_type":[0,0,0,0,0,0,0,0,0,0,0,0,0,0,0,0,0,0,0],"sum_hessian":[1.444E3,3.72E2,1.072E3,1.62E2,2.1E2,6.59E2,4.13E2,1.09E2,5.3E1,1.04E2,1.06E2,4E2,2.59E2,1.63E2,2.5E2,9.6E1,1E1,1.41E2,2.59E2],"tree_param":{"num_deleted":"0","num_feature":"177","num_nodes":"19","size_leaf_vector":"1"}},{"base_weights":[-4.6850775E-7,-5.1380775E-4,1.7922623E-4,-7.801734E-4,-5.475242E-6,3.6115864E-5,4.044156E-4,-1.7173716E-5,-1.0071127E-5,-1.9626875E-6,9.1364214E-5,5.0830545E-6,9.909651E-6,9.0976476E-7,3.3777987E-6],"categories":[],"categories_nodes":[],"categories_segments":[],"categories_sizes":[],"default_left":[0,0,0,0,0,0,0,0,0,0,0,0,0,0,0],"id":8,"left_children":[1,3,5,7,-1,9,11,-1,-1,-1,13,-1,-1,-1,-1],"loss_changes":[1.341225E-4,2.3037457E-5,3.4635374E-5,1.6603517E-6,0E0,4.9697874E-6,5.0902745E-6,0E0,0E0,0E0,1.6438439E-6,0E0,0E0,0E0,0E0],"parents":[2147483647,0,0,1,1,2,2,3,3,5,5,6,6,10,10],"right_children":[2,4,6,8,-1,10,12,-1,-1,-1,14,-1,-1,-1,-1],"split_conditions":[1.4475494E-3,3.8747707E1,1.9473961E-3,9.0921804E-4,-5.475242E-6,1.6163298E-3,2.1141456E-3,-1.7173716E-5,-1.0071127E-5,-1.9626875E-6,1.8231136E-3,5.0830545E-6,9.909651E-6,9.0976476E-7,3.3777987E-6],"split_indices":[3,35,3,3,0,3,3,0,0,0,3,0,0,0,0],"split_type":[0,0,0,0,0,0,0,0,0,0,0,0,0,0,0],"sum_hessian":[1.444E3,3.72E2,1.072E3,1.71E2,2.01E2,6.59E2,4.13E2,1.25E2,4.6E1,1.91E2,4.68E2,1.63E2,2.5E2,2.99E2,1.69E2],"tree_param":{"num_deleted":"0","num_feature":"177","num_nodes":"15","size_leaf_vector":"1"}},{"base_weights":[-5.122897E-7,-4.891168E-4,1.8110352E-4,-1.5585292E-5,-2.697192E-4,4.4841316E-5,4.0358194E-4,-6.393553E-6,-2.9228274E-6,-2.7645092E-5,2.8897205E-6,2.8198995E-4,5.169901E-4,-1.9148433E-6,4.2431984E-7,5.9725144E-6,-5.654376E-7,8.2891465E-6,1.2623875E-5],"categories":[],"categories_nodes":[],"categories_segments":[],"categories_sizes":[],"default_left":[0,0,0,0,0,0,0,0,0,0,0,0,0,0,0,0,0,0,0],"id":9,"left_children":[1,3,5,-1,7,9,11,-1,-1,13,-1,15,17,-1,-1,-1,-1,-1,-1],"loss_changes":[1.2902473E-4,2.4030232E-5,3.2043834E-5,0E0,1.1987213E-6,4.808746E-6,4.8144575E-6,0E0,0E0,1.3011476E-6,0E0,1.1003103E-6,1.0573276E-6,0E0,0E0,0E0,0E0,0E0,0E0],"parents":[2147483647,0,0,1,1,2,2,4,4,5,5,6,6,9,9,11,11,12,12],"right_children":[2,4,6,-1,8,10,12,-1,-1,14,-1,16,18,-1,-1,-1,-1,-1,-1],"split_conditions":[1.4650186E-3,4.347843E1,1.9606275E-3,-1.5585292E-5,3.6970978E2,1.7648351E-3,1.1658567E3,-6.393553E-6,-2.9228274E-6,1.6033986E-3,2.8897205E-6,2.5423029E2,2.3159934E-3,-1.9148433E-6,4.2431984E-7,5.9725144E-6,-5.654376E-7,8.2891465E-6,1.2623875E-5],"split_indices":[3,36,3,0,56,3,18,0,0,3,0,99,3,0,0,0,0,0,0],"split_type":[0,0,0,0,0,0,0,0,0,0,0,0,0,0,0,0,0,0,0],"sum_hessian":[1.444E3,3.89E2,1.055E3,1.62E2,2.27E2,6.58E2,3.97E2,1.56E2,7.1E1,3.83E2,2.75E2,2E2,1.97E2,1.58E2,2.25E2,1.9E2,1E1,1.16E2,8.1E1],"tree_param":{"num_deleted":"0","num_feature":"177","num_nodes":"19","size_leaf_vector":"1"}},{"base_weights":[-4.9234086E-7,-4.943054E-4,1.7236744E-4,-7.6414587E-4,-2.732129E-4,1.7461382E-5,3.6484996E-4,-1.6989205E-5,-1.0611687E-5,-3.6915783E-6,-6.9588596E-6,-1.8852918E-6,1.4105893E-6,4.6498308E-6,9.541563E-6],"categories":[],"categories_nodes":[],"categories_segments":[],"categories_sizes":[],"default_left":[0,0,0,0,0,0,0,0,0,0,0,0,0,0,0],"id":10,"left_children":[1,3,5,7,9,11,13,-1,-1,-1,-1,-1,-1,-1,-1],"loss_changes":[1.2411326E-4,2.1447828E-5,3.2080745E-5,1.0741278E-6,1.1029642E-6,3.6025506E-6,6.575501E-6,0E0,0E0,0E0,0E0,0E0,0E0,0E0,0E0],"parents":[2147483647,0,0,1,1,2,2,3,3,4,4,5,5,6,6],"right_children":[2,4,6,8,10,12,14,-1,-1,-1,-1,-1,-1,-1,-1],"split_conditions":[1.4475494E-3,4.347843E1,1.8983483E-3,8.361222E-4,4.5573676E2,1.6163298E-3,2.1141456E-3,-1.6989205E-5,-1.0611687E-5,-3.6915783E-6,-6.9588596E-6,-1.8852918E-6,1.4105893E-6,4.6498308E-6,9.541563E-6],"split_indices":[3,36,3,3,142,3,3,0,0,0,0,0,0,0,0],"split_type":[0,0,0,0,0,0,0,0,0,0,0,0,0,0,0],"sum_hessian":[1.444E3,3.72E2,1.072E3,1.62E2,2.1E2,5.97E2,4.75E2,1.09E2,5.3E1,1.04E2,1.06E2,1.91E2,4.06E2,2.25E2,2.5E2],"tree_param":{"num_deleted":"0","num_feature":"177","num_nodes":"15","size_leaf_vector":"1"}},{"base_weights":[-5.67153E-7,-4.8492663E-4,1.6898378E-4,-7.4968935E-4,-2.6799637E-4,1.7108217E-5,3.577008E-4,-1.6664324E-5,-1.0417749E-5,-3.6211345E-6,-6.825952E-6,-1.8485467E-6,1.3827205E-6,4.558856E-6,9.354474E-6],"categories":[],"categories_nodes":[],"categories_segments":[],"categories_sizes":[],"default_left":[0,0,0,0,0,0,0,0,0,0,0,0,0,0,0],"id":11,"left_children":[1,3,5,7,9,11,13,-1,-1,-1,-1,-1,-1,-1,-1],"loss_changes":[1.1940682E-4,2.0648433E-5,3.0837848E-5,1.0214935E-6,1.0611784E-6,3.4626848E-6,6.3195766E-6,0E0,0E0,0E0,0E0,0E0,0E0,0E0,0E0],"parents":[2147483647,0,0,1,1,2,2,3,3,4,4,5,5,6,6],"right_children":[2,4,6,8,10,12,14,-1,-1,-1,-1,-1,-1,-1,-1],"split_conditions":[1.4475494E-3,4.347843E1,1.8983483E-3,8.361222E-4,4.5573676E2,1.6163298E-3,2.1141456E-3,-1.6664324E-5,-1.0417749E-5,-3.6211345E-6,-6.825952E-6,-1.8485467E-6,1.3827205E-6,4.558856E-6,9.354474E-6],"split_indices":[3,36,3,3,142,3,3,0,0,0,0,0,0,0,0],"split_type":[0,0,0,0,0,0,0,0,0,0,0,0,0,0,0],"sum_hessian":[1.444E3,3.72E2,1.072E3,1.62E2,2.1E2,5.97E2,4.75E2,1.09E2,5.3E1,1.04E2,1.06E2,1.91E2,4.06E2,2.25E2,2.5E2],"tree_param":{"num_deleted":"0","num_feature":"177","num_nodes":"15","size_leaf_vector":"1"}},{"base_weights":[-6.388882E-7,-4.6171152E-4,1.7074395E-4,-7.2288496E-4,-2.4523132E-4,4.214106E-5,3.8071908E-4,-1.5927626E-5,-9.293406E-6,1.1982864E-6,-2.624774E-4,-2.6941561E-5,2.7423462E-6,2.6352846E-4,4.902264E-4,-3.6814229E-6,-6.8858662E-6,-8.583484E-7,3.2792132E-6,5.595202E-6,-7.0651373E-7,7.817549E-6,1.203013E-5],"categories":[],"categories_nodes":[],"categories_segments":[],"categories_sizes":[],"default_left":[0,0,0,0,0,0,0,0,0,0,0,0,0,0,0,0,0,0,0,0,0,0,0],"id":12,"left_children":[1,3,5,7,9,11,13,-1,-1,-1,15,17,-1,19,21,-1,-1,-1,-1,-1,-1,-1,-1],"loss_changes":[1.1489406E-4,2.1389955E-5,2.8543396E-5,1.4898251E-6,1.2521841E-6,4.3685523E-6,4.513011E-6,0E0,0E0,0E0,1.0430822E-6,1.2185169E-6,0E0,1.043848E-6,1.0576478E-6,0E0,0E0,0E0,0E0,0E0,0E0,0E0,0E0],"parents":[2147483647,0,0,1,1,2,2,3,3,4,4,5,5,6,6,10,10,11,11,13,13,14,14],"right_children":[2,4,6,8,10,12,14,-1,-1,-1,16,18,-1,20,22,-1,-1,-1,-1,-1,-1,-1,-1],"split_conditions":[1.4650186E-3,3.8747707E1,1.9606275E-3,9.0921804E-4,-4.3233356E1,1.7648351E-3,1.1658567E3,-1.5927626E-5,-9.293406E-6,1.1982864E-6,4.5573676E2,3.0553038E1,2.7423462E-6,2.5423029E2,2.3159934E-3,-3.6814229E-6,-6.8858662E-6,-8.583484E-7,3.2792132E-6,5.595202E-6,-7.0651373E-7,7.817549E-6,1.203013E-5],"split_indices":[3,35,3,3,40,3,18,0,0,0,142,76,0,99,3,0,0,0,0,0,0,0,0],"split_type":[0,0,0,0,0,0,0,0,0,0,0,0,0,0,0,0,0,0,0,0,0,0,0],"sum_hessian":[1.444E3,3.89E2,1.055E3,1.71E2,2.18E2,6.58E2,3.97E2,1.25E2,4.6E1,1.1E1,2.07E2,3.83E2,2.75E2,2E2,1.97E2,1.14E2,9.3E1,3.57E2,2.6E1,1.9E2,1E1,1.16E2,8.1E1],"tree_param":{"num_deleted":"0","num_feature":"177","num_nodes":"23","size_leaf_vector":"1"}},{"base_weights":[-6.423046E-7,-4.6669962E-4,1.6250237E-4,-1.4430799E-5,-2.579004E-4,1.6335898E-5,3.4412678E-4,-5.924249E-6,-2.2570216E-6,-1.793441E-6,1.3338166E-6,4.3779332E-6,9.006637E-6],"categories":[],"categories_nodes":[],"categories_segments":[],"categories_sizes":[],"default_left":[0,0,0,0,0,0,0,0,0,0,0,0,0],"id":13,"left_children":[1,3,5,-1,7,9,11,-1,-1,-1,-1,-1,-1],"loss_changes":[1.1055358E-4,1.9129919E-5,2.8563438E-5,0E0,1.0276444E-6,3.2433916E-6,5.8911537E-6,0E0,0E0,0E0,0E0,0E0,0E0],"parents":[2147483647,0,0,1,1,2,2,4,4,5,5,6,6],"right_children":[2,4,6,-1,8,10,12,-1,-1,-1,-1,-1,-1],"split_conditions":[1.4475494E-3,4.347843E1,1.8983483E-3,-1.4430799E-5,3.6981082E2,1.6163298E-3,2.1141456E-3,-5.924249E-6,-2.2570216E-6,-1.793441E-6,1.3338166E-6,4.3779332E-6,9.006637E-6],"split_indices":[3,36,3,0,106,3,3,0,0,0,0,0,0],"split_type":[0,0,0,0,0,0,0,0,0,0,0,0,0],"sum_hessian":[1.444E3,3.72E2,1.072E3,1.62E2,2.1E2,5.97E2,4.75E2,1.62E2,4.8E1,1.91E2,4.06E2,2.25E2,2.5E2],"tree_param":{"num_deleted":"0","num_feature":"177","num_nodes":"13","size_leaf_vector":"1"}},{"base_weights":[-6.628469E-7,-5.088594E-4,1.4332162E-4,-7.075412E-4,-5.6835834E-6,6.675207E-7,3.3738368E-4,-1.5765117E-5,-9.758001E-6,-2.097555E-6,1.3074657E-6,4.781859E-6,4.701688E-4,9.871125E-6,3.0883743E-6],"categories":[],"categories_nodes":[],"categories_segments":[],"categories_sizes":[],"default_left":[0,0,0,0,0,0,0,0,0,0,0,0,0,0,0],"id":14,"left_children":[1,3,5,7,-1,9,11,-1,-1,-1,-1,-1,13,-1,-1],"loss_changes":[1.0639148E-4,1.3324046E-5,3.136456E-5,1.0376752E-6,0E0,4.528018E-6,5.7026737E-6,0E0,0E0,0E0,0E0,0E0,1.0884651E-6,0E0,0E0],"parents":[2147483647,0,0,1,1,2,2,3,3,5,5,6,6,12,12],"right_children":[2,4,6,8,-1,10,12,-1,-1,-1,-1,-1,14,-1,-1],"split_conditions":[1.3800425E-3,4.347843E1,1.8983483E-3,8.361222E-4,-5.6835834E-6,1.6163298E-3,2.189585E-3,-1.5765117E-5,-9.758001E-6,-2.097555E-6,1.3074657E-6,4.781859E-6,4.1001617E1,9.871125E-6,3.0883743E-6],"split_indices":[3,36,3,3,0,3,3,0,0,0,0,0,83,0,0],"split_type":[0,0,0,0,0,0,0,0,0,0,0,0,0,0,0],"sum_hessian":[1.444E3,3.16E2,1.128E3,1.62E2,1.54E2,6.53E2,4.75E2,1.09E2,5.3E1,2.47E2,4.06E2,2.81E2,1.94E2,1.78E2,1.6E1],"tree_param":{"num_deleted":"0","num_feature":"177","num_nodes":"15","size_leaf_vector":"1"}},{"base_weights":[-6.9877115E-7,-4.3591036E-4,1.6107185E-4,-6.8034075E-4,-2.2917661E-4,3.96633E-5,3.5930198E-4,-1.5463645E-5,-9.553006E-6,1.2947241E-6,-4.922268E-6,-2.604931E-5,2.6002788E-6,4.933336E-6,4.6471632E-4,-8.328826E-7,3.2051894E-6,7.379615E-6,1.1447913E-5],"categories":[],"categories_nodes":[],"categories_segments":[],"categories_sizes":[],"default_left":[0,0,0,0,0,0,0,0,0,0,0,0,0,0,0,0,0,0,0],"id":15,"left_children":[1,3,5,7,9,11,13,-1,-1,-1,-1,15,-1,-1,17,-1,-1,-1,-1],"loss_changes":[1.02367114E-4,1.913002E-5,2.5439582E-5,1.50306E-6,1.1797856E-6,3.9532815E-6,4.199941E-6,0E0,0E0,0E0,0E0,1.1606849E-6,0E0,0E0,1.0263539E-6,0E0,0E0,0E0,0E0],"parents":[2147483647,0,0,1,1,2,2,3,3,4,4,5,5,6,6,11,11,14,14],"right_children":[2,4,6,8,10,12,14,-1,-1,-1,-1,16,-1,-1,18,-1,-1,-1,-1],"split_conditions":[1.4650186E-3,4.3531826E1,1.9606275E-3,8.361222E-4,-4.3233356E1,1.7648351E-3,1.1658567E3,-1.5463645E-5,-9.553006E-6,1.2947241E-6,-4.922268E-6,3.0553038E1,2.6002788E-6,4.933336E-6,2.3159934E-3,-8.328826E-7,3.2051894E-6,7.379615E-6,1.1447913E-5],"split_indices":[3,36,3,3,40,3,18,0,0,0,0,76,0,0,3,0,0,0,0],"split_type":[0,0,0,0,0,0,0,0,0,0,0,0,0,0,0,0,0,0,0],"sum_hessian":[1.444E3,3.89E2,1.055E3,1.73E2,2.16E2,6.58E2,3.97E2,1.09E2,6.4E1,1.1E1,2.05E2,3.83E2,2.75E2,2E2,1.97E2,3.57E2,2.6E1,1.16E2,8.1E1],"tree_param":{"num_deleted":"0","num_feature":"177","num_nodes":"19","size_leaf_vector":"1"}},{"base_weights":[-6.8448594E-7,-5.136718E-4,1.3155914E-4,-1.3846956E-5,-6.025273E-6,-5.490206E-6,3.246275E-4,-2.1569074E-6,1.2612479E-6,4.111428E-6,8.512923E-6],"categories":[],"categories_nodes":[],"categories_segments":[],"categories_sizes":[],"default_left":[0,0,0,0,0,0,0,0,0,0,0],"id":16,"left_children":[1,3,5,-1,-1,7,9,-1,-1,-1,-1],"loss_changes":[9.8637036E-5,1.0266871E-5,3.0596544E-5,0E0,0E0,4.8123866E-6,5.335405E-6,0E0,0E0,0E0,0E0],"parents":[2147483647,0,0,1,1,2,2,5,5,6,6],"right_children":[2,4,6,-1,-1,8,10,-1,-1,-1,-1],"split_conditions":[1.3466842E-3,4.3960857E1,1.8983483E-3,-1.3846956E-5,-6.025273E-6,1.6163298E-3,2.1141456E-3,-2.1569074E-6,1.2612479E-6,4.111428E-6,8.512923E-6],"split_indices":[3,86,3,0,0,3,3,0,0,0,0],"split_type":[0,0,0,0,0,0,0,0,0,0,0],"sum_hessian":[1.444E3,2.93E2,1.151E3,1.53E2,1.4E2,6.76E2,4.75E2,2.7E2,4.06E2,2.25E2,2.5E2],"tree_param":{"num_deleted":"0","num_feature":"177","num_nodes":"11","size_leaf_vector":"1"}},{"base_weights":[-6.988839E-7,-4.805925E-4,1.3526701E-4,-1.3360377E-5,-5.3724593E-6,7.44093E-7,3.1826648E-4,-1.977537E-6,1.2363299E-6,4.4958992E-6,4.4460577E-4,9.3446115E-6,2.8317595E-6],"categories":[],"categories_nodes":[],"categories_segments":[],"categories_sizes":[],"default_left":[0,0,0,0,0,0,0,0,0,0,0,0,0],"id":17,"left_children":[1,3,5,-1,-1,7,9,-1,-1,-1,11,-1,-1],"loss_changes":[9.487109E-5,1.1855678E-5,2.789058E-5,0E0,0E0,4.033893E-6,5.1686548E-6,0E0,0E0,0E0,1.033517E-6,0E0,0E0],"parents":[2147483647,0,0,1,1,2,2,5,5,6,6,10,10],"right_children":[2,4,6,-1,-1,8,10,-1,-1,-1,12,-1,-1],"split_conditions":[1.3800425E-3,4.347843E1,1.8983483E-3,-1.3360377E-5,-5.3724593E-6,1.6163298E-3,2.189585E-3,-1.977537E-6,1.2363299E-6,4.4958992E-6,4.1001617E1,9.3446115E-6,2.8317595E-6],"split_indices":[3,36,3,0,0,3,3,0,0,0,83,0,0],"split_type":[0,0,0,0,0,0,0,0,0,0,0,0,0],"sum_hessian":[1.444E3,3.16E2,1.128E3,1.62E2,1.54E2,6.53E2,4.75E2,2.47E2,4.06E2,2.81E2,1.94E2,1.78E2,1.6E1],"tree_param":{"num_deleted":"0","num_feature":"177","num_nodes":"13","size_leaf_vector":"1"}},{"base_weights":[-6.94566E-7,-4.94107E-4,1.26503E-4,-1.332003E-5,-5.7952625E-6,-5.2253313E-6,3.1207482E-4,-2.4175497E-6,5.127762E-5,3.9430247E-6,4.0961226E-4,6.09139E-6,8.340387E-7,8.450048E-6,1.2507173E-6],"categories":[],"categories_nodes":[],"categories_segments":[],"categories_sizes":[],"default_left":[0,0,0,0,0,0,0,0,0,0,0,0,0,0,0],"id":18,"left_children":[1,3,5,-1,-1,7,9,-1,11,-1,13,-1,-1,-1,-1],"loss_changes":[9.1253016E-5,9.50251E-6,2.8266653E-5,0E0,0E0,4.4811145E-6,4.9767077E-6,0E0,1.0546235E-6,0E0,1.0087315E-6,0E0,0E0,0E0,0E0],"parents":[2147483647,0,0,1,1,2,2,5,5,6,6,8,8,10,10],"right_children":[2,4,6,-1,-1,8,10,-1,12,-1,14,-1,-1,-1,-1],"split_conditions":[1.3466842E-3,4.3960857E1,1.8983483E-3,-1.332003E-5,-5.7952625E-6,1.5811464E-3,2.1141456E-3,-2.4175497E-6,1.6436159E-3,3.9430247E-6,2.7899385E1,6.09139E-6,8.340387E-7,8.450048E-6,1.2507173E-6],"split_indices":[3,86,3,0,0,3,3,0,15,0,8,0,0,0,0],"split_type":[0,0,0,0,0,0,0,0,0,0,0,0,0,0,0],"sum_hessian":[1.444E3,2.93E2,1.151E3,1.53E2,1.4E2,6.76E2,4.75E2,2.2E2,4.56E2,2.25E2,2.5E2,1.1E1,4.45E2,2.4E2,1E1],"tree_param":{"num_deleted":"0","num_feature":"177","num_nodes":"15","size_leaf_vector":"1"}},{"base_weights":[-6.8396963E-7,-4.037316E-4,1.491313E-4,-6.302656E-4,-2.121401E-4,3.677798E-5,3.3257555E-4,-1.4395632E-5,-8.733964E-6,8.2778956E-7,-4.6321115E-6,-2.4867944E-5,2.4308972E-6,4.5081565E-6,4.331028E-4,-8.0068435E-7,3.124919E-6,7.086382E-6,1.1185718E-5],"categories":[],"categories_nodes":[],"categories_segments":[],"categories_sizes":[],"default_left":[0,0,0,0,0,0,0,0,0,0,0,0,0,0,0,0,0,0,0],"id":19,"left_children":[1,3,5,7,9,11,13,-1,-1,-1,-1,15,-1,-1,17,-1,-1,-1,-1],"loss_changes":[8.779556E-5,1.6431855E-5,2.1786049E-5,1.5126352E-6,1.138581E-6,3.4796408E-6,3.8427315E-6,0E0,0E0,0E0,0E0,1.097043E-6,0E0,0E0,1.017288E-6,0E0,0E0,0E0,0E0],"parents":[2147483647,0,0,1,1,2,2,3,3,4,4,5,5,6,6,11,11,14,14],"right_children":[2,4,6,8,10,12,14,-1,-1,-1,-1,16,-1,-1,18,-1,-1,-1,-1],"split_conditions":[1.4650186E-3,4.3531826E1,1.9606275E-3,8.361222E-4,-4.311956E1,1.7648351E-3,1.1658567E3,-1.4395632E-5,-8.733964E-6,8.2778956E-7,-4.6321115E-6,3.0553038E1,2.4308972E-6,4.5081565E-6,2.375904E-3,-8.0068435E-7,3.124919E-6,7.086382E-6,1.1185718E-5],"split_indices":[3,36,3,3,40,3,18,0,0,0,0,76,0,0,3,0,0,0,0],"split_type":[0,0,0,0,0,0,0,0,0,0,0,0,0,0,0,0,0,0,0],"sum_hessian":[1.444E3,3.89E2,1.055E3,1.73E2,2.16E2,6.58E2,3.97E2,1.09E2,6.4E1,1.5E1,2.01E2,3.83E2,2.75E2,2E2,1.97E2,3.57E2,2.6E1,1.33E2,6.4E1],"tree_param":{"num_deleted":"0","num_feature":"177","num_nodes":"19","size_leaf_vector":"1"}},{"base_weights":[-6.6820513E-7,-4.757039E-4,1.2179199E-4,-1.2815508E-5,-5.5885866E-6,-2.2495462E-5,2.787839E-4,-2.3265757E-6,6.469886E-7,3.5429644E-6,7.889665E-6],"categories":[],"categories_nodes":[],"categories_segments":[],"categories_sizes":[],"default_left":[0,0,0,0,0,0,0,0,0,0,0],"id":20,"left_children":[1,3,5,-1,-1,7,9,-1,-1,-1,-1],"loss_changes":[8.458231E-5,8.759744E-6,2.6217027E-5,0E0,0E0,3.142607E-6,6.165177E-6,0E0,0E0,0E0,0E0],"parents":[2147483647,0,0,1,1,2,2,5,5,6,6],"right_children":[2,4,6,-1,-1,8,10,-1,-1,-1,-1],"split_conditions":[1.3466842E-3,4.3960857E1,1.8426697E-3,-1.2815508E-5,-5.5885866E-6,1.5811464E-3,2.1141456E-3,-2.3265757E-6,6.469886E-7,3.5429644E-6,7.889665E-6],"split_indices":[3,86,3,0,0,3,3,0,0,0,0],"split_type":[0,0,0,0,0,0,0,0,0,0,0],"sum_hessian":[1.444E3,2.93E2,1.151E3,1.53E2,1.4E2,6.02E2,5.49E2,2.2E2,3.82E2,2.99E2,2.5E2],"tree_param":{"num_deleted":"0","num_feature":"177","num_nodes":"11","size_leaf_vector":"1"}},{"base_weights":[-6.847176E-7,-4.6649863E-4,1.19398304E-4,-1.256731E-5,-5.480668E-6,-2.2059423E-5,2.733114E-4,-2.3209532E-6,6.1192713E-7,1.736635E-4,7.734964E-6,6.020853E-6,2.8153968E-6],"categories":[],"categories_nodes":[],"categories_segments":[],"categories_sizes":[],"default_left":[0,0,0,0,0,0,0,0,0,0,0,0,0],"id":21,"left_children":[1,3,5,-1,-1,7,9,-1,-1,11,-1,-1,-1],"loss_changes":[8.133026E-5,8.422845E-6,2.5198802E-5,0E0,0E0,3.021811E-6,5.926453E-6,0E0,0E0,1.0618614E-6,0E0,0E0,0E0],"parents":[2147483647,0,0,1,1,2,2,5,5,6,6,9,9],"right_children":[2,4,6,-1,-1,8,10,-1,-1,12,-1,-1,-1],"split_conditions":[1.3466842E-3,4.3960857E1,1.8426697E-3,-1.256731E-5,-5.480668E-6,1.5733002E-3,2.1141456E-3,-2.3209532E-6,6.1192713E-7,2.0746418E3,7.734964E-6,6.020853E-6,2.8153968E-6],"split_indices":[3,86,3,0,0,3,3,0,0,150,0,0,0],"split_type":[0,0,0,0,0,0,0,0,0,0,0,0,0],"sum_hessian":[1.444E3,2.93E2,1.151E3,1.53E2,1.4E2,6.02E2,5.49E2,2.14E2,3.88E2,2.99E2,2.5E2,5.3E1,2.46E2],"tree_param":{"num_deleted":"0","num_feature":"177","num_nodes":"13","size_leaf_vector":"1"}},{"base_weights":[-6.8200336E-7,-4.364578E-4,1.227844E-4,-5.9524854E-4,-4.6146915E-6,7.3980647E-7,2.888082E-4,-1.3637468E-5,-8.179902E-6,-1.8037182E-6,1.1296175E-6,3.927186E-6,3.9913348E-4,5.891125E-6,9.835794E-6],"categories":[],"categories_nodes":[],"categories_segments":[],"categories_sizes":[],"default_left":[0,0,0,0,0,0,0,0,0,0,0,0,0,0,0],"id":22,"left_children":[1,3,5,7,-1,9,11,-1,-1,-1,-1,-1,13,-1,-1],"loss_changes":[7.822947E-5,9.799362E-6,2.2956126E-5,1.4774705E-6,0E0,3.3604083E-6,4.503865E-6,0E0,0E0,0E0,0E0,0E0,1.3493081E-6,0E0,0E0],"parents":[2147483647,0,0,1,1,2,2,3,3,5,5,6,6,12,12],"right_children":[2,4,6,8,-1,10,12,-1,-1,-1,-1,-1,14,-1,-1],"split_conditions":[1.3800425E-3,3.8785156E1,1.8983483E-3,8.361222E-4,-4.6146915E-6,1.6163298E-3,1.1658567E3,-1.3637468E-5,-8.179902E-6,-1.8037182E-6,1.1296175E-6,3.927186E-6,2.2581865E-3,5.891125E-6,9.835794E-6],"split_indices":[3,35,3,3,0,3,18,0,0,0,0,0,3,0,0],"split_type":[0,0,0,0,0,0,0,0,0,0,0,0,0,0,0],"sum_hessian":[1.444E3,3.16E2,1.128E3,1.73E2,1.43E2,6.53E2,4.75E2,1.09E2,6.4E1,2.47E2,4.06E2,2.66E2,2.09E2,1.08E2,1.01E2],"tree_param":{"num_deleted":"0","num_feature":"177","num_nodes":"15","size_leaf_vector":"1"}},{"base_weights":[-6.940529E-7,-3.739657E-4,1.380536E-4,-5.8395637E-4,-1.9637219E-4,3.394465E-5,3.0803858E-4,-1.3376682E-5,-8.028159E-6,-3.1443126E-6,-6.982128E-6,-2.3540599E-5,2.2599322E-6,4.1376184E-6,4.0307385E-4,-7.6691487E-7,3.0628435E-6,6.547181E-6,1.0505904E-5],"categories":[],"categories_nodes":[],"categories_segments":[],"categories_sizes":[],"default_left":[0,0,0,0,0,0,0,0,0,0,0,0,0,0,0,0,0,0,0],"id":23,"left_children":[1,3,5,7,9,11,13,-1,-1,-1,-1,15,-1,-1,17,-1,-1,-1,-1],"loss_changes":[7.530266E-5,1.4120073E-5,1.8706494E-5,1.4156103E-6,1.0472759E-6,3.0261856E-6,3.4477016E-6,0E0,0E0,0E0,0E0,1.0442976E-6,0E0,0E0,1.0095027E-6,0E0,0E0,0E0,0E0],"parents":[2147483647,0,0,1,1,2,2,3,3,4,4,5,5,6,6,11,11,14,14],"right_children":[2,4,6,8,10,12,14,-1,-1,-1,-1,16,-1,-1,18,-1,-1,-1,-1],"split_conditions":[1.4650186E-3,4.3531826E1,1.9606275E-3,8.361222E-4,3.2076057E1,1.7648351E-3,1.1658567E3,-1.3376682E-5,-8.028159E-6,-3.1443126E-6,-6.982128E-6,3.0553038E1,2.2599322E-6,4.1376184E-6,2.375904E-3,-7.6691487E-7,3.0628435E-6,6.547181E-6,1.0505904E-5],"split_indices":[3,36,3,3,8,3,18,0,0,0,0,76,0,0,3,0,0,0,0],"split_type":[0,0,0,0,0,0,0,0,0,0,0,0,0,0,0,0,0,0,0],"sum_hessian":[1.444E3,3.89E2,1.055E3,1.73E2,2.16E2,6.58E2,3.97E2,1.09E2,6.4E1,1.8E2,3.6E1,3.83E2,2.75E2,2E2,1.97E2,3.57E2,2.6E1,1.33E2,6.4E1],"tree_param":{"num_deleted":"0","num_feature":"177","num_nodes":"19","size_leaf_vector":"1"}},{"base_weights":[-7.0014414E-7,-4.405859E-4,1.1269903E-4,-1.1862287E-5,-5.1837965E-6,-2.095045E-5,2.5811733E-4,-2.1986036E-6,5.7800435E-7,1.6349975E-4,7.3171045E-6,5.7460447E-6,2.6327004E-6],"categories":[],"categories_nodes":[],"categories_segments":[],"categories_sizes":[],"default_left":[0,0,0,0,0,0,0,0,0,0,0,0,0],"id":24,"left_children":[1,3,5,-1,-1,7,9,-1,-1,11,-1,-1,-1],"loss_changes":[7.252827E-5,7.4764357E-6,2.2493994E-5,0E0,0E0,2.7083543E-6,5.3483345E-6,0E0,0E0,1.010163E-6,0E0,0E0,0E0],"parents":[2147483647,0,0,1,1,2,2,5,5,6,6,9,9],"right_children":[2,4,6,-1,-1,8,10,-1,-1,12,-1,-1,-1],"split_conditions":[1.3466842E-3,4.3960857E1,1.8426697E-3,-1.1862287E-5,-5.1837965E-6,1.5733002E-3,2.1141456E-3,-2.1986036E-6,5.7800435E-7,2.0746418E3,7.3171045E-6,5.7460447E-6,2.6327004E-6],"split_indices":[3,86,3,0,0,3,3,0,0,150,0,0,0],"split_type":[0,0,0,0,0,0,0,0,0,0,0,0,0],"sum_hessian":[1.444E3,2.93E2,1.151E3,1.53E2,1.4E2,6.02E2,5.49E2,2.14E2,3.88E2,2.99E2,2.5E2,5.3E1,2.46E2],"tree_param":{"num_deleted":"0","num_feature":"177","num_nodes":"13","size_leaf_vector":"1"}},{"base_weights":[-6.9639384E-7,8.5904714E-5,-5.283125E-4,3.4342727E-4,2.38988E-5,-1.3113322E-5,-7.620645E-6,7.8938E-6,1.3578779E-6,8.665874E-5,-1.0086723E-4,2.5529275E-6,-1.152415E-6,-1.0082384E-6,-5.5901846E-6],"categories":[],"categories_nodes":[],"categories_segments":[],"categories_sizes":[],"default_left":[0,0,0,0,0,0,0,0,0,0,0,0,0,0,0],"id":25,"left_children":[1,3,5,7,9,-1,-1,-1,-1,11,13,-1,-1,-1,-1],"loss_changes":[6.6434826E-5,1.9902896E-5,2.5959635E-6,3.2841635E-6,7.967978E-6,0E0,0E0,0E0,0E0,4.0344194E-6,3.0031295E-6,0E0,0E0,0E0,0E0],"parents":[2147483647,0,0,1,1,2,2,3,3,4,4,9,9,10,10],"right_children":[2,4,6,8,10,-1,-1,-1,-1,12,14,-1,-1,-1,-1],"split_conditions":[2.6592262E1,2.5633907E-1,5.009612E3,4.1001617E1,4.1736233E1,-1.3113322E-5,-7.620645E-6,7.8938E-6,1.3578779E-6,3.0395132E1,3.1521627E1,2.5529275E-6,-1.152415E-6,-1.0082384E-6,-5.5901846E-6],"split_indices":[67,51,55,82,83,0,0,0,0,79,8,0,0,0,0],"split_type":[0,0,0,0,0,0,0,0,0,0,0,0,0,0,0],"sum_hessian":[1.444E3,1.244E3,2E2,2.37E2,1.007E3,9.8E1,1.02E2,1.98E2,3.9E1,6.71E2,3.36E2,5.23E2,1.48E2,2.67E2,6.9E1],"tree_param":{"num_deleted":"0","num_feature":"177","num_nodes":"15","size_leaf_vector":"1"}},{"base_weights":[-7.3999234E-7,-2.9535725E-4,1.5651743E-4,-5.5166916E-4,-1.5391488E-4,8.363768E-5,7.0587776E-6,-1.2665649E-5,-7.5370763E-6,-2.5296015E-6,-6.677596E-6,3.775608E-7,1.5272919E-4,5.548586E-6,2.4697856E-6],"categories":[],"categories_nodes":[],"categories_segments":[],"categories_sizes":[],"default_left":[0,0,0,0,0,0,0,0,0,0,0,0,0,0,0],"id":26,"left_children":[1,3,5,7,9,11,-1,-1,-1,-1,-1,-1,13,-1,-1],"loss_changes":[6.73644E-5,1.7919654E-5,1.3423167E-5,1.3462959E-6,1.4329762E-6,3.1086738E-6,0E0,0E0,0E0,0E0,0E0,0E0,1.0574795E-6,0E0,0E0],"parents":[2147483647,0,0,1,1,2,2,3,3,4,4,5,5,12,12],"right_children":[2,4,6,8,10,12,-1,-1,-1,-1,-1,-1,14,-1,-1],"split_conditions":[1.56458E-3,4.3531826E1,2.1141456E-3,8.361222E-4,3.2076057E1,1.8231136E-3,7.0587776E-6,-1.2665649E-5,-7.5370763E-6,-2.5296015E-6,-6.677596E-6,3.775608E-7,2.0746418E3,5.548586E-6,2.4697856E-6],"split_indices":[3,36,3,3,8,3,0,0,0,0,0,0,150,0,0],"split_type":[0,0,0,0,0,0,0,0,0,0,0,0,0,0,0],"sum_hessian":[1.444E3,5.01E2,9.43E2,1.73E2,3.28E2,6.93E2,2.5E2,1.09E2,6.4E1,2.92E2,3.6E1,3.61E2,3.32E2,5.5E1,2.77E2],"tree_param":{"num_deleted":"0","num_feature":"177","num_nodes":"15","size_leaf_vector":"1"}},{"base_weights":[-7.733291E-7,8.261798E-5,-5.088313E-4,3.3102554E-4,2.2807988E-5,-1.2633724E-5,-7.3358387E-6,7.6519855E-6,1.6545504E-6,8.341446E-5,-9.767299E-5,2.4756825E-6,-1.0570793E-6,-9.796819E-7,-5.400761E-6],"categories":[],"categories_nodes":[],"categories_segments":[],"categories_sizes":[],"default_left":[0,0,0,0,0,0,0,0,0,0,0,0,0,0,0],"id":27,"left_children":[1,3,5,7,9,-1,-1,-1,-1,11,13,-1,-1,-1,-1],"loss_changes":[6.160088E-5,1.851896E-5,2.418812E-6,2.9407129E-6,7.4302866E-6,0E0,0E0,0E0,0E0,3.7514637E-6,2.7956246E-6,0E0,0E0,0E0,0E0],"parents":[2147483647,0,0,1,1,2,2,3,3,4,4,9,9,10,10],"right_children":[2,4,6,8,10,-1,-1,-1,-1,12,14,-1,-1,-1,-1],"split_conditions":[2.6592262E1,2.5633907E-1,5.009612E3,4.0976288E1,4.1736233E1,-1.2633724E-5,-7.3358387E-6,7.6519855E-6,1.6545504E-6,3.0389448E1,3.1521627E1,2.4756825E-6,-1.0570793E-6,-9.796819E-7,-5.400761E-6],"split_indices":[67,51,55,35,83,0,0,0,0,24,8,0,0,0,0],"split_type":[0,0,0,0,0,0,0,0,0,0,0,0,0,0,0],"sum_hessian":[1.444E3,1.244E3,2E2,2.37E2,1.007E3,9.8E1,1.02E2,1.94E2,4.3E1,6.71E2,3.36E2,5.18E2,1.53E2,2.67E2,6.9E1],"tree_param":{"num_deleted":"0","num_feature":"177","num_nodes":"15","size_leaf_vector":"1"}},{"base_weights":[-8.1179263E-7,-2.8243836E-4,1.5226344E-4,-5.311567E-4,-1.4767713E-4,8.179119E-5,6.8104036E-6,-1.2202302E-5,-7.2442813E-6,-2.4295905E-6,-6.4654887E-6,3.8222348E-7,2.950711E-6],"categories":[],"categories_nodes":[],"categories_segments":[],"categories_sizes":[],"default_left":[0,0,0,0,0,0,0,0,0,0,0,0,0],"id":28,"left_children":[1,3,5,7,9,11,-1,-1,-1,-1,-1,-1,-1],"loss_changes":[6.2681494E-5,1.6768809E-5,1.2358139E-5,1.2694582E-6,1.3631216E-6,2.8375352E-6,0E0,0E0,0E0,0E0,0E0,0E0,0E0],"parents":[2147483647,0,0,1,1,2,2,3,3,4,4,5,5],"right_children":[2,4,6,8,10,12,-1,-1,-1,-1,-1,-1,-1],"split_conditions":[1.5733002E-3,4.3531826E1,2.1141456E-3,8.361222E-4,3.2076057E1,1.8231136E-3,6.8104036E-6,-1.2202302E-5,-7.2442813E-6,-2.4295905E-6,-6.4654887E-6,3.8222348E-7,2.950711E-6],"split_indices":[3,36,3,3,8,3,0,0,0,0,0,0,0],"split_type":[0,0,0,0,0,0,0,0,0,0,0,0,0],"sum_hessian":[1.444E3,5.07E2,9.37E2,1.73E2,3.34E2,6.87E2,2.5E2,1.09E2,6.4E1,2.98E2,3.6E1,3.55E2,3.32E2],"tree_param":{"num_deleted":"0","num_feature":"177","num_nodes":"13","size_leaf_vector":"1"}},{"base_weights":[-8.5833574E-7,-2.7706637E-4,1.4927203E-4,-5.2004546E-4,-1.4428949E-4,8.017949E-5,6.6768666E-6,-1.1642522E-5,-6.4487954E-6,-2.3674404E-6,-6.3519487E-6,3.7468584E-7,2.892573E-6],"categories":[],"categories_nodes":[],"categories_segments":[],"categories_sizes":[],"default_left":[0,0,0,0,0,0,0,0,0,0,0,0,0],"id":29,"left_children":[1,3,5,7,9,11,-1,-1,-1,-1,-1,-1,-1],"loss_changes":[6.0292787E-5,1.6142963E-5,1.1879019E-5,1.2573764E-6,1.3302224E-6,2.726837E-6,0E0,0E0,0E0,0E0,0E0,0E0,0E0],"parents":[2147483647,0,0,1,1,2,2,3,3,4,4,5,5],"right_children":[2,4,6,8,10,12,-1,-1,-1,-1,-1,-1,-1],"split_conditions":[1.5733002E-3,3.8785156E1,2.1141456E-3,9.0921804E-4,3.2076057E1,1.8231136E-3,6.6768666E-6,-1.1642522E-5,-6.4487954E-6,-2.3674404E-6,-6.3519487E-6,3.7468584E-7,2.892573E-6],"split_indices":[3,35,3,3,8,3,0,0,0,0,0,0,0],"split_type":[0,0,0,0,0,0,0,0,0,0,0,0,0],"sum_hessian":[1.444E3,5.07E2,9.37E2,1.74E2,3.33E2,6.87E2,2.5E2,1.25E2,4.9E1,2.97E2,3.6E1,3.55E2,3.32E2],"tree_param":{"num_deleted":"0","num_feature":"177","num_nodes":"13","size_leaf_vector":"1"}},{"base_weights":[-8.993853E-7,-3.2869703E-4,1.2094662E-4,-5.111649E-4,-1.7429538E-4,2.6135665E-5,2.6625273E-4,-1.1746322E-5,-6.9661774E-6,1.7865667E-6,-3.804622E-6,-4.420316E-7,1.930696E-6,4.0876757E-6,7.879935E-6],"categories":[],"categories_nodes":[],"categories_segments":[],"categories_sizes":[],"default_left":[0,0,0,0,0,0,0,0,0,0,0,0,0,0,0],"id":30,"left_children":[1,3,5,7,9,11,13,-1,-1,-1,-1,-1,-1,-1,-1],"loss_changes":[5.807304E-5,1.0654821E-5,1.4568415E-5,1.1846569E-6,1.0133945E-6,2.20779E-6,2.9009825E-6,0E0,0E0,0E0,0E0,0E0,0E0,0E0,0E0],"parents":[2147483647,0,0,1,1,2,2,3,3,4,4,5,5,6,6],"right_children":[2,4,6,8,10,12,14,-1,-1,-1,-1,-1,-1,-1,-1],"split_conditions":[1.4650186E-3,4.3531826E1,1.9473961E-3,8.361222E-4,-4.3233356E1,1.7648351E-3,2.285676E-3,-1.1746322E-5,-6.9661774E-6,1.7865667E-6,-3.804622E-6,-4.420316E-7,1.930696E-6,4.0876757E-6,7.879935E-6],"split_indices":[3,36,3,3,40,3,3,0,0,0,0,0,0,0,0],"split_type":[0,0,0,0,0,0,0,0,0,0,0,0,0,0,0],"sum_hessian":[1.444E3,3.89E2,1.055E3,1.73E2,2.16E2,6.42E2,4.13E2,1.09E2,6.4E1,1.1E1,2.05E2,3.83E2,2.59E2,2.87E2,1.26E2],"tree_param":{"num_deleted":"0","num_feature":"177","num_nodes":"15","size_leaf_vector":"1"}},{"base_weights":[-9.065187E-7,-3.8724436E-4,9.8689685E-5,-2.7977728E-4,-1.1845812E-5,-1.9112817E-5,2.268714E-4,-2.5848642E-6,-6.667738E-6,-1.9057834E-6,5.08454E-7,3.1619481E-6,6.9117273E-6],"categories":[],"categories_nodes":[],"categories_segments":[],"categories_sizes":[],"default_left":[0,0,0,0,0,0,0,0,0,0,0,0,0],"id":31,"left_children":[1,3,5,7,-1,9,11,-1,-1,-1,-1,-1,-1],"loss_changes":[5.594539E-5,5.738104E-6,1.7477429E-5,1.4389243E-6,0E0,2.0713924E-6,4.2499505E-6,0E0,0E0,0E0,0E0,0E0,0E0],"parents":[2147483647,0,0,1,1,2,2,3,3,5,5,6,6],"right_children":[2,4,6,8,-1,10,12,-1,-1,-1,-1,-1,-1],"split_conditions":[1.3466842E-3,3.017765E1,1.8426697E-3,4.5591394E2,-1.1845812E-5,1.5811464E-3,2.189585E-3,-2.5848642E-6,-6.667738E-6,-1.9057834E-6,5.08454E-7,3.1619481E-6,6.9117273E-6],"split_indices":[3,124,3,92,0,3,3,0,0,0,0,0,0],"split_type":[0,0,0,0,0,0,0,0,0,0,0,0,0],"sum_hessian":[1.444E3,2.93E2,1.151E3,2E2,9.3E1,6.02E2,5.49E2,5.7E1,1.43E2,2.2E2,3.82E2,3.55E2,1.94E2],"tree_param":{"num_deleted":"0","num_feature":"177","num_nodes":"13","size_leaf_vector":"1"}},{"base_weights":[-9.312647E-7,-3.7985347E-4,9.675341E-5,-2.7440742E-4,-1.1620982E-5,-1.8742081E-5,2.2242487E-4,-6.0288876E-6,-8.068159E-7,-1.8685138E-6,4.984153E-7,2.9941214E-6,3.3107158E-4,5.237071E-6,9.231349E-6],"categories":[],"categories_nodes":[],"categories_segments":[],"categories_sizes":[],"default_left":[0,0,0,0,0,0,0,0,0,0,0,0,0,0,0],"id":32,"left_children":[1,3,5,7,-1,9,11,-1,-1,-1,-1,-1,13,-1,-1],"loss_changes":[5.3818338E-5,5.5249366E-6,1.6799591E-5,1.236529E-6,0E0,1.9910067E-6,4.129148E-6,0E0,0E0,0E0,0E0,0E0,1.3648041E-6,0E0,0E0],"parents":[2147483647,0,0,1,1,2,2,3,3,5,5,6,6,12,12],"right_children":[2,4,6,8,-1,10,12,-1,-1,-1,-1,-1,14,-1,-1],"split_conditions":[1.3466842E-3,3.017765E1,1.8426697E-3,3.6975394E2,-1.1620982E-5,1.5811464E-3,1.1658567E3,-6.0288876E-6,-8.068159E-7,-1.8685138E-6,4.984153E-7,2.9941214E-6,2.375904E-3,5.237071E-6,9.231349E-6],"split_indices":[3,124,3,106,0,3,18,0,0,0,0,0,3,0,0],"split_type":[0,0,0,0,0,0,0,0,0,0,0,0,0,0,0],"sum_hessian":[1.444E3,2.93E2,1.151E3,2E2,9.3E1,6.02E2,5.49E2,1.78E2,2.2E1,2.2E2,3.82E2,3.36E2,2.13E2,1.49E2,6.4E1],"tree_param":{"num_deleted":"0","num_feature":"177","num_nodes":"15","size_leaf_vector":"1"}},{"base_weights":[-9.207849E-7,-3.725661E-4,9.488796E-5,-1.0006814E-5,-4.4097746E-6,-4.761886E-6,2.3527775E-4,-1.5961159E-6,9.101581E-7,3.6173576E-6,7.4665786E-6],"categories":[],"categories_nodes":[],"categories_segments":[],"categories_sizes":[],"default_left":[0,0,0,0,0,0,0,0,0,0,0],"id":33,"left_children":[1,3,5,-1,-1,7,9,-1,-1,-1,-1],"loss_changes":[5.1771112E-5,5.239028E-6,1.6177833E-5,0E0,0E0,2.5871916E-6,3.2678327E-6,0E0,0E0,0E0,0E0],"parents":[2147483647,0,0,1,1,2,2,5,5,6,6],"right_children":[2,4,6,-1,-1,8,10,-1,-1,-1,-1],"split_conditions":[1.3466842E-3,4.3960857E1,1.8983483E-3,-1.0006814E-5,-4.4097746E-6,1.6163298E-3,2.285676E-3,-1.5961159E-6,9.101581E-7,3.6173576E-6,7.4665786E-6],"split_indices":[3,86,3,0,0,3,3,0,0,0,0],"split_type":[0,0,0,0,0,0,0,0,0,0,0],"sum_hessian":[1.444E3,2.93E2,1.151E3,1.53E2,1.4E2,6.76E2,4.75E2,2.7E2,4.06E2,3.49E2,1.26E2],"tree_param":{"num_deleted":"0","num_feature":"177","num_nodes":"11","size_leaf_vector":"1"}},{"base_weights":[-9.1621774E-7,-3.1378027E-4,1.0860498E-4,-4.735424E-4,-3.303554E-6,2.3435621E-5,2.5132173E-4,-1.1412481E-5,-7.0144943E-6,-2.4193228E-5,1.8381771E-6,3.300368E-6,6.6537195E-6,-7.714044E-7,2.8743734E-6],"categories":[],"categories_nodes":[],"categories_segments":[],"categories_sizes":[],"default_left":[0,0,0,0,0,0,0,0,0,0,0,0,0,0,0],"id":34,"left_children":[1,3,5,7,-1,9,11,-1,-1,13,-1,-1,-1,-1,-1],"loss_changes":[4.982073E-5,8.559287E-6,1.3061588E-5,1.1336197E-6,0E0,2.2288027E-6,2.5483496E-6,0E0,0E0,1.0054141E-6,0E0,0E0,0E0,0E0,0E0],"parents":[2147483647,0,0,1,1,2,2,3,3,5,5,6,6,9,9],"right_children":[2,4,6,8,-1,10,12,-1,-1,14,-1,-1,-1,-1,-1],"split_conditions":[1.4475494E-3,3.8785156E1,1.9606275E-3,7.345E-4,-3.303554E-6,1.7648351E-3,1.1658567E3,-1.1412481E-5,-7.0144943E-6,3.939595E1,1.8381771E-6,3.300368E-6,6.6537195E-6,-7.714044E-7,2.8743734E-6],"split_indices":[3,35,3,3,0,3,18,0,0,89,0,0,0,0,0],"split_type":[0,0,0,0,0,0,0,0,0,0,0,0,0,0,0],"sum_hessian":[1.444E3,3.72E2,1.072E3,1.74E2,1.98E2,6.75E2,3.97E2,8.7E1,8.7E1,4E2,2.75E2,2E2,1.97E2,3.72E2,2.8E1],"tree_param":{"num_deleted":"0","num_feature":"177","num_nodes":"15","size_leaf_vector":"1"}},{"base_weights":[-9.2496447E-7,-3.5867022E-4,9.1300564E-5,-2.6794226E-4,-1.1334944E-5,-1.7762608E-5,2.0997357E-4,-6.1943697E-6,-1.8621109E-6,-1.8020216E-6,4.5548268E-7,1.6142787E-4,7.2113326E-6,5.511936E-6,2.6409482E-6],"categories":[],"categories_nodes":[],"categories_segments":[],"categories_sizes":[],"default_left":[0,0,0,0,0,0,0,0,0,0,0,0,0,0,0],"id":35,"left_children":[1,3,5,7,-1,9,11,-1,-1,-1,-1,13,-1,-1,-1],"loss_changes":[4.797095E-5,4.8664842E-6,1.4980588E-5,1.4407888E-6,0E0,1.790206E-6,3.759069E-6,0E0,0E0,0E0,0E0,1.2536966E-6,0E0,0E0,0E0],"parents":[2147483647,0,0,1,1,2,2,3,3,5,5,6,6,11,11],"right_children":[2,4,6,8,-1,10,12,-1,-1,-1,-1,14,-1,-1,-1],"split_conditions":[1.3466842E-3,3.0186766E1,1.8426697E-3,3.6944095E2,-1.1334944E-5,1.5733002E-3,2.285676E-3,-6.1943697E-6,-1.8621109E-6,-1.8020216E-6,4.5548268E-7,2.8448235E1,7.2113326E-6,5.511936E-6,2.6409482E-6],"split_indices":[3,75,3,56,0,3,3,0,0,0,0,79,0,0,0],"split_type":[0,0,0,0,0,0,0,0,0,0,0,0,0,0,0],"sum_hessian":[1.444E3,2.93E2,1.151E3,2.12E2,8.1E1,6.02E2,5.49E2,1.68E2,4.4E1,2.14E2,3.88E2,4.23E2,1.26E2,7.8E1,3.45E2],"tree_param":{"num_deleted":"0","num_feature":"177","num_nodes":"15","size_leaf_vector":"1"}},{"base_weights":[-9.250416E-7,-3.3563888E-4,9.390971E-5,-4.5714973E-4,-3.5631665E-6,9.855435E-6,2.3756886E-4,-1.1007963E-5,-6.7551687E-6,-5.0347997E-5,1.3754559E-6,3.1425163E-6,3.173188E-4,-1.3244879E-6,3.1427346E-6,4.9869827E-6,8.664384E-6],"categories":[],"categories_nodes":[],"categories_segments":[],"categories_sizes":[],"default_left":[0,0,0,0,0,0,0,0,0,0,0,0,0,0,0,0,0],"id":36,"left_children":[1,3,5,7,-1,9,11,-1,-1,13,-1,-1,15,-1,-1,-1,-1],"loss_changes":[4.6152483E-5,5.735299E-6,1.3669455E-5,1.0521762E-6,0E0,2.5711724E-6,2.4323108E-6,0E0,0E0,1.2346175E-6,0E0,0E0,1.074819E-6,0E0,0E0,0E0,0E0],"parents":[2147483647,0,0,1,1,2,2,3,3,5,5,6,6,9,9,12,12],"right_children":[2,4,6,8,-1,10,12,-1,-1,14,-1,-1,16,-1,-1,-1,-1],"split_conditions":[1.3800425E-3,3.8785156E1,1.9473961E-3,7.345E-4,-3.5631665E-6,1.6925328E-3,1.1658567E3,-1.1007963E-5,-6.7551687E-6,3.9388134E1,1.3754559E-6,3.1425163E-6,2.375904E-3,-1.3244879E-6,3.1427346E-6,4.9869827E-6,8.664384E-6],"split_indices":[3,35,3,3,0,3,18,0,0,138,0,0,3,0,0,0,0],"split_type":[0,0,0,0,0,0,0,0,0,0,0,0,0,0,0,0,0],"sum_hessian":[1.444E3,3.16E2,1.128E3,1.73E2,1.43E2,7.15E2,4.13E2,8.7E1,8.6E1,3.54E2,3.61E2,2.13E2,2E2,3.32E2,2.2E1,1.36E2,6.4E1],"tree_param":{"num_deleted":"0","num_feature":"177","num_nodes":"17","size_leaf_vector":"1"}},{"base_weights":[-9.1116925E-7,-2.3815053E-4,1.2803906E-4,-4.4773283E-4,-1.2363578E-4,6.7933106E-5,5.7727902E-6,-1.0063273E-5,-5.4566303E-6,-1.9930203E-6,-5.7045318E-6,3.1940934E-7,2.4486849E-6],"categories":[],"categories_nodes":[],"categories_segments":[],"categories_sizes":[],"default_left":[0,0,0,0,0,0,0,0,0,0,0,0,0],"id":37,"left_children":[1,3,5,7,9,11,-1,-1,-1,-1,-1,-1,-1],"loss_changes":[4.448037E-5,1.2011356E-5,8.995126E-6,1.0489966E-6,1.1678771E-6,1.949983E-6,0E0,0E0,0E0,0E0,0E0,0E0,0E0],"parents":[2147483647,0,0,1,1,2,2,3,3,4,4,5,5],"right_children":[2,4,6,8,10,12,-1,-1,-1,-1,-1,-1,-1],"split_conditions":[1.5733002E-3,3.8785156E1,2.1141456E-3,9.0921804E-4,3.2076057E1,1.8231136E-3,5.7727902E-6,-1.0063273E-5,-5.4566303E-6,-1.9930203E-6,-5.7045318E-6,3.1940934E-7,2.4486849E-6],"split_indices":[3,35,3,3,8,3,0,0,0,0,0,0,0],"split_type":[0,0,0,0,0,0,0,0,0,0,0,0,0],"sum_hessian":[1.444E3,5.07E2,9.37E2,1.74E2,3.33E2,6.87E2,2.5E2,1.25E2,4.9E1,2.97E2,3.6E1,3.55E2,3.32E2],"tree_param":{"num_deleted":"0","num_feature":"177","num_nodes":"13","size_leaf_vector":"1"}},{"base_weights":[-9.4359444E-7,-3.3893544E-4,8.618987E-5,-2.4327521E-4,-1.0434967E-5,-2.0759244E-5,1.940619E-4,-2.1321775E-6,-5.8461715E-6,-1.699336E-6,3.4844058E-7,2.6805812E-6,6.0884972E-6],"categories":[],"categories_nodes":[],"categories_segments":[],"categories_sizes":[],"default_left":[0,0,0,0,0,0,0,0,0,0,0,0,0],"id":38,"left_children":[1,3,5,7,-1,9,11,-1,-1,-1,-1,-1,-1],"loss_changes":[4.281969E-5,4.576763E-6,1.3356702E-5,1.2179353E-6,0E0,1.4415444E-6,3.6122237E-6,0E0,0E0,0E0,0E0,0E0,0E0],"parents":[2147483647,0,0,1,1,2,2,3,3,5,5,6,6],"right_children":[2,4,6,8,-1,10,12,-1,-1,-1,-1,-1,-1],"split_conditions":[1.3466842E-3,3.017765E1,1.8291475E-3,4.5591394E2,-1.0434967E-5,1.5733002E-3,2.189585E-3,-2.1321775E-6,-5.8461715E-6,-1.699336E-6,3.4844058E-7,2.6805812E-6,6.0884972E-6],"split_indices":[3,124,3,92,0,3,3,0,0,0,0,0,0],"split_type":[0,0,0,0,0,0,0,0,0,0,0,0,0],"sum_hessian":[1.444E3,2.93E2,1.151E3,2E2,9.3E1,5.8E2,5.71E2,5.7E1,1.43E2,2.14E2,3.66E2,3.77E2,1.94E2],"tree_param":{"num_deleted":"0","num_feature":"177","num_nodes":"13","size_leaf_vector":"1"}},{"base_weights":[-9.626677E-7,-2.771043E-4,1.01683196E-4,-4.3116783E-4,-2.9090957E-6,2.402213E-5,2.2850129E-4,-1.0428044E-5,-6.350009E-6,-3.8295474E-7,1.6682853E-6,2.960493E-6,6.0903426E-6],"categories":[],"categories_nodes":[],"categories_segments":[],"categories_sizes":[],"default_left":[0,0,0,0,0,0,0,0,0,0,0,0,0],"id":39,"left_children":[1,3,5,7,-1,9,11,-1,-1,-1,-1,-1,-1],"loss_changes":[4.1212497E-5,7.677687E-6,1.0412315E-5,1.0082222E-6,0E0,1.7078855E-6,2.2338536E-6,0E0,0E0,0E0,0E0,0E0,0E0],"parents":[2147483647,0,0,1,1,2,2,3,3,5,5,6,6],"right_children":[2,4,6,8,-1,10,12,-1,-1,-1,-1,-1,-1],"split_conditions":[1.4650186E-3,3.8785156E1,1.9606275E-3,7.345E-4,-2.9090957E-6,1.7648351E-3,1.1658567E3,-1.0428044E-5,-6.350009E-6,-3.8295474E-7,1.6682853E-6,2.960493E-6,6.0903426E-6],"split_indices":[3,35,3,3,0,3,18,0,0,0,0,0,0],"split_type":[0,0,0,0,0,0,0,0,0,0,0,0,0],"sum_hessian":[1.444E3,3.89E2,1.055E3,1.74E2,2.15E2,6.58E2,3.97E2,8.7E1,8.7E1,3.83E2,2.75E2,2E2,1.97E2],"tree_param":{"num_deleted":"0","num_feature":"177","num_nodes":"13","size_leaf_vector":"1"}},{"base_weights":[-9.756577E-7,-3.2641727E-4,8.292268E-5,-2.3410511E-4,-1.0057306E-5,-4.2196525E-6,2.0569208E-4,-2.0394837E-6,-5.630966E-6,-1.4027448E-6,3.9937124E-5,3.1284198E-6,6.6197194E-6,5.7389807E-6,5.9114865E-7],"categories":[],"categories_nodes":[],"categories_segments":[],"categories_sizes":[],"default_left":[0,0,0,0,0,0,0,0,0,0,0,0,0,0,0],"id":40,"left_children":[1,3,5,7,-1,9,11,-1,-1,-1,13,-1,-1,-1,-1],"loss_changes":[3.9698847E-5,4.2652937E-6,1.2371703E-5,1.1415341E-6,0E0,1.9961976E-6,2.7043498E-6,0E0,0E0,0E0,1.0113586E-6,0E0,0E0,0E0,0E0],"parents":[2147483647,0,0,1,1,2,2,3,3,5,5,6,6,10,10],"right_children":[2,4,6,8,-1,10,12,-1,-1,-1,14,-1,-1,-1,-1],"split_conditions":[1.3466842E-3,3.017765E1,1.8983483E-3,4.5591394E2,-1.0057306E-5,1.6163298E-3,2.285676E-3,-2.0394837E-6,-5.630966E-6,-1.4027448E-6,1.6436159E-3,3.1284198E-6,6.6197194E-6,5.7389807E-6,5.9114865E-7],"split_indices":[3,124,3,92,0,3,3,0,0,0,15,0,0,0,0],"split_type":[0,0,0,0,0,0,0,0,0,0,0,0,0,0,0],"sum_hessian":[1.444E3,2.93E2,1.151E3,2E2,9.3E1,6.76E2,4.75E2,5.7E1,1.43E2,2.7E2,4.06E2,3.49E2,1.26E2,1.1E1,3.95E2],"tree_param":{"num_deleted":"0","num_feature":"177","num_nodes":"15","size_leaf_vector":"1"}},{"base_weights":[-9.666677E-7,-3.2018634E-4,8.13277E-5,-2.3801508E-4,-1.0178198E-5,-1.9663463E-5,1.8319089E-4,-5.533115E-6,-1.5460498E-6,-1.6087664E-6,3.295346E-7,1.3998413E-4,6.4923806E-6,4.6683354E-6,2.163305E-6],"categories":[],"categories_nodes":[],"categories_segments":[],"categories_sizes":[],"default_left":[0,0,0,0,0,0,0,0,0,0,0,0,0,0,0],"id":41,"left_children":[1,3,5,7,-1,9,11,-1,-1,-1,-1,13,-1,-1,-1],"loss_changes":[3.81954E-5,4.015641E-6,1.1910109E-5,1.2406499E-6,0E0,1.2915297E-6,3.2925273E-6,0E0,0E0,0E0,0E0,1.2115761E-6,0E0,0E0,0E0],"parents":[2147483647,0,0,1,1,2,2,3,3,5,5,6,6,11,11],"right_children":[2,4,6,8,-1,10,12,-1,-1,-1,-1,14,-1,-1,-1],"split_conditions":[1.3466842E-3,3.0186766E1,1.8291475E-3,3.6944095E2,-1.0178198E-5,1.5733002E-3,2.285676E-3,-5.533115E-6,-1.5460498E-6,-1.6087664E-6,3.295346E-7,2.1489275E3,6.4923806E-6,4.6683354E-6,2.163305E-6],"split_indices":[3,75,3,56,0,3,3,0,0,0,0,39,0,0,0],"split_type":[0,0,0,0,0,0,0,0,0,0,0,0,0,0,0],"sum_hessian":[1.444E3,2.93E2,1.151E3,2.12E2,8.1E1,5.8E2,5.71E2,1.68E2,4.4E1,2.14E2,3.66E2,4.45E2,1.26E2,1.05E2,3.4E2],"tree_param":{"num_deleted":"0","num_feature":"177","num_nodes":"15","size_leaf_vector":"1"}},{"base_weights":[-9.653514E-7,6.196042E-5,-3.887255E-4,1.7857743E-5,2.6267176E-4,-9.627898E-6,-5.5862083E-6,6.691686E-5,-7.981091E-5,5.837745E-6,1.6098917E-6,2.6730495E-6,1.2391833E-7,-1.0264462E-6,-5.2129385E-6],"categories":[],"categories_nodes":[],"categories_segments":[],"categories_sizes":[],"default_left":[0,0,0,0,0,0,0,0,0,0,0,0,0,0,0],"id":42,"left_children":[1,3,5,7,9,-1,-1,11,13,-1,-1,-1,-1,-1,-1],"loss_changes":[3.5476183E-5,1.1050282E-5,1.3860081E-6,4.966779E-6,1.0800632E-6,0E0,0E0,2.7878593E-6,1.7207772E-6,0E0,0E0,0E0,0E0,0E0,0E0],"parents":[2147483647,0,0,1,1,2,2,3,3,4,4,7,7,8,8],"right_children":[2,4,6,8,10,-1,-1,12,14,-1,-1,-1,-1,-1,-1],"split_conditions":[2.6417078E1,1.1986237E3,5.009612E3,4.1736233E1,4.09706E1,-9.627898E-6,-5.5862083E-6,5.0285933E3,3.1987705E1,5.837745E-6,1.6098917E-6,2.6730495E-6,1.2391833E-7,-1.0264462E-6,-5.2129385E-6],"split_indices":[12,146,55,35,82,0,0,58,8,0,0,0,0,0,0],"split_type":[0,0,0,0,0,0,0,0,0,0,0,0,0,0,0],"sum_hessian":[1.444E3,1.246E3,1.98E2,1.026E3,2.2E2,9.8E1,1E2,6.84E2,3.42E2,1.87E2,3.3E1,3.23E2,3.61E2,3.01E2,4.1E1],"tree_param":{"num_deleted":"0","num_feature":"177","num_nodes":"15","size_leaf_vector":"1"}},{"base_weights":[-9.847096E-7,-2.1304851E-4,1.1428237E-4,-4.0464106E-4,-2.2550025E-6,6.0130165E-5,5.1799148E-6,-5.442867E-7,-8.536503E-6,3.7345446E-6,8.2208385E-7],"categories":[],"categories_nodes":[],"categories_segments":[],"categories_sizes":[],"default_left":[0,0,0,0,0,0,0,0,0,0,0],"id":43,"left_children":[1,3,5,7,-1,9,-1,-1,-1,-1,-1],"loss_changes":[3.554106E-5,9.610694E-6,7.304161E-6,1.398801E-6,0E0,1.6283973E-6,0E0,0E0,0E0,0E0,0E0],"parents":[2147483647,0,0,1,1,2,2,3,3,5,5],"right_children":[2,4,6,8,-1,10,-1,-1,-1,-1,-1],"split_conditions":[1.5733002E-3,1.0321991E-3,2.1141456E-3,6.9315904E-3,-2.2550025E-6,4.5130195E3,5.1799148E-6,-5.442867E-7,-8.536503E-6,3.7345446E-6,8.2208385E-7],"split_indices":[3,3,3,2,0,59,0,0,0,0,0],"split_type":[0,0,0,0,0,0,0,0,0,0,0],"sum_hessian":[1.444E3,5.07E2,9.37E2,1.69E2,3.38E2,6.87E2,2.5E2,1E1,1.59E2,8.4E1,6.03E2],"tree_param":{"num_deleted":"0","num_feature":"177","num_nodes":"11","size_leaf_vector":"1"}},{"base_weights":[-9.70571E-7,-2.5257084E-4,9.255335E-5,-3.968092E-4,-2.7082763E-6,4.1182262E-5,5.0783465E-6,-5.370302E-7,-8.370978E-6,-3.6588614E-7,1.8948863E-6],"categories":[],"categories_nodes":[],"categories_segments":[],"categories_sizes":[],"default_left":[0,0,0,0,0,0,0,0,0,0,0],"id":44,"left_children":[1,3,5,7,-1,9,-1,-1,-1,-1,-1],"loss_changes":[3.4212786E-5,6.389355E-6,8.734524E-6,1.3432527E-6,0E0,2.5890731E-6,0E0,0E0,0E0,0E0,0E0],"parents":[2147483647,0,0,1,1,2,2,3,3,5,5],"right_children":[2,4,6,8,-1,10,-1,-1,-1,-1,-1],"split_conditions":[1.4650186E-3,1.0321991E-3,2.1141456E-3,6.9315904E-3,-2.7082763E-6,1.7648351E-3,5.0783465E-6,-5.370302E-7,-8.370978E-6,-3.6588614E-7,1.8948863E-6],"split_indices":[3,3,3,2,0,3,0,0,0,0,0],"split_type":[0,0,0,0,0,0,0,0,0,0,0],"sum_hessian":[1.444E3,3.89E2,1.055E3,1.69E2,2.2E2,8.05E2,2.5E2,1E1,1.59E2,3.83E2,4.22E2],"tree_param":{"num_deleted":"0","num_feature":"177","num_nodes":"11","size_leaf_vector":"1"}},{"base_weights":[-9.684333E-7,-2.9737633E-4,7.54454E-5,-4.250866E-6,-9.193218E-6,-1.8808218E-5,1.7051683E-4,-1.4942847E-6,2.8892777E-7,1.2973072E-4,6.082269E-6,4.6773202E-6,2.0880905E-6],"categories":[],"categories_nodes":[],"categories_segments":[],"categories_sizes":[],"default_left":[0,0,0,0,0,0,0,0,0,0,0,0,0],"id":45,"left_children":[1,3,5,-1,-1,7,9,-1,-1,11,-1,-1,-1],"loss_changes":[3.293154E-5,3.614101E-6,1.037475E-5,0E0,0E0,1.0929894E-6,2.9412931E-6,0E0,0E0,1.0647245E-6,0E0,0E0,0E0],"parents":[2147483647,0,0,1,1,2,2,5,5,6,6,9,9],"right_children":[2,4,6,-1,-1,8,10,-1,-1,12,-1,-1,-1],"split_conditions":[1.3466842E-3,3.017765E1,1.8291475E-3,-4.250866E-6,-9.193218E-6,1.5733002E-3,2.285676E-3,-1.4942847E-6,2.8892777E-7,2.8448235E1,6.082269E-6,4.6773202E-6,2.0880905E-6],"split_indices":[3,124,3,0,0,3,3,0,0,79,0,0,0],"split_type":[0,0,0,0,0,0,0,0,0,0,0,0,0],"sum_hessian":[1.444E3,2.93E2,1.151E3,2E2,9.3E1,5.8E2,5.71E2,2.14E2,3.66E2,4.45E2,1.26E2,7.9E1,3.66E2],"tree_param":{"num_deleted":"0","num_feature":"177","num_nodes":"13","size_leaf_vector":"1"}},{"base_weights":[-9.552828E-7,-2.9165435E-4,7.398684E-5,-4.1679214E-6,-9.018734E-6,-1.5029458E-5,1.7085139E-4,-1.3177954E-6,4.5000385E-7,2.2392007E-6,2.5905183E-4,3.964043E-6,7.521787E-6],"categories":[],"categories_nodes":[],"categories_segments":[],"categories_sizes":[],"default_left":[0,0,0,0,0,0,0,0,0,0,0,0,0],"id":46,"left_children":[1,3,5,-1,-1,7,9,-1,-1,-1,11,-1,-1],"loss_changes":[3.1675238E-5,3.4820823E-6,9.980476E-6,0E0,0E0,1.1660359E-6,2.732595E-6,0E0,0E0,0E0,1.1798211E-6,0E0,0E0],"parents":[2147483647,0,0,1,1,2,2,5,5,6,6,10,10],"right_children":[2,4,6,-1,-1,8,10,-1,-1,-1,12,-1,-1],"split_conditions":[1.3466842E-3,3.017765E1,1.8426697E-3,-4.1679214E-6,-9.018734E-6,1.6033986E-3,1.1658567E3,-1.3177954E-6,4.5000385E-7,2.2392007E-6,2.375904E-3,3.964043E-6,7.521787E-6],"split_indices":[3,124,3,0,0,3,18,0,0,0,3,0,0],"split_type":[0,0,0,0,0,0,0,0,0,0,0,0,0],"sum_hessian":[1.444E3,2.93E2,1.151E3,2E2,9.3E1,6.02E2,5.49E2,2.54E2,3.48E2,3.36E2,2.13E2,1.49E2,6.4E1],"tree_param":{"num_deleted":"0","num_feature":"177","num_nodes":"13","size_leaf_vector":"1"}},{"base_weights":[-9.3732825E-7,-2.456786E-4,8.473783E-5,-2.3890457E-6,-3.6419218E-4,1.7596414E-5,1.9725642E-4,-9.090222E-6,-5.3542617E-6,-3.332881E-5,1.1551932E-6,5.2962323E-6,2.5310628E-6,-9.57804E-7,3.938567E-6],"categories":[],"categories_nodes":[],"categories_segments":[],"categories_sizes":[],"default_left":[0,0,0,0,0,0,0,0,0,0,0,0,0,0,0],"id":47,"left_children":[1,3,5,-1,7,9,11,-1,-1,13,-1,-1,-1,-1,-1],"loss_changes":[3.0487081E-5,5.4222255E-6,8.119013E-6,0E0,1.0646745E-6,1.4004445E-6,1.7525381E-6,0E0,0E0,1.0630724E-6,0E0,0E0,0E0,0E0,0E0],"parents":[2147483647,0,0,1,1,2,2,4,4,5,5,6,6,9,9],"right_children":[2,4,6,-1,8,10,12,-1,-1,14,-1,-1,-1,-1,-1],"split_conditions":[1.4475494E-3,2.6425898E1,1.9606275E-3,-2.3890457E-6,7.345E-4,1.6925328E-3,2.5633907E-1,-9.090222E-6,-5.3542617E-6,3.0553038E1,1.1551932E-6,5.2962323E-6,2.5310628E-6,-9.57804E-7,3.938567E-6],"split_indices":[3,71,3,0,3,3,51,0,0,76,0,0,0,0,0],"split_type":[0,0,0,0,0,0,0,0,0,0,0,0,0,0,0],"sum_hessian":[1.444E3,3.72E2,1.072E3,1.85E2,1.87E2,6.75E2,3.97E2,8.7E1,1E2,2.98E2,3.77E2,1.96E2,2.01E2,2.84E2,1.4E1],"tree_param":{"num_deleted":"0","num_feature":"177","num_nodes":"15","size_leaf_vector":"1"}},{"base_weights":[-9.353951E-7,-2.80772E-4,7.120646E-5,-4.0078235E-6,-8.691809E-6,-3.56266E-7,1.6099904E-4,2.4404883E-6,5.774727E-6],"categories":[],"categories_nodes":[],"categories_segments":[],"categories_sizes":[],"default_left":[0,0,0,0,0,0,0,0,0],"id":48,"left_children":[1,3,5,-1,-1,-1,7,-1,-1],"loss_changes":[2.9352277E-5,3.249048E-6,9.254611E-6,0E0,0E0,0E0,2.6914595E-6,0E0,0E0],"parents":[2147483647,0,0,1,1,2,2,6,6],"right_children":[2,4,6,-1,-1,-1,8,-1,-1],"split_conditions":[1.3466842E-3,3.017765E1,1.8291475E-3,-4.0078235E-6,-8.691809E-6,-3.56266E-7,2.285676E-3,2.4404883E-6,5.774727E-6],"split_indices":[3,124,3,0,0,0,3,0,0],"split_type":[0,0,0,0,0,0,0,0,0],"sum_hessian":[1.444E3,2.93E2,1.151E3,2E2,9.3E1,5.8E2,5.71E2,4.45E2,1.26E2],"tree_param":{"num_deleted":"0","num_feature":"177","num_nodes":"9","size_leaf_vector":"1"}},{"base_weights":[-9.3341197E-7,-1.9205755E-4,1.01085025E-4,-7.183574E-6,-1.9812128E-6,5.255603E-5,4.6387836E-6,3.4605566E-6,6.9331054E-7],"categories":[],"categories_nodes":[],"categories_segments":[],"categories_sizes":[],"default_left":[0,0,0,0,0,0,0,0,0],"id":49,"left_children":[1,3,5,-1,-1,7,-1,-1,-1],"loss_changes":[2.8349941E-5,7.686223E-6,5.95906E-6,0E0,0E0,1.4744096E-6,0E0,0E0,0E0],"parents":[2147483647,0,0,1,1,2,2,5,5],"right_children":[2,4,6,-1,-1,8,-1,-1,-1],"split_conditions":[1.56458E-3,3.8785156E1,2.1141456E-3,-7.183574E-6,-1.9812128E-6,4.5130195E3,4.6387836E-6,3.4605566E-6,6.9331054E-7],"split_indices":[3,35,3,0,0,59,0,0,0],"split_type":[0,0,0,0,0,0,0,0,0],"sum_hessian":[1.444E3,5.01E2,9.43E2,1.74E2,3.27E2,6.93E2,2.5E2,8.4E1,6.09E2],"tree_param":{"num_deleted":"0","num_feature":"177","num_nodes":"9","size_leaf_vector":"1"}},{"base_weights":[-9.1600594E-7,-1.8661813E-4,1.00022495E-4,-3.5631747E-4,-1.9562242E-6,5.2364692E-5,4.547829E-6,-2.3411361E-7,-7.539469E-6,3.3952335E-6,6.9498606E-7],"categories":[],"categories_nodes":[],"categories_segments":[],"categories_sizes":[],"default_left":[0,0,0,0,0,0,0,0,0,0,0],"id":50,"left_children":[1,3,5,7,-1,9,-1,-1,-1,-1,-1],"loss_changes":[2.72541E-5,7.541823E-6,5.6585213E-6,1.2165237E-6,0E0,1.401556E-6,0E0,0E0,0E0,0E0,0E0],"parents":[2147483647,0,0,1,1,2,2,3,3,5,5],"right_children":[2,4,6,8,-1,10,-1,-1,-1,-1,-1],"split_conditions":[1.5733002E-3,1.0321991E-3,2.1141456E-3,6.9315904E-3,-1.9562242E-6,4.5130195E3,4.547829E-6,-2.3411361E-7,-7.539469E-6,3.3952335E-6,6.9498606E-7],"split_indices":[3,3,3,2,0,59,0,0,0,0,0],"split_type":[0,0,0,0,0,0,0,0,0,0,0],"sum_hessian":[1.444E3,5.07E2,9.37E2,1.69E2,3.38E2,6.87E2,2.5E2,1E1,1.59E2,8.4E1,6.03E2],"tree_param":{"num_deleted":"0","num_feature":"177","num_nodes":"11","size_leaf_vector":"1"}},{"base_weights":[-9.014586E-7,-2.533844E-4,7.063564E-5,-3.5882135E-6,-8.251174E-6,6.7018236E-6,1.7991595E-4,-3.9419025E-5,1.0369804E-6,2.763833E-6,5.7023935E-6,-1.0912883E-6,3.1383536E-6],"categories":[],"categories_nodes":[],"categories_segments":[],"categories_sizes":[],"default_left":[0,0,0,0,0,0,0,0,0,0,0,0,0],"id":51,"left_children":[1,3,5,-1,-1,7,9,11,-1,-1,-1,-1,-1],"loss_changes":[2.6261177E-5,3.4095974E-6,7.909909E-6,0E0,0E0,1.5094226E-6,1.6378272E-6,1.1103316E-6,0E0,0E0,0E0,0E0,0E0],"parents":[2147483647,0,0,1,1,2,2,5,5,6,6,7,7],"right_children":[2,4,6,-1,-1,8,10,12,-1,-1,-1,-1,-1],"split_conditions":[1.3800425E-3,3.017765E1,1.9473961E-3,-3.5882135E-6,-8.251174E-6,1.6925328E-3,2.3159934E-3,3.9388134E1,1.0369804E-6,2.763833E-6,5.7023935E-6,-1.0912883E-6,3.1383536E-6],"split_indices":[3,124,3,0,0,3,3,138,0,0,0,0,0],"split_type":[0,0,0,0,0,0,0,0,0,0,0,0,0],"sum_hessian":[1.444E3,3.16E2,1.128E3,2.23E2,9.3E1,7.15E2,4.13E2,3.54E2,3.61E2,3.04E2,1.09E2,3.32E2,2.2E1],"tree_param":{"num_deleted":"0","num_feature":"177","num_nodes":"13","size_leaf_vector":"1"}},{"base_weights":[-8.844475E-7,-2.2373916E-4,7.712915E-5,-3.2765997E-4,-1.0215474E-4,1.5946764E-5,1.7966244E-4,-8.353498E-6,-4.8129064E-6,2.3266932E-6,-2.5373377E-6,5.586978E-6,9.124053E-6,2.2451486E-6,4.8724282E-6,-7.911347E-7,9.63104E-7],"categories":[],"categories_nodes":[],"categories_segments":[],"categories_sizes":[],"default_left":[0,0,0,0,0,0,0,0,0,0,0,0,0,0,0,0,0],"id":52,"left_children":[1,3,5,7,9,11,13,-1,-1,-1,-1,-1,15,-1,-1,-1,-1],"loss_changes":[2.5278161E-5,4.5960933E-6,6.7419446E-6,1.0717995E-6,1.0510762E-6,1.2092955E-6,1.5963442E-6,0E0,0E0,0E0,0E0,0E0,1.278769E-6,0E0,0E0,0E0,0E0],"parents":[2147483647,0,0,1,1,2,2,3,3,4,4,5,5,6,6,12,12],"right_children":[2,4,6,8,10,12,14,-1,-1,-1,-1,-1,16,-1,-1,-1,-1],"split_conditions":[1.4475494E-3,4.3895714E1,1.9606275E-3,7.345E-4,1.9996877E0,1.5720252E-3,1.1658567E3,-8.353498E-6,-4.8129064E-6,2.3266932E-6,-2.5373377E-6,5.586978E-6,1.6925328E-3,2.2451486E-6,4.8724282E-6,-7.911347E-7,9.63104E-7],"split_indices":[3,36,3,3,1,15,18,0,0,0,0,0,3,0,0,0,0],"split_type":[0,0,0,0,0,0,0,0,0,0,0,0,0,0,0,0,0],"sum_hessian":[1.444E3,3.72E2,1.072E3,1.96E2,1.76E2,6.75E2,3.97E2,8.7E1,1.09E2,1.6E1,1.6E2,1.2E1,6.63E2,2E2,1.97E2,2.95E2,3.68E2],"tree_param":{"num_deleted":"0","num_feature":"177","num_nodes":"17","size_leaf_vector":"1"}},{"base_weights":[-8.68479E-7,-2.557586E-4,6.484225E-5,-3.7540449E-6,-8.25225E-6,-3.297737E-7,1.4688111E-4,5.018249E-6,2.1050769E-6],"categories":[],"categories_nodes":[],"categories_segments":[],"categories_sizes":[],"default_left":[0,0,0,0,0,0,0,0,0],"id":53,"left_children":[1,3,5,-1,-1,-1,7,-1,-1],"loss_changes":[2.4352243E-5,2.7938804E-6,7.725284E-6,0E0,0E0,0E0,2.3623434E-6,0E0,0E0],"parents":[2147483647,0,0,1,1,2,2,6,6],"right_children":[2,4,6,-1,-1,-1,8,-1,-1],"split_conditions":[1.3466842E-3,3.0186766E1,1.8291475E-3,-3.7540449E-6,-8.25225E-6,-3.297737E-7,2.8485668E1,5.018249E-6,2.1050769E-6],"split_indices":[3,75,3,0,0,0,25,0,0],"split_type":[0,0,0,0,0,0,0,0,0],"sum_hessian":[1.444E3,2.93E2,1.151E3,2.12E2,8.1E1,5.8E2,5.71E2,1.56E2,4.15E2],"tree_param":{"num_deleted":"0","num_feature":"177","num_nodes":"9","size_leaf_vector":"1"}}]},"name":"gbtree"},"learner_model_param":{"base_score":"1.6746975E-3","boost_from_average":"1","num_class":"0","num_feature":"177","num_target":"1"},"objective":{"name":"reg:squarederror","reg_loss_param":{"scale_pos_weight":"1"}}},"version":[2,1,3]}