{"learner":{"attributes":{"scikit_learn":"{\"_estimator_type\": \"regressor\"}"},"feature_names":["Injection EC","Net Flow","TL Interval Flow","TL Bottom Flow","TL Collar Flow","TL Interval EC","TL Bottom EC","TL Interval Pressure","TL Bottom Pressure","TL Packer Pressure","TL-TEC-INT-U","TL-TEC-INT-L","TL-TEC-BOT-U","TL-TEC-BOT-L","TN Interval Flow","TN Bottom Flow","TN Collar Flow","TN Interval EC","TN Bottom EC","TN Interval Pressure","TN Bottom Pressure","TN Packer Pressure","TN-TEC-INT-U","TN-TEC-INT-L","TN-TEC-BOT-U","TN-TEC-BOT-L","TC Interval Flow","TC Bottom Flow","TC Collar Flow","TC Interval EC","TC Bottom EC","TC Interval Pressure","TC Bottom Pressure","Injection Pressure","TC Packer Pressure","TC-TEC-INT-U","TC-TEC-INT-L","TC-TEC-BOT-U","TC-TEC-BOT-L","PT 403","PT 503","PT 504","TL Packer Center Depth","TN Packer Center Depth","TC Packer Center Depth","Total_Production_Flow","Pressure_Differential","TC_Impedance_Proxy","TL Interval EC__MixFrac","TL Bottom EC__MixFrac","TN Interval EC__MixFrac","TN Bottom EC__MixFrac","Net Flow__lag_1h","Net Flow__lag_3h","Injection Pressure__lag_1h","Injection Pressure__lag_3h","Injection EC__lag_1h","Injection EC__lag_3h","TC Interval Pressure__lag_1h","TC Interval Pressure__lag_3h","Total_Production_Flow__lag_1h","Total_Production_Flow__lag_3h","Pressure_Differential__lag_1h","Pressure_Differential__lag_3h","TC_Impedance_Proxy__lag_1h","TC_Impedance_Proxy__lag_3h","TL-TEC-INT-U__lag_1h","TL-TEC-INT-U__lag_3h","TL-TEC-INT-L__lag_1h","TL-TEC-INT-L__lag_3h","TL-TEC-BOT-U__lag_1h","TL-TEC-BOT-U__lag_3h","TL-TEC-BOT-L__lag_1h","TL-TEC-BOT-L__lag_3h","TN-TEC-INT-U__lag_1h","TN-TEC-INT-U__lag_3h","TN-TEC-INT-L__lag_1h","TN-TEC-INT-L__lag_3h","TN-TEC-BOT-U__lag_1h","TN-TEC-BOT-U__lag_3h","TN-TEC-BOT-L__lag_1h","TN-TEC-BOT-L__lag_3h","TC-TEC-INT-U__lag_1h","TC-TEC-INT-U__lag_3h","TC-TEC-INT-L__lag_1h","TC-TEC-INT-L__lag_3h","TC-TEC-BOT-U__lag_1h","TC-TEC-BOT-U__lag_3h","TC-TEC-BOT-L__lag_1h","TC-TEC-BOT-L__lag_3h","TL Interval EC__lag_1h","TL Interval EC__lag_3h","TL Bottom EC__lag_1h","TL Bottom EC__lag_3h","TN Interval EC__lag_1h","TN Interval EC__lag_3h","TN Bottom EC__lag_1h","TN Bottom EC__lag_3h","TC Interval EC__lag_1h","TC Interval EC__lag_3h","TC Bottom EC__lag_1h","TC Bottom EC__lag_3h","Net Flow__roll_mean_3h","Net Flow__roll_std_3h","Injection Pressure__roll_mean_3h","Injection Pressure__roll_std_3h","Injection EC__roll_mean_3h","Injection EC__roll_std_3h","TC Interval Pressure__roll_mean_3h","TC Interval Pressure__roll_std_3h","Total_Production_Flow__roll_mean_3h","Total_Production_Flow__roll_std_3h","Pressure_Differential__roll_mean_3h","Pressure_Differential__roll_std_3h","TC_Impedance_Proxy__roll_mean_3h","TC_Impedance_Proxy__roll_std_3h","TL-TEC-INT-U__roll_mean_3h","TL-TEC-INT-U__roll_std_3h","TL-TEC-INT-L__roll_mean_3h","TL-TEC-INT-L__roll_std_3h","TL-TEC-BOT-U__roll_mean_3h","TL-TEC-BOT-U__roll_std_3h","TL-TEC-BOT-L__roll_mean_3h","TL-TEC-BOT-L__roll_std_3h","TN-TEC-INT-U__roll_mean_3h","TN-TEC-INT-U__roll_std_3h","TN-TEC-INT-L__roll_mean_3h","TN-TEC-INT-L__roll_std_3h","TN-TEC-BOT-U__roll_mean_3h","TN-TEC-BOT-U__roll_std_3h","TN-TEC-BOT-L__roll_mean_3h","TN-TEC-BOT-L__roll_std_3h","TC-TEC-INT-U__roll_mean_3h","TC-TEC-INT-U__roll_std_3h","TC-TEC-INT-L__roll_mean_3h","TC-TEC-INT-L__roll_std_3h","TC-TEC-BOT-U__roll_mean_3h","TC-TEC-BOT-U__roll_std_3h","TC-TEC-BOT-L__roll_mean_3h","TC-TEC-BOT-L__roll_std_3h","TL Interval EC__roll_mean_3h","TL Interval EC__roll_std_3h","TL Bottom EC__roll_mean_3h","TL Bottom EC__roll_std_3h","TN Interval EC__roll_mean_3h","TN Interval EC__roll_std_3h","TN Bottom EC__roll_mean_3h","TN Bottom EC__roll_std_3h","TC Interval EC__roll_mean_3h","TC Interval EC__roll_std_3h","TC Bottom EC__roll_mean_3h","TC Bottom EC__roll_std_3h","Net Flow__roc_1h","Injection Pressure__roc_1h","Injection EC__roc_1h","TC Interval Pressure__roc_1h","Total_Production_Flow__roc_1h","Pressure_Differential__roc_1h","TC_Impedance_Proxy__roc_1h","TL-TEC-INT-U__roc_1h","TL-TEC-INT-L__roc_1h","TL-TEC-BOT-U__roc_1h","TL-TEC-BOT-L__roc_1h","TN-TEC-INT-U__roc_1h","TN-TEC-INT-L__roc_1h","TN-TEC-BOT-U__roc_1h","TN-TEC-BOT-L__roc_1h","TC-TEC-INT-U__roc_1h","TC-TEC-INT-L__roc_1h","TC-TEC-BOT-U__roc_1h","TC-TEC-BOT-L__roc_1h","TL Interval EC__roc_1h","TL Bottom EC__roc_1h","TN Interval EC__roc_1h","TN Bottom EC__roc_1h","TC Interval EC__roc_1h","TC Bottom EC__roc_1h"],"feature_types":["float","float","float","float","float","float","float","float","float","float","float","float","float","float","float","float","float","float","float","float","float","float","float","float","float","float","float","float","float","float","float","float","float","float","float","float","float","float","float","float","float","float","float","float","float","float","float","float","float","float","float","float","float","float","float","float","float","float","float","float","float","float","float","float","float","float","float","float","float","float","float","float","float","float","float","float","float","float","float","float","float","float","float","float","float","float","float","float","float","float","float","float","float","float","float","float","float","float","float","float","float","float","float","float","float","float","float","float","float","float","float","float","float","float","float","float","float","float","float","float","float","float","float","float","float","float","float","float","float","float","float","float","float","float","float","float","float","float","float","float","float","float","float","float","float","float","float","float","float","float","float","float","float","float","float","float","float","float","float","float","float","float","float","float","float","float","float","float","float","float","float","float","float","float","float","float","float"],"gradient_booster":{"model":{"gbtree_model_param":{"num_parallel_tree":"1","num_trees":"223"},"iteration_indptr":[0,1,2,3,4,5,6,7,8,9,10,11,12,13,14,15,16,17,18,19,20,21,22,23,24,25,26,27,28,29,30,31,32,33,34,35,36,37,38,39,40,41,42,43,44,45,46,47,48,49,50,51,52,53,54,55,56,57,58,59,60,61,62,63,64,65,66,67,68,69,70,71,72,73,74,75,76,77,78,79,80,81,82,83,84,85,86,87,88,89,90,91,92,93,94,95,96,97,98,99,100,101,102,103,104,105,106,107,108,109,110,111,112,113,114,115,116,117,118,119,120,121,122,123,124,125,126,127,128,129,130,131,132,133,134,135,136,137,138,139,140,141,142,143,144,145,146,147,148,149,150,151,152,153,154,155,156,157,158,159,160,161,162,163,164,165,166,167,168,169,170,171,172,173,174,175,176,177,178,179,180,181,182,183,184,185,186,187,188,189,190,191,192,193,194,195,196,197,198,199,200,201,202,203,204,205,206,207,208,209,210,211,212,213,214,215,216,217,218,219,220,221,222,223],"tree_info":[0,0,0,0,0,0,0,0,0,0,0,0,0,0,0,0,0,0,0,0,0,0,0,0,0,0,0,0,0,0,0,0,0,0,0,0,0,0,0,0,0,0,0,0,0,0,0,0,0,0,0,0,0,0,0,0,0,0,0,0,0,0,0,0,0,0,0,0,0,0,0,0,0,0,0,0,0,0,0,0,0,0,0,0,0,0,0,0,0,0,0,0,0,0,0,0,0,0,0,0,0,0,0,0,0,0,0,0,0,0,0,0,0,0,0,0,0,0,0,0,0,0,0,0,0,0,0,0,0,0,0,0,0,0,0,0,0,0,0,0,0,0,0,0,0,0,0,0,0,0,0,0,0,0,0,0,0,0,0,0,0,0,0,0,0,0,0,0,0,0,0,0,0,0,0,0,0,0,0,0,0,0,0,0,0,0,0,0,0,0,0,0,0,0,0,0,0,0,0,0,0,0,0,0,0,0,0,0,0,0,0,0,0,0,0,0,0,0,0,0,0,0,0],"trees":[{"base_weights":[-1.0849361E-9,-1.2823166E-1,1.1677338E-1,-2.8290143E-3,-4.3747187E-2,4.0864423E-2,1.6518925E-1,-5.3863388E-2,-2.075946E-2,1.73913E-2,1.4370353E-3,2.9424464E-3,4.8497906E-3,-1.1501511E-3,-4.4122172E-4,-7.365944E-5,-5.2025815E-4,1.504259E-4,5.9379113E-4],"categories":[],"categories_nodes":[],"categories_segments":[],"categories_sizes":[],"default_left":[0,0,0,0,0,0,0,0,0,0,0,0,0,0,0,0,0,0,0],"id":0,"left_children":[1,3,5,-1,7,9,11,13,15,17,-1,-1,-1,-1,-1,-1,-1,-1,-1],"loss_changes":[2.1772263E1,7.4300575E-1,2.763074E0,0E0,1.7896533E-2,2.1414506E-1,4.6823788E-1,1.4214218E-3,3.019683E-3,2.0611193E-2,0E0,0E0,0E0,0E0,0E0,0E0,0E0,0E0,0E0],"parents":[2147483647,0,0,1,1,2,2,4,4,5,5,6,6,7,7,8,8,9,9],"right_children":[2,4,6,-1,8,10,12,14,16,18,-1,-1,-1,-1,-1,-1,-1,-1,-1],"split_conditions":[1.6331178E-1,8.814097E-2,2.796667E-1,-2.8290143E-3,1.4043878E-1,2.2643274E-1,3.571433E-1,-4.056969E1,2.801261E-1,1.9552167E-1,1.4370353E-3,2.9424464E-3,4.8497906E-3,-1.1501511E-3,-4.4122172E-4,-7.365944E-5,-5.2025815E-4,1.504259E-4,5.9379113E-4],"split_indices":[15,15,15,0,15,15,15,40,143,15,0,0,0,0,0,0,0,0,0],"split_type":[0,0,0,0,0,0,0,0,0,0,0,0,0,0,0,0,0,0,0],"sum_hessian":[1.444E3,6.88E2,7.56E2,5.92E2,9.6E1,2.98E2,4.58E2,6.2E1,3.4E1,1.74E2,1.24E2,3.83E2,7.5E1,5.2E1,1E1,1E1,2.4E1,1.01E2,7.3E1],"tree_param":{"num_deleted":"0","num_feature":"177","num_nodes":"19","size_leaf_vector":"1"}},{"base_weights":[1.7111824E-5,-1.2570322E-1,1.1450344E-1,-2.772908E-3,-4.298043E-2,4.0083125E-2,1.6196962E-1,-5.290488E-2,-2.0420413E-2,1.7064258E-2,1.4094084E-3,2.8843556E-3,4.758857E-3,-1.129166E-3,-4.3533876E-4,-7.267735E-5,-5.1164697E-4,1.4755927E-4,5.826765E-4],"categories":[],"categories_nodes":[],"categories_segments":[],"categories_sizes":[],"default_left":[0,0,0,0,0,0,0,0,0,0,0,0,0,0,0,0,0,0,0],"id":1,"left_children":[1,3,5,-1,7,9,11,13,15,17,-1,-1,-1,-1,-1,-1,-1,-1,-1],"loss_changes":[2.09278E1,7.121391E-1,2.6557322E0,0E0,1.7211795E-2,2.0593017E-1,4.528532E-1,1.2686551E-3,2.9145759E-3,1.9852038E-2,0E0,0E0,0E0,0E0,0E0,0E0,0E0,0E0,0E0],"parents":[2147483647,0,0,1,1,2,2,4,4,5,5,6,6,7,7,8,8,9,9],"right_children":[2,4,6,-1,8,10,12,14,16,18,-1,-1,-1,-1,-1,-1,-1,-1,-1],"split_conditions":[1.6331178E-1,8.814097E-2,2.796667E-1,-2.772908E-3,1.4043878E-1,2.2643274E-1,3.571433E-1,-4.056969E1,2.801261E-1,1.9552167E-1,1.4094084E-3,2.8843556E-3,4.758857E-3,-1.129166E-3,-4.3533876E-4,-7.267735E-5,-5.1164697E-4,1.4755927E-4,5.826765E-4],"split_indices":[15,15,15,0,15,15,15,40,143,15,0,0,0,0,0,0,0,0,0],"split_type":[0,0,0,0,0,0,0,0,0,0,0,0,0,0,0,0,0,0,0],"sum_hessian":[1.444E3,6.88E2,7.56E2,5.92E2,9.6E1,2.98E2,4.58E2,6.2E1,3.4E1,1.74E2,1.24E2,3.83E2,7.5E1,5.2E1,1E1,1E1,2.4E1,1.01E2,7.3E1],"tree_param":{"num_deleted":"0","num_feature":"177","num_nodes":"19","size_leaf_vector":"1"}},{"base_weights":[3.3543463E-5,-1.2322465E-1,1.1227765E-1,-2.7179143E-3,-4.2227197E-2,3.9316766E-2,1.5881276E-1,-5.1963538E-2,-2.008692E-2,1.6743366E-2,1.3823127E-3,2.8274122E-3,4.6696286E-3,-1.1085636E-3,-4.2953424E-4,-7.123136E-5,-5.034251E-4,1.4474716E-4,5.717699E-4],"categories":[],"categories_nodes":[],"categories_segments":[],"categories_sizes":[],"default_left":[0,0,0,0,0,0,0,0,0,0,0,0,0,0,0,0,0,0,0],"id":2,"left_children":[1,3,5,-1,7,9,11,13,15,17,-1,-1,-1,-1,-1,-1,-1,-1,-1],"loss_changes":[2.0116098E1,6.825495E-1,2.5525599E0,0E0,1.6553149E-2,1.9803047E-1,4.3796635E-1,1.1248738E-3,2.8285496E-3,1.9120853E-2,0E0,0E0,0E0,0E0,0E0,0E0,0E0,0E0,0E0],"parents":[2147483647,0,0,1,1,2,2,4,4,5,5,6,6,7,7,8,8,9,9],"right_children":[2,4,6,-1,8,10,12,14,16,18,-1,-1,-1,-1,-1,-1,-1,-1,-1],"split_conditions":[1.6331178E-1,8.814097E-2,2.796667E-1,-2.7179143E-3,1.4043878E-1,2.2643274E-1,3.571433E-1,-4.056969E1,4.4377446E-1,1.9552167E-1,1.3823127E-3,2.8274122E-3,4.6696286E-3,-1.1085636E-3,-4.2953424E-4,-7.123136E-5,-5.034251E-4,1.4474716E-4,5.717699E-4],"split_indices":[15,15,15,0,15,15,15,40,151,15,0,0,0,0,0,0,0,0,0],"split_type":[0,0,0,0,0,0,0,0,0,0,0,0,0,0,0,0,0,0,0],"sum_hessian":[1.444E3,6.88E2,7.56E2,5.92E2,9.6E1,2.98E2,4.58E2,6.2E1,3.4E1,1.74E2,1.24E2,3.83E2,7.5E1,5.2E1,1E1,1E1,2.4E1,1.01E2,7.3E1],"tree_param":{"num_deleted":"0","num_feature":"177","num_nodes":"19","size_leaf_vector":"1"}},{"base_weights":[4.9316808E-5,-1.2079502E-1,1.1009514E-1,-2.664011E-3,-4.148725E-2,3.8565066E-2,1.5571748E-1,-5.1039055E-2,-1.975886E-2,1.6428512E-2,1.3557383E-3,1.3857964E-1,4.582073E-3,-1.0883374E-3,-4.2380704E-4,-6.6724875E-5,-4.969323E-4,1.4198871E-4,5.610675E-4,2.9283252E-3,2.223149E-3],"categories":[],"categories_nodes":[],"categories_segments":[],"categories_sizes":[],"default_left":[0,0,0,0,0,0,0,0,0,0,0,0,0,0,0,0,0,0,0,0,0],"id":3,"left_children":[1,3,5,-1,7,9,11,13,15,17,-1,19,-1,-1,-1,-1,-1,-1,-1,-1,-1],"loss_changes":[1.9335897E1,6.541815E-1,2.4533968E0,0E0,1.591973E-2,1.9043368E-1,4.2356014E-1,9.895861E-4,2.8441446E-3,1.8416595E-2,0E0,2.0036697E-3,0E0,0E0,0E0,0E0,0E0,0E0,0E0,0E0,0E0],"parents":[2147483647,0,0,1,1,2,2,4,4,5,5,6,6,7,7,8,8,9,9,11,11],"right_children":[2,4,6,-1,8,10,12,14,16,18,-1,20,-1,-1,-1,-1,-1,-1,-1,-1,-1],"split_conditions":[1.6331178E-1,8.814097E-2,2.796667E-1,-2.664011E-3,1.4043878E-1,2.2643274E-1,3.571433E-1,-4.056969E1,2.801261E-1,1.9552167E-1,1.3557383E-3,9.9533276E2,4.582073E-3,-1.0883374E-3,-4.2380704E-4,-6.6724875E-5,-4.969323E-4,1.4198871E-4,5.610675E-4,2.9283252E-3,2.223149E-3],"split_indices":[15,15,15,0,15,15,15,40,143,15,0,18,0,0,0,0,0,0,0,0,0],"split_type":[0,0,0,0,0,0,0,0,0,0,0,0,0,0,0,0,0,0,0,0,0],"sum_hessian":[1.444E3,6.88E2,7.56E2,5.92E2,9.6E1,2.98E2,4.58E2,6.2E1,3.4E1,1.74E2,1.24E2,3.83E2,7.5E1,5.2E1,1E1,1E1,2.4E1,1.01E2,7.3E1,2.81E2,1.02E2],"tree_param":{"num_deleted":"0","num_feature":"177","num_nodes":"21","size_leaf_vector":"1"}},{"base_weights":[7.266587E-5,-1.1841331E-1,1.07970715E-1,-1.3010594E-1,-3.7963577E-2,3.7827738E-2,1.5270823E-1,-2.688238E-3,-2.0143103E-3,-4.2051747E-2,-9.274091E-5,1.6119573E-2,1.3296744E-3,1.3587442E-1,4.496159E-3,-1.0115838E-3,-4.0583313E-4,1.3928281E-4,5.505653E-4,2.0380279E-3,2.8300297E-3],"categories":[],"categories_nodes":[],"categories_segments":[],"categories_sizes":[],"default_left":[0,0,0,0,0,0,0,0,0,0,0,0,0,0,0,0,0,0,0,0,0],"id":4,"left_children":[1,3,5,7,9,11,13,-1,-1,15,-1,17,-1,19,-1,-1,-1,-1,-1,-1,-1],"loss_changes":[1.8588531E1,6.271868E-1,2.3591528E0,8.6250305E-3,1.196827E-2,1.8312839E-1,4.092207E-1,0E0,0E0,1.0455176E-2,0E0,1.7738275E-2,0E0,2.0775795E-3,0E0,0E0,0E0,0E0,0E0,0E0,0E0],"parents":[2147483647,0,0,1,1,2,2,3,3,4,4,5,5,6,6,9,9,11,11,13,13],"right_children":[2,4,6,8,10,12,14,-1,-1,16,-1,18,-1,20,-1,-1,-1,-1,-1,-1,-1],"split_conditions":[1.6331178E-1,9.584238E-2,2.796667E-1,1.2329957E-1,1.3286118E2,2.2643274E-1,3.571433E-1,-2.688238E-3,-2.0143103E-3,1.4043878E-1,-9.274091E-5,1.9552167E-1,1.3296744E-3,3.070856E-1,4.496159E-3,-1.0115838E-3,-4.0583313E-4,1.3928281E-4,5.505653E-4,2.0380279E-3,2.8300297E-3],"split_indices":[15,15,15,14,41,15,15,0,0,15,0,15,0,15,0,0,0,0,0,0,0],"split_type":[0,0,0,0,0,0,0,0,0,0,0,0,0,0,0,0,0,0,0,0,0],"sum_hessian":[1.444E3,6.88E2,7.56E2,5.98E2,9E1,2.98E2,4.58E2,5.06E2,9.2E1,7.9E1,1.1E1,1.74E2,1.24E2,3.83E2,7.5E1,5.2E1,2.7E1,1.01E2,7.3E1,6.8E1,3.15E2],"tree_param":{"num_deleted":"0","num_feature":"177","num_nodes":"21","size_leaf_vector":"1"}},{"base_weights":[8.905795E-5,-1.16089866E-1,1.058861E-1,-2.5598267E-3,-3.9994527E-2,3.7104506E-2,1.497552E-1,-4.9150035E-2,-1.9138334E-2,1.5816452E-2,1.3041118E-3,1.3516885E-1,4.6327836E-3,-4.0802645E-4,-1.0480816E-3,-4.8400956E-4,-5.9441503E-5,1.3662857E-4,5.402598E-4,2.237849E-3,2.9096277E-3],"categories":[],"categories_nodes":[],"categories_segments":[],"categories_sizes":[],"default_left":[0,0,0,0,0,0,0,0,0,0,0,0,0,0,0,0,0,0,0,0,0],"id":5,"left_children":[1,3,5,-1,7,9,11,13,15,17,-1,19,-1,-1,-1,-1,-1,-1,-1,-1,-1],"loss_changes":[1.7871681E1,6.0201836E-1,2.2684479E0,0E0,1.4582589E-2,1.761032E-1,3.9645004E-1,9.2227757E-4,2.8319731E-3,1.7084923E-2,0E0,1.5824318E-2,0E0,0E0,0E0,0E0,0E0,0E0,0E0,0E0,0E0],"parents":[2147483647,0,0,1,1,2,2,4,4,5,5,6,6,7,7,8,8,9,9,11,11],"right_children":[2,4,6,-1,8,10,12,14,16,18,-1,20,-1,-1,-1,-1,-1,-1,-1,-1,-1],"split_conditions":[1.6331178E-1,8.814097E-2,2.796667E-1,-2.5598267E-3,1.4043878E-1,2.2643274E-1,4.05275E-1,-1.2225022E0,1.4172798E-2,1.9552167E-1,1.3041118E-3,3.154027E-1,4.6327836E-3,-4.0802645E-4,-1.0480816E-3,-4.8400956E-4,-5.9441503E-5,1.3662857E-4,5.402598E-4,2.237849E-3,2.9096277E-3],"split_indices":[15,15,15,0,15,15,15,153,168,15,0,15,0,0,0,0,0,0,0,0,0],"split_type":[0,0,0,0,0,0,0,0,0,0,0,0,0,0,0,0,0,0,0,0,0],"sum_hessian":[1.444E3,6.88E2,7.56E2,5.92E2,9.6E1,2.98E2,4.58E2,6.2E1,3.4E1,1.74E2,1.24E2,4E2,5.8E1,1E1,5.2E1,2.4E1,1E1,1.01E2,7.3E1,1.41E2,2.59E2],"tree_param":{"num_deleted":"0","num_feature":"177","num_nodes":"21","size_leaf_vector":"1"}},{"base_weights":[1.1212874E-4,-1.13800965E-1,1.03845656E-1,-1.2501925E-1,-3.660481E-2,3.639511E-2,1.4686571E-1,-2.5843626E-3,-1.9291018E-3,-4.039298E-2,-5.873829E-5,1.5519031E-2,1.2790406E-3,1.3059166E-1,4.3323147E-3,-3.243133E-4,-9.5097785E-4,1.340249E-4,5.3014734E-4,1.849991E-3,2.6996788E-3],"categories":[],"categories_nodes":[],"categories_segments":[],"categories_sizes":[],"default_left":[0,0,0,0,0,0,0,0,0,0,0,0,0,0,0,0,0,0,0,0,0],"id":6,"left_children":[1,3,5,7,9,11,13,-1,-1,15,-1,17,-1,19,-1,-1,-1,-1,-1,-1,-1],"loss_changes":[1.718135E1,5.772629E-1,2.181487E0,1.000309E-2,1.1523128E-2,1.6934758E-1,3.8411808E-1,0E0,0E0,1.0850728E-2,0E0,1.645565E-2,0E0,2.4871826E-3,0E0,0E0,0E0,0E0,0E0,0E0,0E0],"parents":[2147483647,0,0,1,1,2,2,3,3,4,4,5,5,6,6,9,9,11,11,13,13],"right_children":[2,4,6,8,10,12,14,-1,-1,16,-1,18,-1,20,-1,-1,-1,-1,-1,-1,-1],"split_conditions":[1.6331178E-1,9.584238E-2,2.796667E-1,1.231006E-1,2.970845E-2,2.2643274E-1,3.571433E-1,-2.5843626E-3,-1.9291018E-3,7.889222E-3,-5.873829E-5,1.9552167E-1,1.2790406E-3,3.0337587E-1,4.3323147E-3,-3.243133E-4,-9.5097785E-4,1.340249E-4,5.3014734E-4,1.849991E-3,2.6996788E-3],"split_indices":[15,15,15,45,27,15,15,0,0,129,0,15,0,15,0,0,0,0,0,0,0],"split_type":[0,0,0,0,0,0,0,0,0,0,0,0,0,0,0,0,0,0,0,0,0],"sum_hessian":[1.444E3,6.88E2,7.56E2,5.98E2,9E1,2.98E2,4.58E2,5.06E2,9.2E1,8E1,1E1,1.74E2,1.24E2,3.83E2,7.5E1,2.2E1,5.8E1,1.01E2,7.3E1,5.1E1,3.32E2],"tree_param":{"num_deleted":"0","num_feature":"177","num_nodes":"21","size_leaf_vector":"1"}},{"base_weights":[1.2706537E-4,-1.1725647E-1,8.812864E-2,-1.2292336E-1,-3.0810336E-2,1.8131278E-2,1.4091596E-1,-2.515405E-3,-1.6831902E-3,-1.5781449E-4,-8.191004E-4,-1.9024155E-3,2.6476007E-2,4.1726143E-3,1.24477446E-1,8.3823584E-4,-1.6884619E-4,8.7891606E-4,2.5686582E-3],"categories":[],"categories_nodes":[],"categories_segments":[],"categories_sizes":[],"default_left":[0,0,0,0,0,0,0,0,0,0,0,0,0,0,0,0,0,0,0],"id":7,"left_children":[1,3,5,7,9,11,13,-1,-1,-1,-1,-1,15,-1,17,-1,-1,-1,-1],"loss_changes":[1.5019746E1,2.862587E-1,3.0577478E0,1.1413574E-2,8.847229E-3,3.5564804E-1,3.9666176E-1,0E0,0E0,0E0,0E0,0E0,1.8610433E-1,0E0,9.696531E-2,0E0,0E0,0E0,0E0],"parents":[2147483647,0,0,1,1,2,2,3,3,4,4,5,5,6,6,12,12,14,14],"right_children":[2,4,6,8,10,12,14,-1,-1,-1,-1,-1,16,-1,18,-1,-1,-1,-1],"split_conditions":[4.150405E-1,2.4264735E-1,4.1173443E1,1.402486E-1,2.06904E3,2.6034245E1,3.5063553E1,-2.515405E-3,-1.6831902E-3,-1.5781449E-4,-8.191004E-4,-1.9024155E-3,5.1123272E1,4.1726143E-3,2.4961257E0,8.3823584E-4,-1.6884619E-4,8.7891606E-4,2.5686582E-3],"split_indices":[14,14,35,45,5,22,88,0,0,0,0,0,36,0,102,0,0,0,0],"split_type":[0,0,0,0,0,0,0,0,0,0,0,0,0,0,0,0,0,0,0],"sum_hessian":[1.444E3,6.18E2,8.26E2,5.78E2,4E1,3.58E2,4.68E2,5.28E2,5E1,1.5E1,2.5E1,2.1E1,3.37E2,8E1,3.88E2,2.33E2,1.04E2,2.1E1,3.67E2],"tree_param":{"num_deleted":"0","num_feature":"177","num_nodes":"19","size_leaf_vector":"1"}},{"base_weights":[1.2870463E-4,-1.0944853E-1,9.9913694E-2,-2.4117962E-3,-3.8175356E-2,3.3048797E-2,1.4005078E-1,-4.926099E-2,-2.1941908E-2,1.4764421E-2,1.1876979E-3,1.2632883E-1,4.3908833E-3,-4.2909588E-4,-1.0594755E-3,-5.0411694E-4,-1.1848193E-4,1.2586647E-4,5.065997E-4,2.0786715E-3,2.7450924E-3],"categories":[],"categories_nodes":[],"categories_segments":[],"categories_sizes":[],"default_left":[0,0,0,0,0,0,0,0,0,0,0,0,0,0,0,0,0,0,0,0,0],"id":8,"left_children":[1,3,5,-1,7,9,11,13,15,17,-1,19,-1,-1,-1,-1,-1,-1,-1,-1,-1],"loss_changes":[1.5898279E1,5.27277E-1,2.0192003E0,0E0,1.2771353E-2,1.3622552E-1,3.7836742E-1,9.8630786E-5,1.8674508E-3,1.5223797E-2,0E0,3.0462742E-2,0E0,0E0,0E0,0E0,0E0,0E0,0E0,0E0,0E0],"parents":[2147483647,0,0,1,1,2,2,4,4,5,5,6,6,7,7,8,8,9,9,11,11],"right_children":[2,4,6,-1,8,10,12,14,16,18,-1,20,-1,-1,-1,-1,-1,-1,-1,-1,-1],"split_conditions":[1.6331178E-1,8.814097E-2,2.7212498E-1,-2.4117962E-3,1.301075E-1,2.2643274E-1,4.05275E-1,2.6041008E1,2.58529E-2,1.9552167E-1,1.1876979E-3,3.154027E-1,4.3908833E-3,-4.2909588E-4,-1.0594755E-3,-5.0411694E-4,-1.1848193E-4,1.2586647E-4,5.065997E-4,2.0786715E-3,2.7450924E-3],"split_indices":[15,15,15,0,15,15,15,13,168,15,0,15,0,0,0,0,0,0,0,0,0],"split_type":[0,0,0,0,0,0,0,0,0,0,0,0,0,0,0,0,0,0,0,0,0],"sum_hessian":[1.444E3,6.88E2,7.56E2,5.92E2,9.6E1,2.87E2,4.69E2,5.1E1,4.5E1,1.74E2,1.13E2,4.11E2,5.8E1,1E1,4.1E1,3.5E1,1E1,1.01E2,7.3E1,1.52E2,2.59E2],"tree_param":{"num_deleted":"0","num_feature":"177","num_nodes":"21","size_leaf_vector":"1"}},{"base_weights":[1.4860182E-4,-1.0729219E-1,9.798793E-2,-1.1779062E-1,-3.5007827E-2,3.241899E-2,1.3734697E-1,-2.4356542E-3,-1.8137689E-3,-3.8916953E-2,-7.089919E-5,1.4486799E-2,1.1649504E-3,1.2386023E-1,4.310035E-3,-9.3433185E-4,-3.7886135E-4,1.2346782E-4,4.971173E-4,2.038422E-3,2.6912305E-3],"categories":[],"categories_nodes":[],"categories_segments":[],"categories_sizes":[],"default_left":[0,0,0,0,0,0,0,0,0,0,0,0,0,0,0,0,0,0,0,0,0],"id":9,"left_children":[1,3,5,7,9,11,13,-1,-1,15,-1,17,-1,19,-1,-1,-1,-1,-1,-1,-1],"loss_changes":[1.5284359E1,5.05281E-1,1.9416728E0,1.0019302E-2,1.0994479E-2,1.310243E-1,3.6616135E-1,0E0,0E0,8.661509E-3,0E0,1.4662981E-2,0E0,2.9093742E-2,0E0,0E0,0E0,0E0,0E0,0E0,0E0],"parents":[2147483647,0,0,1,1,2,2,3,3,4,4,5,5,6,6,9,9,11,11,13,13],"right_children":[2,4,6,8,10,12,14,-1,-1,16,-1,18,-1,20,-1,-1,-1,-1,-1,-1,-1],"split_conditions":[1.6331178E-1,9.584238E-2,2.7212498E-1,1.2329957E-1,1.3286118E2,2.2643274E-1,4.05275E-1,-2.4356542E-3,-1.8137689E-3,1.4043878E-1,-7.089919E-5,1.9552167E-1,1.1649504E-3,3.154027E-1,4.310035E-3,-9.3433185E-4,-3.7886135E-4,1.2346782E-4,4.971173E-4,2.038422E-3,2.6912305E-3],"split_indices":[15,15,15,14,41,15,15,0,0,15,0,15,0,15,0,0,0,0,0,0,0],"split_type":[0,0,0,0,0,0,0,0,0,0,0,0,0,0,0,0,0,0,0,0,0],"sum_hessian":[1.444E3,6.88E2,7.56E2,5.98E2,9E1,2.87E2,4.69E2,5.06E2,9.2E1,7.9E1,1.1E1,1.74E2,1.13E2,4.11E2,5.8E1,5.2E1,2.7E1,1.01E2,7.3E1,1.52E2,2.59E2],"tree_param":{"num_deleted":"0","num_feature":"177","num_nodes":"21","size_leaf_vector":"1"}},{"base_weights":[1.6354625E-4,-1.0518699E-1,9.6099295E-2,-1.1587359E-1,-3.681241E-2,3.3685256E-2,1.3590698E-1,-2.567214E-3,-2.1271808E-3,-4.0467557E-2,-4.7341407E-5,1.4214396E-2,1.1879466E-3,1.2246494E-1,4.2306758E-3,-1.0003042E-3,-4.54493E-4,1.2111488E-4,4.8781227E-4,2.0234366E-3,2.6384254E-3],"categories":[],"categories_nodes":[],"categories_segments":[],"categories_sizes":[],"default_left":[0,0,0,0,0,0,0,0,0,0,0,0,0,0,0,0,0,0,0,0,0],"id":10,"left_children":[1,3,5,7,9,11,13,-1,-1,15,-1,17,-1,19,-1,-1,-1,-1,-1,-1,-1],"loss_changes":[1.4695415E1,4.8504114E-1,1.8678584E0,2.667427E-3,1.2237221E-2,1.4747131E-1,3.4114838E-1,0E0,0E0,9.732798E-3,0E0,1.4122821E-2,0E0,1.48153305E-2,0E0,0E0,0E0,0E0,0E0,0E0,0E0],"parents":[2147483647,0,0,1,1,2,2,3,3,4,4,5,5,6,6,9,9,11,11,13,13],"right_children":[2,4,6,8,10,12,14,-1,-1,16,-1,18,-1,20,-1,-1,-1,-1,-1,-1,-1],"split_conditions":[1.6331178E-1,8.814097E-2,2.796667E-1,3.034927E-2,2.970845E-2,2.2643274E-1,4.05275E-1,-2.567214E-3,-2.1271808E-3,1.301075E-1,-4.7341407E-5,1.9552167E-1,1.1879466E-3,3.154027E-1,4.2306758E-3,-1.0003042E-3,-4.54493E-4,1.2111488E-4,4.8781227E-4,2.0234366E-3,2.6384254E-3],"split_indices":[15,15,15,15,27,15,15,0,0,15,0,15,0,15,0,0,0,0,0,0,0],"split_type":[0,0,0,0,0,0,0,0,0,0,0,0,0,0,0,0,0,0,0,0,0],"sum_hessian":[1.444E3,6.88E2,7.56E2,5.92E2,9.6E1,2.98E2,4.58E2,2.29E2,3.63E2,8.6E1,1E1,1.74E2,1.24E2,4E2,5.8E1,5E1,3.6E1,1.01E2,7.3E1,1.41E2,2.59E2],"tree_param":{"num_deleted":"0","num_feature":"177","num_nodes":"21","size_leaf_vector":"1"}},{"base_weights":[1.7577811E-4,-1.0312796E-1,9.4247535E-2,-1.132046E-1,-3.3740003E-2,3.7435427E-2,1.3639368E-1,-2.3415626E-3,-1.739267E-3,-3.755356E-2,-6.350163E-5,1.39471125E-2,6.302289E-2,3.9528897E-3,2.4091844E-3,-9.007569E-4,-3.6708865E-4,6.396205E-5,4.239776E-4,9.2310034E-4,1.4663544E-3],"categories":[],"categories_nodes":[],"categories_segments":[],"categories_sizes":[],"default_left":[0,0,0,0,0,0,0,0,0,0,0,0,0,0,0,0,0,0,0,0,0],"id":11,"left_children":[1,3,5,7,9,11,13,-1,-1,15,-1,17,19,-1,-1,-1,-1,-1,-1,-1,-1],"loss_changes":[1.4129928E1,4.65446E-1,1.796617E0,1.0385513E-2,1.0477118E-2,1.9453815E-1,3.055191E-1,0E0,0E0,7.936895E-3,0E0,1.3613947E-2,1.0343432E-2,0E0,0E0,0E0,0E0,0E0,0E0,0E0,0E0],"parents":[2147483647,0,0,1,1,2,2,3,3,4,4,5,5,6,6,9,9,11,11,12,12],"right_children":[2,4,6,8,10,12,14,-1,-1,16,-1,18,20,-1,-1,-1,-1,-1,-1,-1,-1],"split_conditions":[1.6331178E-1,9.584238E-2,2.92589E-1,1.2329957E-1,1.3286118E2,2.2643274E-1,3.5063553E1,-2.3415626E-3,-1.739267E-3,1.4043878E-1,-6.350163E-5,1.8798451E-1,2.444399E-1,3.9528897E-3,2.4091844E-3,-9.007569E-4,-3.6708865E-4,6.396205E-5,4.239776E-4,9.2310034E-4,1.4663544E-3],"split_indices":[15,15,15,14,41,15,88,0,0,15,0,15,15,0,0,0,0,0,0,0,0],"split_type":[0,0,0,0,0,0,0,0,0,0,0,0,0,0,0,0,0,0,0,0,0],"sum_hessian":[1.444E3,6.88E2,7.56E2,5.98E2,9E1,3.26E2,4.3E2,5.06E2,9.2E1,7.9E1,1.1E1,1.74E2,1.52E2,7.7E1,3.53E2,5.2E1,2.7E1,7.3E1,1.01E2,6.8E1,8.4E1],"tree_param":{"num_deleted":"0","num_feature":"177","num_nodes":"21","size_leaf_vector":"1"}},{"base_weights":[1.8547017E-4,-1.0623671E-1,7.9968974E-2,-1.1090667E-1,-2.2088258E-2,1.6475711E-2,1.2785102E-1,-2.2792676E-3,-1.5021455E-3,-3.1262044E-2,-5.403214E-5,-1.7375821E-3,2.4092222E-2,3.8057305E-3,1.1272056E-1,-2.966006E-4,-7.673768E-4,7.6968624E-4,-1.3553786E-4,2.3225576E-3,7.227899E-4],"categories":[],"categories_nodes":[],"categories_segments":[],"categories_sizes":[],"default_left":[0,0,0,0,0,0,0,0,0,0,0,0,0,0,0,0,0,0,0,0,0],"id":12,"left_children":[1,3,5,7,9,11,13,-1,-1,15,-1,-1,17,-1,19,-1,-1,-1,-1,-1,-1],"loss_changes":[1.2345552E1,2.3257113E-1,2.5158634E0,2.1656036E-2,6.513821E-3,2.962203E-1,3.395872E-1,0E0,0E0,1.9119866E-4,0E0,0E0,1.5324469E-1,0E0,8.156443E-2,0E0,0E0,0E0,0E0,0E0,0E0],"parents":[2147483647,0,0,1,1,2,2,3,3,4,4,5,5,6,6,9,9,12,12,14,14],"right_children":[2,4,6,8,10,12,14,-1,-1,16,-1,-1,18,-1,20,-1,-1,-1,-1,-1,-1],"split_conditions":[4.150405E-1,2.8886163E-1,4.1173443E1,1.402486E-1,3.0325302E1,2.6034245E1,3.5063553E1,-2.2792676E-3,-1.5021455E-3,1.2396407E0,-5.403214E-5,-1.7375821E-3,5.1969776E1,3.8057305E-3,3.9401733E1,-2.966006E-4,-7.673768E-4,7.6968624E-4,-1.3553786E-4,2.3225576E-3,7.227899E-4],"split_indices":[14,14,35,45,76,22,88,0,0,109,0,0,37,0,138,0,0,0,0,0,0],"split_type":[0,0,0,0,0,0,0,0,0,0,0,0,0,0,0,0,0,0,0,0,0],"sum_hessian":[1.444E3,6.18E2,8.26E2,5.84E2,3.4E1,3.58E2,4.68E2,5.28E2,5.6E1,2.1E1,1.3E1,2.1E1,3.37E2,8E1,3.88E2,1.1E1,1E1,2.29E2,1.08E2,3.69E2,1.9E1],"tree_param":{"num_deleted":"0","num_feature":"177","num_nodes":"21","size_leaf_vector":"1"}},{"base_weights":[1.8468789E-4,-9.9185154E-2,9.067401E-2,-1.09188944E-1,-3.5143707E-2,2.9976737E-2,1.2710911E-1,-2.4275025E-3,-1.9991312E-3,-3.8661733E-2,-4.1728872E-5,1.3263042E-2,1.0812072E-3,1.1446747E-1,4.00992E-3,-9.518718E-4,-4.3930247E-4,3.0136289E-5,3.8856885E-4,1.8792495E-3,2.4898755E-3],"categories":[],"categories_nodes":[],"categories_segments":[],"categories_sizes":[],"default_left":[0,0,0,0,0,0,0,0,0,0,0,0,0,0,0,0,0,0,0,0,0],"id":13,"left_children":[1,3,5,7,9,11,13,-1,-1,15,-1,17,-1,19,-1,-1,-1,-1,-1,-1,-1],"loss_changes":[1.3074245E1,4.2478848E-1,1.663908E0,6.505966E-3,1.1342607E-2,1.139527E-1,3.2499313E-1,0E0,0E0,8.34398E-3,0E0,1.2827881E-2,0E0,2.703619E-2,0E0,0E0,0E0,0E0,0E0,0E0,0E0],"parents":[2147483647,0,0,1,1,2,2,3,3,4,4,5,5,6,6,9,9,11,11,13,13],"right_children":[2,4,6,8,10,12,14,-1,-1,16,-1,18,-1,20,-1,-1,-1,-1,-1,-1,-1],"split_conditions":[1.6331178E-1,8.814097E-2,2.7212498E-1,3.034927E-2,2.970845E-2,2.2643274E-1,4.05275E-1,-2.4275025E-3,-1.9991312E-3,1.301075E-1,-4.1728872E-5,1.8553005E-1,1.0812072E-3,3.154027E-1,4.00992E-3,-9.518718E-4,-4.3930247E-4,3.0136289E-5,3.8856885E-4,1.8792495E-3,2.4898755E-3],"split_indices":[15,15,15,15,27,15,15,0,0,15,0,15,0,15,0,0,0,0,0,0,0],"split_type":[0,0,0,0,0,0,0,0,0,0,0,0,0,0,0,0,0,0,0,0,0],"sum_hessian":[1.444E3,6.88E2,7.56E2,5.92E2,9.6E1,2.87E2,4.69E2,2.29E2,3.63E2,8.6E1,1E1,1.74E2,1.13E2,4.11E2,5.8E1,5E1,3.6E1,6.2E1,1.12E2,1.52E2,2.59E2],"tree_param":{"num_deleted":"0","num_feature":"177","num_nodes":"21","size_leaf_vector":"1"}},{"base_weights":[1.9486232E-4,-9.724373E-2,8.892544E-2,-1.0667582E-1,-3.225668E-2,3.5288785E-2,1.2871648E-1,-2.1864267E-3,-1.4955064E-3,-3.5929527E-2,-5.7880618E-5,1.3009482E-2,5.9566177E-2,3.7389148E-3,2.2716268E-3,-8.5899903E-4,-3.5620804E-4,1.0739553E-4,4.511541E-4,8.7188673E-4,1.3864052E-3],"categories":[],"categories_nodes":[],"categories_segments":[],"categories_sizes":[],"default_left":[0,0,0,0,0,0,0,0,0,0,0,0,0,0,0,0,0,0,0,0,0],"id":14,"left_children":[1,3,5,7,9,11,13,-1,-1,15,-1,17,19,-1,-1,-1,-1,-1,-1,-1,-1],"loss_changes":[1.2570976E1,4.0757847E-1,1.6014595E0,1.0016441E-2,9.725317E-3,1.7515776E-1,2.7720165E-1,0E0,0E0,6.860353E-3,0E0,1.2451615E-2,9.349287E-3,0E0,0E0,0E0,0E0,0E0,0E0,0E0,0E0],"parents":[2147483647,0,0,1,1,2,2,3,3,4,4,5,5,6,6,9,9,11,11,12,12],"right_children":[2,4,6,8,10,12,14,-1,-1,16,-1,18,20,-1,-1,-1,-1,-1,-1,-1,-1],"split_conditions":[1.6331178E-1,9.584238E-2,2.92589E-1,5.2044023E-2,1.3286118E2,2.2643274E-1,3.5063553E1,-2.1864267E-3,-1.4955064E-3,1.4043878E-1,-5.7880618E-5,1.9552167E-1,2.444399E-1,3.7389148E-3,2.2716268E-3,-8.5899903E-4,-3.5620804E-4,1.0739553E-4,4.511541E-4,8.7188673E-4,1.3864052E-3],"split_indices":[15,15,15,15,41,15,88,0,0,15,0,15,15,0,0,0,0,0,0,0,0],"split_type":[0,0,0,0,0,0,0,0,0,0,0,0,0,0,0,0,0,0,0,0,0],"sum_hessian":[1.444E3,6.88E2,7.56E2,5.98E2,9E1,3.26E2,4.3E2,5.41E2,5.7E1,7.9E1,1.1E1,1.74E2,1.52E2,7.7E1,3.53E2,5.2E1,2.7E1,1.01E2,7.3E1,6.8E1,8.4E1],"tree_param":{"num_deleted":"0","num_feature":"177","num_nodes":"21","size_leaf_vector":"1"}},{"base_weights":[2.0433153E-4,-9.5334604E-2,8.720493E-2,-1.0493314E-1,-3.3879146E-2,3.4625564E-2,1.2621126E-1,-2.3371957E-3,-1.9184726E-3,-3.7298657E-2,-3.682085E-5,1.2764899E-2,5.844678E-2,3.6686964E-3,2.2268288E-3,-9.178496E-4,-4.244349E-4,2.7591092E-5,3.7478405E-4,1.3441757E-3,8.332269E-4],"categories":[],"categories_nodes":[],"categories_segments":[],"categories_sizes":[],"default_left":[0,0,0,0,0,0,0,0,0,0,0,0,0,0,0,0,0,0,0,0,0],"id":15,"left_children":[1,3,5,7,9,11,13,-1,-1,15,-1,17,19,-1,-1,-1,-1,-1,-1,-1,-1],"loss_changes":[1.2085577E1,3.9101315E-1,1.5389051E0,8.101463E-3,1.07216835E-2,1.686371E-1,2.68023E-1,0E0,0E0,7.7031553E-3,0E0,1.2046235E-2,9.090602E-3,0E0,0E0,0E0,0E0,0E0,0E0,0E0,0E0],"parents":[2147483647,0,0,1,1,2,2,3,3,4,4,5,5,6,6,9,9,11,11,12,12],"right_children":[2,4,6,8,10,12,14,-1,-1,16,-1,18,20,-1,-1,-1,-1,-1,-1,-1,-1],"split_conditions":[1.6331178E-1,8.814097E-2,2.92589E-1,3.034927E-2,2.970845E-2,2.2643274E-1,3.5063553E1,-2.3371957E-3,-1.9184726E-3,1.301075E-1,-3.682085E-5,1.8553005E-1,3.006247E1,3.6686964E-3,2.2268288E-3,-9.178496E-4,-4.244349E-4,2.7591092E-5,3.7478405E-4,1.3441757E-3,8.332269E-4],"split_indices":[15,15,15,15,27,15,88,0,0,15,0,15,24,0,0,0,0,0,0,0,0],"split_type":[0,0,0,0,0,0,0,0,0,0,0,0,0,0,0,0,0,0,0,0,0],"sum_hessian":[1.444E3,6.88E2,7.56E2,5.92E2,9.6E1,3.26E2,4.3E2,2.29E2,3.63E2,8.6E1,1E1,1.74E2,1.52E2,7.7E1,3.53E2,5E1,3.6E1,6.2E1,1.12E2,9E1,6.2E1],"tree_param":{"num_deleted":"0","num_feature":"177","num_nodes":"21","size_leaf_vector":"1"}},{"base_weights":[2.100495E-4,-9.346856E-2,8.551652E-2,-1.03222355E-1,-3.522709E-2,2.8271455E-2,1.1987934E-1,-2.2914505E-3,-1.8891956E-3,-4.50833E-2,-1.9482683E-2,8.6062085E-3,4.6349395E-2,1.0782158E-1,3.799693E-3,-3.688754E-4,-9.804174E-4,-2.5013462E-4,-6.318199E-4,2.7080343E-5,2.7756838E-4,5.524395E-4,1.0327485E-3,1.7942949E-3,2.3678872E-3],"categories":[],"categories_nodes":[],"categories_segments":[],"categories_sizes":[],"default_left":[0,0,0,0,0,0,0,0,0,0,0,0,0,0,0,0,0,0,0,0,0,0,0,0,0],"id":16,"left_children":[1,3,5,7,9,11,13,-1,-1,15,17,19,21,23,-1,-1,-1,-1,-1,-1,-1,-1,-1,-1,-1],"loss_changes":[1.1619493E1,3.7549496E-1,1.4800186E0,4.6663284E-3,1.221256E-2,1.0181363E-1,2.9825592E-1,0E0,0E0,1.9828528E-3,2.2478495E-3,5.488364E-3,7.822067E-3,2.6530266E-2,0E0,0E0,0E0,0E0,0E0,0E0,0E0,0E0,0E0,0E0,0E0],"parents":[2147483647,0,0,1,1,2,2,3,3,4,4,5,5,6,6,9,9,10,10,11,11,12,12,13,13],"right_children":[2,4,6,8,10,12,14,-1,-1,16,18,20,22,24,-1,-1,-1,-1,-1,-1,-1,-1,-1,-1,-1],"split_conditions":[1.6331178E-1,7.695797E-2,2.7212498E-1,3.034927E-2,1.301075E-1,2.1156757E-1,4.05275E-1,-2.2914505E-3,-1.8891956E-3,2.6039125E1,4.3810015E0,1.8553005E-1,2.3178321E-1,3.2172623E-1,3.799693E-3,-3.688754E-4,-9.804174E-4,-2.5013462E-4,-6.318199E-4,2.7080343E-5,2.7756838E-4,5.524395E-4,1.0327485E-3,1.7942949E-3,2.3678872E-3],"split_indices":[15,15,15,15,15,15,15,0,0,122,7,15,15,15,0,0,0,0,0,0,0,0,0,0,0],"split_type":[0,0,0,0,0,0,0,0,0,0,0,0,0,0,0,0,0,0,0,0,0,0,0,0,0],"sum_hessian":[1.444E3,6.88E2,7.56E2,5.86E2,1.02E2,2.87E2,4.69E2,2.29E2,3.57E2,5.7E1,4.5E1,1.41E2,1.46E2,4.11E2,5.8E1,1.1E1,4.6E1,3.5E1,1E1,6.2E1,7.9E1,3.9E1,1.07E2,1.69E2,2.42E2],"tree_param":{"num_deleted":"0","num_feature":"177","num_nodes":"25","size_leaf_vector":"1"}},{"base_weights":[2.1772049E-4,-9.164545E-2,8.3870925E-2,-1.0051298E-1,-3.0536471E-2,3.329035E-2,1.21394634E-1,-2.0813276E-3,-1.5322497E-3,-3.4109507E-2,-4.470758E-5,1.2287116E-2,5.6176506E-2,2.178144E-3,3.7297304E-3,-8.1429933E-4,-3.4027838E-4,9.9909164E-5,4.2817308E-4,1.2936115E-3,7.9852436E-4],"categories":[],"categories_nodes":[],"categories_segments":[],"categories_sizes":[],"default_left":[0,0,0,0,0,0,0,0,0,0,0,0,0,0,0,0,0,0,0,0,0],"id":17,"left_children":[1,3,5,7,9,11,13,-1,-1,15,-1,17,19,-1,-1,-1,-1,-1,-1,-1,-1],"loss_changes":[1.1173487E1,3.6018038E-1,1.4241495E0,1.1347294E-2,9.225242E-3,1.5565494E-1,2.5203323E-1,0E0,0E0,6.0220286E-3,0E0,1.1370763E-2,8.784115E-3,0E0,0E0,0E0,0E0,0E0,0E0,0E0,0E0],"parents":[2147483647,0,0,1,1,2,2,3,3,4,4,5,5,6,6,9,9,11,11,12,12],"right_children":[2,4,6,8,10,12,14,-1,-1,16,-1,18,20,-1,-1,-1,-1,-1,-1,-1,-1],"split_conditions":[1.6331178E-1,9.584238E-2,2.92589E-1,1.2329957E-1,1.3286118E2,2.2643274E-1,4.05275E-1,-2.0813276E-3,-1.5322497E-3,1.4043878E-1,-4.470758E-5,1.9552167E-1,3.006247E1,2.178144E-3,3.7297304E-3,-8.1429933E-4,-3.4027838E-4,9.9909164E-5,4.2817308E-4,1.2936115E-3,7.9852436E-4],"split_indices":[15,15,15,14,41,15,15,0,0,15,0,15,24,0,0,0,0,0,0,0,0],"split_type":[0,0,0,0,0,0,0,0,0,0,0,0,0,0,0,0,0,0,0,0,0],"sum_hessian":[1.444E3,6.88E2,7.56E2,5.98E2,9E1,3.26E2,4.3E2,5.06E2,9.2E1,7.9E1,1.1E1,1.74E2,1.52E2,3.72E2,5.8E1,5.2E1,2.7E1,1.01E2,7.3E1,9E1,6.2E1],"tree_param":{"num_deleted":"0","num_feature":"177","num_nodes":"21","size_leaf_vector":"1"}},{"base_weights":[2.2618815E-4,-8.7161414E-2,8.477423E-2,-9.8532684E-2,-2.483081E-2,3.5171803E-2,1.1903465E-1,-2.2063327E-3,-8.984255E-2,-3.645752E-2,-1.1168791E-2,1.4103883E-2,5.5119604E-2,3.4722157E-3,2.0974292E-3,-7.038654E-4,-1.8172096E-3,-7.923625E-4,-2.7117878E-4,-3.2093076E-4,1.827696E-4,1.7517882E-4,4.9332326E-4,8.0376095E-4,1.2854045E-3],"categories":[],"categories_nodes":[],"categories_segments":[],"categories_sizes":[],"default_left":[0,0,0,0,0,0,0,0,0,0,0,0,0,0,0,0,0,0,0,0,0,0,0,0,0],"id":18,"left_children":[1,3,5,7,9,11,13,-1,15,17,19,21,23,-1,-1,-1,-1,-1,-1,-1,-1,-1,-1,-1,-1],"loss_changes":[1.0742811E1,4.9454308E-1,1.2349229E0,1.219368E-2,1.654885E-2,1.2597293E-1,2.4520874E-1,0E0,4.817009E-3,1.7288849E-3,6.775483E-3,7.783152E-3,8.536905E-3,0E0,0E0,0E0,0E0,0E0,0E0,0E0,0E0,0E0,0E0,0E0,0E0],"parents":[2147483647,0,0,1,1,2,2,3,3,4,4,5,5,6,6,8,8,9,9,10,10,11,11,12,12],"right_children":[2,4,6,8,10,12,14,-1,16,18,20,22,24,-1,-1,-1,-1,-1,-1,-1,-1,-1,-1,-1,-1],"split_conditions":[1.7457679E-1,9.584238E-2,2.92589E-1,3.034927E-2,1.4043878E-1,2.2643274E-1,3.5063553E1,-2.2063327E-3,4.9410584E-5,4.7525126E-3,2.1464968E-2,2.035339E-1,2.444399E-1,3.4722157E-3,2.0974292E-3,-7.038654E-4,-1.8172096E-3,-7.923625E-4,-2.7117878E-4,-3.2093076E-4,1.827696E-4,1.7517882E-4,4.9332326E-4,8.0376095E-4,1.2854045E-3],"split_indices":[15,15,15,15,15,15,88,0,103,121,127,15,15,0,0,0,0,0,0,0,0,0,0,0,0],"split_type":[0,0,0,0,0,0,0,0,0,0,0,0,0,0,0,0,0,0,0,0,0,0,0,0,0],"sum_hessian":[1.444E3,7.1E2,7.34E2,5.98E2,1.12E2,3.04E2,4.3E2,2.29E2,3.69E2,5.6E1,5.6E1,1.52E2,1.52E2,7.7E1,3.53E2,1E1,3.59E2,4.6E1,1E1,4.6E1,1E1,1.07E2,4.5E1,6.8E1,8.4E1],"tree_param":{"num_deleted":"0","num_feature":"177","num_nodes":"25","size_leaf_vector":"1"}},{"base_weights":[2.299399E-4,-8.809657E-2,8.066242E-2,-9.726631E-2,-3.3332083E-2,2.4068076E-2,1.11538455E-1,-2.163149E-3,-1.7776544E-3,-1.1019453E-3,-2.5502255E-2,7.3665865E-3,3.9909992E-2,1.003105E-1,3.5971228E-3,-5.859457E-4,-8.021E-5,-1.05188665E-5,2.2265669E-4,4.951433E-4,8.9070963E-4,1.618104E-3,2.210546E-3],"categories":[],"categories_nodes":[],"categories_segments":[],"categories_sizes":[],"default_left":[0,0,0,0,0,0,0,0,0,0,0,0,0,0,0,0,0,0,0,0,0,0,0],"id":19,"left_children":[1,3,5,7,9,11,13,-1,-1,-1,15,17,19,21,-1,-1,-1,-1,-1,-1,-1,-1,-1],"loss_changes":[1.0329691E1,3.317976E-1,1.3163552E0,5.8956146E-3,1.1209168E-2,7.129051E-2,2.8642368E-1,0E0,0E0,0E0,6.5899566E-3,4.1908068E-3,4.2996258E-3,4.1135788E-2,0E0,0E0,0E0,0E0,0E0,0E0,0E0,0E0,0E0],"parents":[2147483647,0,0,1,1,2,2,3,3,4,4,5,5,6,6,10,10,11,11,12,12,13,13],"right_children":[2,4,6,8,10,12,14,-1,-1,-1,16,18,20,22,-1,-1,-1,-1,-1,-1,-1,-1,-1],"split_conditions":[1.6331178E-1,7.695797E-2,2.6167175E-1,3.034927E-2,2.8886163E-1,2.0847669E-1,4.05275E-1,-2.163149E-3,-1.7776544E-3,-1.1019453E-3,3.146027E-2,1.7792882E-1,2.2643274E-1,3.14243E-1,3.5971228E-3,-5.859457E-4,-8.021E-5,-1.05188665E-5,2.2265669E-4,4.951433E-4,8.9070963E-4,1.618104E-3,2.210546E-3],"split_indices":[15,15,15,15,14,15,15,0,0,0,168,15,15,15,0,0,0,0,0,0,0,0,0],"split_type":[0,0,0,0,0,0,0,0,0,0,0,0,0,0,0,0,0,0,0,0,0,0,0],"sum_hessian":[1.444E3,6.88E2,7.56E2,5.86E2,1.02E2,2.7E2,4.86E2,2.29E2,3.57E2,1.9E1,8.3E1,1.35E2,1.35E2,4.28E2,5.8E1,6.9E1,1.4E1,4.5E1,9E1,3.9E1,9.6E1,1.63E2,2.65E2],"tree_param":{"num_deleted":"0","num_feature":"177","num_nodes":"23","size_leaf_vector":"1"}},{"base_weights":[2.3677906E-4,-8.379153E-2,8.153456E-2,-9.4707936E-2,-2.3949258E-2,3.3816457E-2,1.1449369E-1,-1.9624147E-3,-1.4369448E-3,-3.525936E-2,-1.0676101E-2,1.3594003E-2,5.296195E-2,2.0521192E-3,3.5308907E-3,-7.6666934E-4,-2.610855E-4,-3.0855136E-4,1.8075178E-4,1.6853509E-4,4.7618482E-4,1.2208686E-3,7.510151E-4],"categories":[],"categories_nodes":[],"categories_segments":[],"categories_sizes":[],"default_left":[0,0,0,0,0,0,0,0,0,0,0,0,0,0,0,0,0,0,0,0,0,0,0],"id":20,"left_children":[1,3,5,7,9,11,13,-1,-1,15,17,19,21,-1,-1,-1,-1,-1,-1,-1,-1,-1,-1],"loss_changes":[9.932735E0,4.557414E-1,1.1429014E0,1.1796951E-2,1.568196E-2,1.1603534E-1,2.3030233E-1,0E0,0E0,1.6618371E-3,6.4109475E-3,7.284023E-3,8.092463E-3,0E0,0E0,0E0,0E0,0E0,0E0,0E0,0E0,0E0,0E0],"parents":[2147483647,0,0,1,1,2,2,3,3,4,4,5,5,6,6,9,9,10,10,11,11,12,12],"right_children":[2,4,6,8,10,12,14,-1,-1,16,18,20,22,-1,-1,-1,-1,-1,-1,-1,-1,-1,-1],"split_conditions":[1.7457679E-1,9.584238E-2,2.92589E-1,1.2329957E-1,1.4043878E-1,2.2643274E-1,4.05275E-1,-1.9624147E-3,-1.4369448E-3,4.7525126E-3,2.1464968E-2,2.035339E-1,3.006247E1,2.0521192E-3,3.5308907E-3,-7.6666934E-4,-2.610855E-4,-3.0855136E-4,1.8075178E-4,1.6853509E-4,4.7618482E-4,1.2208686E-3,7.510151E-4],"split_indices":[15,15,15,14,15,15,15,0,0,121,127,15,24,0,0,0,0,0,0,0,0,0,0],"split_type":[0,0,0,0,0,0,0,0,0,0,0,0,0,0,0,0,0,0,0,0,0,0,0],"sum_hessian":[1.444E3,7.1E2,7.34E2,5.98E2,1.12E2,3.04E2,4.3E2,5.06E2,9.2E1,5.6E1,5.6E1,1.52E2,1.52E2,3.72E2,5.8E1,4.6E1,1E1,4.6E1,1E1,1.07E2,4.5E1,9E1,6.2E1],"tree_param":{"num_deleted":"0","num_feature":"177","num_nodes":"23","size_leaf_vector":"1"}},{"base_weights":[2.4462104E-4,-8.468451E-2,7.7583216E-2,-9.374346E-2,-3.3506293E-2,2.5664805E-2,1.0874832E-1,-2.2586759E-3,-8.883133E-2,-1.0993858E-3,-2.452949E-2,7.819402E-3,4.2069472E-2,9.7666316E-2,3.4658774E-3,-7.427844E-4,-1.7926147E-3,-5.711599E-4,-9.754233E-5,2.1696564E-5,2.545117E-4,5.036521E-4,9.365099E-4,1.6314584E-3,2.1642542E-3],"categories":[],"categories_nodes":[],"categories_segments":[],"categories_sizes":[],"default_left":[0,0,0,0,0,0,0,0,0,0,0,0,0,0,0,0,0,0,0,0,0,0,0,0,0],"id":21,"left_children":[1,3,5,7,9,11,13,-1,15,-1,17,19,21,23,-1,-1,-1,-1,-1,-1,-1,-1,-1,-1,-1],"loss_changes":[9.550317E0,3.0558395E-1,1.2173753E0,5.0792694E-3,1.4837101E-2,8.383764E-2,2.544241E-1,0E0,3.6041737E-3,0E0,6.2705316E-3,4.754969E-3,6.2315166E-3,2.6470423E-2,0E0,0E0,0E0,0E0,0E0,0E0,0E0,0E0,0E0,0E0,0E0],"parents":[2147483647,0,0,1,1,2,2,3,3,4,4,5,5,6,6,8,8,10,10,11,11,12,12,13,13],"right_children":[2,4,6,8,10,12,14,-1,16,-1,18,20,22,24,-1,-1,-1,-1,-1,-1,-1,-1,-1,-1,-1],"split_conditions":[1.6331178E-1,7.178528E-2,2.7212498E-1,9.1595035E-3,2.8886163E-1,2.1156757E-1,4.05275E-1,-2.2586759E-3,1.8965077E-1,-1.0993858E-3,3.0325302E1,1.8553005E-1,2.3178321E-1,3.230042E-1,3.4658774E-3,-7.427844E-4,-1.7926147E-3,-5.711599E-4,-9.754233E-5,2.1696564E-5,2.545117E-4,5.036521E-4,9.365099E-4,1.6314584E-3,2.1642542E-3],"split_indices":[15,15,15,15,14,15,15,0,115,0,76,15,15,15,0,0,0,0,0,0,0,0,0,0,0],"split_type":[0,0,0,0,0,0,0,0,0,0,0,0,0,0,0,0,0,0,0,0,0,0,0,0,0],"sum_hessian":[1.444E3,6.88E2,7.56E2,5.81E2,1.07E2,2.87E2,4.69E2,9.6E1,4.85E2,2.4E1,8.3E1,1.41E2,1.46E2,4.11E2,5.8E1,1.1E1,4.74E2,6.7E1,1.6E1,6.2E1,7.9E1,3.9E1,1.07E2,1.8E2,2.31E2],"tree_param":{"num_deleted":"0","num_feature":"177","num_nodes":"25","size_leaf_vector":"1"}},{"base_weights":[2.4806423E-4,-8.303817E-2,7.609054E-2,-9.190949E-2,-3.2915097E-2,3.0209428E-2,1.1012776E-1,-2.0442088E-3,-1.6774072E-3,-1.081189E-3,-2.4076894E-2,1.1215591E-2,5.090274E-2,3.2273578E-3,1.9370619E-3,-5.5534916E-4,-6.734183E-5,8.979353E-5,3.9273978E-4,1.1749432E-3,7.1962684E-4],"categories":[],"categories_nodes":[],"categories_segments":[],"categories_sizes":[],"default_left":[0,0,0,0,0,0,0,0,0,0,0,0,0,0,0,0,0,0,0,0,0],"id":22,"left_children":[1,3,5,7,9,11,13,-1,-1,-1,15,17,19,-1,-1,-1,-1,-1,-1,-1,-1],"loss_changes":[9.184395E0,2.9302168E-1,1.1717935E0,5.6648254E-3,1.4422424E-2,1.2724349E-1,2.1774006E-1,0E0,0E0,0E0,6.2584393E-3,9.698026E-3,7.8077912E-3,0E0,0E0,0E0,0E0,0E0,0E0,0E0,0E0],"parents":[2147483647,0,0,1,1,2,2,3,3,4,4,5,5,6,6,10,10,11,11,12,12],"right_children":[2,4,6,8,10,12,14,-1,-1,-1,16,18,20,-1,-1,-1,-1,-1,-1,-1,-1],"split_conditions":[1.6331178E-1,7.178528E-2,2.92589E-1,3.034927E-2,2.8886163E-1,2.2643274E-1,3.5063553E1,-2.0442088E-3,-1.6774072E-3,-1.081189E-3,3.146027E-2,1.9552167E-1,3.006247E1,3.2273578E-3,1.9370619E-3,-5.5534916E-4,-6.734183E-5,8.979353E-5,3.9273978E-4,1.1749432E-3,7.1962684E-4],"split_indices":[15,15,15,15,14,15,88,0,0,0,168,15,24,0,0,0,0,0,0,0,0],"split_type":[0,0,0,0,0,0,0,0,0,0,0,0,0,0,0,0,0,0,0,0,0],"sum_hessian":[1.444E3,6.88E2,7.56E2,5.81E2,1.07E2,3.26E2,4.3E2,2.29E2,3.52E2,2.4E1,8.3E1,1.74E2,1.52E2,7.7E1,3.53E2,6.9E1,1.4E1,1.01E2,7.3E1,9E1,6.2E1],"tree_param":{"num_deleted":"0","num_feature":"177","num_nodes":"21","size_leaf_vector":"1"}},{"base_weights":[2.5040563E-4,-7.8983575E-2,7.690947E-2,-8.9247964E-2,-2.2707142E-2,3.191847E-2,1.07984565E-1,-2.004198E-3,-8.119626E-2,-3.351874E-2,-1.0034302E-2,1.2875408E-2,4.9945023E-2,3.1667463E-3,1.8988618E-3,-6.1530474E-4,-1.6431826E-3,-7.3012605E-4,-2.4376233E-4,-2.9293486E-4,1.7985521E-4,1.5888446E-4,4.5267434E-4,7.2527054E-4,1.1672204E-3],"categories":[],"categories_nodes":[],"categories_segments":[],"categories_sizes":[],"default_left":[0,0,0,0,0,0,0,0,0,0,0,0,0,0,0,0,0,0,0,0,0,0,0,0,0],"id":23,"left_children":[1,3,5,7,9,11,13,-1,15,17,19,21,23,-1,-1,-1,-1,-1,-1,-1,-1,-1,-1,-1,-1],"loss_changes":[8.831603E0,4.028821E-1,1.0159621E0,1.253891E-2,1.4348917E-2,1.02858424E-1,2.1048784E-1,0E0,5.522728E-3,1.6625971E-3,6.0120057E-3,6.6558085E-3,7.4956417E-3,0E0,0E0,0E0,0E0,0E0,0E0,0E0,0E0,0E0,0E0,0E0,0E0],"parents":[2147483647,0,0,1,1,2,2,3,3,4,4,5,5,6,6,8,8,9,9,10,10,11,11,12,12],"right_children":[2,4,6,8,10,12,14,-1,16,18,20,22,24,-1,-1,-1,-1,-1,-1,-1,-1,-1,-1,-1,-1],"split_conditions":[1.7457679E-1,9.584238E-2,2.92589E-1,3.034927E-2,1.4043878E-1,2.2643274E-1,3.5063553E1,-2.004198E-3,4.9410584E-5,4.7525126E-3,2.1464968E-2,2.035339E-1,2.444399E-1,3.1667463E-3,1.8988618E-3,-6.1530474E-4,-1.6431826E-3,-7.3012605E-4,-2.4376233E-4,-2.9293486E-4,1.7985521E-4,1.5888446E-4,4.5267434E-4,7.2527054E-4,1.1672204E-3],"split_indices":[15,15,15,15,15,15,88,0,103,121,127,15,15,0,0,0,0,0,0,0,0,0,0,0,0],"split_type":[0,0,0,0,0,0,0,0,0,0,0,0,0,0,0,0,0,0,0,0,0,0,0,0,0],"sum_hessian":[1.444E3,7.1E2,7.34E2,5.98E2,1.12E2,3.04E2,4.3E2,2.29E2,3.69E2,5.6E1,5.6E1,1.52E2,1.52E2,7.7E1,3.53E2,1E1,3.59E2,4.6E1,1E1,4.6E1,1E1,1.07E2,4.5E1,6.8E1,8.4E1],"tree_param":{"num_deleted":"0","num_feature":"177","num_nodes":"25","size_leaf_vector":"1"}},{"base_weights":[2.5305976E-4,-7.744131E-2,7.5422496E-2,-8.749835E-2,-2.2299448E-2,3.132062E-2,1.0588311E-1,-1.8148487E-3,-1.3179622E-3,-3.292819E-2,-9.84288E-3,1.2637374E-2,4.900639E-2,9.473082E-2,3.2843286E-3,-7.169551E-4,-2.4051209E-4,-2.876504E-4,1.774571E-4,1.5584852E-4,4.4452638E-4,1.1315887E-3,6.922259E-4,1.6764685E-3,2.1295934E-3],"categories":[],"categories_nodes":[],"categories_segments":[],"categories_sizes":[],"default_left":[0,0,0,0,0,0,0,0,0,0,0,0,0,0,0,0,0,0,0,0,0,0,0,0,0],"id":24,"left_children":[1,3,5,7,9,11,13,-1,-1,15,17,19,21,23,-1,-1,-1,-1,-1,-1,-1,-1,-1,-1,-1],"loss_changes":[8.491715E0,3.867569E-1,9.7616863E-1,1.2355328E-2,1.386999E-2,9.900558E-2,2.0520735E-1,0E0,0E0,1.5671626E-3,5.8207945E-3,6.427912E-3,7.323861E-3,3.6849976E-3,0E0,0E0,0E0,0E0,0E0,0E0,0E0,0E0,0E0,0E0,0E0],"parents":[2147483647,0,0,1,1,2,2,3,3,4,4,5,5,6,6,9,9,10,10,11,11,12,12,13,13],"right_children":[2,4,6,8,10,12,14,-1,-1,16,18,20,22,24,-1,-1,-1,-1,-1,-1,-1,-1,-1,-1,-1],"split_conditions":[1.7457679E-1,9.584238E-2,2.92589E-1,1.2329957E-1,1.4043878E-1,2.2643274E-1,4.05275E-1,-1.8148487E-3,-1.3179622E-3,4.7525126E-3,2.1464968E-2,2.035339E-1,3.006247E1,3.2868034E-1,3.2843286E-3,-7.169551E-4,-2.4051209E-4,-2.876504E-4,1.774571E-4,1.5584852E-4,4.4452638E-4,1.1315887E-3,6.922259E-4,1.6764685E-3,2.1295934E-3],"split_indices":[15,15,15,14,15,15,15,0,0,121,127,15,24,15,0,0,0,0,0,0,0,0,0,0,0],"split_type":[0,0,0,0,0,0,0,0,0,0,0,0,0,0,0,0,0,0,0,0,0,0,0,0,0],"sum_hessian":[1.444E3,7.1E2,7.34E2,5.98E2,1.12E2,3.04E2,4.3E2,5.06E2,9.2E1,5.6E1,5.6E1,1.52E2,1.52E2,3.72E2,5.8E1,4.6E1,1E1,4.6E1,1E1,1.07E2,4.5E1,9E1,6.2E1,2.14E2,1.58E2],"tree_param":{"num_deleted":"0","num_feature":"177","num_nodes":"25","size_leaf_vector":"1"}},{"base_weights":[2.6633468E-4,-7.82666E-2,7.178012E-2,-8.661102E-2,-3.1113354E-2,2.1407826E-2,9.9261746E-2,-2.1042787E-3,-8.189275E-2,-1.0261197E-3,-2.269116E-2,6.5645007E-3,3.5486586E-2,8.688049E-2,2.9782243E-3,-6.617566E-4,-1.6533629E-3,-5.3161755E-4,-7.90467E-5,-1.2954128E-5,2.0029797E-4,4.670235E-4,8.0011855E-4,1.8855222E-3,1.3642278E-3],"categories":[],"categories_nodes":[],"categories_segments":[],"categories_sizes":[],"default_left":[0,0,0,0,0,0,0,0,0,0,0,0,0,0,0,0,0,0,0,0,0,0,0,0,0],"id":25,"left_children":[1,3,5,7,9,11,13,-1,15,-1,17,19,21,23,-1,-1,-1,-1,-1,-1,-1,-1,-1,-1,-1],"loss_changes":[8.165945E0,2.591977E-1,1.0428369E0,8.354664E-3,1.3226457E-2,5.6303546E-2,2.3714161E-1,0E0,4.8663616E-3,0E0,5.888924E-3,3.5163327E-3,3.007248E-3,2.376461E-2,0E0,0E0,0E0,0E0,0E0,0E0,0E0,0E0,0E0,0E0,0E0],"parents":[2147483647,0,0,1,1,2,2,3,3,4,4,5,5,6,6,8,8,10,10,11,11,12,12,13,13],"right_children":[2,4,6,8,10,12,14,-1,16,-1,18,20,22,24,-1,-1,-1,-1,-1,-1,-1,-1,-1,-1,-1],"split_conditions":[1.6331178E-1,7.178528E-2,2.6167175E-1,9.1595035E-3,2.8886163E-1,2.0847669E-1,3.5536414E-1,-2.1042787E-3,1.8965077E-1,-1.0261197E-3,3.0325302E1,1.7792882E-1,2.3178321E-1,9.9533276E2,2.9782243E-3,-6.617566E-4,-1.6533629E-3,-5.3161755E-4,-7.90467E-5,-1.2954128E-5,2.0029797E-4,4.670235E-4,8.0011855E-4,1.8855222E-3,1.3642278E-3],"split_indices":[15,15,15,15,14,15,15,0,115,0,76,15,15,18,0,0,0,0,0,0,0,0,0,0,0],"split_type":[0,0,0,0,0,0,0,0,0,0,0,0,0,0,0,0,0,0,0,0,0,0,0,0,0],"sum_hessian":[1.444E3,6.88E2,7.56E2,5.81E2,1.07E2,2.7E2,4.86E2,9.6E1,4.85E2,2.4E1,8.3E1,1.35E2,1.35E2,4E2,8.6E1,1.1E1,4.74E2,6.7E1,1.6E1,4.5E1,9E1,4.5E1,9E1,2.72E2,1.28E2],"tree_param":{"num_deleted":"0","num_feature":"177","num_nodes":"25","size_leaf_vector":"1"}},{"base_weights":[2.6661996E-4,-7.674496E-2,7.039499E-2,-8.49165E-2,-3.056416E-2,2.1006115E-2,9.7339936E-2,-2.0642765E-3,-8.0278516E-2,-1.0091356E-3,-2.2272037E-2,6.439898E-3,3.4822114E-2,8.7324485E-2,3.1690176E-3,-6.5265753E-4,-1.6206409E-3,-5.167291E-4,-5.0570103E-5,1.6885573E-5,2.1667154E-4,4.586172E-4,7.849584E-4,1.4337122E-3,1.9530001E-3],"categories":[],"categories_nodes":[],"categories_segments":[],"categories_sizes":[],"default_left":[0,0,0,0,0,0,0,0,0,0,0,0,0,0,0,0,0,0,0,0,0,0,0,0,0],"id":26,"left_children":[1,3,5,7,9,11,13,-1,15,-1,17,19,21,23,-1,-1,-1,-1,-1,-1,-1,-1,-1,-1,-1],"loss_changes":[7.852622E0,2.4853945E-1,1.0024998E0,8.300304E-3,1.2855761E-2,5.4221623E-2,2.3133564E-1,0E0,4.370451E-3,0E0,5.866293E-3,3.3962177E-3,2.8680414E-3,3.4919977E-2,0E0,0E0,0E0,0E0,0E0,0E0,0E0,0E0,0E0,0E0,0E0],"parents":[2147483647,0,0,1,1,2,2,3,3,4,4,5,5,6,6,8,8,10,10,11,11,12,12,13,13],"right_children":[2,4,6,8,10,12,14,-1,16,-1,18,20,22,24,-1,-1,-1,-1,-1,-1,-1,-1,-1,-1,-1],"split_conditions":[1.6331178E-1,7.178528E-2,2.6167175E-1,9.1595035E-3,2.8886163E-1,2.0847669E-1,4.05275E-1,-2.0642765E-3,1.8965077E-1,-1.0091356E-3,3.146027E-2,1.8553005E-1,2.3178321E-1,3.2172623E-1,3.1690176E-3,-6.5265753E-4,-1.6206409E-3,-5.167291E-4,-5.0570103E-5,1.6885573E-5,2.1667154E-4,4.586172E-4,7.849584E-4,1.4337122E-3,1.9530001E-3],"split_indices":[15,15,15,15,14,15,15,0,115,0,168,15,15,15,0,0,0,0,0,0,0,0,0,0,0],"split_type":[0,0,0,0,0,0,0,0,0,0,0,0,0,0,0,0,0,0,0,0,0,0,0,0,0],"sum_hessian":[1.444E3,6.88E2,7.56E2,5.81E2,1.07E2,2.7E2,4.86E2,9.6E1,4.85E2,2.4E1,8.3E1,1.35E2,1.35E2,4.28E2,5.8E1,1.1E1,4.74E2,6.9E1,1.4E1,6.2E1,7.3E1,4.5E1,9E1,1.86E2,2.42E2],"tree_param":{"num_deleted":"0","num_feature":"177","num_nodes":"25","size_leaf_vector":"1"}},{"base_weights":[2.6859727E-4,-7.300085E-2,7.11567E-2,-8.2460664E-2,-2.1126725E-2,2.9512385E-2,9.992064E-2,-1.8589556E-3,-7.479679E-2,-3.13073E-2,-9.21445E-3,1.1955834E-2,4.612905E-2,8.9302056E-2,3.110667E-3,-5.534332E-4,-1.5142267E-3,-6.828963E-4,-2.2447962E-4,1.8104771E-4,-2.7367342E-4,1.4720633E-4,4.210842E-4,1.066808E-3,6.4923085E-4,1.5898147E-3,2.0270883E-3],"categories":[],"categories_nodes":[],"categories_segments":[],"categories_sizes":[],"default_left":[0,0,0,0,0,0,0,0,0,0,0,0,0,0,0,0,0,0,0,0,0,0,0,0,0,0,0],"id":27,"left_children":[1,3,5,7,9,11,13,-1,15,17,19,21,23,25,-1,-1,-1,-1,-1,-1,-1,-1,-1,-1,-1,-1,-1],"loss_changes":[7.5519805E0,3.4215426E-1,8.704698E-1,1.3703346E-2,1.274664E-2,8.738744E-2,1.8743277E-1,0E0,5.643368E-3,1.5599839E-3,5.599301E-3,5.789615E-3,6.816536E-3,4.296303E-3,0E0,0E0,0E0,0E0,0E0,0E0,0E0,0E0,0E0,0E0,0E0,0E0,0E0],"parents":[2147483647,0,0,1,1,2,2,3,3,4,4,5,5,6,6,8,8,9,9,10,10,11,11,12,12,13,13],"right_children":[2,4,6,8,10,12,14,-1,16,18,20,22,24,26,-1,-1,-1,-1,-1,-1,-1,-1,-1,-1,-1,-1,-1],"split_conditions":[1.7457679E-1,9.584238E-2,2.92589E-1,3.034927E-2,1.4043878E-1,2.2643274E-1,4.05275E-1,-1.8589556E-3,4.9410584E-5,4.7525126E-3,-5.159765E-1,2.035339E-1,3.006247E1,3.2911727E-1,3.110667E-3,-5.534332E-4,-1.5142267E-3,-6.828963E-4,-2.2447962E-4,1.8104771E-4,-2.7367342E-4,1.4720633E-4,4.210842E-4,1.066808E-3,6.4923085E-4,1.5898147E-3,2.0270883E-3],"split_indices":[15,15,15,15,15,15,15,0,103,121,158,15,24,15,0,0,0,0,0,0,0,0,0,0,0,0,0],"split_type":[0,0,0,0,0,0,0,0,0,0,0,0,0,0,0,0,0,0,0,0,0,0,0,0,0,0,0],"sum_hessian":[1.444E3,7.1E2,7.34E2,5.98E2,1.12E2,3.04E2,4.3E2,2.29E2,3.69E2,5.6E1,5.6E1,1.52E2,1.52E2,3.72E2,5.8E1,1E1,3.59E2,4.6E1,1E1,1E1,4.6E1,1.07E2,4.5E1,9E1,6.2E1,2.26E2,1.46E2],"tree_param":{"num_deleted":"0","num_feature":"177","num_nodes":"27","size_leaf_vector":"1"}},{"base_weights":[2.7732085E-4,-7.378732E-2,6.772201E-2,-8.163064E-2,-2.9455855E-2,2.021747E-2,9.3638785E-2,-1.9896964E-3,-7.7117525E-2,-9.747443E-4,-2.1428142E-2,6.2156497E-3,3.3497237E-2,8.396873E-2,3.0533911E-3,-6.227711E-4,-1.5569673E-3,-4.8622614E-4,1.41406845E-5,1.5933972E-5,2.0943901E-4,4.415671E-4,7.548833E-4,1.3454203E-3,1.8560687E-3],"categories":[],"categories_nodes":[],"categories_segments":[],"categories_sizes":[],"default_left":[0,0,0,0,0,0,0,0,0,0,0,0,0,0,0,0,0,0,0,0,0,0,0,0,0],"id":28,"left_children":[1,3,5,7,9,11,13,-1,15,-1,17,19,21,23,-1,-1,-1,-1,-1,-1,-1,-1,-1,-1,-1],"loss_changes":[7.2631254E0,2.2893763E-1,9.274509E-1,8.858442E-3,1.2114212E-2,5.0092734E-2,2.1618032E-1,0E0,4.3451786E-3,0E0,5.7020485E-3,3.1873411E-3,2.6226789E-3,3.266096E-2,0E0,0E0,0E0,0E0,0E0,0E0,0E0,0E0,0E0,0E0,0E0],"parents":[2147483647,0,0,1,1,2,2,3,3,4,4,5,5,6,6,8,8,10,10,11,11,12,12,13,13],"right_children":[2,4,6,8,10,12,14,-1,16,-1,18,20,22,24,-1,-1,-1,-1,-1,-1,-1,-1,-1,-1,-1],"split_conditions":[1.6331178E-1,7.178528E-2,2.6167175E-1,9.1595035E-3,2.8886163E-1,2.0847669E-1,4.05275E-1,-1.9896964E-3,1.8965077E-1,-9.747443E-4,2.970845E-2,1.8553005E-1,2.3178321E-1,3.14243E-1,3.0533911E-3,-6.227711E-4,-1.5569673E-3,-4.8622614E-4,1.41406845E-5,1.5933972E-5,2.0943901E-4,4.415671E-4,7.548833E-4,1.3454203E-3,1.8560687E-3],"split_indices":[15,15,15,15,14,15,15,0,115,0,27,15,15,15,0,0,0,0,0,0,0,0,0,0,0],"split_type":[0,0,0,0,0,0,0,0,0,0,0,0,0,0,0,0,0,0,0,0,0,0,0,0,0],"sum_hessian":[1.444E3,6.88E2,7.56E2,5.81E2,1.07E2,2.7E2,4.86E2,9.6E1,4.85E2,2.4E1,8.3E1,1.35E2,1.35E2,4.28E2,5.8E1,1.1E1,4.74E2,7.3E1,1E1,6.2E1,7.3E1,4.5E1,9E1,1.63E2,2.65E2],"tree_param":{"num_deleted":"0","num_feature":"177","num_nodes":"25","size_leaf_vector":"1"}},{"base_weights":[2.788845E-4,-7.235209E-2,6.641801E-2,-8.00336E-2,-2.8931329E-2,2.6366206E-2,9.613077E-2,-1.9518724E-3,-7.559741E-2,-9.586106E-4,-2.1026403E-2,9.872346E-3,4.433162E-2,2.8372684E-3,1.6862617E-3,-6.0738396E-4,-1.526381E-3,-4.963791E-4,-6.0341572E-5,3.5901652E-5,3.070063E-4,1.0259665E-3,6.2290253E-4],"categories":[],"categories_nodes":[],"categories_segments":[],"categories_sizes":[],"default_left":[0,0,0,0,0,0,0,0,0,0,0,0,0,0,0,0,0,0,0,0,0,0,0],"id":29,"left_children":[1,3,5,7,9,11,13,-1,15,-1,17,19,21,-1,-1,-1,-1,-1,-1,-1,-1,-1,-1],"loss_changes":[6.984659E0,2.1956372E-1,8.9295506E-1,8.760214E-3,1.1781946E-2,9.589331E-2,1.7529249E-1,0E0,4.404068E-3,0E0,5.6361146E-3,7.782439E-3,6.43456E-3,0E0,0E0,0E0,0E0,0E0,0E0,0E0,0E0,0E0,0E0],"parents":[2147483647,0,0,1,1,2,2,3,3,4,4,5,5,6,6,8,8,10,10,11,11,12,12],"right_children":[2,4,6,8,10,12,14,-1,16,-1,18,20,22,-1,-1,-1,-1,-1,-1,-1,-1,-1,-1],"split_conditions":[1.6331178E-1,7.178528E-2,2.92589E-1,9.1595035E-3,2.8886163E-1,2.2643274E-1,3.5063553E1,-1.9518724E-3,9.518963E-2,-9.586106E-4,3.0325302E1,1.8798451E-1,3.006247E1,2.8372684E-3,1.6862617E-3,-6.0738396E-4,-1.526381E-3,-4.963791E-4,-6.0341572E-5,3.5901652E-5,3.070063E-4,1.0259665E-3,6.2290253E-4],"split_indices":[15,15,15,15,14,15,88,0,151,0,76,15,24,0,0,0,0,0,0,0,0,0,0],"split_type":[0,0,0,0,0,0,0,0,0,0,0,0,0,0,0,0,0,0,0,0,0,0,0],"sum_hessian":[1.444E3,6.88E2,7.56E2,5.81E2,1.07E2,3.26E2,4.3E2,9.6E1,4.85E2,2.4E1,8.3E1,1.74E2,1.52E2,7.7E1,3.53E2,1.1E1,4.74E2,6.7E1,1.6E1,7.3E1,1.01E2,9E1,6.2E1],"tree_param":{"num_deleted":"0","num_feature":"177","num_nodes":"23","size_leaf_vector":"1"}},{"base_weights":[2.7646162E-4,-6.8822466E-2,6.712944E-2,-7.772055E-2,-2.0021962E-2,2.7849479E-2,9.4260156E-2,-1.7555763E-3,-7.038837E-2,-2.9727262E-2,-8.6755175E-3,1.1913146E-2,4.4130106E-2,8.415555E-2,2.9449284E-3,-1.4702018E-3,-1.0316093E-3,-6.5046723E-4,-2.0622865E-4,-2.6196314E-4,1.8506596E-4,1.3837706E-4,4.1676115E-4,1.0278604E-3,6.113479E-4,1.494124E-3,1.9164915E-3],"categories":[],"categories_nodes":[],"categories_segments":[],"categories_sizes":[],"default_left":[0,0,0,0,0,0,0,0,0,0,0,0,0,0,0,0,0,0,0,0,0,0,0,0,0,0,0],"id":30,"left_children":[1,3,5,7,9,11,13,-1,15,17,19,21,23,25,-1,-1,-1,-1,-1,-1,-1,-1,-1,-1,-1,-1,-1],"loss_changes":[6.716711E0,3.0269504E-1,7.7442193E-1,1.3577461E-2,1.159462E-2,7.75425E-2,1.709435E-1,0E0,3.0001402E-3,1.6347952E-3,5.44286E-3,6.5446217E-3,7.01946E-3,5.776167E-3,0E0,0E0,0E0,0E0,0E0,0E0,0E0,0E0,0E0,0E0,0E0,0E0,0E0],"parents":[2147483647,0,0,1,1,2,2,3,3,4,4,5,5,6,6,8,8,9,9,10,10,11,11,12,12,13,13],"right_children":[2,4,6,8,10,12,14,-1,16,18,20,22,24,26,-1,-1,-1,-1,-1,-1,-1,-1,-1,-1,-1,-1,-1],"split_conditions":[1.7457679E-1,9.584238E-2,2.92589E-1,3.034927E-2,1.4043878E-1,2.3178321E-1,4.05275E-1,-1.7555763E-3,1.4043841E-1,-4.056969E1,5.3092933E0,2.035339E-1,3.006247E1,3.2911727E-1,2.9449284E-3,-1.4702018E-3,-1.0316093E-3,-6.5046723E-4,-2.0622865E-4,-2.6196314E-4,1.8506596E-4,1.3837706E-4,4.1676115E-4,1.0278604E-3,6.113479E-4,1.494124E-3,1.9164915E-3],"split_indices":[15,15,15,15,15,15,15,0,14,40,145,15,24,15,0,0,0,0,0,0,0,0,0,0,0,0,0],"split_type":[0,0,0,0,0,0,0,0,0,0,0,0,0,0,0,0,0,0,0,0,0,0,0,0,0,0,0],"sum_hessian":[1.444E3,7.1E2,7.34E2,5.98E2,1.12E2,3.04E2,4.3E2,2.29E2,3.69E2,5.6E1,5.6E1,1.58E2,1.46E2,3.72E2,5.8E1,3.04E2,6.5E1,4.6E1,1E1,4.6E1,1E1,1.07E2,5.1E1,8.6E1,6E1,2.26E2,1.46E2],"tree_param":{"num_deleted":"0","num_feature":"177","num_nodes":"27","size_leaf_vector":"1"}},{"base_weights":[2.825216E-4,-6.956786E-2,6.388949E-2,-7.744352E-2,-3.0306047E-2,1.9076653E-2,8.833772E-2,-1.8813942E-3,-7.312037E-2,-9.6443604E-4,-2.0236997E-2,5.8462936E-3,3.1625703E-2,7.914112E-2,2.8907042E-3,-5.792002E-4,-1.4770096E-3,-4.7413268E-4,-2.7962877E-5,-1.3675063E-5,1.7950922E-4,4.1918815E-4,7.1150064E-4,1.3209147E-3,1.7955875E-3],"categories":[],"categories_nodes":[],"categories_segments":[],"categories_sizes":[],"default_left":[0,0,0,0,0,0,0,0,0,0,0,0,0,0,0,0,0,0,0,0,0,0,0,0,0],"id":31,"left_children":[1,3,5,7,9,11,13,-1,15,-1,17,19,21,23,-1,-1,-1,-1,-1,-1,-1,-1,-1,-1,-1],"loss_changes":[6.460088E0,2.0254922E-1,8.2532144E-1,6.8655014E-3,1.7489627E-2,4.4733353E-2,1.9656849E-1,0E0,4.7183037E-3,0E0,5.5863075E-3,2.8913897E-3,2.1692961E-3,3.0674458E-2,0E0,0E0,0E0,0E0,0E0,0E0,0E0,0E0,0E0,0E0,0E0],"parents":[2147483647,0,0,1,1,2,2,3,3,4,4,5,5,6,6,8,8,10,10,11,11,12,12,13,13],"right_children":[2,4,6,8,10,12,14,-1,16,-1,18,20,22,24,-1,-1,-1,-1,-1,-1,-1,-1,-1,-1,-1],"split_conditions":[1.6331178E-1,6.267199E-2,2.6167175E-1,9.1595035E-3,2.8886163E-1,2.0847669E-1,4.05275E-1,-1.8813942E-3,9.518963E-2,-9.6443604E-4,3.146027E-2,1.7792882E-1,2.3178321E-1,3.2339865E-1,2.8907042E-3,-5.792002E-4,-1.4770096E-3,-4.7413268E-4,-2.7962877E-5,-1.3675063E-5,1.7950922E-4,4.1918815E-4,7.1150064E-4,1.3209147E-3,1.7955875E-3],"split_indices":[15,15,15,15,14,15,15,0,151,0,168,15,15,15,0,0,0,0,0,0,0,0,0,0,0],"split_type":[0,0,0,0,0,0,0,0,0,0,0,0,0,0,0,0,0,0,0,0,0,0,0,0,0],"sum_hessian":[1.444E3,6.88E2,7.56E2,5.69E2,1.19E2,2.7E2,4.86E2,9.6E1,4.73E2,3.6E1,8.3E1,1.35E2,1.35E2,4.28E2,5.8E1,1.1E1,4.62E2,6.9E1,1.4E1,4.5E1,9E1,4.5E1,9E1,2.08E2,2.2E2],"tree_param":{"num_deleted":"0","num_feature":"177","num_nodes":"25","size_leaf_vector":"1"}},{"base_weights":[2.8342617E-4,-6.821549E-2,6.265969E-2,-7.592894E-2,-2.9759055E-2,2.4871932E-2,9.06929E-2,-1.8456292E-3,-7.1679465E-2,-9.474997E-4,-1.9860778E-2,9.338552E-3,4.1789867E-2,8.0937274E-2,2.8374786E-3,-5.410149E-4,-1.4468814E-3,-4.5362022E-4,2.8493841E-5,7.225528E-5,3.304225E-4,9.6753176E-4,5.866366E-4,1.4360006E-3,1.844708E-3],"categories":[],"categories_nodes":[],"categories_segments":[],"categories_sizes":[],"default_left":[0,0,0,0,0,0,0,0,0,0,0,0,0,0,0,0,0,0,0,0,0,0,0,0,0],"id":32,"left_children":[1,3,5,7,9,11,13,-1,15,-1,17,19,21,23,-1,-1,-1,-1,-1,-1,-1,-1,-1,-1,-1],"loss_changes":[6.2125235E0,1.9426799E-1,7.948582E-1,6.8137646E-3,1.6917028E-2,8.5033074E-2,1.5978241E-1,0E0,4.392624E-3,0E0,5.4442063E-3,7.063102E-3,5.788207E-3,5.806446E-3,0E0,0E0,0E0,0E0,0E0,0E0,0E0,0E0,0E0,0E0,0E0],"parents":[2147483647,0,0,1,1,2,2,3,3,4,4,5,5,6,6,8,8,10,10,11,11,12,12,13,13],"right_children":[2,4,6,8,10,12,14,-1,16,-1,18,20,22,24,-1,-1,-1,-1,-1,-1,-1,-1,-1,-1,-1],"split_conditions":[1.6331178E-1,6.267199E-2,2.92589E-1,9.1595035E-3,2.8886163E-1,2.2643274E-1,4.05275E-1,-1.8456292E-3,1.8965077E-1,-9.474997E-4,1.329326E2,1.9552167E-1,3.006247E1,3.2911727E-1,2.8374786E-3,-5.410149E-4,-1.4468814E-3,-4.5362022E-4,2.8493841E-5,7.225528E-5,3.304225E-4,9.6753176E-4,5.866366E-4,1.4360006E-3,1.844708E-3],"split_indices":[15,15,15,15,14,15,15,0,115,0,41,15,24,15,0,0,0,0,0,0,0,0,0,0,0],"split_type":[0,0,0,0,0,0,0,0,0,0,0,0,0,0,0,0,0,0,0,0,0,0,0,0,0],"sum_hessian":[1.444E3,6.88E2,7.56E2,5.69E2,1.19E2,3.26E2,4.3E2,9.6E1,4.73E2,3.6E1,8.3E1,1.74E2,1.52E2,3.72E2,5.8E1,1E1,4.63E2,7.3E1,1E1,1.01E2,7.3E1,9E1,6.2E1,2.26E2,1.46E2],"tree_param":{"num_deleted":"0","num_feature":"177","num_nodes":"25","size_leaf_vector":"1"}},{"base_weights":[2.8765658E-4,-6.2860064E-2,6.537366E-2,-7.3259704E-2,-1.5822314E-2,2.9562255E-2,8.982976E-2,-1.6577827E-3,-6.625546E-2,-2.8272107E-2,-5.8395895E-3,1.3709782E-2,4.3362573E-2,8.006713E-2,2.7852328E-3,-4.6854402E-4,-1.3422051E-3,-2.9787773E-4,-6.686787E-4,-1.7817115E-4,2.2494367E-4,1.6327757E-4,4.1130418E-4,9.915844E-4,5.766996E-4,1.4445209E-3,1.8511657E-3],"categories":[],"categories_nodes":[],"categories_segments":[],"categories_sizes":[],"default_left":[0,0,0,0,0,0,0,0,0,0,0,0,0,0,0,0,0,0,0,0,0,0,0,0,0,0,0],"id":33,"left_children":[1,3,5,7,9,11,13,-1,15,17,19,21,23,25,-1,-1,-1,-1,-1,-1,-1,-1,-1,-1,-1,-1,-1],"loss_changes":[5.975984E0,3.552158E-1,6.138003E-1,1.3211489E-2,1.6574115E-2,6.2220752E-2,1.4838195E-1,0E0,5.830884E-3,1.7226115E-3,4.9058367E-3,4.7113914E-3,7.0310533E-3,2.323866E-3,0E0,0E0,0E0,0E0,0E0,0E0,0E0,0E0,0E0,0E0,0E0,0E0,0E0],"parents":[2147483647,0,0,1,1,2,2,3,3,4,4,5,5,6,6,8,8,9,9,10,10,11,11,12,12,13,13],"right_children":[2,4,6,8,10,12,14,-1,16,18,20,22,24,26,-1,-1,-1,-1,-1,-1,-1,-1,-1,-1,-1,-1,-1],"split_conditions":[1.7792882E-1,9.584238E-2,2.9893348E-1,3.034927E-2,1.4043878E-1,2.3469146E-1,4.05275E-1,-1.6577827E-3,4.9410584E-5,-2.993304E-1,2.437887E-2,2.035339E-1,3.006247E1,3.3342496E-1,2.7852328E-3,-4.6854402E-4,-1.3422051E-3,-2.9787773E-4,-6.686787E-4,-1.7817115E-4,2.2494367E-4,1.6327757E-4,4.1130418E-4,9.915844E-4,5.766996E-4,1.4445209E-3,1.8511657E-3],"split_indices":[15,15,15,15,15,15,15,0,103,154,127,15,24,15,0,0,0,0,0,0,0,0,0,0,0,0,0],"split_type":[0,0,0,0,0,0,0,0,0,0,0,0,0,0,0,0,0,0,0,0,0,0,0,0,0,0,0],"sum_hessian":[1.444E3,7.33E2,7.11E2,5.98E2,1.35E2,2.93E2,4.18E2,2.29E2,3.69E2,5.6E1,7.9E1,1.41E2,1.52E2,3.6E2,5.8E1,1E1,3.59E2,2.1E1,3.5E1,6.9E1,1E1,8.4E1,5.7E1,9.8E1,5.4E1,2.42E2,1.18E2],"tree_param":{"num_deleted":"0","num_feature":"177","num_nodes":"27","size_leaf_vector":"1"}},{"base_weights":[2.95139E-4,-6.3623965E-2,6.2136386E-2,-7.182327E-2,-1.8647026E-2,2.6948154E-2,8.810504E-2,-7.470853E-2,-5.292136E-2,-2.7785894E-2,-7.979713E-3,1.1067482E-2,4.2002194E-2,7.851093E-2,2.7339493E-3,-1.7790296E-3,-1.4068414E-3,-4.513854E-4,-1.1022604E-3,-6.1073346E-4,-1.8342557E-4,1.8820766E-4,-2.4624247E-4,1.2841997E-4,3.8744556E-4,9.7271544E-4,5.651917E-4,1.4249627E-3,1.834727E-3],"categories":[],"categories_nodes":[],"categories_segments":[],"categories_sizes":[],"default_left":[0,0,0,0,0,0,0,0,0,0,0,0,0,0,0,0,0,0,0,0,0,0,0,0,0,0,0,0,0],"id":34,"left_children":[1,3,5,7,9,11,13,15,17,19,21,23,25,27,-1,-1,-1,-1,-1,-1,-1,-1,-1,-1,-1,-1,-1,-1,-1],"loss_changes":[5.7474275E0,2.5698113E-1,6.634202E-1,1.3117313E-2,1.029738E-2,7.441662E-2,1.4354157E-1,4.9471855E-4,2.3326278E-4,1.7231852E-3,5.175111E-3,5.6679137E-3,7.98738E-3,2.3794174E-3,0E0,0E0,0E0,0E0,0E0,0E0,0E0,0E0,0E0,0E0,0E0,0E0,0E0,0E0,0E0],"parents":[2147483647,0,0,1,1,2,2,3,3,4,4,5,5,6,6,7,7,8,8,9,9,10,10,11,11,12,12,13,13],"right_children":[2,4,6,8,10,12,14,16,18,20,22,24,26,28,-1,-1,-1,-1,-1,-1,-1,-1,-1,-1,-1,-1,-1,-1,-1],"split_conditions":[1.7457679E-1,9.584238E-2,2.9893348E-1,1.2329957E-1,1.4043878E-1,2.3178321E-1,4.05275E-1,9.1595035E-3,-2.066265E-2,4.7525126E-3,-5.159765E-1,2.035339E-1,3.006247E1,3.3647737E-1,2.7339493E-3,-1.7790296E-3,-1.4068414E-3,-4.513854E-4,-1.1022604E-3,-6.1073346E-4,-1.8342557E-4,1.8820766E-4,-2.4624247E-4,1.2841997E-4,3.8744556E-4,9.7271544E-4,5.651917E-4,1.4249627E-3,1.834727E-3],"split_indices":[15,15,15,14,15,15,15,15,163,121,158,15,24,15,0,0,0,0,0,0,0,0,0,0,0,0,0,0,0],"split_type":[0,0,0,0,0,0,0,0,0,0,0,0,0,0,0,0,0,0,0,0,0,0,0,0,0,0,0,0,0],"sum_hessian":[1.444E3,7.1E2,7.34E2,5.98E2,1.12E2,3.16E2,4.18E2,5.06E2,9.2E1,5.6E1,5.6E1,1.58E2,1.58E2,3.6E2,5.8E1,9.6E1,4.1E2,1E1,8.2E1,4.6E1,1E1,1E1,4.6E1,1.07E2,5.1E1,9.8E1,6E1,2.53E2,1.07E2],"tree_param":{"num_deleted":"0","num_feature":"177","num_nodes":"29","size_leaf_vector":"1"}},{"base_weights":[2.977101E-4,-6.0441654E-2,6.290129E-2,-7.04261E-2,-1.5278578E-2,2.8470777E-2,8.6413786E-2,-7.975032E-2,-6.3650705E-2,-2.729527E-2,-5.642733E-3,1.2622652E-2,4.1209325E-2,7.698537E-2,2.68361E-3,-1.6213257E-3,-6.703038E-4,-4.485234E-4,-1.2895039E-3,-2.8418627E-4,-6.477846E-4,-3.730141E-4,-2.421316E-5,1.577715E-4,3.8038858E-4,9.5420546E-4,5.547575E-4,1.388293E-3,1.7811774E-3],"categories":[],"categories_nodes":[],"categories_segments":[],"categories_sizes":[],"default_left":[0,0,0,0,0,0,0,0,0,0,0,0,0,0,0,0,0,0,0,0,0,0,0,0,0,0,0,0,0],"id":35,"left_children":[1,3,5,7,9,11,13,15,17,19,21,23,25,27,-1,-1,-1,-1,-1,-1,-1,-1,-1,-1,-1,-1,-1,-1,-1],"loss_changes":[5.528834E0,3.274052E-1,5.673344E-1,1.2713909E-2,1.5440635E-2,5.756001E-2,1.388545E-1,6.5267086E-4,5.482435E-3,1.7650761E-3,4.729896E-3,3.489416E-3,7.658154E-3,2.4530888E-3,0E0,0E0,0E0,0E0,0E0,0E0,0E0,0E0,0E0,0E0,0E0,0E0,0E0,0E0,0E0],"parents":[2147483647,0,0,1,1,2,2,3,3,4,4,5,5,6,6,7,7,8,8,9,9,10,10,11,11,12,12,13,13],"right_children":[2,4,6,8,10,12,14,16,18,20,22,24,26,28,-1,-1,-1,-1,-1,-1,-1,-1,-1,-1,-1,-1,-1,-1,-1],"split_conditions":[1.7792882E-1,9.584238E-2,2.9893348E-1,3.034927E-2,1.4043878E-1,2.3178321E-1,4.05275E-1,4.018031E-3,4.9410584E-5,-2.993304E-1,4.150405E-1,2.035339E-1,3.006247E1,3.3342496E-1,2.68361E-3,-1.6213257E-3,-6.703038E-4,-4.485234E-4,-1.2895039E-3,-2.8418627E-4,-6.477846E-4,-3.730141E-4,-2.421316E-5,1.577715E-4,3.8038858E-4,9.5420546E-4,5.547575E-4,1.388293E-3,1.7811774E-3],"split_indices":[15,15,15,15,15,15,15,156,103,154,14,15,24,15,0,0,0,0,0,0,0,0,0,0,0,0,0,0,0],"split_type":[0,0,0,0,0,0,0,0,0,0,0,0,0,0,0,0,0,0,0,0,0,0,0,0,0,0,0,0,0],"sum_hessian":[1.444E3,7.33E2,7.11E2,5.98E2,1.35E2,2.93E2,4.18E2,2.29E2,3.69E2,5.6E1,7.9E1,1.35E2,1.58E2,3.6E2,5.8E1,2.19E2,1E1,1E1,3.59E2,2.1E1,3.5E1,1.6E1,6.3E1,8.4E1,5.1E1,9.8E1,6E1,2.42E2,1.18E2],"tree_param":{"num_deleted":"0","num_feature":"177","num_nodes":"29","size_leaf_vector":"1"}},{"base_weights":[3.005266E-4,-5.9269127E-2,6.1698433E-2,-6.905099E-2,-1.5020478E-2,2.7935708E-2,8.47547E-2,-7.184648E-2,-5.0764937E-2,-2.6825758E-2,-5.5535203E-3,1.2976372E-2,4.0957265E-2,2.4944597E-3,1.4811533E-3,-1.7143893E-3,-1.3520909E-3,-4.304162E-4,-1.05779E-3,-5.913326E-4,-1.7129739E-4,-2.5604306E-5,-3.7816085E-4,1.547933E-4,3.889419E-4,9.3604764E-4,5.4564234E-4],"categories":[],"categories_nodes":[],"categories_segments":[],"categories_sizes":[],"default_left":[0,0,0,0,0,0,0,0,0,0,0,0,0,0,0,0,0,0,0,0,0,0,0,0,0,0,0],"id":36,"left_children":[1,3,5,7,9,11,13,15,17,19,21,23,25,-1,-1,-1,-1,-1,-1,-1,-1,-1,-1,-1,-1,-1,-1],"loss_changes":[5.317932E0,3.1424618E-1,5.4552627E-1,1.2587786E-2,1.4901523E-2,5.5391163E-2,1.3466692E-1,1.096487E-3,3.3560395E-4,1.7869249E-3,4.6726763E-3,4.1946806E-3,6.165147E-3,0E0,0E0,0E0,0E0,0E0,0E0,0E0,0E0,0E0,0E0,0E0,0E0,0E0,0E0],"parents":[2147483647,0,0,1,1,2,2,3,3,4,4,5,5,6,6,7,7,8,8,9,9,10,10,11,11,12,12],"right_children":[2,4,6,8,10,12,14,16,18,20,22,24,26,-1,-1,-1,-1,-1,-1,-1,-1,-1,-1,-1,-1,-1,-1],"split_conditions":[1.7792882E-1,9.584238E-2,2.9893348E-1,1.2329957E-1,1.4043878E-1,2.3469146E-1,3.5063553E1,9.1595035E-3,-2.066265E-2,-4.056969E1,2.0689204E3,2.035339E-1,3.006247E1,2.4944597E-3,1.4811533E-3,-1.7143893E-3,-1.3520909E-3,-4.304162E-4,-1.05779E-3,-5.913326E-4,-1.7129739E-4,-2.5604306E-5,-3.7816085E-4,1.547933E-4,3.889419E-4,9.3604764E-4,5.4564234E-4],"split_indices":[15,15,15,14,15,15,88,15,163,40,140,15,24,0,0,0,0,0,0,0,0,0,0,0,0,0,0],"split_type":[0,0,0,0,0,0,0,0,0,0,0,0,0,0,0,0,0,0,0,0,0,0,0,0,0,0,0],"sum_hessian":[1.444E3,7.33E2,7.11E2,5.98E2,1.35E2,2.93E2,4.18E2,5.06E2,9.2E1,5.6E1,7.9E1,1.41E2,1.52E2,7.7E1,3.41E2,9.6E1,4.1E2,1E1,8.2E1,4.6E1,1E1,6.4E1,1.5E1,8.4E1,5.7E1,9.8E1,5.4E1],"tree_param":{"num_deleted":"0","num_feature":"177","num_nodes":"27","size_leaf_vector":"1"}},{"base_weights":[2.954844E-4,-6.185818E-2,5.68934E-2,-6.8834476E-2,-2.7070398E-2,1.9946981E-2,8.0457754E-2,-1.681799E-3,-6.489102E-2,-8.6220313E-4,-1.8059237E-2,6.218763E-3,3.25153E-2,7.184913E-2,2.588268E-3,-4.826957E-4,-1.3118521E-3,-4.2791167E-4,-6.252323E-6,1.2270292E-5,2.017815E-4,4.7501145E-4,7.973984E-4,1.2107928E-3,1.6124495E-3],"categories":[],"categories_nodes":[],"categories_segments":[],"categories_sizes":[],"default_left":[0,0,0,0,0,0,0,0,0,0,0,0,0,0,0,0,0,0,0,0,0,0,0,0,0],"id":37,"left_children":[1,3,5,7,9,11,13,-1,15,-1,17,19,21,23,-1,-1,-1,-1,-1,-1,-1,-1,-1,-1,-1],"loss_changes":[5.1148424E0,1.5886736E-1,6.545162E-1,7.248163E-3,1.4029883E-2,5.1268794E-2,1.4863586E-1,0E0,5.752802E-3,0E0,5.1769353E-3,3.244855E-3,5.3857416E-3,1.5780687E-2,0E0,0E0,0E0,0E0,0E0,0E0,0E0,0E0,0E0,0E0,0E0],"parents":[2147483647,0,0,1,1,2,2,3,3,4,4,5,5,6,6,8,8,10,10,11,11,12,12,13,13],"right_children":[2,4,6,8,10,12,14,-1,16,-1,18,20,22,24,-1,-1,-1,-1,-1,-1,-1,-1,-1,-1,-1],"split_conditions":[1.6331178E-1,6.267199E-2,2.796667E-1,9.1595035E-3,2.8886163E-1,2.1332502E-1,4.05275E-1,-1.681799E-3,9.518963E-2,-8.6220313E-4,3.146027E-2,1.8553005E-1,2.3955439E-1,3.2374305E-1,2.588268E-3,-4.826957E-4,-1.3118521E-3,-4.2791167E-4,-6.252323E-6,1.2270292E-5,2.017815E-4,4.7501145E-4,7.973984E-4,1.2107928E-3,1.6124495E-3],"split_indices":[15,15,15,15,14,15,15,0,151,0,168,15,15,15,0,0,0,0,0,0,0,0,0,0,0],"split_type":[0,0,0,0,0,0,0,0,0,0,0,0,0,0,0,0,0,0,0,0,0,0,0,0,0],"sum_hessian":[1.444E3,6.88E2,7.56E2,5.69E2,1.19E2,2.98E2,4.58E2,9.6E1,4.73E2,3.6E1,8.3E1,1.46E2,1.52E2,4E2,5.8E1,1.1E1,4.62E2,6.9E1,1.4E1,6.2E1,8.4E1,7.9E1,7.3E1,1.92E2,2.08E2],"tree_param":{"num_deleted":"0","num_feature":"177","num_nodes":"25","size_leaf_vector":"1"}},{"base_weights":[2.969095E-4,-6.0655452E-2,5.5800855E-2,-6.748807E-2,-2.6581261E-2,1.6658263E-2,7.715566E-2,-1.649828E-3,-6.361197E-2,-8.4343116E-4,-1.8081054E-2,5.134911E-3,2.7586676E-2,6.6792004E-2,2.3161685E-3,-4.484089E-4,-1.2850518E-3,-4.2756315E-4,-6.1600927E-6,-1.5192121E-4,1.3029837E-4,3.6889786E-4,6.189242E-4,1.4550746E-3,1.0426687E-3],"categories":[],"categories_nodes":[],"categories_segments":[],"categories_sizes":[],"default_left":[0,0,0,0,0,0,0,0,0,0,0,0,0,0,0,0,0,0,0,0,0,0,0,0,0],"id":38,"left_children":[1,3,5,7,9,11,13,-1,15,-1,17,19,21,23,-1,-1,-1,-1,-1,-1,-1,-1,-1,-1,-1],"loss_changes":[4.91903E0,1.5237188E-1,6.296799E-1,7.1434975E-3,1.2620047E-2,3.3923008E-2,1.5801144E-1,0E0,5.4106712E-3,0E0,5.1824357E-3,2.7070765E-3,1.4456958E-3,1.5904307E-2,0E0,0E0,0E0,0E0,0E0,0E0,0E0,0E0,0E0,0E0,0E0],"parents":[2147483647,0,0,1,1,2,2,3,3,4,4,5,5,6,6,8,8,10,10,11,11,12,12,13,13],"right_children":[2,4,6,8,10,12,14,-1,16,-1,18,20,22,24,-1,-1,-1,-1,-1,-1,-1,-1,-1,-1,-1],"split_conditions":[1.6331178E-1,6.267199E-2,2.6167175E-1,9.1595035E-3,2.7346197E-1,2.0847669E-1,3.5364035E-1,-1.649828E-3,1.8965077E-1,-8.4343116E-4,2.997537E-2,4.352678E-1,2.3178321E-1,9.9533276E2,2.3161685E-3,-4.484089E-4,-1.2850518E-3,-4.2756315E-4,-6.1600927E-6,-1.5192121E-4,1.3029837E-4,3.6889786E-4,6.189242E-4,1.4550746E-3,1.0426687E-3],"split_indices":[15,15,15,15,45,15,15,0,115,0,169,45,15,18,0,0,0,0,0,0,0,0,0,0,0],"split_type":[0,0,0,0,0,0,0,0,0,0,0,0,0,0,0,0,0,0,0,0,0,0,0,0,0],"sum_hessian":[1.444E3,6.88E2,7.56E2,5.69E2,1.19E2,2.7E2,4.86E2,9.6E1,4.73E2,3.5E1,8.4E1,1.35E2,1.35E2,3.94E2,9.2E1,1E1,4.63E2,7E1,1.4E1,1.1E1,1.24E2,4.5E1,9E1,2.66E2,1.28E2],"tree_param":{"num_deleted":"0","num_feature":"177","num_nodes":"25","size_leaf_vector":"1"}},{"base_weights":[2.9483673E-4,-5.58908E-2,5.820479E-2,-6.509149E-2,-1.42660085E-2,2.634608E-2,7.996099E-2,-7.392E-2,-5.8697563E-2,-2.5544407E-2,-5.226576E-3,1.1718644E-2,3.810136E-2,7.152854E-2,2.5566348E-3,-1.5034629E-3,-6.1132654E-4,-4.0281008E-4,-1.1896034E-3,-2.5978198E-4,-6.102461E-4,-1.6338745E-4,2.2066827E-4,1.4645385E-4,3.5317516E-4,8.829585E-4,5.1178E-4,1.2869427E-3,1.6839871E-3],"categories":[],"categories_nodes":[],"categories_segments":[],"categories_sizes":[],"default_left":[0,0,0,0,0,0,0,0,0,0,0,0,0,0,0,0,0,0,0,0,0,0,0,0,0,0,0,0,0],"id":39,"left_children":[1,3,5,7,9,11,13,15,17,19,21,23,25,27,-1,-1,-1,-1,-1,-1,-1,-1,-1,-1,-1,-1,-1,-1,-1],"loss_changes":[4.7308874E0,2.7799392E-1,4.8574376E-1,1.2344122E-2,1.3605498E-2,4.900849E-2,1.2503314E-1,1.224041E-3,5.2956343E-3,1.8231459E-3,4.470067E-3,3.0091945E-3,6.683573E-3,6.668806E-3,0E0,0E0,0E0,0E0,0E0,0E0,0E0,0E0,0E0,0E0,0E0,0E0,0E0,0E0,0E0],"parents":[2147483647,0,0,1,1,2,2,3,3,4,4,5,5,6,6,7,7,8,8,9,9,10,10,11,11,12,12,13,13],"right_children":[2,4,6,8,10,12,14,16,18,20,22,24,26,28,-1,-1,-1,-1,-1,-1,-1,-1,-1,-1,-1,-1,-1,-1,-1],"split_conditions":[1.7792882E-1,9.584238E-2,2.9893348E-1,3.034927E-2,1.4043878E-1,2.3178321E-1,2.3846698E0,4.018031E-3,4.9410584E-5,-2.993304E-1,2.437887E-2,2.035339E-1,3.006247E1,3.3647737E-1,2.5566348E-3,-1.5034629E-3,-6.1132654E-4,-4.0281008E-4,-1.1896034E-3,-2.5978198E-4,-6.102461E-4,-1.6338745E-4,2.2066827E-4,1.4645385E-4,3.5317516E-4,8.829585E-4,5.1178E-4,1.2869427E-3,1.6839871E-3],"split_indices":[15,15,15,15,15,15,141,156,103,154,127,15,24,15,0,0,0,0,0,0,0,0,0,0,0,0,0,0,0],"split_type":[0,0,0,0,0,0,0,0,0,0,0,0,0,0,0,0,0,0,0,0,0,0,0,0,0,0,0,0,0],"sum_hessian":[1.444E3,7.33E2,7.11E2,5.98E2,1.35E2,2.93E2,4.18E2,2.29E2,3.69E2,5.6E1,7.9E1,1.35E2,1.58E2,3.66E2,5.2E1,2.19E2,1E1,1E1,3.59E2,2.1E1,3.5E1,6.9E1,1E1,8.4E1,5.1E1,9.8E1,6E1,2.53E2,1.13E2],"tree_param":{"num_deleted":"0","num_feature":"177","num_nodes":"29","size_leaf_vector":"1"}},{"base_weights":[2.989543E-4,-5.8324352E-2,5.3681947E-2,-6.488709E-2,-2.5593454E-2,1.8828345E-2,7.591139E-2,-1.5898844E-3,-6.1121907E-2,-8.157113E-4,-1.7061137E-2,5.464906E-3,3.0290818E-2,6.770294E-2,2.4531058E-3,-4.454377E-4,-1.2359709E-3,-4.1740152E-4,-3.5195364E-5,-1.4836031E-4,1.3578733E-4,4.4294688E-4,7.528202E-4,1.1396878E-3,1.5205413E-3],"categories":[],"categories_nodes":[],"categories_segments":[],"categories_sizes":[],"default_left":[0,0,0,0,0,0,0,0,0,0,0,0,0,0,0,0,0,0,0,0,0,0,0,0,0],"id":40,"left_children":[1,3,5,7,9,11,13,-1,15,-1,17,19,21,23,-1,-1,-1,-1,-1,-1,-1,-1,-1,-1,-1],"loss_changes":[4.5502825E0,1.4055586E-1,5.82458E-1,7.2751045E-3,1.2594134E-2,4.5585267E-2,1.361301E-1,0E0,5.6835413E-3,0E0,4.9451813E-3,2.7430053E-3,5.528465E-3,1.4473319E-2,0E0,0E0,0E0,0E0,0E0,0E0,0E0,0E0,0E0,0E0,0E0],"parents":[2147483647,0,0,1,1,2,2,3,3,4,4,5,5,6,6,8,8,10,10,11,11,12,12,13,13],"right_children":[2,4,6,8,10,12,14,-1,16,-1,18,20,22,24,-1,-1,-1,-1,-1,-1,-1,-1,-1,-1,-1],"split_conditions":[1.6331178E-1,6.267199E-2,2.796667E-1,9.1595035E-3,2.8886163E-1,2.1156757E-1,4.05275E-1,-1.5898844E-3,9.518963E-2,-8.157113E-4,3.0317715E1,4.352678E-1,2.3955439E-1,3.2374305E-1,2.4531058E-3,-4.454377E-4,-1.2359709E-3,-4.1740152E-4,-3.5195364E-5,-1.4836031E-4,1.3578733E-4,4.4294688E-4,7.528202E-4,1.1396878E-3,1.5205413E-3],"split_indices":[15,15,15,15,14,15,15,0,151,0,76,45,15,15,0,0,0,0,0,0,0,0,0,0,0],"split_type":[0,0,0,0,0,0,0,0,0,0,0,0,0,0,0,0,0,0,0,0,0,0,0,0,0],"sum_hessian":[1.444E3,6.88E2,7.56E2,5.69E2,1.19E2,2.98E2,4.58E2,9.6E1,4.73E2,3.6E1,8.3E1,1.41E2,1.57E2,4E2,5.8E1,1.1E1,4.62E2,6.5E1,1.8E1,1.1E1,1.3E2,8.4E1,7.3E1,1.92E2,2.08E2],"tree_param":{"num_deleted":"0","num_feature":"177","num_nodes":"25","size_leaf_vector":"1"}},{"base_weights":[2.9903412E-4,-5.3743817E-2,5.6000333E-2,-6.2574945E-2,-1.3787457E-2,2.6277192E-2,7.761307E-2,-6.519951E-2,-4.552315E-2,-2.4681412E-2,-5.055688E-3,1.4841068E-2,4.165934E-2,6.930227E-2,2.4658833E-3,-1.5596609E-3,-1.2260559E-3,-3.7021723E-4,-9.512833E-4,-5.472965E-4,-1.4661333E-4,-1.9230574E-5,-3.5833227E-4,1.4924035E-4,4.2878016E-4,8.815753E-4,4.5557585E-4,1.2455761E-3,1.6213477E-3],"categories":[],"categories_nodes":[],"categories_segments":[],"categories_sizes":[],"default_left":[0,0,0,0,0,0,0,0,0,0,0,0,0,0,0,0,0,0,0,0,0,0,0,0,0,0,0,0,0],"id":41,"left_children":[1,3,5,7,9,11,13,15,17,19,21,23,25,27,-1,-1,-1,-1,-1,-1,-1,-1,-1,-1,-1,-1,-1,-1,-1],"loss_changes":[4.37691E0,2.5609684E-1,4.497602E-1,1.2145996E-2,1.2693383E-2,5.1265553E-2,1.1369133E-1,1.5518665E-3,9.45583E-4,1.8371008E-3,4.3368563E-3,8.207116E-3,8.724034E-4,4.503727E-3,0E0,0E0,0E0,0E0,0E0,0E0,0E0,0E0,0E0,0E0,0E0,0E0,0E0,0E0,0E0],"parents":[2147483647,0,0,1,1,2,2,3,3,4,4,5,5,6,6,7,7,8,8,9,9,10,10,11,11,12,12,13,13],"right_children":[2,4,6,8,10,12,14,16,18,20,22,24,26,28,-1,-1,-1,-1,-1,-1,-1,-1,-1,-1,-1,-1,-1,-1,-1],"split_conditions":[1.7792882E-1,9.584238E-2,3.0337587E-1,1.2329957E-1,1.4043878E-1,2.3955439E-1,2.3846698E0,9.1595035E-3,-2.066265E-2,4.7525126E-3,2.0689204E3,2.0847669E-1,3.006247E1,3.3647737E-1,2.4658833E-3,-1.5596609E-3,-1.2260559E-3,-3.7021723E-4,-9.512833E-4,-5.472965E-4,-1.4661333E-4,-1.9230574E-5,-3.5833227E-4,1.4924035E-4,4.2878016E-4,8.815753E-4,4.5557585E-4,1.2455761E-3,1.6213477E-3],"split_indices":[15,15,15,14,15,15,141,15,163,121,140,15,24,15,0,0,0,0,0,0,0,0,0,0,0,0,0,0,0],"split_type":[0,0,0,0,0,0,0,0,0,0,0,0,0,0,0,0,0,0,0,0,0,0,0,0,0,0,0,0,0],"sum_hessian":[1.444E3,7.33E2,7.11E2,5.98E2,1.35E2,3.04E2,4.07E2,5.06E2,9.2E1,5.6E1,7.9E1,1.8E2,1.24E2,3.55E2,5.2E1,9.6E1,4.1E2,1E1,8.2E1,4.6E1,1E1,6.4E1,1.5E1,9E1,9E1,1.04E2,2E1,2.42E2,1.13E2],"tree_param":{"num_deleted":"0","num_feature":"177","num_nodes":"29","size_leaf_vector":"1"}},{"base_weights":[3.00192E-4,-5.270403E-2,5.4930937E-2,-6.135751E-2,-1.3549974E-2,2.4866585E-2,7.546172E-2,-6.981381E-2,-5.524638E-2,-2.4244666E-2,-4.9770437E-3,1.1055909E-2,3.5965737E-2,6.744142E-2,2.420892E-3,-1.4203219E-3,-5.7176896E-4,-3.7291925E-4,-1.1199152E-3,-2.4120828E-4,-5.8267696E-4,-3.466786E-4,-1.5899735E-5,1.3843681E-4,3.327798E-4,8.329414E-4,4.8392834E-4,1.2122501E-3,1.5902951E-3],"categories":[],"categories_nodes":[],"categories_segments":[],"categories_sizes":[],"default_left":[0,0,0,0,0,0,0,0,0,0,0,0,0,0,0,0,0,0,0,0,0,0,0,0,0,0,0,0,0],"id":42,"left_children":[1,3,5,7,9,11,13,15,17,19,21,23,25,27,-1,-1,-1,-1,-1,-1,-1,-1,-1,-1,-1,-1,-1,-1,-1],"loss_changes":[4.210287E0,2.458911E-1,4.3256497E-1,1.18768215E-2,1.2232544E-2,4.3691292E-2,1.1382675E-1,1.4469624E-3,5.037427E-3,1.8770024E-3,4.2719836E-3,2.655454E-3,5.8605075E-3,6.49035E-3,0E0,0E0,0E0,0E0,0E0,0E0,0E0,0E0,0E0,0E0,0E0,0E0,0E0,0E0,0E0],"parents":[2147483647,0,0,1,1,2,2,3,3,4,4,5,5,6,6,7,7,8,8,9,9,10,10,11,11,12,12,13,13],"right_children":[2,4,6,8,10,12,14,16,18,20,22,24,26,28,-1,-1,-1,-1,-1,-1,-1,-1,-1,-1,-1,-1,-1,-1,-1],"split_conditions":[1.7792882E-1,9.584238E-2,2.9893348E-1,3.034927E-2,1.4043878E-1,2.3178321E-1,2.3846698E0,4.018031E-3,4.9410584E-5,-2.993304E-1,4.150405E-1,2.035339E-1,3.006247E1,3.3647737E-1,2.420892E-3,-1.4203219E-3,-5.7176896E-4,-3.7291925E-4,-1.1199152E-3,-2.4120828E-4,-5.8267696E-4,-3.466786E-4,-1.5899735E-5,1.3843681E-4,3.327798E-4,8.329414E-4,4.8392834E-4,1.2122501E-3,1.5902951E-3],"split_indices":[15,15,15,15,15,15,141,156,103,154,14,15,24,15,0,0,0,0,0,0,0,0,0,0,0,0,0,0,0],"split_type":[0,0,0,0,0,0,0,0,0,0,0,0,0,0,0,0,0,0,0,0,0,0,0,0,0,0,0,0,0],"sum_hessian":[1.444E3,7.33E2,7.11E2,5.98E2,1.35E2,2.93E2,4.18E2,2.29E2,3.69E2,5.6E1,7.9E1,1.35E2,1.58E2,3.66E2,5.2E1,2.19E2,1E1,1E1,3.59E2,2.1E1,3.5E1,1.6E1,6.3E1,8.4E1,5.1E1,9.8E1,6E1,2.53E2,1.13E2],"tree_param":{"num_deleted":"0","num_feature":"177","num_nodes":"29","size_leaf_vector":"1"}},{"base_weights":[3.0226458E-4,-5.16816E-2,5.3881288E-2,-6.015926E-2,-1.33213485E-2,2.528879E-2,7.467176E-2,-6.270295E-2,-4.3658007E-2,-2.3827305E-2,-4.8990855E-3,1.42781325E-2,4.0099084E-2,6.664197E-2,2.3767212E-3,-1.5030118E-3,-1.1783612E-3,-3.523408E-4,-9.12775E-4,-5.303268E-4,-1.3484295E-4,-3.4839188E-4,-1.8298915E-5,1.4354434E-4,4.125513E-4,8.4809214E-4,4.405438E-4,1.1974147E-3,1.5598371E-3],"categories":[],"categories_nodes":[],"categories_segments":[],"categories_sizes":[],"default_left":[0,0,0,0,0,0,0,0,0,0,0,0,0,0,0,0,0,0,0,0,0,0,0,0,0,0,0,0,0],"id":43,"left_children":[1,3,5,7,9,11,13,15,17,19,21,23,25,27,-1,-1,-1,-1,-1,-1,-1,-1,-1,-1,-1,-1,-1,-1,-1],"loss_changes":[4.0497427E0,2.3599446E-1,4.1618562E-1,1.1622667E-2,1.1804091E-2,4.7526255E-2,1.06509924E-1,1.9361973E-3,9.832084E-4,1.9086078E-3,4.1105207E-3,7.600814E-3,7.045567E-4,4.3200254E-3,0E0,0E0,0E0,0E0,0E0,0E0,0E0,0E0,0E0,0E0,0E0,0E0,0E0,0E0,0E0],"parents":[2147483647,0,0,1,1,2,2,3,3,4,4,5,5,6,6,7,7,8,8,9,9,10,10,11,11,12,12,13,13],"right_children":[2,4,6,8,10,12,14,16,18,20,22,24,26,28,-1,-1,-1,-1,-1,-1,-1,-1,-1,-1,-1,-1,-1,-1,-1],"split_conditions":[1.7792882E-1,9.584238E-2,3.0337587E-1,1.231006E-1,1.4043878E-1,2.3955439E-1,2.3846698E0,9.1595035E-3,-2.066265E-2,-4.056969E1,4.1439736E-1,2.0847669E-1,3.006247E1,3.3647737E-1,2.3767212E-3,-1.5030118E-3,-1.1783612E-3,-3.523408E-4,-9.12775E-4,-5.303268E-4,-1.3484295E-4,-3.4839188E-4,-1.8298915E-5,1.4354434E-4,4.125513E-4,8.4809214E-4,4.405438E-4,1.1974147E-3,1.5598371E-3],"split_indices":[15,15,15,45,15,15,141,15,163,40,45,15,24,15,0,0,0,0,0,0,0,0,0,0,0,0,0,0,0],"split_type":[0,0,0,0,0,0,0,0,0,0,0,0,0,0,0,0,0,0,0,0,0,0,0,0,0,0,0,0,0],"sum_hessian":[1.444E3,7.33E2,7.11E2,5.98E2,1.35E2,3.04E2,4.07E2,5.06E2,9.2E1,5.6E1,7.9E1,1.8E2,1.24E2,3.55E2,5.2E1,9.6E1,4.1E2,1E1,8.2E1,4.6E1,1E1,1.5E1,6.4E1,9E1,9E1,1.04E2,2E1,2.42E2,1.13E2],"tree_param":{"num_deleted":"0","num_feature":"177","num_nodes":"29","size_leaf_vector":"1"}},{"base_weights":[3.03121E-4,-5.0681695E-2,5.2852392E-2,-5.8988795E-2,-1.3091772E-2,2.4812866E-2,7.324063E-2,-6.718508E-2,-5.3072017E-2,-2.3405276E-2,-4.8229313E-3,1.4007599E-2,3.9347053E-2,6.4947695E-2,2.2805254E-3,-1.366939E-3,-5.48788E-4,-3.5656296E-4,-1.0759073E-3,-2.2965764E-4,-5.6458346E-4,-1.5370364E-4,2.1810304E-4,1.4082459E-4,4.047345E-4,8.3190843E-4,4.3349518E-4,1.1739508E-3,1.5166409E-3],"categories":[],"categories_nodes":[],"categories_segments":[],"categories_sizes":[],"default_left":[0,0,0,0,0,0,0,0,0,0,0,0,0,0,0,0,0,0,0,0,0,0,0,0,0,0,0,0,0],"id":44,"left_children":[1,3,5,7,9,11,13,15,17,19,21,23,25,27,-1,-1,-1,-1,-1,-1,-1,-1,-1,-1,-1,-1,-1,-1,-1],"loss_changes":[3.895576E0,2.2658896E-1,4.0023375E-1,1.1414528E-2,1.1374889E-2,4.577136E-2,1.02323055E-1,1.4289618E-3,4.7391653E-3,1.8875003E-3,4.2005293E-3,7.3155053E-3,6.1781704E-4,1.8265247E-3,0E0,0E0,0E0,0E0,0E0,0E0,0E0,0E0,0E0,0E0,0E0,0E0,0E0,0E0,0E0],"parents":[2147483647,0,0,1,1,2,2,3,3,4,4,5,5,6,6,7,7,8,8,9,9,10,10,11,11,12,12,13,13],"right_children":[2,4,6,8,10,12,14,16,18,20,22,24,26,28,-1,-1,-1,-1,-1,-1,-1,-1,-1,-1,-1,-1,-1,-1,-1],"split_conditions":[1.7792882E-1,9.584238E-2,3.0337587E-1,3.034927E-2,1.4043878E-1,2.3955439E-1,4.05275E-1,4.018031E-3,4.9410584E-5,-2.993304E-1,2.437887E-2,2.0847669E-1,2.9945225E1,3.3647737E-1,2.2805254E-3,-1.366939E-3,-5.48788E-4,-3.5656296E-4,-1.0759073E-3,-2.2965764E-4,-5.6458346E-4,-1.5370364E-4,2.1810304E-4,1.4082459E-4,4.047345E-4,8.3190843E-4,4.3349518E-4,1.1739508E-3,1.5166409E-3],"split_indices":[15,15,15,15,15,15,15,156,103,154,127,15,25,15,0,0,0,0,0,0,0,0,0,0,0,0,0,0,0],"split_type":[0,0,0,0,0,0,0,0,0,0,0,0,0,0,0,0,0,0,0,0,0,0,0,0,0,0,0,0,0],"sum_hessian":[1.444E3,7.33E2,7.11E2,5.98E2,1.35E2,3.04E2,4.07E2,2.29E2,3.69E2,5.6E1,7.9E1,1.8E2,1.24E2,3.49E2,5.8E1,2.19E2,1E1,1E1,3.59E2,2.1E1,3.5E1,6.9E1,1E1,9E1,9E1,1.04E2,2E1,2.42E2,1.07E2],"tree_param":{"num_deleted":"0","num_feature":"177","num_nodes":"29","size_leaf_vector":"1"}},{"base_weights":[3.063907E-4,-5.289362E-2,4.8750643E-2,-5.8829013E-2,-2.328568E-2,1.4557496E-2,6.740515E-2,-1.4484543E-3,-5.5341337E-2,-7.428866E-4,-1.5505757E-2,4.5435703E-3,2.405151E-2,5.8201198E-2,2.035804E-3,-3.543761E-4,-1.1191186E-3,-3.6781607E-4,3.90524E-5,-1.4250682E-4,1.1629539E-4,3.2024566E-4,5.4033624E-4,1.2699536E-3,9.0442196E-4],"categories":[],"categories_nodes":[],"categories_segments":[],"categories_sizes":[],"default_left":[0,0,0,0,0,0,0,0,0,0,0,0,0,0,0,0,0,0,0,0,0,0,0,0,0],"id":45,"left_children":[1,3,5,7,9,11,13,-1,15,-1,17,19,21,23,-1,-1,-1,-1,-1,-1,-1,-1,-1,-1,-1],"loss_changes":[3.7473056E0,1.149348E-1,4.8050225E-1,7.1736574E-3,1.0489829E-2,2.5598492E-2,1.2576938E-1,0E0,6.09529E-3,0E0,4.611956E-3,2.2838535E-3,1.1744201E-3,1.3073683E-2,0E0,0E0,0E0,0E0,0E0,0E0,0E0,0E0,0E0,0E0,0E0],"parents":[2147483647,0,0,1,1,2,2,3,3,4,4,5,5,6,6,8,8,10,10,11,11,12,12,13,13],"right_children":[2,4,6,8,10,12,14,-1,16,-1,18,20,22,24,-1,-1,-1,-1,-1,-1,-1,-1,-1,-1,-1],"split_conditions":[1.6331178E-1,6.267199E-2,2.6167175E-1,9.1595035E-3,2.8886163E-1,2.0847669E-1,3.5364035E-1,-1.4484543E-3,1.8965077E-1,-7.428866E-4,1.3286118E2,4.352678E-1,2.3178321E-1,9.9533276E2,2.035804E-3,-3.543761E-4,-1.1191186E-3,-3.6781607E-4,3.90524E-5,-1.4250682E-4,1.1629539E-4,3.2024566E-4,5.4033624E-4,1.2699536E-3,9.0442196E-4],"split_indices":[15,15,15,15,14,15,15,0,115,0,41,45,15,18,0,0,0,0,0,0,0,0,0,0,0],"split_type":[0,0,0,0,0,0,0,0,0,0,0,0,0,0,0,0,0,0,0,0,0,0,0,0,0],"sum_hessian":[1.444E3,6.88E2,7.56E2,5.69E2,1.19E2,2.7E2,4.86E2,9.6E1,4.73E2,3.6E1,8.3E1,1.35E2,1.35E2,3.94E2,9.2E1,1E1,4.63E2,7.1E1,1.2E1,1.1E1,1.24E2,4.5E1,9E1,2.66E2,1.28E2],"tree_param":{"num_deleted":"0","num_feature":"177","num_nodes":"25","size_leaf_vector":"1"}},{"base_weights":[3.0389003E-4,-4.8733313E-2,5.08457E-2,-5.6707826E-2,-1.2645465E-2,2.3027373E-2,6.9842465E-2,-5.9148613E-2,-4.092658E-2,-2.2629794E-2,-4.6422356E-3,1.07142525E-2,3.3744436E-2,6.2307872E-2,2.255138E-3,-1.4209194E-3,-1.1108095E-3,-3.2384496E-4,-8.5678033E-4,-5.053122E-4,-1.2249517E-4,-1.392735E-5,-3.418984E-4,1.2837695E-4,3.2032368E-4,7.693451E-4,4.473386E-4,1.1194629E-3,1.4703642E-3],"categories":[],"categories_nodes":[],"categories_segments":[],"categories_sizes":[],"default_left":[0,0,0,0,0,0,0,0,0,0,0,0,0,0,0,0,0,0,0,0,0,0,0,0,0,0,0,0,0],"id":46,"left_children":[1,3,5,7,9,11,13,15,17,19,21,23,25,27,-1,-1,-1,-1,-1,-1,-1,-1,-1,-1,-1,-1,-1,-1,-1],"loss_changes":[3.6036332E0,2.0879841E-1,3.7033463E-1,1.1123061E-2,1.0661699E-2,3.7516475E-2,1.0164571E-1,2.2062063E-3,1.1200756E-3,1.8800274E-3,4.067957E-3,2.810968E-3,4.1342527E-3,5.77116E-3,0E0,0E0,0E0,0E0,0E0,0E0,0E0,0E0,0E0,0E0,0E0,0E0,0E0,0E0,0E0],"parents":[2147483647,0,0,1,1,2,2,3,3,4,4,5,5,6,6,7,7,8,8,9,9,10,10,11,11,12,12,13,13],"right_children":[2,4,6,8,10,12,14,16,18,20,22,24,26,28,-1,-1,-1,-1,-1,-1,-1,-1,-1,-1,-1,-1,-1,-1,-1],"split_conditions":[1.7792882E-1,9.584238E-2,2.9893348E-1,1.2329957E-1,1.4043878E-1,2.3469146E-1,2.3846698E0,9.1595035E-3,-2.066265E-2,-4.056969E1,2.0689204E3,2.035339E-1,3.0066336E1,3.3647737E-1,2.255138E-3,-1.4209194E-3,-1.1108095E-3,-3.2384496E-4,-8.5678033E-4,-5.053122E-4,-1.2249517E-4,-1.392735E-5,-3.418984E-4,1.2837695E-4,3.2032368E-4,7.693451E-4,4.473386E-4,1.1194629E-3,1.4703642E-3],"split_indices":[15,15,15,14,15,15,141,15,163,40,140,15,24,15,0,0,0,0,0,0,0,0,0,0,0,0,0,0,0],"split_type":[0,0,0,0,0,0,0,0,0,0,0,0,0,0,0,0,0,0,0,0,0,0,0,0,0,0,0,0,0],"sum_hessian":[1.444E3,7.33E2,7.11E2,5.98E2,1.35E2,2.93E2,4.18E2,5.06E2,9.2E1,5.6E1,7.9E1,1.41E2,1.52E2,3.66E2,5.2E1,9.6E1,4.1E2,1E1,8.2E1,4.6E1,1E1,6.4E1,1.5E1,8.4E1,5.7E1,9.9E1,5.3E1,2.53E2,1.13E2],"tree_param":{"num_deleted":"0","num_feature":"177","num_nodes":"29","size_leaf_vector":"1"}},{"base_weights":[3.0407286E-4,-5.0863754E-2,4.6897743E-2,-5.655918E-2,-2.2448491E-2,1.4007703E-2,6.484127E-2,-1.3939078E-3,-5.319191E-2,-7.1705354E-4,-1.4927875E-2,4.377207E-3,2.3137925E-2,5.7802025E-2,2.1615198E-3,-3.517337E-4,-1.0768457E-3,-3.6118427E-4,2.3925022E-5,-1.3989174E-4,1.1236005E-4,2.949774E-4,5.129424E-4,9.566873E-4,1.3190717E-3],"categories":[],"categories_nodes":[],"categories_segments":[],"categories_sizes":[],"default_left":[0,0,0,0,0,0,0,0,0,0,0,0,0,0,0,0,0,0,0,0,0,0,0,0,0],"id":47,"left_children":[1,3,5,7,9,11,13,-1,15,-1,17,19,21,23,-1,-1,-1,-1,-1,-1,-1,-1,-1,-1,-1],"loss_changes":[3.4664834E0,1.058048E-1,4.4457304E-1,6.8536997E-3,9.824138E-3,2.367396E-2,1.1819601E-1,0E0,6.334305E-3,0E0,4.5511443E-3,2.171889E-3,1.055643E-3,1.940775E-2,0E0,0E0,0E0,0E0,0E0,0E0,0E0,0E0,0E0,0E0,0E0],"parents":[2147483647,0,0,1,1,2,2,3,3,4,4,5,5,6,6,8,8,10,10,11,11,12,12,13,13],"right_children":[2,4,6,8,10,12,14,-1,16,-1,18,20,22,24,-1,-1,-1,-1,-1,-1,-1,-1,-1,-1,-1],"split_conditions":[1.6331178E-1,6.267199E-2,2.6167175E-1,9.1595035E-3,2.8886163E-1,2.0847669E-1,4.05275E-1,-1.3939078E-3,9.518963E-2,-7.1705354E-4,2.997537E-2,4.352678E-1,2.2643274E-1,3.2339865E-1,2.1615198E-3,-3.517337E-4,-1.0768457E-3,-3.6118427E-4,2.3925022E-5,-1.3989174E-4,1.1236005E-4,2.949774E-4,5.129424E-4,9.566873E-4,1.3190717E-3],"split_indices":[15,15,15,15,14,15,15,0,151,0,169,45,15,15,0,0,0,0,0,0,0,0,0,0,0],"split_type":[0,0,0,0,0,0,0,0,0,0,0,0,0,0,0,0,0,0,0,0,0,0,0,0,0],"sum_hessian":[1.444E3,6.88E2,7.56E2,5.69E2,1.19E2,2.7E2,4.86E2,9.6E1,4.73E2,3.6E1,8.3E1,1.35E2,1.35E2,4.28E2,5.8E1,1.1E1,4.62E2,6.9E1,1.4E1,1.1E1,1.24E2,3.9E1,9.6E1,2.08E2,2.2E2],"tree_param":{"num_deleted":"0","num_feature":"177","num_nodes":"25","size_leaf_vector":"1"}},{"base_weights":[3.0261773E-4,-5.2607846E-2,3.9967727E-2,-5.6541268E-2,-2.7770448E-2,8.029325E-3,6.347005E-2,-4.811094E-4,-1.1399083E-3,-3.508903E-2,-1.2763121E-2,-8.742717E-4,1.190223E-2,2.058554E-3,5.6127228E-2,-3.1051406E-4,-7.5680786E-4,-3.6697157E-4,4.5796034E-5,3.750366E-4,-1.3604303E-4,1.1605525E-3,3.3216405E-4],"categories":[],"categories_nodes":[],"categories_segments":[],"categories_sizes":[],"default_left":[0,0,0,0,0,0,0,0,0,0,0,0,0,0,0,0,0,0,0,0,0,0,0],"id":48,"left_children":[1,3,5,7,9,11,13,-1,-1,15,17,-1,19,-1,21,-1,-1,-1,-1,-1,-1,-1,-1],"loss_changes":[3.0515282E0,5.3013682E-2,6.212226E-1,1.0083914E-3,8.194841E-3,7.434299E-2,1.0960603E-1,0E0,0E0,3.458783E-4,3.4890939E-3,0E0,4.3813366E-2,0E0,2.6273608E-2,0E0,0E0,0E0,0E0,0E0,0E0,0E0,0E0],"parents":[2147483647,0,0,1,1,2,2,3,3,4,4,5,5,6,6,9,9,10,10,12,12,14,14],"right_children":[2,4,6,8,10,12,14,-1,-1,16,18,-1,20,-1,22,-1,-1,-1,-1,-1,-1,-1,-1],"split_conditions":[4.150405E-1,1.402486E-1,4.1141815E1,9.068246E-2,2.8886163E-1,2.6034245E1,2.857491E1,-4.811094E-4,-1.1399083E-3,3.0097454E0,1.3286118E2,-8.742717E-4,5.1225693E1,2.058554E-3,3.9401733E1,-3.1051406E-4,-7.5680786E-4,-3.6697157E-4,4.5796034E-5,3.750366E-4,-1.3604303E-4,1.1605525E-3,3.3216405E-4],"split_indices":[14,45,82,113,14,22,126,0,0,145,41,0,84,0,138,0,0,0,0,0,0,0,0],"split_type":[0,0,0,0,0,0,0,0,0,0,0,0,0,0,0,0,0,0,0,0,0,0,0],"sum_hessian":[1.444E3,6.18E2,8.26E2,5.28E2,9E1,3.53E2,4.73E2,1.1E1,5.17E2,5.6E1,3.4E1,2.1E1,3.32E2,6.4E1,4.09E2,1.1E1,4.5E1,2.4E1,1E1,2.43E2,8.9E1,3.88E2,2.1E1],"tree_param":{"num_deleted":"0","num_feature":"177","num_nodes":"23","size_leaf_vector":"1"}},{"base_weights":[2.962412E-4,-4.5978483E-2,4.7990747E-2,-5.3453196E-2,-1.2141736E-2,2.248544E-2,6.653731E-2,-6.1179258E-2,-4.790463E-2,-2.1641733E-2,-4.520207E-3,1.2656121E-2,3.5710223E-2,5.922322E-2,2.1378996E-3,-1.245741E-3,-4.8486106E-4,-1.0069342E-3,-6.740562E-4,-2.0554318E-4,-5.264697E-4,-1.4606213E-4,2.1430997E-4,1.2661525E-4,3.6630733E-4,3.000797E-4,7.40094E-4,1.06134E-3,1.3920018E-3],"categories":[],"categories_nodes":[],"categories_segments":[],"categories_sizes":[],"default_left":[0,0,0,0,0,0,0,0,0,0,0,0,0,0,0,0,0,0,0,0,0,0,0,0,0,0,0,0,0],"id":49,"left_children":[1,3,5,7,9,11,13,15,17,19,21,23,25,27,-1,-1,-1,-1,-1,-1,-1,-1,-1,-1,-1,-1,-1,-1,-1],"loss_changes":[3.2090483E0,1.8340981E-1,3.3121324E-1,1.1196017E-2,9.6475035E-3,3.7907332E-2,8.9960575E-2,2.024591E-3,4.486978E-3,1.8929187E-3,3.9528348E-3,6.04265E-3,6.81594E-4,4.53043E-3,0E0,0E0,0E0,0E0,0E0,0E0,0E0,0E0,0E0,0E0,0E0,0E0,0E0,0E0,0E0],"parents":[2147483647,0,0,1,1,2,2,3,3,4,4,5,5,6,6,7,7,8,8,9,9,10,10,11,11,12,12,13,13],"right_children":[2,4,6,8,10,12,14,16,18,20,22,24,26,28,-1,-1,-1,-1,-1,-1,-1,-1,-1,-1,-1,-1,-1,-1,-1],"split_conditions":[1.7792882E-1,9.584238E-2,3.0337587E-1,3.034927E-2,1.4043878E-1,2.3955439E-1,2.3846698E0,4.018031E-3,1.4043841E-1,-2.993304E-1,2.437887E-2,2.0847669E-1,9.422093E2,3.3647737E-1,2.1378996E-3,-1.245741E-3,-4.8486106E-4,-1.0069342E-3,-6.740562E-4,-2.0554318E-4,-5.264697E-4,-1.4606213E-4,2.1430997E-4,1.2661525E-4,3.6630733E-4,3.000797E-4,7.40094E-4,1.06134E-3,1.3920018E-3],"split_indices":[15,15,15,15,15,15,141,156,14,154,127,15,95,15,0,0,0,0,0,0,0,0,0,0,0,0,0,0,0],"split_type":[0,0,0,0,0,0,0,0,0,0,0,0,0,0,0,0,0,0,0,0,0,0,0,0,0,0,0,0,0],"sum_hessian":[1.444E3,7.33E2,7.11E2,5.98E2,1.35E2,3.04E2,4.07E2,2.29E2,3.69E2,5.6E1,7.9E1,1.8E2,1.24E2,3.55E2,5.2E1,2.19E2,1E1,3.04E2,6.5E1,2.1E1,3.5E1,6.9E1,1E1,9E1,9E1,1.1E1,1.13E2,2.42E2,1.13E2],"tree_param":{"num_deleted":"0","num_feature":"177","num_nodes":"29","size_leaf_vector":"1"}},{"base_weights":[2.97385E-4,-4.5086525E-2,4.7073696E-2,-5.241242E-2,-1.1922606E-2,2.2060541E-2,6.526228E-2,-5.999265E-2,-4.696901E-2,-2.1268895E-2,-4.4257413E-3,1.2416324E-2,3.5036337E-2,5.807282E-2,2.0988923E-3,-1.2213823E-3,-4.7839622E-4,-2.9987976E-4,-9.528297E-4,-4.7782323E-4,-1.0527116E-4,-1.168299E-5,-3.3145596E-4,1.2421621E-4,3.593669E-4,7.259912E-4,2.954242E-4,1.0405426E-3,1.3653412E-3],"categories":[],"categories_nodes":[],"categories_segments":[],"categories_sizes":[],"default_left":[0,0,0,0,0,0,0,0,0,0,0,0,0,0,0,0,0,0,0,0,0,0,0,0,0,0,0,0,0],"id":50,"left_children":[1,3,5,7,9,11,13,15,17,19,21,23,25,27,-1,-1,-1,-1,-1,-1,-1,-1,-1,-1,-1,-1,-1,-1,-1],"loss_changes":[3.086682E0,1.7617679E-1,3.1854844E-1,1.0792136E-2,9.338848E-3,3.649357E-2,8.706927E-2,1.7827153E-3,4.470229E-3,1.9314215E-3,3.8713736E-3,5.8158413E-3,6.213784E-4,4.428506E-3,0E0,0E0,0E0,0E0,0E0,0E0,0E0,0E0,0E0,0E0,0E0,0E0,0E0,0E0,0E0],"parents":[2147483647,0,0,1,1,2,2,3,3,4,4,5,5,6,6,7,7,8,8,9,9,10,10,11,11,12,12,13,13],"right_children":[2,4,6,8,10,12,14,16,18,20,22,24,26,28,-1,-1,-1,-1,-1,-1,-1,-1,-1,-1,-1,-1,-1,-1,-1],"split_conditions":[1.7792882E-1,9.584238E-2,3.0337587E-1,3.034927E-2,1.4043878E-1,2.3955439E-1,2.3846698E0,4.018031E-3,4.9410584E-5,4.7525126E-3,2.0689204E3,2.0847669E-1,4.6369657E-2,3.3647737E-1,2.0988923E-3,-1.2213823E-3,-4.7839622E-4,-2.9987976E-4,-9.528297E-4,-4.7782323E-4,-1.0527116E-4,-1.168299E-5,-3.3145596E-4,1.2421621E-4,3.593669E-4,7.259912E-4,2.954242E-4,1.0405426E-3,1.3653412E-3],"split_indices":[15,15,15,15,15,15,141,156,103,121,140,15,16,15,0,0,0,0,0,0,0,0,0,0,0,0,0,0,0],"split_type":[0,0,0,0,0,0,0,0,0,0,0,0,0,0,0,0,0,0,0,0,0,0,0,0,0,0,0,0,0],"sum_hessian":[1.444E3,7.33E2,7.11E2,5.98E2,1.35E2,3.04E2,4.07E2,2.29E2,3.69E2,5.6E1,7.9E1,1.8E2,1.24E2,3.55E2,5.2E1,2.19E2,1E1,1E1,3.59E2,4.6E1,1E1,6.4E1,1.5E1,9E1,9E1,1.13E2,1.1E1,2.42E2,1.13E2],"tree_param":{"num_deleted":"0","num_feature":"177","num_nodes":"29","size_leaf_vector":"1"}},{"base_weights":[2.987913E-4,-4.421107E-2,4.617419E-2,-5.1388655E-2,-1.1717234E-2,2.1643683E-2,6.40117E-2,-1.2897976E-3,-4.8077725E-2,-2.0891313E-2,-4.357651E-3,1.2181065E-2,3.4375206E-2,5.694478E-2,2.0605968E-3,-3.137473E-4,-9.7424356E-4,-1.953639E-4,-5.101985E-4,-1.4182403E-4,2.1160829E-4,1.2186265E-4,3.5255775E-4,7.280551E-4,3.732009E-4,1.0201529E-3,1.3391916E-3],"categories":[],"categories_nodes":[],"categories_segments":[],"categories_sizes":[],"default_left":[0,0,0,0,0,0,0,0,0,0,0,0,0,0,0,0,0,0,0,0,0,0,0,0,0,0,0],"id":51,"left_children":[1,3,5,7,9,11,13,-1,15,17,19,21,23,25,-1,-1,-1,-1,-1,-1,-1,-1,-1,-1,-1,-1,-1],"loss_changes":[2.9689312E0,1.6911101E-1,3.0636787E-1,1.0653853E-2,8.9972485E-3,3.513269E-2,8.4269166E-2,0E0,6.4747334E-3,1.8878486E-3,3.8051917E-3,5.597532E-3,7.1397424E-4,4.3280125E-3,0E0,0E0,0E0,0E0,0E0,0E0,0E0,0E0,0E0,0E0,0E0,0E0,0E0],"parents":[2147483647,0,0,1,1,2,2,3,3,4,4,5,5,6,6,8,8,9,9,10,10,11,11,12,12,13,13],"right_children":[2,4,6,8,10,12,14,-1,16,18,20,22,24,26,-1,-1,-1,-1,-1,-1,-1,-1,-1,-1,-1,-1,-1],"split_conditions":[1.7792882E-1,9.584238E-2,3.0337587E-1,1.6462743E-2,1.4043878E-1,2.3955439E-1,2.3846698E0,-1.2897976E-3,1.8965077E-1,-2.993304E-1,2.437887E-2,2.0847669E-1,3.006247E1,3.3647737E-1,2.0605968E-3,-3.137473E-4,-9.7424356E-4,-1.953639E-4,-5.101985E-4,-1.4182403E-4,2.1160829E-4,1.2186265E-4,3.5255775E-4,7.280551E-4,3.732009E-4,1.0201529E-3,1.3391916E-3],"split_indices":[15,15,15,15,15,15,141,0,115,154,127,15,24,15,0,0,0,0,0,0,0,0,0,0,0,0,0],"split_type":[0,0,0,0,0,0,0,0,0,0,0,0,0,0,0,0,0,0,0,0,0,0,0,0,0,0,0],"sum_hessian":[1.444E3,7.33E2,7.11E2,5.98E2,1.35E2,3.04E2,4.07E2,1.02E2,4.96E2,5.6E1,7.9E1,1.8E2,1.24E2,3.55E2,5.2E1,1.2E1,4.84E2,2.1E1,3.5E1,6.9E1,1E1,9E1,9E1,1.04E2,2E1,2.42E2,1.13E2],"tree_param":{"num_deleted":"0","num_feature":"177","num_nodes":"27","size_leaf_vector":"1"}},{"base_weights":[3.0241453E-4,-4.334862E-2,4.529257E-2,-5.0382253E-2,-1.1505593E-2,2.1236306E-2,6.2785104E-2,-5.7746608E-2,-4.510105E-2,-2.0531317E-2,-4.2663403E-3,1.1950265E-2,3.3730388E-2,5.5838645E-2,2.023E-3,-1.1757505E-3,-4.5906688E-4,-9.496619E-4,-6.2729075E-4,-1.09623885E-4,-4.6588448E-4,-9.859701E-6,-3.2435657E-4,1.195537E-4,3.4587766E-4,2.6771065E-4,6.975524E-4,9.739504E-4,1.2704238E-3],"categories":[],"categories_nodes":[],"categories_segments":[],"categories_sizes":[],"default_left":[0,0,0,0,0,0,0,0,0,0,0,0,0,0,0,0,0,0,0,0,0,0,0,0,0,0,0,0,0],"id":52,"left_children":[1,3,5,7,9,11,13,15,17,19,21,23,25,27,-1,-1,-1,-1,-1,-1,-1,-1,-1,-1,-1,-1,-1,-1,-1],"loss_changes":[2.8554602E0,1.6239297E-1,2.946297E-1,1.0430098E-2,8.709561E-3,3.3834934E-2,8.155763E-2,1.7279387E-3,4.7912E-3,1.898108E-3,3.7481906E-3,5.3874217E-3,6.76617E-4,4.2836666E-3,0E0,0E0,0E0,0E0,0E0,0E0,0E0,0E0,0E0,0E0,0E0,0E0,0E0,0E0,0E0],"parents":[2147483647,0,0,1,1,2,2,3,3,4,4,5,5,6,6,7,7,8,8,9,9,10,10,11,11,12,12,13,13],"right_children":[2,4,6,8,10,12,14,16,18,20,22,24,26,28,-1,-1,-1,-1,-1,-1,-1,-1,-1,-1,-1,-1,-1,-1,-1],"split_conditions":[1.7792882E-1,9.584238E-2,3.0337587E-1,3.034927E-2,1.4043878E-1,2.3955439E-1,2.3846698E0,4.018031E-3,1.402486E-1,-8.275733E-1,2.0689204E3,2.0847669E-1,-2.7448649E-2,3.2911727E-1,2.023E-3,-1.1757505E-3,-4.5906688E-4,-9.496619E-4,-6.2729075E-4,-1.09623885E-4,-4.6588448E-4,-9.859701E-6,-3.2435657E-4,1.195537E-4,3.4587766E-4,2.6771065E-4,6.975524E-4,9.739504E-4,1.2704238E-3],"split_indices":[15,15,15,15,15,15,141,156,45,153,140,15,165,15,0,0,0,0,0,0,0,0,0,0,0,0,0,0,0],"split_type":[0,0,0,0,0,0,0,0,0,0,0,0,0,0,0,0,0,0,0,0,0,0,0,0,0,0,0,0,0],"sum_hessian":[1.444E3,7.33E2,7.11E2,5.98E2,1.35E2,3.04E2,4.07E2,2.29E2,3.69E2,5.6E1,7.9E1,1.8E2,1.24E2,3.55E2,5.2E1,2.19E2,1E1,3.04E2,6.5E1,1.1E1,4.5E1,6.4E1,1.5E1,9E1,9E1,1E1,1.14E2,2.03E2,1.52E2],"tree_param":{"num_deleted":"0","num_feature":"177","num_nodes":"29","size_leaf_vector":"1"}},{"base_weights":[3.0180922E-4,-4.7731422E-2,3.6310464E-2,-5.128925E-2,-2.5257953E-2,7.58275E-3,5.7867173E-2,-4.2697723E-4,-1.0343137E-3,-2.8834416E-2,-6.728199E-5,-7.9878035E-4,1.1094927E-2,1.8194873E-3,5.009416E-2,-2.6667258E-4,-6.5018726E-4,3.5530602E-4,-7.4407486E-5,1.0371752E-3,3.0155145E-4],"categories":[],"categories_nodes":[],"categories_segments":[],"categories_sizes":[],"default_left":[0,0,0,0,0,0,0,0,0,0,0,0,0,0,0,0,0,0,0,0,0],"id":53,"left_children":[1,3,5,7,9,11,13,-1,-1,15,-1,-1,17,-1,19,-1,-1,-1,-1,-1,-1],"loss_changes":[2.5148735E0,4.3335676E-2,5.1242363E-1,1.2848377E-3,6.953731E-3,6.263515E-2,9.919393E-2,0E0,0E0,2.4468005E-3,0E0,0E0,3.4029324E-2,0E0,2.049768E-2,0E0,0E0,0E0,0E0,0E0,0E0],"parents":[2147483647,0,0,1,1,2,2,3,3,4,4,5,5,6,6,9,9,12,12,14,14],"right_children":[2,4,6,8,10,12,14,-1,-1,16,-1,-1,18,-1,20,-1,-1,-1,-1,-1,-1],"split_conditions":[4.150405E-1,1.402486E-1,4.1154743E1,9.068246E-2,1.3297076E2,2.6034245E1,3.5063553E1,-4.2697723E-4,-1.0343137E-3,2.202878E-1,-6.728199E-5,-7.9878035E-4,5.1112293E1,1.8194873E-3,3.9401733E1,-2.6667258E-4,-6.5018726E-4,3.5530602E-4,-7.4407486E-5,1.0371752E-3,3.0155145E-4],"split_indices":[14,45,132,113,41,22,88,0,0,16,0,0,134,0,138,0,0,0,0,0,0],"split_type":[0,0,0,0,0,0,0,0,0,0,0,0,0,0,0,0,0,0,0,0,0],"sum_hessian":[1.444E3,6.18E2,8.26E2,5.28E2,9E1,3.57E2,4.69E2,1.1E1,5.17E2,7.6E1,1.4E1,2.1E1,3.36E2,7.9E1,3.9E2,1.9E1,5.7E1,2.31E2,1.05E2,3.69E2,2.1E1],"tree_param":{"num_deleted":"0","num_feature":"177","num_nodes":"21","size_leaf_vector":"1"}},{"base_weights":[2.9644332E-4,-4.1707676E-2,4.358912E-2,-4.8435606E-2,-1.1239952E-2,2.0435588E-2,6.0425274E-2,-1.2234967E-3,-4.523146E-2,-1.4430576E-2,6.3230325E-3,1.1465673E-2,3.2507345E-2,5.369298E-2,1.9528914E-3,-2.8456212E-4,-9.16936E-4,-1.35629E-4,-4.756243E-4,-1.9701916E-5,2.3046967E-4,1.0654208E-4,3.26146E-4,2.6736502E-4,6.745009E-4,9.601458E-4,1.266385E-3],"categories":[],"categories_nodes":[],"categories_segments":[],"categories_sizes":[],"default_left":[0,0,0,0,0,0,0,0,0,0,0,0,0,0,0,0,0,0,0,0,0,0,0,0,0,0,0],"id":54,"left_children":[1,3,5,7,9,11,13,-1,15,17,19,21,23,25,-1,-1,-1,-1,-1,-1,-1,-1,-1,-1,-1,-1,-1],"loss_changes":[2.644054E0,1.4855671E-1,2.7293432E-1,1.0778308E-2,8.301387E-3,3.1595737E-2,7.702124E-2,0E0,6.296277E-3,7.776551E-3,1.0068975E-3,5.0639696E-3,7.522255E-4,4.5046806E-3,0E0,0E0,0E0,0E0,0E0,0E0,0E0,0E0,0E0,0E0,0E0,0E0,0E0],"parents":[2147483647,0,0,1,1,2,2,3,3,4,4,5,5,6,6,8,8,9,9,10,10,11,11,12,12,13,13],"right_children":[2,4,6,8,10,12,14,-1,16,18,20,22,24,26,-1,-1,-1,-1,-1,-1,-1,-1,-1,-1,-1,-1,-1],"split_conditions":[1.7792882E-1,